{"learner":{"attributes":{"scikit_learn":"{\"_estimator_type\": \"classifier\"}"},"feature_names":[],"feature_types":[],"gradient_booster":{"model":{"cats":{"enc":[],"feature_segments":[],"sorted_idx":[]},"gbtree_model_param":{"num_parallel_tree":"1","num_trees":"650"},"iteration_indptr":[0,1,2,3,4,5,6,7,8,9,10,11,12,13,14,15,16,17,18,19,20,21,22,23,24,25,26,27,28,29,30,31,32,33,34,35,36,37,38,39,40,41,42,43,44,45,46,47,48,49,50,51,52,53,54,55,56,57,58,59,60,61,62,63,64,65,66,67,68,69,70,71,72,73,74,75,76,77,78,79,80,81,82,83,84,85,86,87,88,89,90,91,92,93,94,95,96,97,98,99,100,101,102,103,104,105,106,107,108,109,110,111,112,113,114,115,116,117,118,119,120,121,122,123,124,125,126,127,128,129,130,131,132,133,134,135,136,137,138,139,140,141,142,143,144,145,146,147,148,149,150,151,152,153,154,155,156,157,158,159,160,161,162,163,164,165,166,167,168,169,170,171,172,173,174,175,176,177,178,179,180,181,182,183,184,185,186,187,188,189,190,191,192,193,194,195,196,197,198,199,200,201,202,203,204,205,206,207,208,209,210,211,212,213,214,215,216,217,218,219,220,221,222,223,224,225,226,227,228,229,230,231,232,233,234,235,236,237,238,239,240,241,242,243,244,245,246,247,248,249,250,251,252,253,254,255,256,257,258,259,260,261,262,263,264,265,266,267,268,269,270,271,272,273,274,275,276,277,278,279,280,281,282,283,284,285,286,287,288,289,290,291,292,293,294,295,296,297,298,299,300,301,302,303,304,305,306,307,308,309,310,311,312,313,314,315,316,317,318,319,320,321,322,323,324,325,326,327,328,329,330,331,332,333,334,335,336,337,338,339,340,341,342,343,344,345,346,347,348,349,350,351,352,353,354,355,356,357,358,359,360,361,362,363,364,365,366,367,368,369,370,371,372,373,374,375,376,377,378,379,380,381,382,383,384,385,386,387,388,389,390,391,392,393,394,395,396,397,398,399,400,401,402,403,404,405,406,407,408,409,410,411,412,413,414,415,416,417,418,419,420,421,422,423,424,425,426,427,428,429,430,431,432,433,434,435,436,437,438,439,440,441,442,443,444,445,446,447,448,449,450,451,452,453,454,455,456,457,458,459,460,461,462,463,464,465,466,467,468,469,470,471,472,473,474,475,476,477,478,479,480,481,482,483,484,485,486,487,488,489,490,491,492,493,494,495,496,497,498,499,500,501,502,503,504,505,506,507,508,509,510,511,512,513,514,515,516,517,518,519,520,521,522,523,524,525,526,527,528,529,530,531,532,533,534,535,536,537,538,539,540,541,542,543,544,545,546,547,548,549,550,551,552,553,554,555,556,557,558,559,560,561,562,563,564,565,566,567,568,569,570,571,572,573,574,575,576,577,578,579,580,581,582,583,584,585,586,587,588,589,590,591,592,593,594,595,596,597,598,599,600,601,602,603,604,605,606,607,608,609,610,611,612,613,614,615,616,617,618,619,620,621,622,623,624,625,626,627,628,629,630,631,632,633,634,635,636,637,638,639,640,641,642,643,644,645,646,647,648,649,650],"tree_info":[0,0,0,0,0,0,0,0,0,0,0,0,0,0,0,0,0,0,0,0,0,0,0,0,0,0,0,0,0,0,0,0,0,0,0,0,0,0,0,0,0,0,0,0,0,0,0,0,0,0,0,0,0,0,0,0,0,0,0,0,0,0,0,0,0,0,0,0,0,0,0,0,0,0,0,0,0,0,0,0,0,0,0,0,0,0,0,0,0,0,0,0,0,0,0,0,0,0,0,0,0,0,0,0,0,0,0,0,0,0,0,0,0,0,0,0,0,0,0,0,0,0,0,0,0,0,0,0,0,0,0,0,0,0,0,0,0,0,0,0,0,0,0,0,0,0,0,0,0,0,0,0,0,0,0,0,0,0,0,0,0,0,0,0,0,0,0,0,0,0,0,0,0,0,0,0,0,0,0,0,0,0,0,0,0,0,0,0,0,0,0,0,0,0,0,0,0,0,0,0,0,0,0,0,0,0,0,0,0,0,0,0,0,0,0,0,0,0,0,0,0,0,0,0,0,0,0,0,0,0,0,0,0,0,0,0,0,0,0,0,0,0,0,0,0,0,0,0,0,0,0,0,0,0,0,0,0,0,0,0,0,0,0,0,0,0,0,0,0,0,0,0,0,0,0,0,0,0,0,0,0,0,0,0,0,0,0,0,0,0,0,0,0,0,0,0,0,0,0,0,0,0,0,0,0,0,0,0,0,0,0,0,0,0,0,0,0,0,0,0,0,0,0,0,0,0,0,0,0,0,0,0,0,0,0,0,0,0,0,0,0,0,0,0,0,0,0,0,0,0,0,0,0,0,0,0,0,0,0,0,0,0,0,0,0,0,0,0,0,0,0,0,0,0,0,0,0,0,0,0,0,0,0,0,0,0,0,0,0,0,0,0,0,0,0,0,0,0,0,0,0,0,0,0,0,0,0,0,0,0,0,0,0,0,0,0,0,0,0,0,0,0,0,0,0,0,0,0,0,0,0,0,0,0,0,0,0,0,0,0,0,0,0,0,0,0,0,0,0,0,0,0,0,0,0,0,0,0,0,0,0,0,0,0,0,0,0,0,0,0,0,0,0,0,0,0,0,0,0,0,0,0,0,0,0,0,0,0,0,0,0,0,0,0,0,0,0,0,0,0,0,0,0,0,0,0,0,0,0,0,0,0,0,0,0,0,0,0,0,0,0,0,0,0,0,0,0,0,0,0,0,0,0,0,0,0,0,0,0,0,0,0,0,0,0,0,0,0,0,0,0,0,0,0,0,0,0,0,0,0,0,0,0,0,0,0,0,0,0,0,0,0,0,0,0,0,0,0,0,0,0,0,0,0,0,0,0,0,0,0,0,0,0,0,0,0,0,0,0,0,0,0,0,0,0,0,0,0,0,0,0,0,0,0,0,0,0,0,0,0,0,0,0,0,0,0,0,0,0,0,0,0,0,0,0,0,0,0,0,0,0,0,0,0,0,0,0,0,0,0],"trees":[{"base_weights":[-4.5009223E-8,1.3735937E0,-4.3989992E-1,-1.7047206E0,1.6644962E0,-1.7750739E0,3.3802247E-1,-4.9998713E-1,1.7866583E0,-1.9393923E0,-1.3322769E0,1.6735805E0,-3.85E-1,-1.2492485E0,7.474217E-1,1.9165148E0,9.797372E-1,-1.7468876E0,-4.3851352E-1,8.0039855E-3,-4.3558896E-1,1.3060619E-1,3.9773253E-1,1.9269196E-2,-1.7898804E0,1.1469254E0,-4.125E-1,1.6037495E0,1.9483991E0,-1.6570404E0,1.1121368E0,-1.8507211E0,-4.885813E-1,7.869174E-1,-4.101695E-1,1.1452922E0,-7.496814E-1,-1.9022208E0,2.571488E-1,1.6033376E0,-2.6886675E-1,1.7938432E0,4.4922462E-1,1.9634582E0,1.7174032E0,-1.7897923E0,8.450436E-2,1.2364547E0,-1.2291331E0,-4.2004827E-1,-1.2141492E-1,-3.422222E-1,1.2816712E-1,-3.4736842E-1,2.4565914E-1,-6.6414036E-2,3.052566E-1,-2.1029991E-1,2.2990306E-1,-2.5649604E-1,-4.2676154E-1,1.9488691E-1,-2.8E-1,3.78931E-1,-3.1428573E-1,-2.7909678E-1,3.4800395E-1,1.7615262E-1,4.1429105E-1,-1.5085076E-1,3.0921063E-1,8.450436E-2,4.3211967E-1,-3.0461538E-1,3.846383E-1,-4.2625E-1,-4.3602526E-2,1.3347082E-1,3.1468937E-1,-4.1904762E-1,-7.6273575E-2],"categories":[],"categories_nodes":[],"categories_segments":[],"categories_sizes":[],"default_left":[0,0,0,0,0,0,0,0,0,0,0,0,0,0,0,0,0,0,0,0,0,0,0,0,0,0,0,0,0,0,0,0,0,0,0,0,0,0,0,0,0,0,0,0,0,0,0,0,0,0,0,0,0,0,0,0,0,0,0,0,0,0,0,0,0,0,0,0,0,0,0,0,0,0,0,0,0,0,0,0,0],"id":0,"left_children":[1,3,-1,5,7,9,11,13,15,17,19,21,-1,23,25,27,29,31,-1,33,-1,-1,-1,35,37,39,-1,41,43,45,47,49,51,53,-1,55,57,59,61,63,65,67,69,71,73,75,-1,77,79,-1,-1,-1,-1,-1,-1,-1,-1,-1,-1,-1,-1,-1,-1,-1,-1,-1,-1,-1,-1,-1,-1,-1,-1,-1,-1,-1,-1,-1,-1,-1,-1],"loss_changes":[2.9653262E4,5.7339688E3,0E0,8.008484E1,1.5471875E3,3.6329956E1,5.66224E1,2.9366296E2,5.7817773E2,5.3881836E-1,1.2844315E2,7.039108E-1,0E0,1.3448257E2,1.25938965E2,4.441797E1,2.704502E2,1.123053E1,0E0,7.321813E1,0E0,0E0,0E0,5.2441086E1,3.210269E1,6.708911E1,0E0,9.722766E1,1.1658203E1,1.0764336E1,2.1493225E2,5.447998E0,1.0550637E1,2.9413841E1,0E0,9.032063E0,1.4324627E1,1.3500977E0,8.853682E0,3.0675629E1,5.0120953E1,3.247705E1,7.094741E1,3.8652344E0,2.8582642E1,7.866371E0,0E0,8.423645E1,2.1679985E1,0E0,0E0,0E0,0E0,0E0,0E0,0E0,0E0,0E0,0E0,0E0,0E0,0E0,0E0,0E0,0E0,0E0,0E0,0E0,0E0,0E0,0E0,0E0,0E0,0E0,0E0,0E0,0E0,0E0,0E0,0E0,0E0],"parents":[2147483647,0,0,1,1,3,3,4,4,5,5,6,6,7,7,8,8,9,9,10,10,11,11,13,13,14,14,15,15,16,16,17,17,19,19,23,23,24,24,25,25,27,27,28,28,29,29,30,30,31,31,32,32,33,33,35,35,36,36,37,37,38,38,39,39,40,40,41,41,42,42,43,43,44,44,45,45,47,47,48,48],"right_children":[2,4,-1,6,8,10,12,14,16,18,20,22,-1,24,26,28,30,32,-1,34,-1,-1,-1,36,38,40,-1,42,44,46,48,50,52,54,-1,56,58,60,62,64,66,68,70,72,74,76,-1,78,80,-1,-1,-1,-1,-1,-1,-1,-1,-1,-1,-1,-1,-1,-1,-1,-1,-1,-1,-1,-1,-1,-1,-1,-1,-1,-1,-1,-1,-1,-1,-1,-1],"split_conditions":[5.230442E-1,-2.4490738E0,-4.3989992E-1,7.121778E-2,-1.1126656E-1,-4.8211655E-3,1.0302731E0,-2.7541282E-2,1.5278715E0,-1.0333687E-1,1.285275E0,-7.511583E-3,-3.85E-1,-8.7042356E-1,-3.0759948E-1,-2.6530055E-2,-2.8689684E-2,-1.03755064E-1,-4.3851352E-1,2.764847E-2,-4.3558896E-1,1.3060619E-1,3.9773253E-1,-3.1267975E-2,-1.383663E-2,-6.422151E-2,-4.125E-1,8.081617E-1,1.3181597E0,-3.8591933E-1,2.6306899E0,-4.950907E-2,-2.5973417E-2,-1.0191682E-1,-4.101695E-1,-9.979774E-2,-1.7365347E-1,-7.4700105E-1,-8.890929E-2,3.8427743E-3,-1.7365347E-1,-1.7365347E-1,3.5772294E-1,-1.06232844E-1,-2.8689684E-2,6.318147E-2,8.450436E-2,-1.2555172E0,-1.191647E0,-4.2004827E-1,-1.2141492E-1,-3.422222E-1,1.2816712E-1,-3.4736842E-1,2.4565914E-1,-6.6414036E-2,3.052566E-1,-2.1029991E-1,2.2990306E-1,-2.5649604E-1,-4.2676154E-1,1.9488691E-1,-2.8E-1,3.78931E-1,-3.1428573E-1,-2.7909678E-1,3.4800395E-1,1.7615262E-1,4.1429105E-1,-1.5085076E-1,3.0921063E-1,8.450436E-2,4.3211967E-1,-3.0461538E-1,3.846383E-1,-4.2625E-1,-4.3602526E-2,1.3347082E-1,3.1468937E-1,-4.1904762E-1,-7.6273575E-2],"split_indices":[9,10,0,13,5,4,8,4,8,11,8,4,0,6,8,4,5,11,0,4,0,0,0,4,2,13,0,8,8,6,1,13,4,11,0,11,1,6,11,4,1,1,5,11,5,4,0,6,6,0,0,0,0,0,0,0,0,0,0,0,0,0,0,0,0,0,0,0,0,0,0,0,0,0,0,0,0,0,0,0,0],"split_type":[0,0,0,0,0,0,0,0,0,0,0,0,0,0,0,0,0,0,0,0,0,0,0,0,0,0,0,0,0,0,0,0,0,0,0,0,0,0,0,0,0,0,0,0,0,0,0,0,0,0,0,0,0,0,0,0,0,0,0,0,0,0,0,0,0,0,0,0,0,0,0,0,0,0,0,0,0,0,0,0,0],"sum_hessian":[1.07945E4,6.399E3,4.3955E3,5.520781E2,5.8469214E3,5.33824E2,1.8254171E1,3.122016E2,5.53472E3,3.8687708E2,1.4694688E2,1.1254171E1,7E0,1.9504533E2,1.1715629E2,4.7663105E3,7.684096E2,9.187708E1,2.95E2,4.8196884E1,9.875E1,1.8442714E0,9.4099E0,5.857397E1,1.3647136E2,1.0215629E2,1.5E1,4.4568716E2,4.320623E3,3.618854E1,7.3222107E2,8.4438545E1,7.438543E0,3.4446884E1,1.375E1,2.35698E1,3.5004173E1,1.2943854E2,7.032814E0,7.7152115E1,2.5004171E1,3.8220328E2,6.348387E1,4.0491501E3,2.7147302E2,3.4094273E1,2.0942714E0,6.9574976E2,3.6471355E1,8.034427E1,4.0942717E0,3.5E0,3.9385428E0,3.75E0,3.0696886E1,3.3442714E0,2.0225529E1,3.1815628E1,3.1885428E0,7.8442717E0,1.2159427E2,5.282814E0,1.75E0,7.4652115E1,2.5E0,1.6438543E1,8.565628E0,3.2352615E1,3.4985068E2,2.91599E1,3.432397E1,2.0942714E0,4.047056E3,2.25E0,2.6922302E2,3.1E1,3.0942714E0,1.6479172E2,5.30958E2,2E1,1.6471357E1],"tree_param":{"num_deleted":"0","num_feature":"17","num_nodes":"81","size_leaf_vector":"1"}},{"base_weights":[-5.306482E-4,-1.5069839E0,1.4203345E0,-9.4921947E-1,-3.6161238E-1,1.5179731E0,-3.5951242E-1,-1.278383E0,3.0377123E-1,1.5623826E0,-1.3930941E0,-3.5474986E-2,-1.4719552E0,1.0597703E0,-1.4089092E0,1.6093957E0,8.82585E-1,-2.0498179E-1,-1.7444184E0,-5.578143E-1,9.357442E-1,-1.5190979E0,1.7777595E-1,4.444742E-1,1.4771333E0,-6.351253E-2,-1.7345588E0,1.3707287E0,1.6342517E0,-5.521712E-1,1.1334656E0,-1.1231484E0,1.1259042E0,-1.9052744E0,2.0108932E-1,-8.7002313E-1,8.3048916E-1,-2.7666047E-1,1.1545442E0,-1.6133434E0,-1.2378384E0,1.0454621E0,-4.2124695E-1,1.0436794E0,-8.148697E-1,1.5205959E0,-2.0697331E-2,-3.4925663E-1,1.1285881E0,-4.034032E-1,-9.0389836E-1,1.4880716E0,-2.7095294E-1,1.6368788E0,1.2931936E0,-4.6014863E-1,2.7830747E-1,1.2389048E0,-1.3257595E0,-1.5104319E0,2.3609662E-1,2.4665352E-2,3.157208E-1,-1.9872509E0,2.0392063E-1,-2.6452136E-1,1.5142494E-1,-2.7811944E-1,3.1038964E-1,3.0910948E-1,-1.2142379E-1,-2.7025095E-1,-3.7434855E-1,-3.4743413E-1,1.0493373E-1,-6.725431E-2,3.1455344E-1,2.7040702E-1,-2.963229E-1,2.6109183E-1,-2.6009992E-1,3.4340653E-1,1.5725836E-1,3.0365872E-1,5.2396383E-2,1.9773301E-1,-3.40624E-1,3.512292E-1,2.355988E-1,-3.896677E-1,2.700394E-1,2.1724774E-1,3.6037368E-1,4.293788E-2,3.2913363E-1,-3.8697127E-1,2.073482E-1,-3.326115E-2,2.9090187E-1,-3.854583E-1,2.6214442E-1,-4.3460673E-1,1.4913309E-1,-1.7550233E-1,-4.5680952E-1],"categories":[],"categories_nodes":[],"categories_segments":[],"categories_sizes":[],"default_left":[0,0,0,0,0,0,0,0,0,0,0,0,0,0,0,0,0,0,0,0,0,0,0,0,0,0,0,0,0,0,0,0,0,0,0,0,0,0,0,0,0,0,0,0,0,0,0,0,0,0,0,0,0,0,0,0,0,0,0,0,0,0,0,0,0,0,0,0,0,0,0,0,0,0,0,0,0,0,0,0,0,0,0,0,0,0,0,0,0,0,0,0,0,0,0,0,0,0,0,0,0,0,0,0,0],"id":1,"left_children":[1,3,5,7,-1,9,-1,11,13,15,17,19,21,23,25,27,29,31,33,35,37,39,41,43,45,47,49,51,53,55,57,59,61,63,-1,65,67,-1,69,71,73,75,-1,77,79,81,-1,-1,83,-1,85,87,89,91,93,-1,95,97,99,101,-1,-1,-1,103,-1,-1,-1,-1,-1,-1,-1,-1,-1,-1,-1,-1,-1,-1,-1,-1,-1,-1,-1,-1,-1,-1,-1,-1,-1,-1,-1,-1,-1,-1,-1,-1,-1,-1,-1,-1,-1,-1,-1,-1,-1],"loss_changes":[2.211512E4,3.8083496E2,1.5881973E3,4.0852374E2,0E0,6.683301E2,0E0,1.8854358E2,2.6910553E2,1.6080078E2,3.218219E1,5.462926E1,5.3017334E1,3.6312958E1,2.780896E1,2.591504E1,1.19605286E2,2.4389147E1,2.7412888E1,3.10556E1,1.9531414E1,1.5484375E1,3.783889E1,4.5835693E1,5.9713287E0,2.623889E1,2.5625E0,8.783911E1,1.7304688E0,6.43364E1,7.4680145E1,1.1572012E1,2.417264E0,1.505986E1,0E0,3.0670086E1,1.802531E1,0E0,1.5642025E1,1.457605E1,1.0017221E2,8.018233E0,0E0,1.975758E1,1.5950627E1,1.5858612E0,0E0,0E0,1.4942932E0,0E0,1.002977E1,1.745758E1,7.214116E1,1.6533203E0,8.079597E0,0E0,4.6683804E1,3.1563873E1,1.5034021E1,1.1882948E1,0E0,0E0,0E0,4.245117E0,0E0,0E0,0E0,0E0,0E0,0E0,0E0,0E0,0E0,0E0,0E0,0E0,0E0,0E0,0E0,0E0,0E0,0E0,0E0,0E0,0E0,0E0,0E0,0E0,0E0,0E0,0E0,0E0,0E0,0E0,0E0,0E0,0E0,0E0,0E0,0E0,0E0,0E0,0E0,0E0,0E0],"parents":[2147483647,0,0,1,1,2,2,3,3,5,5,7,7,8,8,9,9,10,10,11,11,12,12,13,13,14,14,15,15,16,16,17,17,18,18,19,19,20,20,21,21,22,22,23,23,24,24,25,25,26,26,27,27,28,28,29,29,30,30,31,31,32,32,33,33,35,35,36,36,38,38,39,39,40,40,41,41,43,43,44,44,45,45,48,48,50,50,51,51,52,52,53,53,54,54,56,56,57,57,58,58,59,59,63,63],"right_children":[2,4,6,8,-1,10,-1,12,14,16,18,20,22,24,26,28,30,32,34,36,38,40,42,44,46,48,50,52,54,56,58,60,62,64,-1,66,68,-1,70,72,74,76,-1,78,80,82,-1,-1,84,-1,86,88,90,92,94,-1,96,98,100,102,-1,-1,-1,104,-1,-1,-1,-1,-1,-1,-1,-1,-1,-1,-1,-1,-1,-1,-1,-1,-1,-1,-1,-1,-1,-1,-1,-1,-1,-1,-1,-1,-1,-1,-1,-1,-1,-1,-1,-1,-1,-1,-1,-1,-1],"split_conditions":[-3.4804102E-2,5.230442E-1,5.230442E-1,4.2171252E-1,-3.6161238E-1,1.3567016E0,-3.5951242E-1,-1.5326097E0,5.617208E-1,1.155928E0,1.3706644E0,-2.7541282E-2,3.334151E-1,-4.950907E-2,2.9553816E-1,3.2665346E-2,-1.6510567E-2,-9.929079E-1,2.3669071E0,-9.101714E-1,-1.0061863E-1,-8.210124E-3,9.429249E-1,-4.3476433E-1,2.541353E-1,2.9252335E-2,-7.0484653E-3,1.5074103E0,3.3335464E0,1.8777239E0,1.9278334E0,2.9326208E0,-1.5490064E-2,1.5125402E0,2.0108932E-1,-5.0053525E-1,-9.706401E-2,-2.7666047E-1,-6.350421E-2,-9.229703E-1,6.944211E-1,-1.0508616E0,-4.2124695E-1,-1.3702978E-2,-6.422151E-2,3.8923255E-1,-2.0697331E-2,-3.4925663E-1,1.6212114E0,-4.034032E-1,7.5882087E-3,4.4247675E-1,1.0570945E0,-1.0617012E-1,-1.2322527E0,-4.6014863E-1,2.1963751E-1,3.2665346E-2,2.242257E0,-7.972436E-3,2.3609662E-1,2.4665352E-2,3.157208E-1,-1.0552192E-1,2.0392063E-1,-2.6452136E-1,1.5142494E-1,-2.7811944E-1,3.1038964E-1,3.0910948E-1,-1.2142379E-1,-2.7025095E-1,-3.7434855E-1,-3.4743413E-1,1.0493373E-1,-6.725431E-2,3.1455344E-1,2.7040702E-1,-2.963229E-1,2.6109183E-1,-2.6009992E-1,3.4340653E-1,1.5725836E-1,3.0365872E-1,5.2396383E-2,1.9773301E-1,-3.40624E-1,3.512292E-1,2.355988E-1,-3.896677E-1,2.700394E-1,2.1724774E-1,3.6037368E-1,4.293788E-2,3.2913363E-1,-3.8697127E-1,2.073482E-1,-3.326115E-2,2.9090187E-1,-3.854583E-1,2.6214442E-1,-4.3460673E-1,1.4913309E-1,-1.7550233E-1,-4.5680952E-1],"split_indices":[14,9,9,1,0,7,0,7,8,7,7,4,13,13,7,14,4,6,8,6,11,4,7,8,8,2,11,8,1,8,1,14,4,6,0,3,11,0,11,7,6,6,0,2,13,7,0,0,1,0,11,8,1,11,6,0,14,14,14,2,0,0,0,11,0,0,0,0,0,0,0,0,0,0,0,0,0,0,0,0,0,0,0,0,0,0,0,0,0,0,0,0,0,0,0,0,0,0,0,0,0,0,0,0,0],"split_type":[0,0,0,0,0,0,0,0,0,0,0,0,0,0,0,0,0,0,0,0,0,0,0,0,0,0,0,0,0,0,0,0,0,0,0,0,0,0,0,0,0,0,0,0,0,0,0,0,0,0,0,0,0,0,0,0,0,0,0,0,0,0,0,0,0,0,0,0,0,0,0,0,0,0,0,0,0,0,0,0,0,0,0,0,0,0,0,0,0,0,0,0,0,0,0,0,0,0,0,0,0,0,0,0,0],"sum_hessian":[1.0329915E4,5.0139165E3,5.315998E3,9.8856555E2,4.0253508E3,5.15182E3,1.6417847E2,7.828807E2,2.0568486E2,5.074864E3,7.6955864E1,1.05656136E2,6.7722455E2,1.4296118E2,6.2723682E1,4.745322E3,3.2954205E2,1.7923943E1,5.9031925E1,6.898202E1,3.667412E1,6.584868E2,1.8737734E1,5.8614243E1,8.434694E1,1.245633E1,5.0267353E1,4.5288385E2,4.292438E3,4.8868427E1,2.8067365E2,1.0698932E1,7.225011E0,5.5931015E1,3.10091E0,5.6621906E1,1.2360107E1,2.8960552E0,3.377807E1,4.8967026E2,1.6881651E2,1.3599131E1,5.138603E0,3.9832767E1,1.8781475E1,8.2107895E1,2.2390432E0,5.3214803E0,7.13485E0,4.383113E1,6.4362197E0,4.2275977E2,3.0124105E1,4.255856E3,3.658226E1,1.6592772E1,3.2275654E1,2.6961032E2,1.1063321E1,9.36063E0,1.3383023E0,2.0069923E0,5.2180185E0,5.4647594E1,1.2834209E0,4.6857006E1,9.764901E0,2.4260051E0,9.934103E0,2.9608385E1,4.1696825E0,9.410057E1,3.955697E2,1.408527E2,2.796381E1,3.0568469E0,1.0542284E1,3.7416176E1,2.4165926E0,2.5668418E0,1.6214634E1,7.730056E1,4.8073363E0,5.1336837E0,2.001166E0,1.5909013E0,4.8453183E0,3.3330463E2,8.9455124E1,1.4961738E1,1.5162369E1,9.259758E0,4.246596E3,6.010826E0,3.0571436E1,7.5301023E0,2.4745554E1,1.5209906E1,2.544004E2,9.721003E0,1.3423182E0,7.800207E0,1.5604224E0,4.503946E0,5.0143646E1],"tree_param":{"num_deleted":"0","num_feature":"17","num_nodes":"105","size_leaf_vector":"1"}},{"base_weights":[-8.781207E-4,-1.3194908E0,1.2368593E0,-8.100716E-1,-3.1861478E-1,1.321561E0,-3.1676173E-1,2.4487166E-1,-1.0995076E0,1.3734403E0,-5.9692264E-1,-1.3998927E0,7.6367515E-1,-1.2732071E0,-2.9562122E-1,-4.1112128E-1,1.3861378E0,1.2287209E-1,-1.4074988E0,-3.3257583E-1,-1.0358181E-1,9.639373E-3,1.2801877E0,-1.4245777E0,-8.970964E-1,4.686007E-1,-1.1930397E0,9.6540195E-1,-3.4266302E-1,1.4162841E0,8.8235503E-1,-3.832087E-1,5.0012714E-1,-1.5407919E0,1.7183979E-1,2.9737774E-1,-2.396709E-1,3.362416E-1,-3.1921193E-1,7.3036546E-1,3.0892694E-1,-8.896831E-1,-3.251678E-1,1.656557E-1,-1.4786876E0,-3.2588574E-1,9.340677E-1,-5.0649893E-2,-1.4715254E0,-2.847961E-1,3.1708142E-1,1.2523926E0,1.432833E0,4.940669E-1,1.4313728E0,1.0055946E0,-5.1184136E-1,-1.6098785E0,1.8469776E-1,-3.5670682E-4,2.667742E-1,2.5089046E-1,-3.0558622E-1,-3.230075E-1,1.0372928E-2,2.290878E-1,-2.1528122E-1,-3.34715E-1,-7.826768E-2,4.8078034E-2,2.6934096E-1,-2.8419176E-1,1.419047E-1,-3.4291244E-1,-1.6673638E-1,2.9053465E-1,2.1137636E-2,3.160765E-1,2.580906E-1,-3.1585696E-1,1.6245201E-1,-2.4455783E-1,3.2509404E-1,-5.9441965E-2,2.449595E-1,-4.2507225E-1,2.777303E-1,-3.7326905E-1,-1.5331197E-1],"categories":[],"categories_nodes":[],"categories_segments":[],"categories_sizes":[],"default_left":[0,0,0,0,0,0,0,0,0,0,0,0,0,0,0,0,0,0,0,0,0,0,0,0,0,0,0,0,0,0,0,0,0,0,0,0,0,0,0,0,0,0,0,0,0,0,0,0,0,0,0,0,0,0,0,0,0,0,0,0,0,0,0,0,0,0,0,0,0,0,0,0,0,0,0,0,0,0,0,0,0,0,0,0,0,0,0,0,0],"id":2,"left_children":[1,3,5,7,-1,9,-1,11,13,15,17,19,21,23,25,27,29,31,33,-1,35,37,39,41,43,45,47,49,-1,51,53,-1,55,57,-1,-1,-1,59,-1,61,-1,63,-1,65,67,-1,69,71,73,-1,-1,75,77,79,81,83,85,87,-1,-1,-1,-1,-1,-1,-1,-1,-1,-1,-1,-1,-1,-1,-1,-1,-1,-1,-1,-1,-1,-1,-1,-1,-1,-1,-1,-1,-1,-1,-1],"loss_changes":[1.5260332E4,2.9577246E2,1.0953662E3,2.7985748E2,0E0,4.6617627E2,0E0,1.6998581E2,9.9980835E1,1.037334E2,7.240601E1,6.7749176E0,5.88497E1,3.2352234E1,8.903392E1,5.348014E1,6.74082E1,4.764796E1,1.8213928E1,0E0,8.460725E0,3.0277699E1,5.090317E0,1.0680054E1,1.06689026E2,6.527132E1,1.8890976E1,1.8625135E1,0E0,9.770508E0,5.4271896E1,0E0,2.9201473E1,1.0445435E1,0E0,0E0,0E0,1.535365E1,0E0,1.7740707E1,0E0,2.2088703E1,0E0,6.2948532E1,4.8059845E0,0E0,1.1659885E1,1.1815672E1,1.7979736E0,0E0,0E0,3.1347473E1,2.208496E0,7.3013824E1,1.4167358E1,5.4936943E0,5.1185314E1,3.1035461E0,0E0,0E0,0E0,0E0,0E0,0E0,0E0,0E0,0E0,0E0,0E0,0E0,0E0,0E0,0E0,0E0,0E0,0E0,0E0,0E0,0E0,0E0,0E0,0E0,0E0,0E0,0E0,0E0,0E0,0E0,0E0],"parents":[2147483647,0,0,1,1,2,2,3,3,5,5,7,7,8,8,9,9,10,10,11,11,12,12,13,13,14,14,15,15,16,16,17,17,18,18,20,20,21,21,22,22,23,23,24,24,25,25,26,26,27,27,29,29,30,30,32,32,33,33,37,37,39,39,41,41,43,43,44,44,46,46,47,47,48,48,51,51,52,52,53,53,54,54,55,55,56,56,57,57],"right_children":[2,4,6,8,-1,10,-1,12,14,16,18,20,22,24,26,28,30,32,34,-1,36,38,40,42,44,46,48,50,-1,52,54,-1,56,58,-1,-1,-1,60,-1,62,-1,64,-1,66,68,-1,70,72,74,-1,-1,76,78,80,82,84,86,88,-1,-1,-1,-1,-1,-1,-1,-1,-1,-1,-1,-1,-1,-1,-1,-1,-1,-1,-1,-1,-1,-1,-1,-1,-1,-1,-1,-1,-1,-1,-1],"split_conditions":[-3.4804102E-2,5.230442E-1,5.230442E-1,-1.2571115E0,-3.1861478E-1,1.3288726E0,-3.1676173E-1,-2.4490738E0,4.2171252E-1,-2.4490738E0,1.3706644E0,-6.6072273E-1,-6.233677E-1,-8.210124E-3,5.617208E-1,2.4141584E-1,1.155928E0,-1.8814312E-2,2.3669071E0,-3.3257583E-1,-1.0396416E-1,-8.8624644E-1,-6.1020855E-2,-1.0296644E0,1.22373E0,-2.4490738E0,2.9553816E-1,-1.5490064E-2,-3.4266302E-1,3.2665346E-2,-4.7370774E-1,-3.832087E-1,9.042568E-1,1.5125402E0,1.7183979E-1,2.9737774E-1,-2.396709E-1,-2.7077416E-2,-3.1921193E-1,-1.5326097E0,3.0892694E-1,-6.1020855E-2,-3.251678E-1,3.8427743E-3,9.7977906E-1,-3.2588574E-1,-2.8571062E-2,-2.7213793E-2,-7.0484653E-3,-2.847961E-1,3.1708142E-1,1.5074103E0,1.0937219E0,1.2819608E-1,-1.6510567E-2,8.5864864E-2,4.3251467E0,1.3979308E1,1.8469776E-1,-3.5670682E-4,2.667742E-1,2.5089046E-1,-3.0558622E-1,-3.230075E-1,1.0372928E-2,2.290878E-1,-2.1528122E-1,-3.34715E-1,-7.826768E-2,4.8078034E-2,2.6934096E-1,-2.8419176E-1,1.419047E-1,-3.4291244E-1,-1.6673638E-1,2.9053465E-1,2.1137636E-2,3.160765E-1,2.580906E-1,-3.1585696E-1,1.6245201E-1,-2.4455783E-1,3.2509404E-1,-5.9441965E-2,2.449595E-1,-4.2507225E-1,2.777303E-1,-3.7326905E-1,-1.5331197E-1],"split_indices":[14,9,9,7,0,7,0,10,1,10,7,6,8,4,8,7,7,4,8,0,11,6,14,7,8,10,7,4,0,14,6,0,5,6,0,0,0,4,0,7,0,14,0,4,4,0,4,4,11,0,0,8,7,14,4,1,14,0,0,0,0,0,0,0,0,0,0,0,0,0,0,0,0,0,0,0,0,0,0,0,0,0,0,0,0,0,0,0,0],"split_type":[0,0,0,0,0,0,0,0,0,0,0,0,0,0,0,0,0,0,0,0,0,0,0,0,0,0,0,0,0,0,0,0,0,0,0,0,0,0,0,0,0,0,0,0,0,0,0,0,0,0,0,0,0,0,0,0,0,0,0,0,0,0,0,0,0,0,0,0,0,0,0,0,0,0,0,0,0,0,0,0,0,0,0,0,0,0,0,0,0],"sum_hessian":[9.348143E3,4.5261655E3,4.8219766E3,9.1466675E2,3.6114988E3,4.67456E3,1.4741667E2,1.9695483E2,7.177119E2,4.5517563E3,1.22803696E2,4.68207E1,1.5013412E2,5.897072E2,1.2800467E2,3.1936134E1,4.51982E3,6.549357E1,5.7310127E1,4.2949825E1,3.8708775E0,6.144773E1,8.86864E1,4.18492E2,1.7121523E2,6.939081E1,5.8613857E1,1.4583591E1,1.7352543E1,4.2629165E3,2.5690344E2,1.0411837E1,5.5081734E1,5.4299103E1,3.011024E0,1.41334E0,2.4575377E0,5.08476E1,1.060013E1,1.7591187E1,7.1095215E1,3.9627205E1,3.7886478E2,6.081043E1,1.104048E2,1.2951784E1,5.6439026E1,1.1719717E1,4.6894142E1,2.2374933E0,1.2346098E1,3.980006E2,3.864916E3,1.5159152E2,1.0531191E2,3.6737865E1,1.8343872E1,5.308212E1,1.2169838E0,3.7419537E1,1.3428062E1,1.5126527E1,2.4646602E0,2.4147758E1,1.5479444E1,3.449874E1,2.6311687E1,1.0601449E2,4.3903174E0,1.679149E1,3.9647537E1,3.9017723E0,7.8179445E0,4.073442E1,6.159721E0,3.7569357E2,2.230701E1,3.803579E3,6.1336857E1,1.6489445E1,1.3510208E2,1.4727935E0,1.0383912E2,2.7464664E0,3.3991398E1,1.013873E1,8.205141E0,4.768992E1,5.392199E0],"tree_param":{"num_deleted":"0","num_feature":"17","num_nodes":"89","size_leaf_vector":"1"}},{"base_weights":[-1.5836502E-3,-1.1992548E0,1.116403E0,-7.1642965E-1,-2.9167935E-1,1.1925211E0,-2.8979358E-1,2.0947029E-1,-9.7732437E-1,1.2411981E0,-5.100098E-1,-1.248015E0,6.5207046E-1,-1.1367931E0,-2.6100776E-1,-3.6801928E-1,1.2529666E0,1.0048348E-1,-1.2085648E0,-2.9910445E-1,-2.1772625E-1,6.2408284E-3,1.1263776E0,-1.1859998E0,2.7257046E-1,9.1178304E-1,-7.1474636E-1,8.428338E-1,-3.0357727E-1,1.2847979E0,7.5154877E-1,-3.271505E-1,4.2363864E-1,1.7655233E-1,-1.4115927E0,2.1636544E-1,-2.2903317E-1,2.749807E-1,-2.8461716E-1,6.089699E-1,1.2494421E0,-1.2830354E0,-9.2830193E-1,2.599166E-1,-9.72612E-1,-2.958628E-1,1.1587784E0,2.1858998E-1,-1.3610935E0,-2.4885006E-1,2.8372812E-1,1.1092954E0,1.3029846E0,-2.3341179E-1,9.3429124E-1,9.5298785E-1,-3.2800406E-1,-2.7043495E-1,2.927574E-1,1.6884968E-1,-3.261783E-1,1.6685538E-1,-4.7268417E-2,2.1439756E-1,-2.645077E-1,1.3275518E-1,2.7902392E-1,-1.8820985E-1,-2.9760295E-1,9.739495E-3,-3.0290797E-1,-3.1314665E-1,1.9431537E-1,-2.2054304E-1,2.8814718E-1,-1.645953E-1,1.7545831E-1,-3.212978E-1,-1.5552846E-1,2.8136572E-1,1.2673894E-1,2.901276E-1,2.6747108E-1,-3.7208924E-1,1.0495757E-1,2.2422847E-1,-1.6899312E-1,6.2051553E-2,2.5259295E-1,-4.0286556E-1,1.3602422E-1],"categories":[],"categories_nodes":[],"categories_segments":[],"categories_sizes":[],"default_left":[0,0,0,0,0,0,0,0,0,0,0,0,0,0,0,0,0,0,0,0,0,0,0,0,0,0,0,0,0,0,0,0,0,0,0,0,0,0,0,0,0,0,0,0,0,0,0,0,0,0,0,0,0,0,0,0,0,0,0,0,0,0,0,0,0,0,0,0,0,0,0,0,0,0,0,0,0,0,0,0,0,0,0,0,0,0,0,0,0,0,0],"id":3,"left_children":[1,3,5,7,-1,9,-1,11,13,15,17,19,21,23,25,27,29,31,33,-1,35,37,39,41,43,45,47,49,-1,51,53,-1,55,57,59,-1,-1,61,-1,63,65,67,69,-1,71,-1,73,75,77,-1,-1,79,81,83,85,87,89,-1,-1,-1,-1,-1,-1,-1,-1,-1,-1,-1,-1,-1,-1,-1,-1,-1,-1,-1,-1,-1,-1,-1,-1,-1,-1,-1,-1,-1,-1,-1,-1,-1,-1],"loss_changes":[1.0975249E4,2.4086816E2,7.868955E2,1.9926547E2,0E0,3.4135596E2,0E0,1.18203896E2,7.316229E1,7.6163086E1,4.9159775E1,4.6151733E0,4.2952847E1,3.6779297E1,6.365393E1,3.7667965E1,6.2375977E1,3.258345E1,1.5351517E1,0E0,6.330159E0,2.1453049E1,4.3874817E0,1.1515442E1,2.2139627E1,2.0211842E1,5.2133923E1,1.3970087E1,0E0,1.04609375E1,4.329149E1,0E0,2.1212957E1,1.421722E1,8.405327E0,0E0,0E0,1.2209454E1,0E0,1.2750296E1,1.8432617E-2,9.765625E0,6.227681E1,0E0,8.263135E0,0E0,1.1331394E1,2.0756908E1,2.2760162E0,0E0,0E0,3.1553833E1,3.0390625E0,4.042799E1,2.9997269E1,3.7455997E0,3.3067875E1,0E0,0E0,0E0,0E0,0E0,0E0,0E0,0E0,0E0,0E0,0E0,0E0,0E0,0E0,0E0,0E0,0E0,0E0,0E0,0E0,0E0,0E0,0E0,0E0,0E0,0E0,0E0,0E0,0E0,0E0,0E0,0E0,0E0,0E0],"parents":[2147483647,0,0,1,1,2,2,3,3,5,5,7,7,8,8,9,9,10,10,11,11,12,12,13,13,14,14,15,15,16,16,17,17,18,18,20,20,21,21,22,22,23,23,24,24,25,25,26,26,27,27,29,29,30,30,32,32,33,33,34,34,37,37,39,39,40,40,41,41,42,42,44,44,46,46,47,47,48,48,51,51,52,52,53,53,54,54,55,55,56,56],"right_children":[2,4,6,8,-1,10,-1,12,14,16,18,20,22,24,26,28,30,32,34,-1,36,38,40,42,44,46,48,50,-1,52,54,-1,56,58,60,-1,-1,62,-1,64,66,68,70,-1,72,-1,74,76,78,-1,-1,80,82,84,86,88,90,-1,-1,-1,-1,-1,-1,-1,-1,-1,-1,-1,-1,-1,-1,-1,-1,-1,-1,-1,-1,-1,-1,-1,-1,-1,-1,-1,-1,-1,-1,-1,-1,-1,-1],"split_conditions":[-3.4804102E-2,5.230442E-1,5.230442E-1,-1.2571115E0,-2.9167935E-1,1.3288726E0,-2.8979358E-1,-2.4490738E0,4.2171252E-1,-2.4490738E0,1.3706644E0,-1.3100735E0,-6.233677E-1,3.334151E-1,-5.2216184E-1,2.4141584E-1,1.155928E0,-1.8814312E-2,-1.0545919E-1,-2.9910445E-1,-3.1345904E-2,-1.5326097E0,-6.1020855E-2,-8.210124E-3,6.0647255E-1,-6.225105E-1,2.9553816E-1,-1.5490064E-2,-3.0357727E-1,3.2665346E-2,-1.6510567E-2,-3.271505E-1,3.5543552E-1,1.3979308E1,-5.953952E-1,2.1636544E-1,-2.2903317E-1,-5.508965E-2,-2.8461716E-1,-1.5326097E0,-1.0493645E-1,-9.229703E-1,9.601241E-1,2.599166E-1,3.2622256E0,-2.958628E-1,-2.4490738E0,-4.950907E-2,6.1449723E0,-2.4885006E-1,2.8372812E-1,4.9339738E-1,7.9482424E-1,1.8777239E0,1.7604961E0,1.16626486E-1,-1.0107208E-2,-2.7043495E-1,2.927574E-1,1.6884968E-1,-3.261783E-1,1.6685538E-1,-4.7268417E-2,2.1439756E-1,-2.645077E-1,1.3275518E-1,2.7902392E-1,-1.8820985E-1,-2.9760295E-1,9.739495E-3,-3.0290797E-1,-3.1314665E-1,1.9431537E-1,-2.2054304E-1,2.8814718E-1,-1.645953E-1,1.7545831E-1,-3.212978E-1,-1.5552846E-1,2.8136572E-1,1.2673894E-1,2.901276E-1,2.6747108E-1,-3.7208924E-1,1.0495757E-1,2.2422847E-1,-1.6899312E-1,6.2051553E-2,2.5259295E-1,-4.0286556E-1,1.3602422E-1],"split_indices":[14,9,9,7,0,7,0,10,1,10,7,7,8,13,8,7,7,4,11,0,4,7,14,4,7,8,7,4,0,14,4,0,1,0,8,0,0,13,0,7,11,7,8,0,13,0,10,13,1,0,0,8,7,8,1,1,2,0,0,0,0,0,0,0,0,0,0,0,0,0,0,0,0,0,0,0,0,0,0,0,0,0,0,0,0,0,0,0,0,0,0],"split_type":[0,0,0,0,0,0,0,0,0,0,0,0,0,0,0,0,0,0,0,0,0,0,0,0,0,0,0,0,0,0,0,0,0,0,0,0,0,0,0,0,0,0,0,0,0,0,0,0,0,0,0,0,0,0,0,0,0,0,0,0,0,0,0,0,0,0,0,0,0,0,0,0,0,0,0,0,0,0,0,0,0,0,0,0,0,0,0,0,0,0,0],"sum_hessian":[8.194722E3,3.9563308E3,4.2383906E3,8.23055E2,3.133276E3,4.11034E3,1.2805069E2,1.8097665E2,6.420783E2,3.9963516E3,1.1398844E2,4.173227E1,1.3924438E2,5.246843E2,1.17394E2,2.8794243E1,3.9675574E3,6.1285183E1,5.2703255E1,3.7366913E1,4.365356E0,5.9390205E1,7.985419E1,5.0713666E2,1.7547678E1,3.2466763E1,8.492723E1,1.3184363E1,1.56098795E1,3.729253E3,2.3830457E2,9.756039E0,5.1529144E1,6.7542357E0,4.594902E1,1.6961877E0,2.669168E0,4.986921E1,9.520998E0,1.6486675E1,6.3367508E1,3.6552136E2,1.4161528E2,1.0173298E1,7.37438E0,2.7645319E0,2.9702232E1,3.501982E1,4.9907413E1,2.150932E0,1.1033431E1,3.5598526E2,3.3732676E3,3.7250656E1,2.0105391E2,3.0078379E1,2.1450766E1,3.0158236E0,3.7384124E0,1.1410786E0,4.480794E1,2.4822195E1,2.5047014E1,1.4102396E1,2.3842793E0,2.7324026E0,6.0635105E1,5.3100903E1,3.1242047E2,4.4982796E1,9.663249E1,6.1207128E0,1.2536674E0,1.5712126E0,2.813102E1,1.3007348E1,2.201247E1,4.2256878E1,7.650535E0,2.6900357E2,8.6981674E1,2.8445244E3,5.287432E2,1.1753146E1,2.549751E1,1.9188283E2,9.171067E0,7.3287053E0,2.2749674E1,7.9256463E0,1.352512E1],"tree_param":{"num_deleted":"0","num_feature":"17","num_nodes":"91","size_leaf_vector":"1"}},{"base_weights":[-2.3309453E-3,-1.1145684E0,1.029358E0,-6.444529E-1,-2.7351183E-1,1.0991838E0,-2.714369E-1,1.8070967E-1,-8.841946E-1,1.1485046E0,-3.8190436E-1,-1.1419994E0,5.6270605E-1,-1.0602151E0,-3.0696887E-1,1.1932738E0,7.2800756E-1,1.1161659E-1,-1.0824294E0,-2.7657536E-1,-6.3962184E-2,5.3845637E-4,1.0113664E0,-1.1192434E0,1.921012E-1,8.878279E-1,-7.385699E-1,-4.3082196E-2,1.2010138E0,-7.149331E-1,8.273558E-1,-2.9784468E-1,3.879898E-1,1.5198237E-1,-1.2719862E0,2.2298717E-1,-2.0460556E-1,2.222966E-1,-2.6028436E-1,5.1366657E-1,1.1366853E0,-9.3226045E-1,-2.792841E-1,1.0669951E0,-9.546304E-1,-2.6063102E-1,1.0959591E0,9.385039E-2,-1.2570773E0,7.542561E-1,-2.657527E-1,1.0148232E0,1.2205371E0,-1.1650113E0,2.3977679E-1,5.4363805E-1,1.2231551E0,5.6681806E-1,-2.9411972E-1,-2.410828E-1,2.594487E-1,-2.9514152E-1,1.554468E-1,-2.0109844E-1,9.471461E-2,1.8526694E-1,-2.3493125E-1,2.5248787E-1,7.587585E-2,3.1896196E-2,-2.264639E-1,5.9608884E-2,2.6763338E-1,-2.8764886E-1,1.7683527E-1,-2.0766532E-1,2.7321434E-1,-2.50184E-1,1.6634692E-1,-2.9328087E-1,-1.3310516E-1,-2.2231658E-1,2.6034716E-1,2.610035E-1,1.1790365E-1,2.69299E-1,1.5681936E-1,-3.320889E-1,4.505097E-2,-2.3097457E-1,1.632307E-1,2.7240747E-1,-3.874721E-2,1.8519503E-1,-3.2335598E-2],"categories":[],"categories_nodes":[],"categories_segments":[],"categories_sizes":[],"default_left":[0,0,0,0,0,0,0,0,0,0,0,0,0,0,0,0,0,0,0,0,0,0,0,0,0,0,0,0,0,0,0,0,0,0,0,0,0,0,0,0,0,0,0,0,0,0,0,0,0,0,0,0,0,0,0,0,0,0,0,0,0,0,0,0,0,0,0,0,0,0,0,0,0,0,0,0,0,0,0,0,0,0,0,0,0,0,0,0,0,0,0,0,0,0,0],"id":4,"left_children":[1,3,5,7,-1,9,-1,11,13,15,17,19,21,23,25,27,29,31,33,-1,35,37,39,41,43,45,47,49,51,53,55,-1,57,59,61,-1,-1,63,-1,65,67,69,-1,71,73,-1,75,77,79,81,-1,83,85,87,-1,89,91,93,-1,-1,-1,-1,-1,-1,-1,-1,-1,-1,-1,-1,-1,-1,-1,-1,-1,-1,-1,-1,-1,-1,-1,-1,-1,-1,-1,-1,-1,-1,-1,-1,-1,-1,-1,-1,-1],"loss_changes":[8.0899307E3,2.0441357E2,5.7934204E2,1.4478842E2,0E0,2.5965674E2,0E0,8.422468E1,5.7250244E1,6.378662E1,3.991749E1,4.562504E0,3.2541794E1,3.228543E1,6.966778E1,2.9740234E1,4.8333694E1,2.8244408E1,1.1347916E1,0E0,5.2943244E0,1.5557331E1,3.8915482E0,1.0458862E1,2.1467459E1,1.6813545E1,4.2787525E1,1.9735151E1,9.96875E0,1.9132074E1,3.4376663E1,0E0,1.8758953E1,1.0572338E1,6.650627E0,0E0,0E0,1.2204647E1,0E0,9.344633E0,9.566498E-2,1.9861053E1,0E0,1.1026945E0,6.851619E0,0E0,1.1056526E1,3.2553894E1,2.2163467E0,1.0774067E1,0E0,2.3891663E1,4.1469727E0,8.84227E0,0E0,5.8788708E1,2.94693E0,1.0640017E1,0E0,0E0,0E0,0E0,0E0,0E0,0E0,0E0,0E0,0E0,0E0,0E0,0E0,0E0,0E0,0E0,0E0,0E0,0E0,0E0,0E0,0E0,0E0,0E0,0E0,0E0,0E0,0E0,0E0,0E0,0E0,0E0,0E0,0E0,0E0,0E0,0E0],"parents":[2147483647,0,0,1,1,2,2,3,3,5,5,7,7,8,8,9,9,10,10,11,11,12,12,13,13,14,14,15,15,16,16,17,17,18,18,20,20,21,21,22,22,23,23,24,24,25,25,26,26,27,27,28,28,29,29,30,30,32,32,33,33,34,34,37,37,39,39,40,40,41,41,43,43,44,44,46,46,47,47,48,48,49,49,51,51,52,52,53,53,55,55,56,56,57,57],"right_children":[2,4,6,8,-1,10,-1,12,14,16,18,20,22,24,26,28,30,32,34,-1,36,38,40,42,44,46,48,50,52,54,56,-1,58,60,62,-1,-1,64,-1,66,68,70,-1,72,74,-1,76,78,80,82,-1,84,86,88,-1,90,92,94,-1,-1,-1,-1,-1,-1,-1,-1,-1,-1,-1,-1,-1,-1,-1,-1,-1,-1,-1,-1,-1,-1,-1,-1,-1,-1,-1,-1,-1,-1,-1,-1,-1,-1,-1,-1,-1],"split_conditions":[-3.4804102E-2,5.230442E-1,5.230442E-1,-1.2571115E0,-2.7351183E-1,1.3197247E0,-2.714369E-1,-2.4490738E0,-3.2021984E-2,1.0483673E0,1.3706644E0,-6.6072273E-1,-6.233677E-1,2.0992002E-1,-5.2216184E-1,-2.4490738E0,-2.5231233E-2,-1.8814312E-2,-1.0545919E-1,-2.7657536E-1,-1.0396416E-1,-8.8624644E-1,-6.1020855E-2,-1.4803362E-1,6.0647255E-1,-6.225105E-1,2.9553816E-1,2.4141584E-1,3.2665346E-2,2.3669071E0,-4.7370774E-1,-2.9784468E-1,1.6212114E0,1.3979308E1,1.5125402E0,2.2298717E-1,-2.0460556E-1,-1.1959364E0,-2.6028436E-1,-1.5326097E0,-1.1230373E-2,-1.0296644E0,-2.792841E-1,-1.0508616E0,1.1191576E0,-2.6063102E-1,-2.4490738E0,-2.8689684E-2,6.1449723E0,-1.5490064E-2,-2.657527E-1,4.9339738E-1,3.4575799E0,1.5306151E0,2.3977679E-1,1.2819608E-1,5.510493E-1,9.042568E-1,-2.9411972E-1,-2.410828E-1,2.594487E-1,-2.9514152E-1,1.554468E-1,-2.0109844E-1,9.471461E-2,1.8526694E-1,-2.3493125E-1,2.5248787E-1,7.587585E-2,3.1896196E-2,-2.264639E-1,5.9608884E-2,2.6763338E-1,-2.8764886E-1,1.7683527E-1,-2.0766532E-1,2.7321434E-1,-2.50184E-1,1.6634692E-1,-2.9328087E-1,-1.3310516E-1,-2.2231658E-1,2.6034716E-1,2.610035E-1,1.1790365E-1,2.69299E-1,1.5681936E-1,-3.320889E-1,4.505097E-2,-2.3097457E-1,1.632307E-1,2.7240747E-1,-3.874721E-2,1.8519503E-1,-3.2335598E-2],"split_indices":[14,9,9,7,0,7,0,10,1,7,7,6,8,13,8,10,4,4,11,0,11,6,14,13,7,8,7,7,14,8,6,0,1,0,6,0,0,6,0,7,11,7,0,6,5,0,10,5,1,4,0,8,1,5,0,14,5,5,0,0,0,0,0,0,0,0,0,0,0,0,0,0,0,0,0,0,0,0,0,0,0,0,0,0,0,0,0,0,0,0,0,0,0,0,0],"split_type":[0,0,0,0,0,0,0,0,0,0,0,0,0,0,0,0,0,0,0,0,0,0,0,0,0,0,0,0,0,0,0,0,0,0,0,0,0,0,0,0,0,0,0,0,0,0,0,0,0,0,0,0,0,0,0,0,0,0,0,0,0,0,0,0,0,0,0,0,0,0,0,0,0,0,0,0,0,0,0,0,0,0,0,0,0,0,0,0,0,0,0,0,0,0,0],"sum_hessian":[7.0481523E3,3.391636E3,3.656516E3,7.300907E2,2.6615454E3,3.5475764E3,1.0893967E2,1.6442058E2,5.656701E2,3.4334653E3,1.1411116E2,3.6398117E1,1.2802246E2,4.3284167E2,1.3282845E2,3.101427E3,3.3203815E2,6.744015E1,4.6671017E1,3.2735035E1,3.6630816E0,5.7267708E1,7.075476E1,4.1345944E2,1.9382252E1,3.4968487E1,9.7859955E1,1.9266891E1,3.0821602E3,2.0989458E1,3.110487E2,1.0082035E1,5.735811E1,6.2391725E0,4.0431847E1,1.5563593E0,2.1067224E0,4.8915516E1,8.352189E0,1.5257801E1,5.5496956E1,1.8740822E2,2.2605121E2,1.1033684E1,8.348568E0,2.7630224E0,3.2205463E1,3.7874546E1,5.9985413E1,1.1647164E1,7.619726E0,2.9754028E2,2.7846199E3,1.7083715E1,3.9057424E0,1.8255952E2,1.2848917E2,5.2578445E1,4.7796645E0,2.7871597E0,3.452013E0,3.936957E1,1.0622755E0,7.0500593E0,4.186546E1,1.302109E1,2.2367122E0,5.429412E1,1.2028371E0,1.5458071E1,1.7195015E2,2.1894078E0,8.844276E0,7.1668363E0,1.1817318E0,1.7849407E0,3.0420523E1,1.2997427E1,2.4877117E1,5.278697E1,7.1984434E0,2.013229E0,9.633936E0,2.1797676E2,7.956351E1,2.7638875E3,2.07325E1,1.3569241E1,3.5144758E0,1.9730297E1,1.6282922E2,1.27234825E2,1.2543426E0,3.782698E1,1.4751464E1],"tree_param":{"num_deleted":"0","num_feature":"17","num_nodes":"95","size_leaf_vector":"1"}},{"base_weights":[-2.9296537E-3,-1.050163E0,9.6150076E-1,-5.831237E-1,-2.6066783E-1,1.0263166E0,-2.5828293E-1,-7.903489E-1,1.8124871E-1,1.1414354E0,6.033413E-1,-6.4639276E-1,-1.1853313E0,6.5107185E-1,-8.798619E-1,8.663165E-1,1.1573253E0,-1.2250829E-1,7.548047E-1,-1.4265694E-1,-9.7228724E-1,-2.66948E-1,-1.2097737E-1,1.0462449E0,2.6094517E-1,-2.7170977E-1,-3.5169125E-1,-3.0567285E-1,9.895433E-1,5.211832E-2,1.1584618E0,-6.4681476E-1,6.6317445E-1,8.103992E-1,-6.0030043E-1,-5.3907394E-1,4.1947642E-1,-1.1382415E0,-5.014203E-2,-1.8414484E-1,1.7537399E-1,-6.098921E-2,1.0846156E0,-6.1244667E-1,7.7068263E-1,3.6625263E-1,-2.531576E-1,7.7141917E-1,-4.870578E-1,1.0370592E0,-7.409389E-1,7.40922E-2,-5.886767E-2,1.0708019E0,1.1718581E0,-1.5908084E0,2.1202709E-1,1.15159E0,-1.3323841E0,3.9061886E-1,9.4697315E-1,8.915138E-1,-2.1935365E0,7.906172E-2,-1.8417104E-1,1.2711112E-1,-1.8258408E-1,-1.4365536E-1,-2.645606E-1,2.4423976E-1,-2.7783847E-1,2.4489903E-1,2.3585262E-2,2.3344062E-2,-2.9092184E-1,2.3928128E-1,4.3438043E-2,2.1259391E-1,-2.4745822E-1,2.1932286E-1,-8.030764E-2,2.3879237E-1,1.0019143E-1,-3.2870114E-1,1.4863928E-1,2.3759227E-1,-1.5131693E-1,2.5806233E-1,1.5486115E-1,-7.493133E-2,-3.9436856E-1,-7.727211E-2,2.5089985E-1,2.714218E-1,-1.9425996E-1,-2.5993383E-2,-3.5030484E-1,-3.2546797E-1,1.2658447E-1,-6.1303608E-2,2.1842355E-1,2.5651634E-1,-2.1692066E-1,-5.4522777E-1,-2.1291703E-1],"categories":[],"categories_nodes":[],"categories_segments":[],"categories_sizes":[],"default_left":[0,0,0,0,0,0,0,0,0,0,0,0,0,0,0,0,0,0,0,0,0,0,0,0,0,0,0,0,0,0,0,0,0,0,0,0,0,0,0,0,0,0,0,0,0,0,0,0,0,0,0,0,0,0,0,0,0,0,0,0,0,0,0,0,0,0,0,0,0,0,0,0,0,0,0,0,0,0,0,0,0,0,0,0,0,0,0,0,0,0,0,0,0,0,0,0,0,0,0,0,0,0,0,0,0],"id":5,"left_children":[1,3,5,7,-1,9,-1,11,13,15,17,19,21,23,25,27,29,31,33,35,37,-1,39,41,43,-1,45,47,49,51,53,55,57,59,61,63,65,67,69,-1,-1,-1,71,73,75,77,-1,79,-1,81,83,-1,-1,85,87,89,91,93,95,97,99,101,103,-1,-1,-1,-1,-1,-1,-1,-1,-1,-1,-1,-1,-1,-1,-1,-1,-1,-1,-1,-1,-1,-1,-1,-1,-1,-1,-1,-1,-1,-1,-1,-1,-1,-1,-1,-1,-1,-1,-1,-1,-1,-1],"loss_changes":[6.05472E3,1.8010376E2,4.3317334E2,1.0235617E2,0E0,1.4682104E2,0E0,2.811029E1,6.959187E1,9.402344E0,7.1578384E1,6.1324265E1,3.869995E0,1.4609089E1,7.615776E0,1.9646431E1,2.7624512E0,4.702696E1,4.1025726E1,3.326039E1,3.4705444E1,0E0,3.668615E0,2.7191162E0,2.269127E1,0E0,1.112145E1,2.94697E1,1.075338E1,3.955037E-1,1.3815918E0,5.5752037E1,4.6142815E1,2.9289062E1,5.372472E1,2.369913E1,1.2716197E1,5.220749E0,5.162661E1,0E0,0E0,0E0,1.1783714E0,9.807329E0,5.5918007E0,1.0556388E1,0E0,2.7665925E0,0E0,2.8419113E0,5.094125E0,0E0,0E0,5.725067E0,2.1875E-1,7.633087E0,1.9578129E1,7.324299E0,2.7982655E0,4.531755E1,2.2177399E1,7.312646E0,1.3787346E0,0E0,0E0,0E0,0E0,0E0,0E0,0E0,0E0,0E0,0E0,0E0,0E0,0E0,0E0,0E0,0E0,0E0,0E0,0E0,0E0,0E0,0E0,0E0,0E0,0E0,0E0,0E0,0E0,0E0,0E0,0E0,0E0,0E0,0E0,0E0,0E0,0E0,0E0,0E0,0E0,0E0,0E0],"parents":[2147483647,0,0,1,1,2,2,3,3,5,5,7,7,8,8,9,9,10,10,11,11,12,12,13,13,14,14,15,15,16,16,17,17,18,18,19,19,20,20,22,22,23,23,24,24,26,26,27,27,28,28,29,29,30,30,31,31,32,32,33,33,34,34,35,35,36,36,37,37,38,38,42,42,43,43,44,44,45,45,47,47,49,49,50,50,53,53,54,54,55,55,56,56,57,57,58,58,59,59,60,60,61,61,62,62],"right_children":[2,4,6,8,-1,10,-1,12,14,16,18,20,22,24,26,28,30,32,34,36,38,-1,40,42,44,-1,46,48,50,52,54,56,58,60,62,64,66,68,70,-1,-1,-1,72,74,76,78,-1,80,-1,82,84,-1,-1,86,88,90,92,94,96,98,100,102,104,-1,-1,-1,-1,-1,-1,-1,-1,-1,-1,-1,-1,-1,-1,-1,-1,-1,-1,-1,-1,-1,-1,-1,-1,-1,-1,-1,-1,-1,-1,-1,-1,-1,-1,-1,-1,-1,-1,-1,-1,-1,-1],"split_conditions":[-3.4804102E-2,5.230442E-1,5.230442E-1,4.2171252E-1,-2.6066783E-1,1.3181597E0,-2.5828293E-1,1.22373E0,5.617208E-1,-2.8571062E-2,1.2819608E-1,-6.2840974E-1,9.7977906E-1,-1.0177425E0,7.121778E-2,-5.5680882E-2,-1.06232844E-1,1.248117E0,-7.7366172E-3,-2.67156E-2,-7.511583E-3,-2.66948E-1,2.0992002E-1,-1.0493645E-1,-2.7355736E-2,-2.7170977E-1,1.5880002E0,-4.8244113E-1,9.7762287E-1,-5.0053525E-1,-1.8814312E-2,3.2665346E-2,4.984345E-1,-1.2595311E0,-5.0053525E-1,-3.1323638E-2,-5.7231348E-2,-4.4568408E-1,-2.4981285E-3,-1.8414484E-1,1.7537399E-1,-6.098921E-2,2.1326847E-1,-5.2216184E-1,-5.516959E-1,-1.0742146E0,-2.531576E-1,-3.0138927E-2,-4.870578E-1,7.378629E-1,1.3207225E0,7.40922E-2,-5.886767E-2,4.400847E0,9.7977906E-1,-1.2488382E0,-8.0312866E-1,1.1136692E-1,-3.0584237E-2,3.9301044E-1,-2.634451E-2,5.705475E-1,2.806404E0,7.906172E-2,-1.8417104E-1,1.2711112E-1,-1.8258408E-1,-1.4365536E-1,-2.645606E-1,2.4423976E-1,-2.7783847E-1,2.4489903E-1,2.3585262E-2,2.3344062E-2,-2.9092184E-1,2.3928128E-1,4.3438043E-2,2.1259391E-1,-2.4745822E-1,2.1932286E-1,-8.030764E-2,2.3879237E-1,1.0019143E-1,-3.2870114E-1,1.4863928E-1,2.3759227E-1,-1.5131693E-1,2.5806233E-1,1.5486115E-1,-7.493133E-2,-3.9436856E-1,-7.727211E-2,2.5089985E-1,2.714218E-1,-1.9425996E-1,-2.5993383E-2,-3.5030484E-1,-3.2546797E-1,1.2658447E-1,-6.1303608E-2,2.1842355E-1,2.5651634E-1,-2.1692066E-1,-5.4522777E-1,-2.1291703E-1],"split_indices":[14,9,9,1,0,8,0,8,8,4,14,6,4,6,13,5,11,1,2,4,4,0,13,11,4,0,8,8,8,3,4,14,13,6,3,4,11,6,4,0,0,0,8,8,8,6,0,4,0,8,1,0,0,1,4,6,6,14,4,14,4,5,1,0,0,0,0,0,0,0,0,0,0,0,0,0,0,0,0,0,0,0,0,0,0,0,0,0,0,0,0,0,0,0,0,0,0,0,0,0,0,0,0,0,0],"split_type":[0,0,0,0,0,0,0,0,0,0,0,0,0,0,0,0,0,0,0,0,0,0,0,0,0,0,0,0,0,0,0,0,0,0,0,0,0,0,0,0,0,0,0,0,0,0,0,0,0,0,0,0,0,0,0,0,0,0,0,0,0,0,0,0,0,0,0,0,0,0,0,0,0,0,0,0,0,0,0,0,0,0,0,0,0,0,0,0,0,0,0,0,0,0,0,0,0,0,0,0,0,0,0,0,0],"sum_hessian":[5.992869E3,2.8730544E3,3.119815E3,6.442949E2,2.2287595E3,3.0284175E3,9.13974E1,5.0685107E2,1.3744386E2,2.379189E3,6.4922845E2,3.7339813E2,1.3345294E2,9.553201E1,4.1911854E1,1.3294176E2,2.2462473E3,1.1211883E2,5.371096E2,1.472426E2,2.2615552E2,1.2988757E2,3.5653672E0,4.662356E1,4.8908455E1,2.4259539E1,1.7652317E1,1.2507215E1,1.2043454E2,2.3556519E0,2.2438916E3,6.735071E1,4.4768127E1,5.163287E2,2.0780916E1,8.637318E1,6.086943E1,1.9146422E2,3.4691303E1,2.0527692E0,1.512598E0,1.1382567E0,4.5485306E1,1.7950428E1,3.0958027E1,9.5831995E0,8.069118E0,8.375456E0,4.1317587E0,1.1760601E2,2.8285306E0,1.2178352E0,1.1378167E0,3.0818472E2,1.9357069E3,3.1678785E1,3.567192E1,3.6305283E1,8.462842E0,1.2769608E2,3.8863263E2,1.0959506E1,9.821411E0,2.146547E1,6.490771E1,5.4501556E1,6.3678727E0,2.3708965E1,1.6775525E2,1.777216E1,1.6919142E1,4.405891E1,1.4263945E0,9.343685E0,8.606743E0,1.9357388E1,1.1600638E1,7.0840955E0,2.499104E0,7.0911584E0,1.2842976E0,1.0777863E2,9.827377E0,1.81096E0,1.0175704E0,3.0697116E2,1.21355E0,1.9294478E3,6.259125E0,4.7757936E0,2.690299E1,2.2589104E1,1.3082816E1,3.5274708E1,1.0305781E0,1.748572E0,6.7142696E0,1.0852307E1,1.1684377E2,1.3834483E1,3.7479813E2,9.892345E0,1.0671611E0,7.1405597E0,2.680851E0],"tree_param":{"num_deleted":"0","num_feature":"17","num_nodes":"105","size_leaf_vector":"1"}},{"base_weights":[-3.980406E-3,-9.9816114E-1,9.004025E-1,-5.291891E-1,-2.5129017E-1,9.6054685E-1,-2.4847938E-1,1.4053127E-1,-7.4428266E-1,1.0562685E0,4.8056893E-2,-1.0426855E0,4.6460104E-1,-9.0727353E-1,-2.8579164E-1,-2.1235745E-1,1.0652237E0,-2.1448006E-1,1.0890163E0,-2.5669518E-1,-3.5798647E-2,2.5864504E-2,8.719688E-1,-9.535891E-1,7.601229E-2,1.4603584E-1,-1.0661029E0,5.937861E-1,-2.4601482E-1,1.1094565E0,8.922175E-1,-5.5956817E-1,8.8639855E-1,1.1222545E0,-1.8244408E-2,1.7928074E-1,-1.7932178E-1,2.055583E-1,-2.3622163E-1,9.374684E-1,8.53895E-2,-7.421345E-1,-1.1455122E0,8.2202405E-1,-7.692128E-1,-9.821987E-1,4.660695E-1,-2.5644615E-1,-4.2406446E-1,-1.6377985E-1,8.3988214E-1,9.728129E-1,2.4735938E-1,3.797844E-1,1.010682E0,-8.1319577E-1,6.1792284E-1,-2.7143782E-1,1.0640349E0,8.117671E-2,2.506425E-1,7.4032016E-2,-2.6860029E-1,1.3544747E-1,2.3487006E-1,-1.7032853E-1,1.1058846E-1,-6.6194616E-2,-2.2859944E-1,-2.015066E-1,-2.5898635E-1,2.1416996E-1,8.36554E-3,-2.4297535E-1,1.5240005E-1,1.8954852E-1,-2.6041263E-1,2.0716798E-1,2.052474E-2,1.5954573E-1,-2.1857384E-1,2.6708927E-2,2.0371188E-1,2.3602922E-1,9.773384E-2,-1.8278705E-1,1.5380825E-1,-1.4222275E-1,2.2510768E-1,-5.1112294E-2,-2.8584537E-1,2.3310444E-1,-2.3821315E-1,2.42147E-1,-8.055097E-3],"categories":[],"categories_nodes":[],"categories_segments":[],"categories_sizes":[],"default_left":[0,0,0,0,0,0,0,0,0,0,0,0,0,0,0,0,0,0,0,0,0,0,0,0,0,0,0,0,0,0,0,0,0,0,0,0,0,0,0,0,0,0,0,0,0,0,0,0,0,0,0,0,0,0,0,0,0,0,0,0,0,0,0,0,0,0,0,0,0,0,0,0,0,0,0,0,0,0,0,0,0,0,0,0,0,0,0,0,0,0,0,0,0,0,0],"id":6,"left_children":[1,3,5,7,-1,9,-1,11,13,15,17,19,21,23,25,27,29,31,33,-1,35,37,39,41,43,45,47,49,-1,51,53,55,57,59,-1,-1,-1,61,-1,63,65,67,69,71,73,75,77,-1,79,-1,81,83,-1,85,87,89,91,-1,93,-1,-1,-1,-1,-1,-1,-1,-1,-1,-1,-1,-1,-1,-1,-1,-1,-1,-1,-1,-1,-1,-1,-1,-1,-1,-1,-1,-1,-1,-1,-1,-1,-1,-1,-1,-1],"loss_changes":[4.5632036E3,1.6273486E2,3.2553857E2,8.2215E1,0E0,2.254458E2,0E0,5.3938904E1,3.1993896E1,2.677124E1,6.7506E1,3.7422829E0,1.965979E1,1.4552216E1,3.878856E1,1.3233375E1,1.6766357E1,7.549373E1,2.0307312E0,0E0,3.5511155E0,1.0900855E1,2.8604088E0,1.1475616E1,1.0234696E1,2.7424868E1,2.124279E0,3.839715E0,0E0,2.661377E0,2.860611E1,4.557188E1,1.9202934E1,2.0100403E-1,0E0,0E0,0E0,9.246127E0,0E0,1.5446625E0,2.3575485E0,1.8994156E1,6.6970825E-2,9.810233E-1,4.5171475E0,7.270815E0,1.034767E1,0E0,5.3485007E0,0E0,4.2653608E-1,9.504639E0,0E0,3.5867817E1,8.706085E0,3.4880142E1,2.166269E1,0E0,1.8291473E0,0E0,0E0,0E0,0E0,0E0,0E0,0E0,0E0,0E0,0E0,0E0,0E0,0E0,0E0,0E0,0E0,0E0,0E0,0E0,0E0,0E0,0E0,0E0,0E0,0E0,0E0,0E0,0E0,0E0,0E0,0E0,0E0,0E0,0E0,0E0,0E0],"parents":[2147483647,0,0,1,1,2,2,3,3,5,5,7,7,8,8,9,9,10,10,11,11,12,12,13,13,14,14,15,15,16,16,17,17,18,18,20,20,21,21,22,22,23,23,24,24,25,25,26,26,27,27,29,29,30,30,31,31,32,32,33,33,37,37,39,39,40,40,41,41,42,42,43,43,44,44,45,45,46,46,48,48,50,50,51,51,53,53,54,54,55,55,56,56,58,58],"right_children":[2,4,6,8,-1,10,-1,12,14,16,18,20,22,24,26,28,30,32,34,-1,36,38,40,42,44,46,48,50,-1,52,54,56,58,60,-1,-1,-1,62,-1,64,66,68,70,72,74,76,78,-1,80,-1,82,84,-1,86,88,90,92,-1,94,-1,-1,-1,-1,-1,-1,-1,-1,-1,-1,-1,-1,-1,-1,-1,-1,-1,-1,-1,-1,-1,-1,-1,-1,-1,-1,-1,-1,-1,-1,-1,-1,-1,-1,-1,-1],"split_conditions":[-3.4804102E-2,5.230442E-1,5.230442E-1,-1.2571115E0,-2.5129017E-1,1.1822163E0,-2.4847938E-1,-2.4490738E0,-1.5732193E-2,-2.4490738E0,9.558799E-1,-6.6072273E-1,-6.233677E-1,2.0992002E-1,1.22373E0,2.4141584E-1,1.2118064E0,1.3979308E1,2.0775084E-1,-2.5669518E-1,-1.0396416E-1,-8.8624644E-1,-1.7999537E-1,-1.4803362E-1,6.0647255E-1,-2.4490738E0,-2.8665585E-3,-1.078504E0,-2.4601482E-1,3.2665346E-2,1.2819608E-1,5.987123E0,-1.2595311E0,1.0343271E0,-1.8244408E-2,1.7928074E-1,-1.7932178E-1,-5.616792E-2,-2.3622163E-1,-1.1126656E-1,-6.1020855E-2,-1.1521496E-1,-1.0468554E-1,5.843525E-1,1.1191576E0,-6.1020855E-2,-5.2216184E-1,-2.5644615E-1,7.5882087E-3,-1.6377985E-1,-3.062051E-1,2.0148624E-1,2.4735938E-1,-4.950907E-2,-1.059192E-1,4.9750546E-1,1.36142E0,-2.7143782E-1,-1.2250304E-2,8.117671E-2,2.506425E-1,7.4032016E-2,-2.6860029E-1,1.3544747E-1,2.3487006E-1,-1.7032853E-1,1.1058846E-1,-6.6194616E-2,-2.2859944E-1,-2.015066E-1,-2.5898635E-1,2.1416996E-1,8.36554E-3,-2.4297535E-1,1.5240005E-1,1.8954852E-1,-2.6041263E-1,2.0716798E-1,2.052474E-2,1.5954573E-1,-2.1857384E-1,2.6708927E-2,2.0371188E-1,2.3602922E-1,9.773384E-2,-1.8278705E-1,1.5380825E-1,-1.4222275E-1,2.2510768E-1,-5.1112294E-2,-2.8584537E-1,2.3310444E-1,-2.3821315E-1,2.42147E-1,-8.055097E-3],"split_indices":[14,9,9,7,0,7,0,10,2,10,6,6,8,13,8,7,8,0,5,0,11,6,8,13,7,10,11,6,0,14,14,5,6,6,0,0,0,11,0,5,14,5,11,13,5,14,8,0,11,0,7,8,0,13,11,5,7,0,2,0,0,0,0,0,0,0,0,0,0,0,0,0,0,0,0,0,0,0,0,0,0,0,0,0,0,0,0,0,0,0,0,0,0,0,0],"split_type":[0,0,0,0,0,0,0,0,0,0,0,0,0,0,0,0,0,0,0,0,0,0,0,0,0,0,0,0,0,0,0,0,0,0,0,0,0,0,0,0,0,0,0,0,0,0,0,0,0,0,0,0,0,0,0,0,0,0,0,0,0,0,0,0,0,0,0,0,0,0,0,0,0,0,0,0,0,0,0,0,0,0,0,0,0,0,0,0,0,0,0,0,0,0,0],"sum_hessian":[5.073189E3,2.4165698E3,2.6566191E3,5.690032E2,1.8475667E3,2.5806807E3,7.59385E1,1.384059E2,4.3059726E2,2.3355232E3,2.4515738E2,2.9280796E1,1.0912511E2,3.1694598E2,1.1365127E2,1.6211746E1,2.3193115E3,1.9641432E2,4.874305E1,2.5926262E1,3.3545356E0,5.3051716E1,5.607339E1,3.0271735E2,1.4228639E1,7.368598E1,3.9965282E1,8.760446E0,7.4512997E0,1.8427572E3,4.7655432E2,1.499133E2,4.650103E1,4.7439976E1,1.3030742E0,1.581939E0,1.7725967E0,4.6298748E1,6.7529674E0,5.1585926E1,4.487462E0,1.4634555E2,1.563718E2,7.572476E0,6.6561623E0,1.5825681E1,5.7860302E1,3.3893776E1,6.0715065E0,1.0462129E0,7.714233E0,1.8774663E2,1.6550105E3,9.027298E1,3.8628134E2,1.2359971E2,2.6313581E1,3.1351593E0,4.336587E1,1.549911E0,4.5890064E1,4.310571E1,3.1930397E0,1.6503551E1,3.5082375E1,1.1869545E0,3.3005073E0,5.9679604E1,8.666595E1,2.2598635E1,1.3377316E2,6.1437383E0,1.4287379E0,5.613531E0,1.0426314E0,1.2363639E0,1.4589316E1,2.4753096E1,3.310721E1,1.9210066E0,4.1505E0,1.0832443E0,6.6309886E0,1.5699997E2,3.0746662E1,1.8507856E1,7.176512E1,2.5202394E0,3.837611E2,5.698426E1,6.6615456E1,2.1188345E1,5.1252356E0,4.1968987E1,1.3968834E0],"tree_param":{"num_deleted":"0","num_feature":"17","num_nodes":"95","size_leaf_vector":"1"}},{"base_weights":[-4.3487935E-3,-9.5375854E-1,8.504339E-1,-4.7970983E-1,-2.4428251E-1,9.066907E-1,-2.4092086E-1,4.0927317E-2,-7.1591425E-1,1.006198E0,4.6848916E-2,-8.4977114E-1,3.4486645E-1,-9.622027E-1,-3.2737035E-1,6.820607E-1,1.0466025E0,-2.2827238E-1,8.7458515E-1,-1.0552039E0,5.339473E-1,-2.391835E-2,7.819999E-1,-1.080181E0,1.2378117E-1,-6.268832E-1,5.886546E-1,-7.365194E-1,7.5771654E-1,1.0845914E0,8.707732E-1,-5.539652E-1,8.030382E-1,-2.4265468E-1,1.0139261E0,-4.617425E-1,-2.5399485E-1,3.2613254E-1,-1.8671267E-1,-2.4777547E-1,8.1288135E-1,-8.1373155E-1,8.658186E-1,-6.724052E-1,-1.1031928E0,6.1125225E-1,-8.44452E-1,3.574578E-1,-9.509994E-1,1.0986199E0,-4.3376115E-1,1.9445507E-1,-1.5247182E0,9.5304E-1,2.9309613E-1,1.0898684E0,1.801058E-1,-4.036305E-1,8.9166987E-1,-7.7513325E-1,2.779445E-1,-2.4702294E-1,9.7202885E-1,1.0599672E0,-4.5789488E-2,-2.177803E-1,2.1700026E-1,7.597033E-2,-1.5044364E-1,2.1183905E-1,-9.9451564E-2,-2.973468E-1,2.4030771E-2,9.289488E-2,2.2733483E-1,-1.7770372E-1,9.648237E-2,-1.4083833E-1,-2.4802598E-1,-1.9688009E-1,1.9992779E-1,-2.2233443E-1,1.0210625E-2,1.6116844E-1,-2.4958187E-1,-2.4222712E-1,5.864553E-2,-2.0204209E-1,2.7760476E-1,-2.641961E-1,1.8596584E-1,-1.2449743E-2,-3.8405678E-1,1.0418899E-1,2.2666666E-1,-5.6118306E-2,2.3020187E-1,2.0061222E-1,2.4175589E-1,-3.79791E-1,1.6400383E-1,-4.132357E-2,2.064815E-1,-2.1632734E-1,5.5769578E-2,-3.0606362E-1,1.4347899E-1,2.2804353E-1,2.9624702E-2,2.4129213E-1,8.8052705E-2],"categories":[],"categories_nodes":[],"categories_segments":[],"categories_sizes":[],"default_left":[0,0,0,0,0,0,0,0,0,0,0,0,0,0,0,0,0,0,0,0,0,0,0,0,0,0,0,0,0,0,0,0,0,0,0,0,0,0,0,0,0,0,0,0,0,0,0,0,0,0,0,0,0,0,0,0,0,0,0,0,0,0,0,0,0,0,0,0,0,0,0,0,0,0,0,0,0,0,0,0,0,0,0,0,0,0,0,0,0,0,0,0,0,0,0,0,0,0,0,0,0,0,0,0,0,0,0,0,0,0,0],"id":7,"left_children":[1,3,5,7,-1,9,-1,11,13,15,17,19,21,23,25,27,29,31,33,35,37,39,41,43,45,47,49,51,53,55,57,59,61,-1,63,65,-1,-1,-1,67,69,71,73,75,77,79,81,83,85,87,89,-1,91,93,95,97,99,-1,101,103,105,-1,107,109,-1,-1,-1,-1,-1,-1,-1,-1,-1,-1,-1,-1,-1,-1,-1,-1,-1,-1,-1,-1,-1,-1,-1,-1,-1,-1,-1,-1,-1,-1,-1,-1,-1,-1,-1,-1,-1,-1,-1,-1,-1,-1,-1,-1,-1,-1,-1],"loss_changes":[3.4685422E3,1.4980579E2,2.4715552E2,6.2086166E1,0E0,1.8702588E2,0E0,4.31842E1,3.2908722E1,2.4950195E1,5.2083927E1,1.2103733E1,1.9176222E1,2.7292847E1,3.7739777E1,2.417646E1,1.0681641E1,5.8147972E1,1.683688E1,1.5702591E0,9.011282E0,1.2457635E1,7.9818726E0,1.0533752E0,1.0743746E1,3.3243164E1,1.8244883E1,1.6226383E1,1.8725517E1,6.6158447E0,1.940564E1,2.4346306E1,1.464323E1,0E0,3.248188E0,6.1639185E0,0E0,0E0,0E0,1.3784334E1,3.100132E0,1.7514436E0,3.440899E0,2.2758284E0,1.2897339E0,7.5315924E0,1.1831841E0,1.5535231E1,1.4516312E1,8.737471E0,1.2846464E1,0E0,2.563055E0,4.957245E0,2.6457115E1,1.2763672E0,1.1501053E1,0E0,1.5995712E1,2.2491516E1,1.8572754E1,0E0,1.9579849E0,8.244858E-1,0E0,0E0,0E0,0E0,0E0,0E0,0E0,0E0,0E0,0E0,0E0,0E0,0E0,0E0,0E0,0E0,0E0,0E0,0E0,0E0,0E0,0E0,0E0,0E0,0E0,0E0,0E0,0E0,0E0,0E0,0E0,0E0,0E0,0E0,0E0,0E0,0E0,0E0,0E0,0E0,0E0,0E0,0E0,0E0,0E0,0E0,0E0],"parents":[2147483647,0,0,1,1,2,2,3,3,5,5,7,7,8,8,9,9,10,10,11,11,12,12,13,13,14,14,15,15,16,16,17,17,18,18,19,19,20,20,21,21,22,22,23,23,24,24,25,25,26,26,27,27,28,28,29,29,30,30,31,31,32,32,34,34,35,35,39,39,40,40,41,41,42,42,43,43,44,44,45,45,46,46,47,47,48,48,49,49,50,50,52,52,53,53,54,54,55,55,56,56,58,58,59,59,60,60,62,62,63,63],"right_children":[2,4,6,8,-1,10,-1,12,14,16,18,20,22,24,26,28,30,32,34,36,38,40,42,44,46,48,50,52,54,56,58,60,62,-1,64,66,-1,-1,-1,68,70,72,74,76,78,80,82,84,86,88,90,-1,92,94,96,98,100,-1,102,104,106,-1,108,110,-1,-1,-1,-1,-1,-1,-1,-1,-1,-1,-1,-1,-1,-1,-1,-1,-1,-1,-1,-1,-1,-1,-1,-1,-1,-1,-1,-1,-1,-1,-1,-1,-1,-1,-1,-1,-1,-1,-1,-1,-1,-1,-1,-1,-1,-1,-1],"split_conditions":[-3.4804102E-2,5.230442E-1,5.230442E-1,-1.0296644E0,-2.4428251E-1,1.1822163E0,-2.4092086E-1,-2.4490738E0,-1.2530604E-2,3.2665346E-2,-2.8068766E-1,-1.0772338E0,-2.888649E-2,-9.510761E-3,6.944211E-1,-3.0482186E-2,7.9482424E-1,1.3979308E1,-1.6510567E-2,-3.1345904E-2,-1.0333687E-1,-1.7365347E-1,-1.0354597E-1,-3.14127E-2,2.9553816E-1,2.0810438E-2,3.8427743E-3,2.67025E-2,6.241907E-1,3.4575799E0,-1.059192E-1,2.9326208E0,-1.2595311E0,-2.4265468E-1,1.3706644E0,-3.135147E-2,-2.5399485E-1,3.2613254E-1,-1.8671267E-1,-5.508965E-2,-1.483018E0,-2.0193657E-2,-6.1020855E-2,-1.3339833E-2,-9.229703E-1,-4.950907E-2,1.0343271E0,2.1919781E-2,4.5342705E-1,-6.1020855E-2,5.379019E-1,1.9445507E-1,-3.1427544E-2,-2.5787871E-2,7.399834E-1,-2.8654559E-2,-1.0109228E-2,-4.036305E-1,-2.634451E-2,1.8100323E-1,-9.979774E-2,-2.4702294E-1,1.3747087E0,6.665711E-1,-4.5789488E-2,-2.177803E-1,2.1700026E-1,7.597033E-2,-1.5044364E-1,2.1183905E-1,-9.9451564E-2,-2.973468E-1,2.4030771E-2,9.289488E-2,2.2733483E-1,-1.7770372E-1,9.648237E-2,-1.4083833E-1,-2.4802598E-1,-1.9688009E-1,1.9992779E-1,-2.2233443E-1,1.0210625E-2,1.6116844E-1,-2.4958187E-1,-2.4222712E-1,5.864553E-2,-2.0204209E-1,2.7760476E-1,-2.641961E-1,1.8596584E-1,-1.2449743E-2,-3.8405678E-1,1.0418899E-1,2.2666666E-1,-5.6118306E-2,2.3020187E-1,2.0061222E-1,2.4175589E-1,-3.79791E-1,1.6400383E-1,-4.132357E-2,2.064815E-1,-2.1632734E-1,5.5769578E-2,-3.0606362E-1,1.4347899E-1,2.2804353E-1,2.9624702E-2,2.4129213E-1,8.8052705E-2],"split_indices":[14,9,9,7,0,7,0,10,4,14,6,7,4,2,6,4,7,0,4,4,11,1,11,4,7,7,4,14,7,1,11,14,6,0,7,4,0,0,0,13,7,4,14,2,7,13,6,4,13,14,1,0,4,4,6,4,4,0,4,4,11,0,7,1,0,0,0,0,0,0,0,0,0,0,0,0,0,0,0,0,0,0,0,0,0,0,0,0,0,0,0,0,0,0,0,0,0,0,0,0,0,0,0,0,0,0,0,0,0,0,0],"split_type":[0,0,0,0,0,0,0,0,0,0,0,0,0,0,0,0,0,0,0,0,0,0,0,0,0,0,0,0,0,0,0,0,0,0,0,0,0,0,0,0,0,0,0,0,0,0,0,0,0,0,0,0,0,0,0,0,0,0,0,0,0,0,0,0,0,0,0,0,0,0,0,0,0,0,0,0,0,0,0,0,0,0,0,0,0,0,0,0,0,0,0,0,0,0,0,0,0,0,0,0,0,0,0,0,0,0,0,0,0,0,0],"sum_hessian":[4.272031E3,2.0239298E3,2.2481008E3,5.036225E2,1.5203074E3,2.1854407E3,6.26602E1,1.5743471E2,3.4618777E2,1.9586061E3,2.268346E2,3.959756E1,1.1783714E2,2.1097774E2,1.3521005E2,2.1906645E2,1.7395397E3,1.7079149E2,5.604311E1,3.468543E1,4.9121327E0,6.4428085E1,5.3409054E1,1.9030849E2,2.066924E1,1.0213168E2,3.307837E1,1.0649452E1,2.08417E2,1.4262264E3,3.1331323E2,1.301518E2,4.06397E1,3.2337217E0,5.2809387E1,5.782437E0,2.8902992E1,2.8707032E0,2.0414298E0,5.1385544E1,1.3042542E1,2.2308142E0,5.1178238E1,1.1780208E1,1.7852829E2,1.39929695E1,6.676271E0,2.5273424E1,7.685826E1,2.20204E1,1.1057971E1,3.44523E0,7.2042227E0,1.4599178E2,6.242523E1,1.4177499E3,8.476565E0,1.7361684E0,3.1157706E2,1.0287114E2,2.728065E1,2.823047E0,3.7816658E1,5.101986E1,1.7895288E0,4.4689045E0,1.3135321E0,2.186055E1,2.9524994E1,1.1873138E1,1.1694044E0,1.1160567E0,1.1147575E0,1.4994871E1,3.618337E1,1.0744257E1,1.03595E0,1.0230357E1,1.6829793E2,1.9768864E0,1.2016084E1,5.513506E0,1.162765E0,2.0602205E1,4.6712174E0,6.8511734E1,8.346528E0,1.3021739E0,2.0718224E1,6.9504676E0,4.1075034E0,1.1068927E0,6.09733E0,2.12507E1,1.2474107E2,3.6514214E1,2.591101E1,7.331841E1,1.3444314E3,1.4691377E0,7.007427E0,1.2843308E1,2.9873376E2,8.559302E1,1.727812E1,4.498608E0,2.2782042E1,3.488996E1,2.926695E0,4.769578E1,3.3240764E0],"tree_param":{"num_deleted":"0","num_feature":"17","num_nodes":"111","size_leaf_vector":"1"}},{"base_weights":[-4.842571E-3,-9.1740483E-1,8.048165E-1,-4.4034111E-1,-2.3895346E-1,8.5748696E-1,-2.3489791E-1,-2.7411237E-1,-1.0283757E0,1.0077219E0,4.1379806E-1,-4.198426E-1,7.973427E-1,-1.0702076E0,-1.0675902E-1,7.9374105E-1,1.0519601E0,-5.4940928E-2,5.9735566E-1,-8.6785525E-2,-6.794887E-1,9.63833E-1,-1.8146251E-1,-2.4231178E-1,-1.0781424E-1,-1.8997793E-1,2.2736031E-1,9.447068E-1,3.093457E-1,-9.422573E-2,1.0541427E0,1.2579443E-1,-1.3236781E0,6.5619206E-1,-1.0410651E0,2.889469E-1,-3.633949E-1,-9.033978E-1,6.881128E-2,-5.6147235E-3,2.185923E-1,-2.2941467E-1,5.09925E-1,-1.4554913E-1,9.808187E-2,9.6986413E-1,-2.7517092E-1,5.1496184E-1,-1.886017E0,3.8128734E-1,1.0578431E0,-1.519759E-1,8.908005E-1,-3.7701973E-1,5.5639535E-1,2.6977143E-1,8.075535E-1,5.223287E-1,-4.121751E-1,2.7595037E-1,1.42531255E-2,-1.3516341E-1,4.9568847E-2,-2.0884907E-1,1.0047542E-1,1.354649E-1,-1.6599877E-1,-1.4725227E-2,1.7033319E-1,2.2315909E-1,9.825417E-2,-9.086589E-2,1.6927128E-1,-4.847935E-1,-9.9685155E-2,1.5150905E-1,-1.079535E-1,2.3474652E-1,1.9378097E-1,-2.914597E-1,7.5057626E-2,2.4596882E-1,1.3062429E-2,4.7086637E-2,1.5621173E-1,-3.8529164E-1,8.682516E-2,-1.8270506E-1,1.8259147E-1,-4.630142E-2,1.8155901E-1],"categories":[],"categories_nodes":[],"categories_segments":[],"categories_sizes":[],"default_left":[0,0,0,0,0,0,0,0,0,0,0,0,0,0,0,0,0,0,0,0,0,0,0,0,0,0,0,0,0,0,0,0,0,0,0,0,0,0,0,0,0,0,0,0,0,0,0,0,0,0,0,0,0,0,0,0,0,0,0,0,0,0,0,0,0,0,0,0,0,0,0,0,0,0,0,0,0,0,0,0,0,0,0,0,0,0,0,0,0,0,0],"id":8,"left_children":[1,3,5,7,-1,9,-1,11,13,15,17,19,21,23,25,27,29,31,33,35,37,39,41,-1,43,-1,-1,45,47,-1,49,51,53,55,57,59,61,63,65,-1,-1,-1,67,-1,-1,69,-1,71,73,75,77,79,81,-1,83,85,87,89,-1,-1,-1,-1,-1,-1,-1,-1,-1,-1,-1,-1,-1,-1,-1,-1,-1,-1,-1,-1,-1,-1,-1,-1,-1,-1,-1,-1,-1,-1,-1,-1,-1],"loss_changes":[2.6505747E3,1.352909E2,1.8839209E2,4.2957794E1,0E0,1.2286011E2,0E0,5.4396576E1,3.6302338E0,1.2236694E1,4.042978E1,2.6353989E1,6.986418E0,2.668518E0,5.4898124E0,1.7305786E1,4.138794E0,3.0672636E1,3.321517E1,1.4130299E1,2.879477E1,1.0820923E0,4.6513495E0,0E0,1.5284748E0,0E0,0E0,1.1319702E1,2.7453526E1,0E0,2.4346924E0,2.5074274E1,1.3181763E1,1.887233E1,1.670717E1,1.2421869E1,1.1688487E1,8.680916E0,1.8668432E1,0E0,0E0,0E0,7.39328E-1,0E0,0E0,3.7720947E0,0E0,1.316988E1,1.3854771E0,2.4280615E0,9.0270996E-1,5.0744503E1,5.867634E0,0E0,3.846562E-2,2.4257633E1,9.278931E0,1.2794535E0,0E0,0E0,0E0,0E0,0E0,0E0,0E0,0E0,0E0,0E0,0E0,0E0,0E0,0E0,0E0,0E0,0E0,0E0,0E0,0E0,0E0,0E0,0E0,0E0,0E0,0E0,0E0,0E0,0E0,0E0,0E0,0E0,0E0],"parents":[2147483647,0,0,1,1,2,2,3,3,5,5,7,7,8,8,9,9,10,10,11,11,12,12,13,13,14,14,15,15,16,16,17,17,18,18,19,19,20,20,21,21,22,22,24,24,27,27,28,28,30,30,31,31,32,32,33,33,34,34,35,35,36,36,37,37,38,38,42,42,45,45,47,47,48,48,49,49,50,50,51,51,52,52,54,54,55,55,56,56,57,57],"right_children":[2,4,6,8,-1,10,-1,12,14,16,18,20,22,24,26,28,30,32,34,36,38,40,42,-1,44,-1,-1,46,48,-1,50,52,54,56,58,60,62,64,66,-1,-1,-1,68,-1,-1,70,-1,72,74,76,78,80,82,-1,84,86,88,90,-1,-1,-1,-1,-1,-1,-1,-1,-1,-1,-1,-1,-1,-1,-1,-1,-1,-1,-1,-1,-1,-1,-1,-1,-1,-1,-1,-1,-1,-1,-1,-1,-1],"split_conditions":[-3.4804102E-2,5.230442E-1,5.230442E-1,1.22373E0,-2.3895346E-1,1.3181597E0,-2.3489791E-1,7.121778E-2,6.1449723E0,-2.0193657E-2,2.1963751E-1,-6.2840974E-1,-4.7370774E-1,9.7977906E-1,-3.6321815E-2,-9.101714E-1,-1.06232844E-1,7.481143E-1,-7.7366172E-3,-5.508965E-2,-1.3533481E-2,-3.1113043E-2,-1.3294395E-2,-2.4231178E-1,2.0992002E-1,-1.8997793E-1,2.2736031E-1,3.4575799E0,8.4510005E-1,-9.422573E-2,-2.4490738E0,1.248117E0,2.1965075E0,-1.2595311E0,-5.0053525E-1,-6.1020855E-2,3.5543552E-1,-6.513419E-3,-2.4981285E-3,-5.6147235E-3,2.185923E-1,-2.2941467E-1,5.06464E-1,-1.4554913E-1,9.808187E-2,1.1231288E0,-2.7517092E-1,-1.3476945E-1,5.379019E-1,-3.423086E-2,2.906799E0,3.2665346E-2,-1.8444028E-1,-3.7701973E-1,4.74685E-2,3.9301044E-1,-2.920192E-2,2.0443845E0,-4.121751E-1,2.7595037E-1,1.42531255E-2,-1.3516341E-1,4.9568847E-2,-2.0884907E-1,1.0047542E-1,1.354649E-1,-1.6599877E-1,-1.4725227E-2,1.7033319E-1,2.2315909E-1,9.825417E-2,-9.086589E-2,1.6927128E-1,-4.847935E-1,-9.9685155E-2,1.5150905E-1,-1.079535E-1,2.3474652E-1,1.9378097E-1,-2.914597E-1,7.5057626E-2,2.4596882E-1,1.3062429E-2,4.7086637E-2,1.5621173E-1,-3.8529164E-1,8.682516E-2,-1.8270506E-1,1.8259147E-1,-4.630142E-2,1.8155901E-1],"split_indices":[14,9,9,8,0,8,0,13,1,4,14,6,6,4,11,6,11,13,2,13,4,4,2,0,13,0,0,1,8,0,10,1,8,6,3,14,1,2,4,0,0,0,6,0,0,8,0,1,1,11,13,14,15,0,4,14,4,8,0,0,0,0,0,0,0,0,0,0,0,0,0,0,0,0,0,0,0,0,0,0,0,0,0,0,0,0,0,0,0,0,0],"split_type":[0,0,0,0,0,0,0,0,0,0,0,0,0,0,0,0,0,0,0,0,0,0,0,0,0,0,0,0,0,0,0,0,0,0,0,0,0,0,0,0,0,0,0,0,0,0,0,0,0,0,0,0,0,0,0,0,0,0,0,0,0,0,0,0,0,0,0,0,0,0,0,0,0,0,0,0,0,0,0,0,0,0,0,0,0,0,0,0,0,0,0],"sum_hessian":[3.5853643E3,1.6855062E3,1.8998579E3,4.4135767E2,1.2441486E3,1.8484081E3,5.1449814E1,3.4523184E2,9.612582E1,1.3798977E3,4.6851038E2,3.0443353E2,4.0798306E1,9.179791E1,4.327903E0,2.3964978E2,1.1402479E3,1.3203694E2,3.3647342E2,1.3394801E2,1.7048553E2,3.4880577E1,5.917728E0,8.8774574E1,3.0233424E0,2.747201E0,1.5807018E0,1.8198303E2,5.7666756E1,1.3914012E0,1.1388566E3,1.16361725E2,1.56752205E1,3.253881E2,1.1085334E1,5.6778423E1,7.716959E1,1.3106154E2,3.9423992E1,1.0230232E0,3.3857555E1,2.4087014E0,3.5090265E0,1.4140157E0,1.6093268E0,1.8047328E2,1.5097398E0,5.3428143E1,4.2386117E0,6.7978354E0,1.1320587E3,8.595367E1,3.0408058E1,1.305521E1,2.6200101E0,9.236521E1,2.3302287E2,3.981133E0,7.104201E0,9.833515E0,4.694491E1,5.4073E1,2.3096592E1,1.2707365E2,3.9878922E0,2.3839773E1,1.5584218E1,1.3372711E0,2.1717553E0,1.6546434E2,1.5008949E1,1.136325E1,4.2064896E1,3.029327E0,1.209285E0,5.1814876E0,1.6163477E0,1.0714286E3,6.063014E1,2.494383E1,6.100984E1,2.361032E1,6.797738E0,1.5528984E0,1.0671116E0,4.617414E0,8.7747795E1,2.657995E0,2.3036488E2,1.2537267E0,2.7274063E0],"tree_param":{"num_deleted":"0","num_feature":"17","num_nodes":"91","size_leaf_vector":"1"}},{"base_weights":[-5.7133E-3,5.6428874E-1,-2.3486623E-1,-4.0543807E-1,6.932278E-1,-6.8351805E-1,1.2838472E-1,8.3855236E-1,-9.57601E-2,-1.9817561E-1,-9.906517E-1,5.2190363E-1,-6.6625905E-1,9.552749E-1,5.424313E-1,8.5705E-2,-9.593663E-1,4.4573295E-1,-5.222913E-1,-1.0553813E0,-2.6881856E-1,6.865946E-1,-2.4149449E-1,4.3708694E-1,-9.4509095E-1,5.914593E-1,1.0051101E0,-6.6327107E-1,6.2617356E-1,-6.292172E-1,2.9713398E-1,-1.1144065E0,4.922243E-4,-1.7292267E-1,6.214025E-1,-6.9431907E-1,5.410318E-1,-7.2698224E-1,-2.4244396E-1,2.1478187E-1,-2.0684962E-1,8.3089256E-1,-2.2427633E-1,-2.2227558E-1,2.165245E-1,-2.519279E-1,7.564389E-3,9.2424953E-1,2.2300649E-1,7.920996E-1,1.033426E0,-1.0850545E0,5.1756495E-1,1.974596E-1,7.6139116E-1,-1.206934E0,-3.148846E-1,5.3909063E-1,-9.720277E-2,-5.279947E-1,-2.6573527E-1,1.814407E-1,-2.2303677E-1,-1.5386714E-1,1.6342591E-1,-2.947105E-1,-9.645442E-2,2.3692422E-1,-1.7083189E-1,-2.4443908E-1,3.2128534E-1,-2.2032689E-1,2.166947E-1,-6.825858E-2,1.9697042E-1,1.15630865E-1,-1.9576551E-1,2.0984423E-1,-6.2282298E-2,-2.0883296E-1,1.2146011E-1,2.0427637E-1,7.544066E-2,2.299493E-1,1.1763711E-1,-2.8770876E-1,5.0697014E-2,2.1220821E-1,-1.444575E-1,8.984388E-2,-5.4522507E-2,1.7830302E-1,4.3680053E-2,-3.008474E-1,2.0102078E-2,-9.6462463E-4,-2.825235E-1,2.4258422E-2,1.684754E-1,-6.632045E-2,1.9971715E-1,-1.8850787E-1,1.586756E-3],"categories":[],"categories_nodes":[],"categories_segments":[],"categories_sizes":[],"default_left":[0,0,0,0,0,0,0,0,0,0,0,0,0,0,0,0,0,0,0,0,0,0,0,0,0,0,0,0,0,0,0,0,0,0,0,0,0,0,0,0,0,0,0,0,0,0,0,0,0,0,0,0,0,0,0,0,0,0,0,0,0,0,0,0,0,0,0,0,0,0,0,0,0,0,0,0,0,0,0,0,0,0,0,0,0,0,0,0,0,0,0,0,0,0,0,0,0,0,0,0,0,0,0],"id":9,"left_children":[1,3,-1,5,7,9,11,13,15,17,19,21,23,25,27,29,31,33,35,37,39,41,-1,43,45,47,49,51,53,55,57,59,61,-1,63,65,67,69,-1,71,-1,73,-1,-1,-1,-1,75,77,79,81,83,85,87,89,91,93,95,97,99,101,-1,-1,-1,-1,-1,-1,-1,-1,-1,-1,-1,-1,-1,-1,-1,-1,-1,-1,-1,-1,-1,-1,-1,-1,-1,-1,-1,-1,-1,-1,-1,-1,-1,-1,-1,-1,-1,-1,-1,-1,-1,-1,-1],"loss_changes":[1.8316163E3,2.4649341E2,0E0,3.448675E1,1.994049E2,2.2538864E1,2.5429901E1,5.022583E1,4.259765E1,1.2830086E1,4.0690002E0,1.5212033E1,8.7210245E0,1.8474182E1,4.255863E1,3.421254E1,7.0230484E0,4.9782205E0,7.804243E0,5.029526E-1,3.126819E0,1.311087E1,0E0,5.850007E0,4.1769295E0,1.56284485E1,4.752075E0,1.430442E1,2.2504135E1,9.008074E0,1.669284E1,1.5893555E0,7.157902E0,0E0,3.5219536E0,5.2568493E0,5.2260504E0,1.2987752E1,0E0,6.6543007E0,0E0,3.6953201E0,0E0,0E0,0E0,0E0,2.6941524E0,2.6825829E0,2.467445E1,6.585121E0,4.218384E0,6.3524685E0,4.8004494E0,9.028845E0,8.036011E0,3.8486652E0,1.0478453E1,1.0438272E1,1.4061399E1,1.3020511E0,0E0,0E0,0E0,0E0,0E0,0E0,0E0,0E0,0E0,0E0,0E0,0E0,0E0,0E0,0E0,0E0,0E0,0E0,0E0,0E0,0E0,0E0,0E0,0E0,0E0,0E0,0E0,0E0,0E0,0E0,0E0,0E0,0E0,0E0,0E0,0E0,0E0,0E0,0E0,0E0,0E0,0E0,0E0],"parents":[2147483647,0,0,1,1,3,3,4,4,5,5,6,6,7,7,8,8,9,9,10,10,11,11,12,12,13,13,14,14,15,15,16,16,17,17,18,18,19,19,20,20,21,21,23,23,24,24,25,25,26,26,27,27,28,28,29,29,30,30,31,31,32,32,34,34,35,35,36,36,37,37,39,39,41,41,46,46,47,47,48,48,49,49,50,50,51,51,52,52,53,53,54,54,55,55,56,56,57,57,58,58,59,59],"right_children":[2,4,-1,6,8,10,12,14,16,18,20,22,24,26,28,30,32,34,36,38,40,42,-1,44,46,48,50,52,54,56,58,60,62,-1,64,66,68,70,-1,72,-1,74,-1,-1,-1,-1,76,78,80,82,84,86,88,90,92,94,96,98,100,102,-1,-1,-1,-1,-1,-1,-1,-1,-1,-1,-1,-1,-1,-1,-1,-1,-1,-1,-1,-1,-1,-1,-1,-1,-1,-1,-1,-1,-1,-1,-1,-1,-1,-1,-1,-1,-1,-1,-1,-1,-1,-1,-1],"split_conditions":[5.230442E-1,-1.1126656E-1,-2.3486623E-1,-2.7541282E-2,1.0937219E0,-1.290911E0,-6.422151E-2,5.615031E-1,1.36142E0,-3.1323638E-2,-1.383663E-2,-6.350421E-2,-1.727702E0,-5.5680882E-2,-2.7828878E-2,-1.7117778E-2,1.3979308E1,-1.7733992E0,-5.0053525E-1,-1.0880188E0,-8.890929E-2,3.8427743E-3,-2.4149449E-1,-9.7482204E-2,-1.7365347E-1,-1.0772338E0,-2.5973417E-2,3.5772294E-1,-1.7365347E-1,4.2171252E-1,4.336154E-1,2.4832759E-2,4.8825604E-1,-1.7292267E-1,-1.04309164E-1,-1.0191682E-1,-1.4803362E-1,-1.104485E0,-2.4244396E-1,-9.434577E-2,-2.0684962E-1,-1.0502009E-1,-2.2427633E-1,-2.2227558E-1,2.165245E-1,-2.519279E-1,-1.4028383E-2,-1.2717893E-2,-2.5787871E-2,-2.900165E-1,3.4575799E0,-6.9810203E-3,6.7867726E-1,-1.5713597E-3,-6.2092356E-3,1.8561499E0,-1.3254934E-2,-7.669997E-2,5.987123E0,2.385692E-3,-2.6573527E-1,1.814407E-1,-2.2303677E-1,-1.5386714E-1,1.6342591E-1,-2.947105E-1,-9.645442E-2,2.3692422E-1,-1.7083189E-1,-2.4443908E-1,3.2128534E-1,-2.2032689E-1,2.166947E-1,-6.825858E-2,1.9697042E-1,1.15630865E-1,-1.9576551E-1,2.0984423E-1,-6.2282298E-2,-2.0883296E-1,1.2146011E-1,2.0427637E-1,7.544066E-2,2.299493E-1,1.1763711E-1,-2.8770876E-1,5.0697014E-2,2.1220821E-1,-1.444575E-1,8.984388E-2,-5.4522507E-2,1.7830302E-1,4.3680053E-2,-3.008474E-1,2.0102078E-2,-9.6462463E-4,-2.825235E-1,2.4258422E-2,1.684754E-1,-6.632045E-2,1.9971715E-1,-1.8850787E-1,1.586756E-3],"split_indices":[9,5,0,4,7,7,13,7,7,4,2,11,7,5,4,4,0,7,3,7,11,4,0,11,1,7,4,5,1,1,1,5,5,0,11,11,13,7,0,11,0,11,0,0,0,0,2,2,4,7,1,2,13,4,2,16,2,1,5,5,0,0,0,0,0,0,0,0,0,0,0,0,0,0,0,0,0,0,0,0,0,0,0,0,0,0,0,0,0,0,0,0,0,0,0,0,0,0,0,0,0,0,0],"split_type":[0,0,0,0,0,0,0,0,0,0,0,0,0,0,0,0,0,0,0,0,0,0,0,0,0,0,0,0,0,0,0,0,0,0,0,0,0,0,0,0,0,0,0,0,0,0,0,0,0,0,0,0,0,0,0,0,0,0,0,0,0,0,0,0,0,0,0,0,0,0,0,0,0,0,0,0,0,0,0,0,0,0,0,0,0,0,0,0,0,0,0,0,0,0,0,0,0,0,0,0,0,0,0],"sum_hessian":[3.0241555E3,1.9681368E3,1.0560187E3,2.3072827E2,1.7374086E3,1.5151852E2,7.920974E1,1.4671162E3,2.7029242E2,5.936047E1,9.215806E1,5.320506E1,2.6004683E1,1.0507244E3,4.1639188E2,2.2410349E2,4.6188946E1,1.974955E1,3.961092E1,8.414992E1,8.008136E0,4.8817123E1,4.387936E0,5.131525E0,2.0873158E1,1.2813791E2,9.225864E2,2.6592888E1,3.8979898E2,5.0698032E1,1.7340546E2,3.962719E1,6.561754E0,2.0314212E0,1.7718128E1,3.439364E1,5.217282E0,1.2527043E1,7.162288E1,5.0504813E0,2.9576545E0,4.5483086E1,3.3340368E0,1.1753591E0,3.9561658E0,1.708389E1,3.789266E0,6.6534676E1,6.160324E1,1.1165113E2,8.109353E2,1.9653837E1,6.9390516E0,9.405461E1,2.957444E2,1.6863914E1,3.3834118E1,1.0723888E2,6.616658E1,6.3625727E0,3.3264618E1,3.7231429E0,2.8386114E0,1.091206E0,1.6626923E1,8.563682E0,2.5829956E1,3.838594E0,1.3786877E0,1.10744095E1,1.4526333E0,1.8417463E0,3.2087348E0,2.2267365E0,4.325635E1,2.665132E0,1.1241342E0,6.5148094E1,1.3865752E0,1.309007E1,4.8513172E1,8.482158E1,2.682955E1,7.9112384E2,1.9811455E1,1.681324E1,2.8405964E0,5.1550283E0,1.7840234E0,6.3879482E1,3.0175129E1,2.7162057E2,2.4123795E1,1.4960542E1,1.9033726E0,2.6386316E1,7.4478006E0,3.7601143E1,6.963773E1,5.5572323E1,1.0594253E1,3.5687625E0,2.79381E0],"tree_param":{"num_deleted":"0","num_feature":"17","num_nodes":"103","size_leaf_vector":"1"}},{"base_weights":[-7.5448337E-3,-8.5451263E-1,7.168744E-1,-4.0179E-1,-2.3163915E-1,8.66937E-1,-1.53363915E-2,-5.5265497E-2,-6.910404E-1,9.0325236E-1,-2.2178195E-1,-1.929313E-1,9.4951266E-1,-4.0296018E-1,3.8529575E-1,-9.40234E-1,-4.0273908E-1,5.1088053E-1,9.60021E-1,-4.006061E-1,7.2428733E-1,-1.3445628E-1,1.0162563E0,-8.038222E-2,-8.056339E-1,6.601118E-1,-1.11121505E-1,-1.0082356E0,3.548862E-1,5.5074656E-1,-7.3668134E-1,9.420673E-1,8.305465E-2,9.708703E-1,6.313415E-2,-2.7561605E-1,-1.440151E0,8.496325E-1,-1.923064E-1,2.2641951E-1,6.367034E-2,-5.0990844E-1,2.4661738E-1,-2.283348E-1,-5.339366E-1,-2.6750433E-1,7.476106E-1,-5.269787E-1,8.588836E-1,-1.8129751E-1,-1.0289037E0,1.6319327E-1,-2.6152083E-1,-2.0177056E-1,7.4648094E-1,-1.2951358E-1,-9.7773457E-1,2.4168076E-1,2.2748816E-1,-9.357196E-1,8.0775917E-1,1.0209179E0,7.898254E-1,-1.2665929E0,6.857961E-1,-1.0952967E-1,-2.5037077E-1,-1.6506182E0,6.496361E-2,-7.459118E-2,9.217352E-1,1.8809651E-1,-1.4248541E-1,-2.2922048E-1,9.783055E-2,-2.8470285E-2,-2.2657283E-1,-2.78079E-1,1.5917674E-1,3.24678E-1,1.2441087E-1,-2.0127225E-1,6.5644644E-2,9.000685E-2,2.787731E-1,-1.5447168E-1,1.03636935E-1,-4.174067E-2,-2.3046008E-1,-1.2941979E-1,4.386582E-2,1.9369853E-1,-1.7093408E-1,1.9941954E-2,-3.3112216E-1,1.1401405E-1,-2.3186132E-1,1.6805871E-1,-2.6741776E-1,-4.263336E-1,-9.853846E-2,1.9390339E-1,-6.264626E-2,1.9200169E-1,2.2910036E-1,-7.337579E-2,1.8256988E-1,4.261511E-2,-5.6378704E-1,-1.6025251E-1,2.0915715E-1,-5.800376E-2,1.6040397E-1,-4.044807E-1,-2.1023706E-1,4.6130244E-2,2.1982719E-1],"categories":[],"categories_nodes":[],"categories_segments":[],"categories_sizes":[],"default_left":[0,0,0,0,0,0,0,0,0,0,0,0,0,0,0,0,0,0,0,0,0,0,0,0,0,0,0,0,0,0,0,0,0,0,0,0,0,0,0,0,0,0,0,0,0,0,0,0,0,0,0,0,0,0,0,0,0,0,0,0,0,0,0,0,0,0,0,0,0,0,0,0,0,0,0,0,0,0,0,0,0,0,0,0,0,0,0,0,0,0,0,0,0,0,0,0,0,0,0,0,0,0,0,0,0,0,0,0,0,0,0,0,0,0,0,0,0],"id":10,"left_children":[1,3,5,7,-1,9,11,13,15,17,-1,19,21,23,25,27,29,31,33,35,37,-1,39,41,43,45,47,49,51,53,55,57,59,61,63,65,67,69,-1,-1,-1,71,73,-1,75,77,79,81,83,85,87,-1,89,-1,91,93,95,97,-1,99,101,103,105,107,109,111,-1,113,-1,-1,115,-1,-1,-1,-1,-1,-1,-1,-1,-1,-1,-1,-1,-1,-1,-1,-1,-1,-1,-1,-1,-1,-1,-1,-1,-1,-1,-1,-1,-1,-1,-1,-1,-1,-1,-1,-1,-1,-1,-1,-1,-1,-1,-1,-1,-1,-1],"loss_changes":[1.5796858E3,1.0618176E2,1.5249152E2,3.6372787E1,0E0,7.933276E1,4.0795963E1,2.5638002E1,1.3839638E1,2.4687378E1,0E0,3.857733E1,4.476574E0,1.2076005E1,1.0153725E1,9.640831E0,3.017815E1,2.6671478E1,9.536255E0,2.098169E1,8.248741E0,0E0,3.908539E-2,7.5706315E0,2.0621395E0,4.071968E0,1.14187975E1,1.5295334E0,1.624434E0,7.817489E0,1.00714E1,4.395836E0,5.5304775E1,8.023315E0,1.1514883E1,2.1090816E1,6.851242E0,3.3334503E0,0E0,0E0,0E0,4.922699E0,8.315899E0,0E0,4.113376E0,5.7026587E0,4.9812107E0,6.5632725E0,1.0493212E0,1.5751396E0,1.3303528E0,0E0,5.769813E-1,0E0,5.267234E0,6.4823604E0,6.212921E0,8.292202E0,0E0,1.4372166E1,3.7665558E0,1.3939209E0,9.967407E0,8.922615E0,4.216571E0,1.638804E1,0E0,2.9236603E-1,0E0,0E0,1.6386681E0,0E0,0E0,0E0,0E0,0E0,0E0,0E0,0E0,0E0,0E0,0E0,0E0,0E0,0E0,0E0,0E0,0E0,0E0,0E0,0E0,0E0,0E0,0E0,0E0,0E0,0E0,0E0,0E0,0E0,0E0,0E0,0E0,0E0,0E0,0E0,0E0,0E0,0E0,0E0,0E0,0E0,0E0,0E0,0E0,0E0,0E0],"parents":[2147483647,0,0,1,1,2,2,3,3,5,5,6,6,7,7,8,8,9,9,11,11,12,12,13,13,14,14,15,15,16,16,17,17,18,18,19,19,20,20,22,22,23,23,24,24,25,25,26,26,27,27,28,28,29,29,30,30,31,31,32,32,33,33,34,34,35,35,36,36,37,37,41,41,42,42,44,44,45,45,46,46,47,47,48,48,49,49,50,50,52,52,54,54,55,55,56,56,57,57,59,59,60,60,61,61,62,62,63,63,64,64,65,65,67,67,70,70],"right_children":[2,4,6,8,-1,10,12,14,16,18,-1,20,22,24,26,28,30,32,34,36,38,-1,40,42,44,46,48,50,52,54,56,58,60,62,64,66,68,70,-1,-1,-1,72,74,-1,76,78,80,82,84,86,88,-1,90,-1,92,94,96,98,-1,100,102,104,106,108,110,112,-1,114,-1,-1,116,-1,-1,-1,-1,-1,-1,-1,-1,-1,-1,-1,-1,-1,-1,-1,-1,-1,-1,-1,-1,-1,-1,-1,-1,-1,-1,-1,-1,-1,-1,-1,-1,-1,-1,-1,-1,-1,-1,-1,-1,-1,-1,-1,-1,-1,-1],"split_conditions":[-3.4804102E-2,5.230442E-1,1.0937219E0,-3.5521892E-1,-2.3163915E-1,5.230442E-1,1.0905651E0,-6.229597E-1,-1.2530604E-2,3.2665346E-2,-2.2178195E-1,1.3979308E1,-2.4674594E-2,-8.8624644E-1,-1.9309853E-1,4.4319283E-2,-5.516959E-1,-4.1747943E-2,3.3335464E0,-2.7958E-2,1.3770198E0,-1.3445628E-1,7.2848934E-1,-1.727702E0,-6.1020855E-2,-1.04873724E-1,1.8561499E0,-3.1434964E-2,2.9553816E-1,-6.1020855E-2,6.0647255E-1,-2.7680442E-2,8.4273964E-1,1.2118064E0,-1.2083995E0,1.36142E0,4.3251467E0,-1.2595311E0,-1.923064E-1,2.2641951E-1,6.367034E-2,-1.0625375E-1,-1.0191682E-1,-2.283348E-1,-4.4568408E-1,-5.0053525E-1,-1.0333687E-1,-1.34388115E-2,1.122857E-2,-5.854115E-1,-2.900165E-1,1.6319327E-1,-3.4059908E-3,-2.0177056E-1,1.8561499E0,-1.5474202E-2,-1.1964689E-2,-4.9534506E-1,2.2748816E-1,-1.573016E-2,9.671911E-1,-2.396404E-2,-2.8385516E-2,1.2819608E-1,-2.0193657E-2,2.1596947E0,-2.5037077E-1,1.3567016E0,6.496361E-2,-7.459118E-2,3.0496505E-1,1.8809651E-1,-1.4248541E-1,-2.2922048E-1,9.783055E-2,-2.8470285E-2,-2.2657283E-1,-2.78079E-1,1.5917674E-1,3.24678E-1,1.2441087E-1,-2.0127225E-1,6.5644644E-2,9.000685E-2,2.787731E-1,-1.5447168E-1,1.03636935E-1,-4.174067E-2,-2.3046008E-1,-1.2941979E-1,4.386582E-2,1.9369853E-1,-1.7093408E-1,1.9941954E-2,-3.3112216E-1,1.1401405E-1,-2.3186132E-1,1.6805871E-1,-2.6741776E-1,-4.263336E-1,-9.853846E-2,1.9390339E-1,-6.264626E-2,1.9200169E-1,2.2910036E-1,-7.337579E-2,1.8256988E-1,4.261511E-2,-5.6378704E-1,-1.6025251E-1,2.0915715E-1,-5.800376E-2,1.6040397E-1,-4.044807E-1,-2.1023706E-1,4.6130244E-2,2.1982719E-1],"split_indices":[14,12,7,7,0,12,6,8,4,14,0,0,4,6,8,2,8,8,1,11,7,0,14,7,14,11,16,4,7,14,7,4,1,8,6,7,14,6,0,0,0,11,11,0,6,3,11,2,4,8,7,0,6,0,16,2,4,6,0,2,7,4,4,14,4,8,0,7,0,0,14,0,0,0,0,0,0,0,0,0,0,0,0,0,0,0,0,0,0,0,0,0,0,0,0,0,0,0,0,0,0,0,0,0,0,0,0,0,0,0,0,0,0,0,0,0,0],"split_type":[0,0,0,0,0,0,0,0,0,0,0,0,0,0,0,0,0,0,0,0,0,0,0,0,0,0,0,0,0,0,0,0,0,0,0,0,0,0,0,0,0,0,0,0,0,0,0,0,0,0,0,0,0,0,0,0,0,0,0,0,0,0,0,0,0,0,0,0,0,0,0,0,0,0,0,0,0,0,0,0,0,0,0,0,0,0,0,0,0,0,0,0,0,0,0,0,0,0,0,0,0,0,0,0,0,0,0,0,0,0,0,0,0,0,0,0,0],"sum_hessian":[2.5726257E3,1.1859137E3,1.3867119E3,3.622657E2,8.236481E2,1.1506986E3,2.3601332E2,1.6535728E2,1.969084E2,1.129344E3,2.1354652E1,2.000003E2,3.601301E1,9.246694E1,7.289034E1,1.0440473E2,9.250368E1,1.4400626E2,9.853377E2,1.6353604E2,3.6464264E1,1.1424329E0,3.4870575E1,5.2005478E1,4.046146E1,4.6704845E1,2.61855E1,9.940679E1,4.9979386E0,2.3825865E1,6.867781E1,7.112277E1,7.2883484E1,9.734795E2,1.185826E1,1.4711299E2,1.642305E1,3.4247097E1,2.2171648E0,3.3852726E1,1.0178504E0,2.2236996E1,2.9768482E1,2.0293884E1,2.0167576E1,3.8484452E0,4.28564E1,1.8647665E1,7.537835E0,2.6622226E0,9.674457E1,2.9456384E0,2.0523002E0,2.3696141E0,2.1456251E1,1.9954203E1,4.8723606E1,8.676398E0,6.2446373E1,3.017414E1,4.2709343E1,7.590191E2,2.1446034E2,3.4520564E0,8.406204E0,1.2430204E2,2.281095E1,1.469034E1,1.7327102E0,1.7468162E0,3.2500282E1,1.5612273E0,2.067577E1,3.3985763E0,2.6369907E1,1.1801949E1,8.365627E0,1.7816035E0,2.0668418E0,7.1522527E0,3.5704147E1,1.2611978E1,6.035687E0,4.5392866E0,2.9985485E0,1.4379188E0,1.224304E0,2.3453665E0,9.439921E1,1.0392363E0,1.0130639E0,2.010993E1,1.3463216E0,1.800643E1,1.9477736E0,2.0797653E0,4.664384E1,6.7376175E0,1.9387805E0,8.905778E0,2.1268364E1,4.019409E1,2.5152483E0,9.733212E1,6.61687E2,7.128319E0,2.0733203E2,2.023128E0,1.4289284E0,1.0502162E0,7.355988E0,1.0558365E2,1.8718393E1,1.0268319E1,4.4220204E0,3.5530715E0,2.894721E1],"tree_param":{"num_deleted":"0","num_feature":"17","num_nodes":"117","size_leaf_vector":"1"}},{"base_weights":[-8.316361E-3,4.797569E-1,-2.291649E-1,-2.2815421E-1,6.1029065E-1,-6.119375E-1,2.937288E-1,8.11597E-1,1.1695601E-1,-2.4179406E-1,-9.262647E-1,6.824006E-1,-2.6779675E-1,-5.6279544E-2,8.551669E-1,-4.6507138E-1,2.9106152E-1,-2.2386916E-2,-8.9414185E-1,-6.529908E-1,-1.0333669E0,8.1010294E-1,-1.5514436E-1,-8.437502E-1,1.9714195E-1,1.6123123E-1,-2.4072403E-1,9.8869985E-1,6.802301E-1,-7.5182825E-1,4.8325703E-1,1.77084E-1,8.037716E-1,-2.6021647E-1,7.49274E-1,-4.5382866E-1,-2.7090147E-1,-8.5429794E-1,2.494925E-1,-1.0674955E0,-1.5099817E-2,2.3818861E-1,9.557954E-1,-6.957544E-1,1.427648E-1,3.3509192E-1,-1.1209534E0,6.189149E-1,-4.2437235E-1,3.1352267E-1,-2.05864E-1,9.997816E-1,2.0700815E-1,-3.0317506E-1,8.189725E-1,-9.3295777E-1,7.571524E-1,-8.2126623E-1,7.2423434E-1,3.6649132E-1,-9.2342675E-2,8.5410386E-1,-1.2358408E-1,-1.4280859E-1,1.00224316E-1,2.251208E-1,7.8061715E-2,-2.3677756E-1,1.09190475E-2,-3.6247715E-2,-2.151963E-1,-2.3699956E-1,-6.9355175E-2,1.1304533E-1,-1.4981213E-1,2.198472E-1,5.539033E-2,-2.544307E-1,6.920665E-2,1.408636E-1,-3.221887E-2,-1.0591297E-1,-3.5027915E-1,1.7976418E-1,-1.2792231E-1,7.313074E-2,-2.2079709E-1,-1.1403971E-2,2.0974167E-1,2.2106344E-1,1.2756059E-1,1.647004E-1,-2.3070796E-1,-2.240712E-1,6.209148E-2,2.695311E-2,1.911182E-1,-2.5347838E-1,-1.140909E-1,3.8785517E-2,1.946231E-1,-2.3772687E-1,-2.2835525E-2,2.1186419E-1,-1.5841046E-1,9.469456E-2,-1.3677755E-1,-1.1006408E-1,5.345811E-2,1.1818895E-1,2.1424639E-1],"categories":[],"categories_nodes":[],"categories_segments":[],"categories_sizes":[],"default_left":[0,0,0,0,0,0,0,0,0,0,0,0,0,0,0,0,0,0,0,0,0,0,0,0,0,0,0,0,0,0,0,0,0,0,0,0,0,0,0,0,0,0,0,0,0,0,0,0,0,0,0,0,0,0,0,0,0,0,0,0,0,0,0,0,0,0,0,0,0,0,0,0,0,0,0,0,0,0,0,0,0,0,0,0,0,0,0,0,0,0,0,0,0,0,0,0,0,0,0,0,0,0,0,0,0,0,0,0,0,0,0],"id":11,"left_children":[1,3,-1,5,7,9,11,13,15,17,19,21,23,25,27,29,31,33,35,37,39,41,43,45,47,49,-1,51,53,55,57,59,61,63,65,67,-1,69,-1,71,-1,73,75,77,-1,79,81,83,85,87,-1,89,91,93,95,97,99,101,103,105,107,109,-1,-1,-1,-1,-1,-1,-1,-1,-1,-1,-1,-1,-1,-1,-1,-1,-1,-1,-1,-1,-1,-1,-1,-1,-1,-1,-1,-1,-1,-1,-1,-1,-1,-1,-1,-1,-1,-1,-1,-1,-1,-1,-1,-1,-1,-1,-1,-1,-1],"loss_changes":[1.0968239E3,1.3663184E2,0E0,4.638459E1,1.23786224E2,1.5280022E1,2.1665506E1,3.3540833E1,3.688565E1,8.932555E0,1.424015E0,6.3774014E0,1.1140417E1,9.947096E0,1.9030518E1,2.317668E1,1.6206884E1,8.973246E0,1.7749043E0,9.209762E0,1.5664291E0,4.011738E0,4.1778235E0,6.4192724E0,6.4193826E0,6.416539E0,0E0,3.917511E0,5.050305E1,1.841895E1,6.9091096E0,1.1779864E1,3.9575462E0,1.0680624E1,8.8271046E-1,2.6858046E0,0E0,1.6460247E0,0E0,1.3580322E-2,0E0,3.3045833E0,9.8033524E-1,2.9746404E0,0E0,7.243799E-1,3.8153286E0,3.900628E0,4.7559805E0,7.7483997E0,0E0,4.1293335E-1,6.169324E0,1.9663511E1,1.1086365E1,4.6988945E0,3.9926243E-1,5.5769944E-1,6.723772E0,8.820148E0,1.3228872E1,1.3436394E0,0E0,0E0,0E0,0E0,0E0,0E0,0E0,0E0,0E0,0E0,0E0,0E0,0E0,0E0,0E0,0E0,0E0,0E0,0E0,0E0,0E0,0E0,0E0,0E0,0E0,0E0,0E0,0E0,0E0,0E0,0E0,0E0,0E0,0E0,0E0,0E0,0E0,0E0,0E0,0E0,0E0,0E0,0E0,0E0,0E0,0E0,0E0,0E0,0E0],"parents":[2147483647,0,0,1,1,3,3,4,4,5,5,6,6,7,7,8,8,9,9,10,10,11,11,12,12,13,13,14,14,15,15,16,16,17,17,18,18,19,19,20,20,21,21,22,22,23,23,24,24,25,25,27,27,28,28,29,29,30,30,31,31,32,32,33,33,34,34,35,35,37,37,39,39,41,41,42,42,43,43,45,45,46,46,47,47,48,48,49,49,51,51,52,52,53,53,54,54,55,55,56,56,57,57,58,58,59,59,60,60,61,61],"right_children":[2,4,-1,6,8,10,12,14,16,18,20,22,24,26,28,30,32,34,36,38,40,42,44,46,48,50,-1,52,54,56,58,60,62,64,66,68,-1,70,-1,72,-1,74,76,78,-1,80,82,84,86,88,-1,90,92,94,96,98,100,102,104,106,108,110,-1,-1,-1,-1,-1,-1,-1,-1,-1,-1,-1,-1,-1,-1,-1,-1,-1,-1,-1,-1,-1,-1,-1,-1,-1,-1,-1,-1,-1,-1,-1,-1,-1,-1,-1,-1,-1,-1,-1,-1,-1,-1,-1,-1,-1,-1,-1,-1,-1],"split_conditions":[5.230442E-1,-2.819997E-2,-2.291649E-1,-1.4958868E-2,1.3607886E0,-8.7042356E-1,3.8403833E-1,-6.233677E-1,-4.950907E-2,-3.0759948E-1,-4.4568408E-1,4.1513777E-1,3.334151E-1,-6.977707E-2,-4.1747943E-2,-8.0312866E-1,1.3979308E1,-6.231813E-1,-1.1886922E0,-4.5464402E-1,-1.540868E-2,-4.950907E-2,1.4594479E0,1.5914838E-1,-1.2048963E0,3.8427743E-3,-2.4072403E-1,1.1929879E0,-1.5732193E-2,1.3979308E1,-1.4840653E-2,1.784808E0,7.533694E-2,-9.724144E-1,-6.422151E-2,-1.2354937E0,-2.7090147E-1,-3.1345904E-2,2.494925E-1,-1.7365347E-1,-1.5099817E-2,-9.05169E-2,1.1929879E0,-1.8444028E-1,1.427648E-1,1.3478932E0,-3.1122321E-2,1.6975807E0,1.9652851E0,-8.692299E-3,-2.05864E-1,1.8561499E0,9.622613E-1,-6.0639805E-3,-4.950907E-2,1.8894262E0,-1.2048963E0,-5.3070825E-1,4.6689762E-4,-5.3939144E-3,-1.2322527E0,-1.1964689E-2,-1.2358408E-1,-1.4280859E-1,1.00224316E-1,2.251208E-1,7.8061715E-2,-2.3677756E-1,1.09190475E-2,-3.6247715E-2,-2.151963E-1,-2.3699956E-1,-6.9355175E-2,1.1304533E-1,-1.4981213E-1,2.198472E-1,5.539033E-2,-2.544307E-1,6.920665E-2,1.408636E-1,-3.221887E-2,-1.0591297E-1,-3.5027915E-1,1.7976418E-1,-1.2792231E-1,7.313074E-2,-2.2079709E-1,-1.1403971E-2,2.0974167E-1,2.2106344E-1,1.2756059E-1,1.647004E-1,-2.3070796E-1,-2.240712E-1,6.209148E-2,2.695311E-2,1.911182E-1,-2.5347838E-1,-1.140909E-1,3.8785517E-2,1.946231E-1,-2.3772687E-1,-2.2835525E-2,2.1186419E-1,-1.5841046E-1,9.469456E-2,-1.3677755E-1,-1.1006408E-1,5.345811E-2,1.1818895E-1,2.1424639E-1],"split_indices":[9,4,0,2,8,6,8,8,13,8,6,6,13,11,8,6,0,8,6,6,2,13,6,1,6,4,0,13,2,0,4,8,4,6,13,6,0,4,0,1,0,11,13,15,0,8,4,13,3,4,0,16,1,4,13,8,6,6,4,2,6,4,0,0,0,0,0,0,0,0,0,0,0,0,0,0,0,0,0,0,0,0,0,0,0,0,0,0,0,0,0,0,0,0,0,0,0,0,0,0,0,0,0,0,0,0,0,0,0,0,0],"split_type":[0,0,0,0,0,0,0,0,0,0,0,0,0,0,0,0,0,0,0,0,0,0,0,0,0,0,0,0,0,0,0,0,0,0,0,0,0,0,0,0,0,0,0,0,0,0,0,0,0,0,0,0,0,0,0,0,0,0,0,0,0,0,0,0,0,0,0,0,0,0,0,0,0,0,0,0,0,0,0,0,0,0,0,0,0,0,0,0,0,0,0,0,0,0,0,0,0,0,0,0,0,0,0,0,0,0,0,0,0,0,0],"sum_hessian":[2.172751E3,1.4760918E3,6.966591E2,2.2968976E2,1.246402E3,1.3225746E2,9.74323E1,8.847377E2,3.6166434E2,6.154864E1,7.0708824E1,5.7451065E1,3.998123E1,4.227925E1,8.424584E2,8.289123E1,2.787731E2,4.6831802E1,1.471684E1,2.19077E1,4.880112E1,4.987871E1,7.572355E0,1.7494617E1,2.2486614E1,3.5652443E1,6.6268086E0,4.7513E2,3.673284E2,6.380499E1,1.9086237E1,2.2917253E2,4.9600582E1,3.6305164E1,1.0526639E1,7.4002404E0,7.3165994E0,2.0158804E1,1.748896E0,4.7030827E1,1.7702968E0,1.0661597E1,3.9217113E1,4.608561E0,2.9637938E0,3.2908843E0,1.4203734E1,1.3398373E1,9.088242E0,3.1933378E1,3.7190635E0,4.6821332E2,6.916679E0,4.5269974E1,3.220584E2,5.7307816E1,6.4971757E0,2.6004918E0,1.6485744E1,1.3435825E2,9.4814285E1,4.819853E1,1.4020534E0,2.358408E1,1.2721082E1,5.2709727E0,5.255666E0,2.8003793E0,4.599861E0,3.424677E0,1.6734127E1,4.6000977E1,1.0298473E0,8.541088E0,2.1205099E0,3.6539467E1,2.6776462E0,3.0657737E0,1.5427874E0,1.8124815E0,1.4784027E0,6.8834195E0,7.3203144E0,1.1773704E1,1.6246688E0,4.125047E0,4.9631944E0,2.0911642E1,1.1021736E1,4.6127142E2,6.941891E0,5.114409E0,1.8022696E0,2.0041183E1,2.522879E1,2.170123E1,3.003572E2,3.631496E1,2.0992851E1,1.5983188E0,4.898857E0,1.5383854E0,1.0621064E0,1.4432777E1,2.0529675E0,1.2672348E2,7.634764E0,4.2553802E1,5.2260483E1,1.4722983E1,3.3475544E1],"tree_param":{"num_deleted":"0","num_feature":"17","num_nodes":"111","size_leaf_vector":"1"}},{"base_weights":[-9.48274E-3,-7.9682064E-1,6.280308E-1,-3.6050764E-1,-2.2709839E-1,8.270572E-1,7.149368E-3,-9.436243E-2,-6.905887E-1,8.570636E-1,-2.1070498E-1,-1.4805228E-1,9.0335995E-1,-5.333845E-1,1.20619565E-1,-8.0985785E-1,-9.243585E-3,4.5628354E-1,9.176322E-1,-2.923095E-1,6.103551E-1,-1.6404007E-1,9.69634E-1,-7.026348E-1,9.572242E-1,-5.159739E-1,2.9017425E-1,-9.409062E-1,-2.085042E-1,-5.684359E-1,7.323184E-1,2.2571638E-1,2.2152376E-1,9.312792E-1,-1.5977624E-1,-5.664248E-1,1.5447722E-1,7.2361404E-1,-1.8324998E-1,2.1829428E-1,5.10232E-2,-3.684686E-1,-2.425329E-1,3.1824026E-1,-1.3827279E-1,9.565863E-1,-8.2481813E-1,4.4175974E-1,-1.6168533E-1,-2.379245E-1,-6.203803E-1,2.3137774E-1,-2.1361344E-1,-2.0625561E-1,1.1567048E-1,2.3158528E-1,-6.7785166E-2,-3.7879553E-1,5.3591776E-1,9.786659E-1,7.059401E-1,-1.4712497E0,5.9597105E-1,-3.388579E-1,-1.6965892E0,3.3277398E-1,-2.2533934E-1,2.8994283E-1,2.155306E-1,1.4594153E-2,-2.2365639E-1,2.4544358E-1,7.100547E-2,-2.7862537E-1,-3.7966624E-2,1.1142573E-1,-2.5907034E-1,-1.2233747E-1,1.9406317E-1,-2.2129858E-1,1.1804441E-2,-3.5504557E-2,2.1018037E-1,1.5245736E-1,-1.8112622E-1,1.7210303E-1,-2.2538083E-2,1.4524308E-1,2.1992843E-1,1.6656256E-1,-2.5442225E-1,4.6795208E-2,-5.00439E-1,-8.387464E-2,1.8934795E-1,-2.3823384E-2,-2.4036208E-1,-3.9468417E-1,-2.3584714E-2,9.119465E-2,-3.3273214E-1,1.4875937E-1,-1.8896471E-1],"categories":[],"categories_nodes":[],"categories_segments":[],"categories_sizes":[],"default_left":[0,0,0,0,0,0,0,0,0,0,0,0,0,0,0,0,0,0,0,0,0,0,0,0,0,0,0,0,0,0,0,0,0,0,0,0,0,0,0,0,0,0,0,0,0,0,0,0,0,0,0,0,0,0,0,0,0,0,0,0,0,0,0,0,0,0,0,0,0,0,0,0,0,0,0,0,0,0,0,0,0,0,0,0,0,0,0,0,0,0,0,0,0,0,0,0,0,0,0,0,0,0,0],"id":12,"left_children":[1,3,5,7,-1,9,11,13,15,17,-1,19,21,23,25,27,29,31,33,35,37,-1,39,41,43,45,47,49,51,53,55,-1,57,59,61,63,65,67,-1,-1,-1,69,-1,-1,-1,71,73,75,77,-1,79,81,-1,-1,-1,-1,-1,83,85,87,89,91,93,95,97,99,-1,101,-1,-1,-1,-1,-1,-1,-1,-1,-1,-1,-1,-1,-1,-1,-1,-1,-1,-1,-1,-1,-1,-1,-1,-1,-1,-1,-1,-1,-1,-1,-1,-1,-1,-1,-1],"loss_changes":[9.3506494E2,8.525183E1,1.27199524E2,2.573381E1,0E0,4.256836E1,3.503073E1,1.5518455E1,1.06325035E1,1.8203735E1,0E0,2.3669333E1,4.785713E0,1.4298193E1,1.2101821E1,8.584061E0,8.924079E0,1.3508858E1,9.9331665E0,2.226407E1,6.264903E0,0E0,3.7330627E-1,6.1504173E0,5.5107765E0,1.1544752E1,6.104628E0,3.4379578E0,7.3418045E0,5.444124E0,3.4096875E0,0E0,1.4171269E1,6.3275146E0,9.97255E0,2.8342812E1,1.4976427E1,3.3420353E0,0E0,0E0,0E0,8.02466E0,0E0,0E0,0E0,9.9992275E-2,5.5677843E0,7.537053E0,9.90046E0,0E0,7.8878813E0,4.2103014E0,0E0,0E0,0E0,0E0,0E0,1.2968454E1,7.78428E0,2.9561768E0,1.2099308E1,5.413255E0,2.018219E0,1.6363327E1,2.6873283E0,9.864817E0,0E0,6.590238E0,0E0,0E0,0E0,0E0,0E0,0E0,0E0,0E0,0E0,0E0,0E0,0E0,0E0,0E0,0E0,0E0,0E0,0E0,0E0,0E0,0E0,0E0,0E0,0E0,0E0,0E0,0E0,0E0,0E0,0E0,0E0,0E0,0E0,0E0,0E0],"parents":[2147483647,0,0,1,1,2,2,3,3,5,5,6,6,7,7,8,8,9,9,11,11,12,12,13,13,14,14,15,15,16,16,17,17,18,18,19,19,20,20,22,22,23,23,24,24,25,25,26,26,27,27,28,28,29,29,30,30,32,32,33,33,34,34,35,35,36,36,37,37,41,41,45,45,46,46,47,47,48,48,50,50,51,51,57,57,58,58,59,59,60,60,61,61,62,62,63,63,64,64,65,65,67,67],"right_children":[2,4,6,8,-1,10,12,14,16,18,-1,20,22,24,26,28,30,32,34,36,38,-1,40,42,44,46,48,50,52,54,56,-1,58,60,62,64,66,68,-1,-1,-1,70,-1,-1,-1,72,74,76,78,-1,80,82,-1,-1,-1,-1,-1,84,86,88,90,92,94,96,98,100,-1,102,-1,-1,-1,-1,-1,-1,-1,-1,-1,-1,-1,-1,-1,-1,-1,-1,-1,-1,-1,-1,-1,-1,-1,-1,-1,-1,-1,-1,-1,-1,-1,-1,-1,-1,-1],"split_conditions":[-3.4804102E-2,5.230442E-1,1.0007979E0,-1.6648056E-2,-2.2709839E-1,5.230442E-1,1.0905651E0,-2.4490738E0,1.4776537E0,3.2665346E-2,-2.1070498E-1,1.3979308E1,-2.9721448E-2,-4.950907E-2,-1.0191682E-1,7.121778E-2,-9.513625E-3,2.67025E-2,3.4575799E0,1.932546E-2,1.3770198E0,-1.6404007E-1,1.3567016E0,-9.727311E-2,-1.0468554E-1,-1.2803998E0,-6.768612E-2,6.944211E-1,1.0007979E0,1.8286133E-1,3.8427743E-3,2.2571638E-1,-2.0193657E-2,7.414772E-1,-4.395916E-3,-1.3123199E-2,1.36142E0,5.738319E-1,-1.8324998E-1,2.1829428E-1,5.10232E-2,-1.4803362E-1,-2.425329E-1,3.1824026E-1,-1.3827279E-1,-1.05835564E-1,-1.1126656E-1,-2.900165E-1,1.248117E0,-2.379245E-1,-1.2530604E-2,2.7928713E-1,-2.1361344E-1,-2.0625561E-1,1.1567048E-1,2.3158528E-1,-6.7785166E-2,-1.2190034E0,-1.5713597E-3,-2.8654559E-2,-5.0834087E-3,1.6975807E0,-1.2083995E0,1.3039324E0,1.2904553E-2,9.7977906E-1,-2.2533934E-1,4.626669E-1,2.155306E-1,1.4594153E-2,-2.2365639E-1,2.4544358E-1,7.100547E-2,-2.7862537E-1,-3.7966624E-2,1.1142573E-1,-2.5907034E-1,-1.2233747E-1,1.9406317E-1,-2.2129858E-1,1.1804441E-2,-3.5504557E-2,2.1018037E-1,1.5245736E-1,-1.8112622E-1,1.7210303E-1,-2.2538083E-2,1.4524308E-1,2.1992843E-1,1.6656256E-1,-2.5442225E-1,4.6795208E-2,-5.00439E-1,-8.387464E-2,1.8934795E-1,-2.3823384E-2,-2.4036208E-1,-3.9468417E-1,-2.3584714E-2,9.119465E-2,-3.3273214E-1,1.4875937E-1,-1.8896471E-1],"split_indices":[14,9,7,7,0,9,6,10,6,14,0,0,4,13,11,13,4,14,1,4,7,0,7,11,11,6,11,6,7,1,4,0,4,7,4,2,7,14,0,0,0,13,0,0,0,11,5,7,1,0,4,4,0,0,0,0,0,6,4,4,2,13,6,7,4,4,0,1,0,0,0,0,0,0,0,0,0,0,0,0,0,0,0,0,0,0,0,0,0,0,0,0,0,0,0,0,0,0,0,0,0,0,0],"split_type":[0,0,0,0,0,0,0,0,0,0,0,0,0,0,0,0,0,0,0,0,0,0,0,0,0,0,0,0,0,0,0,0,0,0,0,0,0,0,0,0,0,0,0,0,0,0,0,0,0,0,0,0,0,0,0,0,0,0,0,0,0,0,0,0,0,0,0,0,0,0,0,0,0,0,0,0,0,0,0,0,0,0,0,0,0,0,0,0,0,0,0,0,0,0,0,0,0,0,0,0,0,0,0],"sum_hessian":[1.8609103E3,8.325052E2,1.0284052E3,2.9267242E2,5.3983276E2,7.785161E2,2.4988898E2,1.6274034E2,1.2993207E2,7.661552E2,1.2360915E1,2.137138E2,3.617518E1,5.3008602E1,1.0973174E2,1.1041531E2,1.951676E1,1.0170576E2,6.6444946E2,1.8007599E2,3.363781E1,1.0016576E0,3.517352E1,4.8078213E1,4.9303875E0,2.2649822E1,8.7081924E1,9.019513E1,2.0220184E1,1.125963E1,8.25713E0,2.8696524E1,7.300924E1,6.562724E2,8.177013E0,1.11438065E2,6.863793E1,3.1652617E1,1.9851928E0,3.3792652E1,1.3808677E0,2.7235126E1,2.0843086E1,3.8348243E0,1.0955632E0,3.563213E0,1.9086609E1,6.522367E1,2.1858253E1,6.104804E1,2.9147087E1,1.3264289E1,6.955895E0,8.52668E0,2.7329502E0,6.304321E0,1.9528086E0,2.502343E1,4.7985806E1,5.394814E2,1.1679104E2,2.643285E0,5.5337286E0,9.38421E1,1.7595964E1,6.0243248E1,8.394681E0,1.2542833E1,1.9109783E1,1.683751E1,1.0397618E1,2.2407193E0,1.3224938E0,1.0818929E1,8.26768E0,6.3377872E1,1.8457979E0,1.620317E1,5.655083E0,1.822866E1,1.0918427E1,9.103011E0,4.1612787E0,7.1718316E0,1.7851599E1,3.446067E1,1.3525138E1,3.53926E1,5.040888E2,1.1424605E2,2.5449908E0,1.0913181E0,1.5519669E0,1.0856079E0,4.4481206E0,7.2734856E1,2.110725E1,1.6458315E1,1.1376486E0,5.842999E1,1.8132598E0,9.694958E0,2.8478754E0],"tree_param":{"num_deleted":"0","num_feature":"17","num_nodes":"103","size_leaf_vector":"1"}},{"base_weights":[-1.0623296E-2,4.000515E-1,-2.2555436E-1,-1.1285644E-1,5.452137E-1,-4.7342363E-1,2.8384024E-1,7.839891E-1,1.5214145E-1,-2.4370037E-1,-9.68186E-1,6.706882E-1,-1.01672985E-1,-1.694922E-2,8.30745E-1,4.703949E-2,7.406423E-1,2.6227493E-2,-1.0789444E0,-1.0117131E0,-9.245915E-4,6.398344E-2,7.644302E-1,-1.0521208E0,1.574117E-1,2.0522556E-1,-2.2107333E-1,9.348134E-1,6.22737E-1,-3.9670044E-1,2.0989732E-1,7.896162E-1,-1.6570695E-1,-2.0246698E-1,5.962334E-1,-5.6422365E-1,-2.9085466E-1,-2.291925E-1,-3.2683608E-1,3.866314E-1,-2.2453645E-1,9.340439E-1,4.4198427E-1,2.1299133E-1,-1.3500047E0,3.1608957E-1,-1.2975924E0,4.6553755E-1,-5.878214E-1,9.49302E-1,3.5124817E-1,-3.1880808E-1,7.7571535E-1,-7.610105E-1,4.886841E-1,2.4702309E-1,-3.259373E-1,4.0651926E-1,9.183633E-1,-7.170573E-2,2.592989E-1,2.0080376E-1,2.1030227E-2,-2.680823E-1,-5.079044E-3,1.5755426E-2,-1.23185284E-1,-2.2661049E-2,1.9633712E-1,2.1021916E-1,4.7081783E-2,1.2858033E-1,-2.3714708E-1,-2.773708E-2,1.0190221E-1,5.8064636E-2,-3.3946514E-1,1.14388086E-1,-5.1547926E-2,-4.3897364E-1,7.813216E-2,4.473793E-3,2.0263672E-1,1.1523784E-1,-2.218412E-1,-2.5111677E-2,2.0963076E-1,1.4768983E-1,-2.3820604E-1,2.4757415E-2,-2.7718228E-1,1.9222613E-1,5.843337E-2,-2.2099118E-1,-7.5093165E-2,-1.9374648E-1,1.6210268E-1,5.9565783E-2,-2.5264457E-1,-2.2227031E-1,1.4661698E-1,2.11419E-1,1.1025579E-1],"categories":[],"categories_nodes":[],"categories_segments":[],"categories_sizes":[],"default_left":[0,0,0,0,0,0,0,0,0,0,0,0,0,0,0,0,0,0,0,0,0,0,0,0,0,0,0,0,0,0,0,0,0,0,0,0,0,0,0,0,0,0,0,0,0,0,0,0,0,0,0,0,0,0,0,0,0,0,0,0,0,0,0,0,0,0,0,0,0,0,0,0,0,0,0,0,0,0,0,0,0,0,0,0,0,0,0,0,0,0,0,0,0,0,0,0,0,0,0,0,0,0,0],"id":13,"left_children":[1,3,-1,5,7,9,11,13,15,17,19,21,23,25,27,29,31,33,35,37,-1,39,41,43,45,47,-1,49,51,53,55,57,-1,59,61,63,-1,-1,65,67,-1,69,71,73,75,77,79,81,83,85,87,89,91,93,95,97,-1,99,101,-1,-1,-1,-1,-1,-1,-1,-1,-1,-1,-1,-1,-1,-1,-1,-1,-1,-1,-1,-1,-1,-1,-1,-1,-1,-1,-1,-1,-1,-1,-1,-1,-1,-1,-1,-1,-1,-1,-1,-1,-1,-1,-1,-1],"loss_changes":[6.61511E2,8.420752E1,0E0,3.591166E1,8.257089E1,1.4699427E1,1.7922987E1,2.0530304E1,2.063526E1,2.0561762E1,1.7299461E0,3.3572216E0,1.5145525E1,7.053859E0,1.0623505E1,2.0651196E1,4.2945347E0,9.22061E0,2.04068E0,4.7384262E-1,0E0,3.5813618E0,2.419239E0,5.247239E0,1.1647464E1,5.7030263E0,0E0,2.566925E0,2.5542534E1,2.5130524E1,1.3481104E1,2.0658703E0,0E0,9.0067005E0,3.1202126E0,3.11906E0,0E0,0E0,3.2990095E-1,2.0097835E0,0E0,3.0686378E-1,4.906343E0,3.4445953E-1,3.7681541E0,5.1361775E0,6.453762E0,4.1101456E0,3.7732365E0,1.3755493E0,5.2697554E0,1.0393511E1,7.337738E0,5.2543087E0,8.459315E0,7.1067057E0,0E0,5.9151144E0,1.6260338E-1,0E0,0E0,0E0,0E0,0E0,0E0,0E0,0E0,0E0,0E0,0E0,0E0,0E0,0E0,0E0,0E0,0E0,0E0,0E0,0E0,0E0,0E0,0E0,0E0,0E0,0E0,0E0,0E0,0E0,0E0,0E0,0E0,0E0,0E0,0E0,0E0,0E0,0E0,0E0,0E0,0E0,0E0,0E0,0E0],"parents":[2147483647,0,0,1,1,3,3,4,4,5,5,6,6,7,7,8,8,9,9,10,10,11,11,12,12,13,13,14,14,15,15,16,16,17,17,18,18,19,19,21,21,22,22,23,23,24,24,25,25,27,27,28,28,29,29,30,30,31,31,33,33,34,34,35,35,38,38,39,39,41,41,42,42,43,43,44,44,45,45,46,46,47,47,48,48,49,49,50,50,51,51,52,52,53,53,54,54,55,55,57,57,58,58],"right_children":[2,4,-1,6,8,10,12,14,16,18,20,22,24,26,28,30,32,34,36,38,-1,40,42,44,46,48,-1,50,52,54,56,58,-1,60,62,64,-1,-1,66,68,-1,70,72,74,76,78,80,82,84,86,88,90,92,94,96,98,-1,100,102,-1,-1,-1,-1,-1,-1,-1,-1,-1,-1,-1,-1,-1,-1,-1,-1,-1,-1,-1,-1,-1,-1,-1,-1,-1,-1,-1,-1,-1,-1,-1,-1,-1,-1,-1,-1,-1,-1,-1,-1,-1,-1,-1,-1],"split_conditions":[5.230442E-1,-2.5495635E-2,-2.2555436E-1,-1.4958868E-2,1.1995543E0,-4.4568408E-1,2.7528146E-1,-6.233346E-1,1.3979308E1,-3.0759948E-1,-1.540868E-2,-3.1353325E-2,7.121778E-2,3.8427743E-3,2.3539487E-1,-1.5555717E-2,8.962178E-2,-6.233677E-1,-1.1886922E0,-2.634451E-2,-9.245915E-4,-8.890929E-2,-1.3542202E-2,1.3874435E-1,2.0687988E0,-6.422151E-2,-2.2107333E-1,1.1929879E0,-1.5732193E-2,-8.253379E-1,4.4319283E-2,-1.1964689E-2,-1.6570695E-1,-4.674167E-1,-6.422151E-2,-1.2354937E0,-2.9085466E-1,-2.291925E-1,-2.5973417E-2,-9.434577E-2,-2.2453645E-1,2.9821181E0,6.422721E-1,-2.9313246E-2,-3.1434964E-2,-1.0538164E0,1.9165746E0,-8.692299E-3,-1.191647E0,-1.06149204E-1,-1.2970497E-2,-5.854211E-1,-6.1144304E-1,1.8894262E0,-9.513625E-3,1.968195E-1,-3.259373E-1,-1.2322527E0,-1.34388115E-2,-7.170573E-2,2.592989E-1,2.0080376E-1,2.1030227E-2,-2.680823E-1,-5.079044E-3,1.5755426E-2,-1.23185284E-1,-2.2661049E-2,1.9633712E-1,2.1021916E-1,4.7081783E-2,1.2858033E-1,-2.3714708E-1,-2.773708E-2,1.0190221E-1,5.8064636E-2,-3.3946514E-1,1.14388086E-1,-5.1547926E-2,-4.3897364E-1,7.813216E-2,4.473793E-3,2.0263672E-1,1.1523784E-1,-2.218412E-1,-2.5111677E-2,2.0963076E-1,1.4768983E-1,-2.3820604E-1,2.4757415E-2,-2.7718228E-1,1.9222613E-1,5.843337E-2,-2.2099118E-1,-7.5093165E-2,-1.9374648E-1,1.6210268E-1,5.9565783E-2,-2.5264457E-1,-2.2227031E-1,1.4661698E-1,2.11419E-1,1.1025579E-1],"split_indices":[9,4,0,2,8,6,8,8,0,8,2,4,13,4,8,2,4,8,6,4,0,11,2,1,13,13,0,13,2,6,2,4,0,6,13,6,0,0,4,11,0,1,13,4,4,6,8,4,6,11,2,6,6,8,4,11,0,6,2,0,0,0,0,0,0,0,0,0,0,0,0,0,0,0,0,0,0,0,0,0,0,0,0,0,0,0,0,0,0,0,0,0,0,0,0,0,0,0,0,0,0,0,0],"split_type":[0,0,0,0,0,0,0,0,0,0,0,0,0,0,0,0,0,0,0,0,0,0,0,0,0,0,0,0,0,0,0,0,0,0,0,0,0,0,0,0,0,0,0,0,0,0,0,0,0,0,0,0,0,0,0,0,0,0,0,0,0,0,0,0,0,0,0,0,0,0,0,0,0,0,0,0,0,0,0,0,0,0,0,0,0,0,0,0,0,0,0,0,0,0,0,0,0,0,0,0,0,0,0],"sum_hessian":[1.5855895E3,1.1291609E3,4.5642862E2,2.4912814E2,8.800327E2,1.3040578E2,1.1872237E2,5.468495E2,3.3318326E2,9.007539E1,4.0330376E1,5.8889378E1,5.983299E1,3.0197495E1,5.16652E2,2.8361212E2,4.9571133E1,6.880736E1,2.126804E1,3.8540623E1,1.7897539E0,8.10645E0,5.078293E1,1.2160711E1,4.767228E1,2.530005E1,4.897444E0,3.4203464E2,1.7461732E2,7.5757965E1,2.0785416E2,4.845406E1,1.1170737E0,4.9565693E1,1.9241661E1,7.8882794E0,1.3379761E1,3.6420387E1,2.1202364E0,6.7438245E0,1.3626258E0,3.203505E1,1.874788E1,2.3719652E0,9.788746E0,4.3690315E1,3.9819624E0,1.9358679E1,5.941371E0,3.3313687E2,8.897776E0,2.4254255E1,1.5036308E2,5.3772583E1,2.1985386E1,2.0422551E2,3.6286564E0,1.32336855E1,3.522037E1,4.6199528E1,3.3661659E0,1.1284396E1,7.957265E0,3.0040271E0,4.884252E0,1.0382451E0,1.0819913E0,3.8313465E0,2.9124777E0,3.0788727E1,1.2463207E0,1.7703863E1,1.0440186E0,1.2177618E0,1.1542034E0,1.0063895E0,8.782356E0,3.1922283E1,1.1768034E1,2.6541576E0,1.3278047E0,1.0318728E1,9.039951E0,1.5633758E0,4.3779955E0,1.0094413E0,3.3212744E2,7.7089887E0,1.1887873E0,1.723522E1,7.019035E0,1.2552508E2,2.4838E1,3.314723E1,2.0625357E1,2.981814E0,1.9003572E1,2.0160298E2,2.6225188E0,1.6038799E0,1.1629806E1,3.0772419E1,4.447954E0],"tree_param":{"num_deleted":"0","num_feature":"17","num_nodes":"103","size_leaf_vector":"1"}},{"base_weights":[-1.2552615E-2,-7.3797584E-1,5.356948E-1,-3.2522207E-1,-2.241444E-1,7.6095474E-1,-5.409127E-2,1.3848948E-1,-4.8787776E-1,7.8702307E-1,-2.0051715E-1,-1.7495193E-1,8.4152997E-1,-3.3348066E-1,2.9394397E-1,-3.6453792E-1,-8.792784E-1,4.5159832E-1,8.791439E-1,-6.267168E-1,1.2586795E-2,-5.747762E-2,9.3521297E-1,7.3843855E-1,-7.996352E-1,-3.0178192E-1,4.92366E-1,-7.753313E-1,-1.5558375E-1,-2.2437893E-1,-2.0699763E-1,7.312091E-1,2.3245836E-2,9.6776885E-1,6.183313E-1,-9.359737E-1,-6.770102E-2,1.36863E-1,-8.551839E-1,2.1238028E-1,3.631081E-2,2.0647074E-1,-9.743244E-3,-1.2094243E0,4.583303E-1,2.2194268E-1,-2.271338E-1,8.6436236E-1,-1.6692153E-1,-1.0314492E0,1.813716E-1,4.8791087E-1,-2.6511973E-1,6.9783264E-1,-1.9138868E-1,7.5791806E-1,-1.14662245E-1,-1.534034E0,3.2177043E-1,9.799915E-1,5.148723E-1,-1.6854778E-3,8.036092E-1,-1.1348065E0,6.091204E-2,-2.4177706E-1,4.8327744E-1,1.9580815E-2,6.912294E-1,-2.3193064E-1,6.285621E-3,-3.0264005E-1,-9.97962E-2,1.601832E-2,1.4116898E-1,-1.20832145E-1,2.5624043E-1,1.406624E-1,2.3574556E-1,-1.17965385E-1,1.991731E-1,-2.4078959E-1,8.9242294E-2,-1.8786235E-1,1.9444695E-1,1.6129841E-1,-6.552708E-2,-4.708176E-3,-1.6482213E-1,6.0848918E-2,2.036909E-1,6.2951796E-2,1.8304305E-1,1.2538622E-1,-4.3180454E-1,-3.1384613E-2,1.7767988E-1,1.1587624E-1,2.1684802E-1,-1.1631154E-1,1.7886457E-1,-1.09196E-1,1.5411524E-1,-1.2183707E-1,1.8291949E-1,-2.714625E-1,2.2279968E-2,-2.1098363E-1,1.0644951E-1,1.6100149E-1,-3.065064E-1,-4.0239643E-2,1.4846055E-1,3.5941925E-2,2.0155996E-1,1.1150315E-1,-1.4216451E-1],"categories":[],"categories_nodes":[],"categories_segments":[],"categories_sizes":[],"default_left":[0,0,0,0,0,0,0,0,0,0,0,0,0,0,0,0,0,0,0,0,0,0,0,0,0,0,0,0,0,0,0,0,0,0,0,0,0,0,0,0,0,0,0,0,0,0,0,0,0,0,0,0,0,0,0,0,0,0,0,0,0,0,0,0,0,0,0,0,0,0,0,0,0,0,0,0,0,0,0,0,0,0,0,0,0,0,0,0,0,0,0,0,0,0,0,0,0,0,0,0,0,0,0,0,0,0,0,0,0,0,0,0,0,0,0,0,0],"id":14,"left_children":[1,3,5,7,-1,9,11,13,15,17,-1,19,21,23,25,27,29,31,33,35,37,-1,39,41,43,45,47,49,51,-1,53,55,57,59,61,63,65,67,69,-1,-1,-1,-1,71,73,75,-1,77,79,81,83,85,87,89,-1,91,-1,93,95,97,99,101,103,105,107,-1,109,111,113,-1,115,-1,-1,-1,-1,-1,-1,-1,-1,-1,-1,-1,-1,-1,-1,-1,-1,-1,-1,-1,-1,-1,-1,-1,-1,-1,-1,-1,-1,-1,-1,-1,-1,-1,-1,-1,-1,-1,-1,-1,-1,-1,-1,-1,-1,-1,-1],"loss_changes":[5.483785E2,6.84722E1,1.04376785E2,1.8305023E1,0E0,2.5495483E1,2.3742731E1,4.7620335E0,8.331673E0,1.6911865E1,0E0,1.6350296E1,2.9398022E0,8.694587E0,5.8637867E0,1.1723949E1,3.7819939E0,1.4685242E1,9.535309E0,9.722315E0,1.49225445E1,0E0,4.0416527E-1,8.9272165E-1,6.628571E0,5.089051E0,9.13264E0,1.1525391E1,6.664502E0,0E0,5.742657E0,2.8783035E0,2.3511906E1,1.2970276E0,1.3092625E1,7.277193E0,1.2599409E1,7.8503704E0,2.9793186E0,0E0,0E0,0E0,0E0,5.270462E-1,2.091881E-1,6.616725E0,0E0,4.1467857E-1,6.0519557E0,3.7648468E0,8.479985E0,2.8853197E0,9.407682E0,1.4497638E-1,0E0,2.3170815E0,0E0,8.459295E0,9.677255E0,2.9403687E-1,3.746358E0,9.801781E0,3.7766724E0,3.8455505E0,3.4820046E0,0E0,7.7998877E0,1.3505356E1,2.3547354E0,0E0,1.71488E0,0E0,0E0,0E0,0E0,0E0,0E0,0E0,0E0,0E0,0E0,0E0,0E0,0E0,0E0,0E0,0E0,0E0,0E0,0E0,0E0,0E0,0E0,0E0,0E0,0E0,0E0,0E0,0E0,0E0,0E0,0E0,0E0,0E0,0E0,0E0,0E0,0E0,0E0,0E0,0E0,0E0,0E0,0E0,0E0,0E0,0E0],"parents":[2147483647,0,0,1,1,2,2,3,3,5,5,6,6,7,7,8,8,9,9,11,11,12,12,13,13,14,14,15,15,16,16,17,17,18,18,19,19,20,20,22,22,23,23,24,24,25,25,26,26,27,27,28,28,30,30,31,31,32,32,33,33,34,34,35,35,36,36,37,37,38,38,43,43,44,44,45,45,47,47,48,48,49,49,50,50,51,51,52,52,53,53,55,55,57,57,58,58,59,59,60,60,61,61,62,62,63,63,64,64,66,66,67,67,68,68,70,70],"right_children":[2,4,6,8,-1,10,12,14,16,18,-1,20,22,24,26,28,30,32,34,36,38,-1,40,42,44,46,48,50,52,-1,54,56,58,60,62,64,66,68,70,-1,-1,-1,-1,72,74,76,-1,78,80,82,84,86,88,90,-1,92,-1,94,96,98,100,102,104,106,108,-1,110,112,114,-1,116,-1,-1,-1,-1,-1,-1,-1,-1,-1,-1,-1,-1,-1,-1,-1,-1,-1,-1,-1,-1,-1,-1,-1,-1,-1,-1,-1,-1,-1,-1,-1,-1,-1,-1,-1,-1,-1,-1,-1,-1,-1,-1,-1,-1,-1,-1],"split_conditions":[-3.4804102E-2,5.230442E-1,1.0007979E0,-1.5326097E0,-2.241444E-1,5.230442E-1,1.0905651E0,-1.7969453E0,1.22373E0,-2.0193657E-2,-2.0051715E-1,2.1963751E-1,-2.4303503E-2,-1.2734303E0,-9.979774E-2,-6.1020855E-2,-2.8665585E-3,1.3761532E-1,1.2118064E0,-8.7042356E-1,1.36142E0,-5.747762E-2,1.3567016E0,-9.957316E-2,-2.4911692E-2,-1.0742146E0,-8.4413745E-2,-5.0053525E-1,-1.0958519E0,-2.2437893E-1,7.5882087E-3,3.4575799E0,-1.5181703E-2,3.4575799E0,1.2819608E-1,3.778622E-3,-8.692299E-3,1.3979308E1,2.1090543E0,2.1238028E-1,3.631081E-2,2.0647074E-1,-9.743244E-3,-7.2704405E-2,-7.8140885E-2,-1.0872589E0,-2.271338E-1,-1.6309261E0,-1.550291E0,1.1787578E0,-2.1613084E-2,1.0601795E0,-2.5390676E-1,2.806404E0,-1.9138868E-1,-1.3476945E-1,-1.14662245E-1,-5.971867E-1,3.9301044E-1,-1.9202841E-2,-1.2083995E0,1.0570945E0,-1.0617012E-1,2.4132693E0,1.932546E-2,-2.4177706E-1,6.2766105E-1,1.0932677E-1,5.738319E-1,-2.3193064E-1,-7.511583E-3,-3.0264005E-1,-9.97962E-2,1.601832E-2,1.4116898E-1,-1.20832145E-1,2.5624043E-1,1.406624E-1,2.3574556E-1,-1.17965385E-1,1.991731E-1,-2.4078959E-1,8.9242294E-2,-1.8786235E-1,1.9444695E-1,1.6129841E-1,-6.552708E-2,-4.708176E-3,-1.6482213E-1,6.0848918E-2,2.036909E-1,6.2951796E-2,1.8304305E-1,1.2538622E-1,-4.3180454E-1,-3.1384613E-2,1.7767988E-1,1.1587624E-1,2.1684802E-1,-1.1631154E-1,1.7886457E-1,-1.09196E-1,1.5411524E-1,-1.2183707E-1,1.8291949E-1,-2.714625E-1,2.2279968E-2,-2.1098363E-1,1.0644951E-1,1.6100149E-1,-3.065064E-1,-4.0239643E-2,1.4846055E-1,3.5941925E-2,2.0155996E-1,1.1150315E-1,-1.4216451E-1],"split_indices":[14,9,7,7,0,9,6,7,8,4,0,14,4,6,11,14,11,7,8,6,7,0,7,11,4,6,11,3,6,0,11,1,2,1,14,2,4,0,8,0,0,0,0,11,11,6,0,7,7,8,4,8,8,1,0,1,0,8,14,4,6,1,11,8,4,0,1,4,14,0,4,0,0,0,0,0,0,0,0,0,0,0,0,0,0,0,0,0,0,0,0,0,0,0,0,0,0,0,0,0,0,0,0,0,0,0,0,0,0,0,0,0,0,0,0,0,0],"split_type":[0,0,0,0,0,0,0,0,0,0,0,0,0,0,0,0,0,0,0,0,0,0,0,0,0,0,0,0,0,0,0,0,0,0,0,0,0,0,0,0,0,0,0,0,0,0,0,0,0,0,0,0,0,0,0,0,0,0,0,0,0,0,0,0,0,0,0,0,0,0,0,0,0,0,0,0,0,0,0,0,0,0,0,0,0,0,0,0,0,0,0,0,0,0,0,0,0,0,0,0,0,0,0,0,0,0,0,0,0,0,0,0,0,0,0,0,0],"sum_hessian":[1.3768412E3,5.925079E2,7.843333E2,2.4079489E2,3.5171298E2,5.673516E2,2.1698164E2,6.256844E1,1.7822646E2,5.591651E2,8.186534E0,1.9189131E2,2.5090338E1,1.5218591E1,4.734985E1,1.3698921E2,