{"learner":{"attributes":{"scikit_learn":"{\"_estimator_type\": \"classifier\"}"},"feature_names":[],"feature_types":[],"gradient_booster":{"model":{"cats":{"enc":[],"feature_segments":[],"sorted_idx":[]},"gbtree_model_param":{"num_parallel_tree":"1","num_trees":"600"},"iteration_indptr":[0,1,2,3,4,5,6,7,8,9,10,11,12,13,14,15,16,17,18,19,20,21,22,23,24,25,26,27,28,29,30,31,32,33,34,35,36,37,38,39,40,41,42,43,44,45,46,47,48,49,50,51,52,53,54,55,56,57,58,59,60,61,62,63,64,65,66,67,68,69,70,71,72,73,74,75,76,77,78,79,80,81,82,83,84,85,86,87,88,89,90,91,92,93,94,95,96,97,98,99,100,101,102,103,104,105,106,107,108,109,110,111,112,113,114,115,116,117,118,119,120,121,122,123,124,125,126,127,128,129,130,131,132,133,134,135,136,137,138,139,140,141,142,143,144,145,146,147,148,149,150,151,152,153,154,155,156,157,158,159,160,161,162,163,164,165,166,167,168,169,170,171,172,173,174,175,176,177,178,179,180,181,182,183,184,185,186,187,188,189,190,191,192,193,194,195,196,197,198,199,200,201,202,203,204,205,206,207,208,209,210,211,212,213,214,215,216,217,218,219,220,221,222,223,224,225,226,227,228,229,230,231,232,233,234,235,236,237,238,239,240,241,242,243,244,245,246,247,248,249,250,251,252,253,254,255,256,257,258,259,260,261,262,263,264,265,266,267,268,269,270,271,272,273,274,275,276,277,278,279,280,281,282,283,284,285,286,287,288,289,290,291,292,293,294,295,296,297,298,299,300,301,302,303,304,305,306,307,308,309,310,311,312,313,314,315,316,317,318,319,320,321,322,323,324,325,326,327,328,329,330,331,332,333,334,335,336,337,338,339,340,341,342,343,344,345,346,347,348,349,350,351,352,353,354,355,356,357,358,359,360,361,362,363,364,365,366,367,368,369,370,371,372,373,374,375,376,377,378,379,380,381,382,383,384,385,386,387,388,389,390,391,392,393,394,395,396,397,398,399,400,401,402,403,404,405,406,407,408,409,410,411,412,413,414,415,416,417,418,419,420,421,422,423,424,425,426,427,428,429,430,431,432,433,434,435,436,437,438,439,440,441,442,443,444,445,446,447,448,449,450,451,452,453,454,455,456,457,458,459,460,461,462,463,464,465,466,467,468,469,470,471,472,473,474,475,476,477,478,479,480,481,482,483,484,485,486,487,488,489,490,491,492,493,494,495,496,497,498,499,500,501,502,503,504,505,506,507,508,509,510,511,512,513,514,515,516,517,518,519,520,521,522,523,524,525,526,527,528,529,530,531,532,533,534,535,536,537,538,539,540,541,542,543,544,545,546,547,548,549,550,551,552,553,554,555,556,557,558,559,560,561,562,563,564,565,566,567,568,569,570,571,572,573,574,575,576,577,578,579,580,581,582,583,584,585,586,587,588,589,590,591,592,593,594,595,596,597,598,599,600],"tree_info":[0,0,0,0,0,0,0,0,0,0,0,0,0,0,0,0,0,0,0,0,0,0,0,0,0,0,0,0,0,0,0,0,0,0,0,0,0,0,0,0,0,0,0,0,0,0,0,0,0,0,0,0,0,0,0,0,0,0,0,0,0,0,0,0,0,0,0,0,0,0,0,0,0,0,0,0,0,0,0,0,0,0,0,0,0,0,0,0,0,0,0,0,0,0,0,0,0,0,0,0,0,0,0,0,0,0,0,0,0,0,0,0,0,0,0,0,0,0,0,0,0,0,0,0,0,0,0,0,0,0,0,0,0,0,0,0,0,0,0,0,0,0,0,0,0,0,0,0,0,0,0,0,0,0,0,0,0,0,0,0,0,0,0,0,0,0,0,0,0,0,0,0,0,0,0,0,0,0,0,0,0,0,0,0,0,0,0,0,0,0,0,0,0,0,0,0,0,0,0,0,0,0,0,0,0,0,0,0,0,0,0,0,0,0,0,0,0,0,0,0,0,0,0,0,0,0,0,0,0,0,0,0,0,0,0,0,0,0,0,0,0,0,0,0,0,0,0,0,0,0,0,0,0,0,0,0,0,0,0,0,0,0,0,0,0,0,0,0,0,0,0,0,0,0,0,0,0,0,0,0,0,0,0,0,0,0,0,0,0,0,0,0,0,0,0,0,0,0,0,0,0,0,0,0,0,0,0,0,0,0,0,0,0,0,0,0,0,0,0,0,0,0,0,0,0,0,0,0,0,0,0,0,0,0,0,0,0,0,0,0,0,0,0,0,0,0,0,0,0,0,0,0,0,0,0,0,0,0,0,0,0,0,0,0,0,0,0,0,0,0,0,0,0,0,0,0,0,0,0,0,0,0,0,0,0,0,0,0,0,0,0,0,0,0,0,0,0,0,0,0,0,0,0,0,0,0,0,0,0,0,0,0,0,0,0,0,0,0,0,0,0,0,0,0,0,0,0,0,0,0,0,0,0,0,0,0,0,0,0,0,0,0,0,0,0,0,0,0,0,0,0,0,0,0,0,0,0,0,0,0,0,0,0,0,0,0,0,0,0,0,0,0,0,0,0,0,0,0,0,0,0,0,0,0,0,0,0,0,0,0,0,0,0,0,0,0,0,0,0,0,0,0,0,0,0,0,0,0,0,0,0,0,0,0,0,0,0,0,0,0,0,0,0,0,0,0,0,0,0,0,0,0,0,0,0,0,0,0,0,0,0,0,0,0,0,0,0,0,0,0,0,0,0,0,0,0,0,0,0,0,0,0,0,0,0,0,0,0,0,0,0,0,0,0,0,0,0,0,0,0,0,0,0,0,0,0,0,0,0,0,0,0,0,0,0,0,0,0,0,0],"trees":[{"base_weights":[-1.7631504E-4,-1.8450849E0,1.7370567E0,-1.8884308E0,-2.4997142E-1,1.8331151E0,-4.8599905E-1,-1.9198405E0,-5.7635665E-1,1.0127465E0,-1.7080299E0,9.703088E-1,1.9210728E0,1.0648813E-1,-1.7419875E0,-1.9572506E0,-1.448386E0,-1.5858296E0,6.034517E-1,-3.9255482E-1,1.7327245E0,-1.8247292E0,2.1092518E-1,1.3499913E0,-1.2016826E0,1.9431146E0,1.266082E0,-4.6825397E-1,4.483984E-1,-4.882353E-1,-3.9325818E-1,-1.7932425E0,-1.9907329E0,1.284785E0,-1.7500867E0,-1.8112794E0,2.4221192E-1,1.1666857E0,-4.3548387E-1,-4.4444445E-1,8.969578E-1,4.4501808E-1,1.4844239E-1,-4.8675495E-1,-6.195232E-1,-4.869041E-1,1.5608809E0,-1.8136625E0,1.0964049E0,1.377276E0,1.9556192E0,-9.0872556E-1,1.5152265E0,-7.821782E-1,8.7016296E-1,2.612777E-1,-3.9473686E-1,-1.0944935E0,-1.8912239E0,-4.9820513E-1,-1.4023293E0,1.6248143E0,-4.7704402E-1,1.2429192E0,-1.8899407E0,-3.941753E-1,-4.8591548E-1,3.6446074E-1,-3.3333334E-1,-8.8119584E-1,1.648523E0,-3E-1,1.4098499E0,-3.6666667E-1,2.1092518E-1,1.4039875E0,-1.3834457E0,9.7450125E-1,1.7809347E0,2.8673345E-1,-4.869281E-1,1.5818919E0,-3E-1,1.6841081E0,-1.1158308E0,1.9572265E0,5.2571647E-2,-4.4285715E-1,3.0959478E-1,1.5987434E0,-3.4615386E-1,6.32936E-1,-4.6363637E-1,1.0730765E0,-4.090909E-1,-1.2882323E0,3.5804734E-1,-1.9246148E0,-1.4648165E-1,-1.9807918E-1,-4.4594595E-1,4.229912E-1,1.4844239E-1,2.8673345E-1,-3.5714287E-1,-3E-1,4.4485438E-1,-1.9382848E0,-3.9325818E-1,-3.4615386E-1,2.8673345E-1,-4.047619E-1,2.8673345E-1,4.6263596E-1,7.755324E-1,4.2160472E-1,9.6055426E-2,2.0600127E-1,4.3525344E-1,-4.6923077E-1,3.452743E-1,1.6390815E0,-4.642857E-1,1.8002768E0,2.0600127E-1,1.4844239E-1,4.3525344E-1,1.0361652E0,4.6856168E-1,-4.2857143E-1,2.8673345E-1,4.953713E-1,1.8452569E0,-2.777778E-1,2.8673345E-1,1.8916073E-1,1.7140211E0,-3.5714287E-1,1.4098499E0,1.1987104E0,-3.5714287E-1,-3.8155994E-1,-9.817052E-2,-4.8646036E-1,-3.5125366E-1,4.006646E-1,-4.1304347E-1,-3.181818E-1,2.8673345E-1,-3.0601168E-1,-4.9738562E-1,3.6446074E-1,-4.047619E-1,5.1500317E-2,2.612777E-1,-2.5E-1,2.8673345E-1,3.6446074E-1,-3.181818E-1,9.50571E-2,4.6450803E-1,4.5707318E-1,1.938831E-1,-2.5E-1,2.8673345E-1,4.618331E-1,-3.888889E-1,1.16561726E-1,4.7214508E-1,2.513861E-1,-3.4615386E-1,4.5987034E-1,2.2550373E-1,9.6055426E-2,4.2160472E-1,-3.5714287E-1,3.3376363E-1],"categories":[],"categories_nodes":[],"categories_segments":[],"categories_sizes":[],"default_left":[0,0,0,0,0,0,0,0,0,0,0,0,0,0,0,0,0,0,0,0,0,0,0,0,0,0,0,0,0,0,0,0,0,0,0,0,0,0,0,0,0,0,0,0,0,0,0,0,0,0,0,0,0,0,0,0,0,0,0,0,0,0,0,0,0,0,0,0,0,0,0,0,0,0,0,0,0,0,0,0,0,0,0,0,0,0,0,0,0,0,0,0,0,0,0,0,0,0,0,0,0,0,0,0,0,0,0,0,0,0,0,0,0,0,0,0,0,0,0,0,0,0,0,0,0,0,0,0,0,0,0,0,0,0,0,0,0,0,0,0,0,0,0,0,0,0,0,0,0,0,0,0,0,0,0,0,0,0,0,0,0,0,0,0,0,0,0,0,0,0,0,0,0,0,0,0,0],"id":0,"left_children":[1,3,5,7,9,11,13,15,17,19,21,23,25,27,29,31,33,35,37,39,41,43,-1,45,47,49,51,-1,53,-1,55,57,59,61,63,65,67,69,-1,-1,71,-1,-1,-1,73,75,77,79,81,83,85,87,89,91,93,-1,-1,95,97,-1,99,101,103,105,107,109,-1,-1,-1,111,113,-1,115,-1,-1,117,119,121,123,-1,-1,125,-1,127,129,131,133,-1,-1,135,-1,137,-1,139,-1,141,-1,143,145,147,-1,-1,-1,-1,-1,-1,-1,149,151,-1,-1,-1,-1,-1,153,-1,-1,155,-1,-1,157,159,-1,161,163,-1,-1,165,-1,-1,-1,-1,167,-1,-1,169,171,-1,173,175,-1,-1,-1,-1,-1,-1,-1,-1,-1,-1,-1,-1,-1,-1,-1,-1,-1,-1,-1,-1,-1,-1,-1,-1,-1,-1,-1,-1,-1,-1,-1,-1,-1,-1,-1,-1,-1],"loss_changes":[2.3027758E4,2.4044922E2,7.9108887E2,1.386875E2,1.7356952E2,2.673457E2,1.1483242E2,5.5586914E1,9.711013E1,5.1922665E1,1.4549446E1,2.7392407E2,4.4000977E1,7.2327415E1,1.329834E1,1.3265625E1,2.062232E2,1.8483246E1,5.216524E1,3.369805E1,7.58934E-1,4.997879E0,0E0,1.0982153E2,7.1831474E1,1.9322266E1,5.9701523E1,0E0,4.7845394E1,0E0,1.5189756E1,3.4208862E1,3.2128906E-1,1.5852146E1,9.577484E1,6.567978E0,1.28397665E1,3.2239845E1,0E0,0E0,1.2417288E1,0E0,0E0,0E0,7.8622394E0,5.2386368E1,3.0881836E1,1.7947647E1,1.423648E1,5.5929596E1,9.201172E0,2.3845337E1,2.5694153E1,3.7173103E1,3.64183E1,0E0,0E0,3.490661E1,2.671228E1,0E0,5.3173122E0,4.7164154E-1,9.124461E0,1.5984516E1,1.4694885E1,8.600973E0,0E0,0E0,0E0,1.1725317E1,3.0808182E0,0E0,1.7553005E0,0E0,0E0,3.7058887E0,1.829749E1,1.3700362E2,5.191345E0,0E0,0E0,4.704628E-1,0E0,5.858032E0,1.3265961E1,4.5996094E0,5.8519115E0,0E0,0E0,1.5064301E1,0E0,1.9587648E1,0E0,2.1717567E1,0E0,1.2883499E1,0E0,2.279541E0,2.8414219E1,7.377965E0,0E0,0E0,0E0,0E0,0E0,0E0,0E0,5.131714E0,2.0374313E1,0E0,0E0,0E0,0E0,0E0,7.878084E-1,0E0,0E0,4.94214E0,0E0,0E0,1.1646328E1,1.5330811E1,0E0,3.756958E0,4.94214E0,0E0,0E0,3.7772865E1,0E0,0E0,0E0,0E0,3.2322388E1,0E0,0E0,1.2034914E1,7.246521E0,0E0,1.7553005E0,2.3812538E1,0E0,0E0,0E0,0E0,0E0,0E0,0E0,0E0,0E0,0E0,0E0,0E0,0E0,0E0,0E0,0E0,0E0,0E0,0E0,0E0,0E0,0E0,0E0,0E0,0E0,0E0,0E0,0E0,0E0,0E0,0E0,0E0,0E0,0E0,0E0,0E0,0E0],"parents":[2147483647,0,0,1,1,2,2,3,3,4,4,5,5,6,6,7,7,8,8,9,9,10,10,11,11,12,12,13,13,14,14,15,15,16,16,17,17,18,18,19,19,20,20,21,21,23,23,24,24,25,25,26,26,28,28,30,30,31,31,32,32,33,33,34,34,35,35,36,36,37,37,40,40,44,44,45,45,46,46,47,47,48,48,49,49,50,50,51,51,52,52,53,53,54,54,57,57,58,58,60,60,61,61,62,62,63,63,64,64,65,65,69,69,70,70,72,72,75,75,76,76,77,77,78,78,81,81,83,83,84,84,85,85,86,86,89,89,91,91,93,93,95,95,97,97,98,98,99,99,107,107,108,108,114,114,117,117,120,120,121,121,123,123,124,124,127,127,132,132,135,135,136,136,138,138,139,139],"right_children":[2,4,6,8,10,12,14,16,18,20,22,24,26,28,30,32,34,36,38,40,42,44,-1,46,48,50,52,-1,54,-1,56,58,60,62,64,66,68,70,-1,-1,72,-1,-1,-1,74,76,78,80,82,84,86,88,90,92,94,-1,-1,96,98,-1,100,102,104,106,108,110,-1,-1,-1,112,114,-1,116,-1,-1,118,120,122,124,-1,-1,126,-1,128,130,132,134,-1,-1,136,-1,138,-1,140,-1,142,-1,144,146,148,-1,-1,-1,-1,-1,-1,-1,150,152,-1,-1,-1,-1,-1,154,-1,-1,156,-1,-1,158,160,-1,162,164,-1,-1,166,-1,-1,-1,-1,168,-1,-1,170,172,-1,174,176,-1,-1,-1,-1,-1,-1,-1,-1,-1,-1,-1,-1,-1,-1,-1,-1,-1,-1,-1,-1,-1,-1,-1,-1,-1,-1,-1,-1,-1,-1,-1,-1,-1,-1,-1,-1,-1],"split_conditions":[-4.393467E-2,7.89457E-2,1.2479854E0,6.6564715E-1,6.6932607E-1,3.6524087E-2,1.3708569E0,-1.5732216E-2,8.7438256E-1,1.1172454E-1,9.659905E0,1.3920894E0,1.136958E0,3.6524087E-2,4.663009E0,-1.2812815E0,-1.4792626E0,-4.0119495E-2,8.19707E-1,1.1141381E0,-3.5363812E-2,1.20858066E-1,2.1092518E-1,-2.967506E-2,1.2286572E0,-3.543148E-2,-1.7030338E-2,-4.6825397E-1,-1.6603341E-2,-4.882353E-1,4.2249718E-1,-3.1345904E-2,1.787456E0,1.5904719E0,-1.5728075E-2,-1.6697328E0,-1.1671869E-1,-7.722148E-3,-4.3548387E-1,-4.4444445E-1,-2.6110099E-3,4.4501808E-1,1.4844239E-1,-4.8675495E-1,-1.171487E-2,-1.30237E0,-1.7365347E-1,1.3965576E-2,4.1534713E-1,5.772187E-1,1.520055E0,2.3325953E0,9.0240866E-1,1.2717701E0,1.5764053E0,2.612777E-1,-3.9473686E-1,-9.553588E-2,-3.5385787E-2,-4.9820513E-1,-3.602262E-1,7.848899E-3,-1.5731301E-2,-7.5032216E-1,1.787456E0,-1.0504802E0,-4.8591548E-1,3.6446074E-1,-3.3333334E-1,5.31038E-1,5.848191E-1,-3E-1,-1.0610024E0,-3.6666667E-1,2.1092518E-1,-1.7365347E-1,-4.0119495E-2,-3.447738E-2,4.3562792E-2,2.8673345E-1,-4.869281E-1,-1.2451208E0,-3E-1,1.20336376E-1,6.557218E-1,1.1703202E0,-1.1271164E0,-4.4285715E-1,3.0959478E-1,-1.2513826E0,-3.4615386E-1,1.7598076E0,-4.6363637E-1,8.19707E-1,-4.090909E-1,-1.4166585E-1,3.5804734E-1,-6.7572117E-1,-1.1521496E-1,5.0406083E-3,-4.4594595E-1,4.229912E-1,1.4844239E-1,2.8673345E-1,-3.5714287E-1,-3E-1,4.4485438E-1,-5.2073187E-1,-1.2274504E0,-3.4615386E-1,2.8673345E-1,-4.047619E-1,2.8673345E-1,4.6263596E-1,1.091902E0,4.2160472E-1,9.6055426E-2,-4.851156E-1,4.3525344E-1,-4.6923077E-1,-1.3168995E-1,-2.3202287E-2,-4.642857E-1,4.0295696E0,8.9346695E-1,1.4844239E-1,4.3525344E-1,-5.0371116E-1,4.6856168E-1,-4.2857143E-1,2.8673345E-1,4.953713E-1,-1.7030338E-2,-2.777778E-1,2.8673345E-1,-9.858146E-2,4.0295696E0,-3.5714287E-1,-1.40391635E-2,-3.5335723E-2,-3.5714287E-1,-3.8155994E-1,-9.817052E-2,-4.8646036E-1,-3.5125366E-1,4.006646E-1,-4.1304347E-1,-3.181818E-1,2.8673345E-1,-3.0601168E-1,-4.9738562E-1,3.6446074E-1,-4.047619E-1,5.1500317E-2,2.612777E-1,-2.5E-1,2.8673345E-1,3.6446074E-1,-3.181818E-1,9.50571E-2,4.6450803E-1,4.5707318E-1,1.938831E-1,-2.5E-1,2.8673345E-1,4.618331E-1,-3.888889E-1,1.16561726E-1,4.7214508E-1,2.513861E-1,-3.4615386E-1,4.5987034E-1,2.2550373E-1,9.6055426E-2,4.2160472E-1,-3.5714287E-1,3.3376363E-1],"split_indices":[12,11,7,21,7,12,7,2,6,17,11,8,7,12,0,7,7,11,20,1,23,21,0,4,1,23,26,0,4,0,5,4,14,30,2,7,17,4,0,0,5,0,0,0,2,7,1,12,11,7,30,8,22,7,1,0,0,21,23,0,7,2,2,6,14,6,0,0,0,1,20,0,6,0,0,1,11,8,26,0,0,6,0,12,6,8,6,0,0,6,0,8,0,20,0,20,0,6,5,4,0,0,0,0,0,0,0,8,6,0,0,0,0,0,22,0,0,3,0,0,17,4,0,27,1,0,0,8,0,0,0,0,26,0,0,21,27,0,2,23,0,0,0,0,0,0,0,0,0,0,0,0,0,0,0,0,0,0,0,0,0,0,0,0,0,0,0,0,0,0,0,0,0,0,0,0,0],"split_type":[0,0,0,0,0,0,0,0,0,0,0,0,0,0,0,0,0,0,0,0,0,0,0,0,0,0,0,0,0,0,0,0,0,0,0,0,0,0,0,0,0,0,0,0,0,0,0,0,0,0,0,0,0,0,0,0,0,0,0,0,0,0,0,0,0,0,0,0,0,0,0,0,0,0,0,0,0,0,0,0,0,0,0,0,0,0,0,0,0,0,0,0,0,0,0,0,0,0,0,0,0,0,0,0,0,0,0,0,0,0,0,0,0,0,0,0,0,0,0,0,0,0,0,0,0,0,0,0,0,0,0,0,0,0,0,0,0,0,0,0,0,0,0,0,0,0,0,0,0,0,0,0,0,0,0,0,0,0,0,0,0,0,0,0,0,0,0,0,0,0,0,0,0,0,0,0,0],"sum_hessian":[7.1828667E3,3.4834485E3,3.6994182E3,3.3911138E3,9.233452E1,3.5463555E3,1.530628E2,3.3113796E3,7.973416E1,4.964555E1,4.268897E1,3.2919608E2,3.2171594E3,1.0462384E2,4.843897E1,3.0650176E3,2.463621E2,4.278345E1,3.695071E1,1.697242E1,3.267313E1,4.1094482E1,1.594484E0,2.805347E2,4.866139E1,3.1105178E3,1.0664146E2,1.475E1,8.987384E1,4.15E1,6.9389677E0,5.288897E2,2.536128E3,2.416726E1,2.2219484E2,3.8094482E1,4.6889677E0,3.0200712E1,6.75E0,8E0,8.97242E0,3.0828648E1,1.844484E0,3.675E1,4.344484E0,2.875587E1,2.5177882E2,3.8594482E1,1.0066904E1,6.9657295E1,3.0408606E3,1.0688968E1,9.595249E1,2.272242E1,6.715142E1,3.188968E0,3.75E0,6.653932E1,4.6235034E2,2.5247834E3,1.1344484E1,2.0322775E1,3.8444839E0,9.566904E0,2.1262793E2,3.5944839E0,3.45E1,2.688968E0,2E0,5.594484E0,2.4606228E1,1.5E0,7.4724197E0,2.75E0,1.594484E0,9.066904E0,1.9688969E1,7.0184875E1,1.8159395E2,1.344484E0,3.725E1,8.566904E0,1.5E0,6.231281E1,7.344484E0,3.038266E3,2.5944839E0,7.75E0,2.938968E0,9.370249E1,2.25E0,9.97242E0,1.275E1,6.2651424E1,4.5E0,6.225587E1,4.283452E0,4.535669E2,8.783452E0,3.0944839E0,8.25E0,1.8478292E1,1.844484E0,1.344484E0,2.5E0,1.5E0,8.066904E0,2.0568896E2,6.9389677E0,2.25E0,1.344484E0,4.25E0,1.344484E0,1.9072775E1,5.533452E0,5.377936E0,2.0944839E0,2.3444839E0,6.7224197E0,1.525E1,4.4389677E0,5.7184875E1,1.3E1,1.7924947E2,2.3444839E0,1.844484E0,6.7224197E0,1.5600356E1,4.6712456E1,6E0,1.344484E0,2.483506E3,5.5476013E2,1.25E0,1.344484E0,7.283452E0,8.641904E1,2.5E0,7.4724197E0,6.0151424E1,2.5E0,4.8627937E1,1.3627935E1,4.3312793E2,2.0438969E1,4.033452E0,4.75E0,1.75E0,1.344484E0,1.5438968E1,1.9025E2,2.688968E0,4.25E0,2.3444839E0,3.188968E0,1E0,1.344484E0,2.688968E0,1.75E0,8.877935E0,4.830694E1,1.7371602E2,5.533452E0,1E0,1.344484E0,1.2100356E1,3.5E0,1.725587E1,5.375043E2,5.033452E0,2.25E0,7.375765E1,1.2661387E1,2.0944839E0,5.377936E0,2.5E0,5.7651424E1],"tree_param":{"num_deleted":"0","num_feature":"31","num_nodes":"177","size_leaf_vector":"1"}},{"base_weights":[-8.5877854E-4,-1.4847032E0,1.3865763E0,-1.5186337E0,-2.1941847E-1,1.4655393E0,-4.062788E-1,-1.5403811E0,-5.612276E-1,7.960134E-1,-1.3706633E0,7.6193815E-1,1.5375836E0,1.5370008E-1,-1.2497008E0,-1.571099E0,-1.1591094E0,1.9439352E-1,-1.4609928E0,-9.543798E-1,1.1316128E0,-1.4725308E0,1.7985822E-1,-6.424642E-1,9.852496E-1,1.5638828E0,1.120728E0,-3.7486064E-1,4.2278412E-1,-1.5235281E0,1.9303183E-1,-1.4376826E0,-3.9964256E-1,9.777942E-1,-1.3990506E0,-1.0183778E0,1.0334877E0,-2.5676462E-1,-3.957657E-1,1.7228007E-1,-3.609032E-1,1.2985523E0,-8.4437735E-2,-3.9605865E-1,-3.1016144E-1,1.0403968E0,-1.3301306E0,1.2919945E0,2.8491628E-1,-3.0552754E-1,1.5659138E0,-9.9280614E-1,1.2925123E0,1.4660196E-1,1.4783275E0,-4.0257365E-1,-2.6731613E-1,1.2157302E0,-3.3606994E-1,-8.4340435E-1,-1.5228328E0,1.4243432E0,-7.164865E-2,1.0841426E0,-1.5163473E0,4.933438E-2,-1.2214417E0,-2.9319793E-1,1.3523082E0,-2.9323712E-1,2.519244E-1,1.4199638E0,-1.0137217E-1,-3.7015748E-1,2.9498115E-1,2.582404E-1,-2.8667584E-1,-2.3042956E-1,1.3135161E0,2.3951483E-1,-1.4608178E0,8.229024E-1,1.4755542E0,-5.1845145E-1,1.3243561E0,-3.0289578E-1,2.2472486E-1,1.3658631E0,1.5821755E0,-3.9617595E-1,5.093359E-1,1.3950927E0,2.6504415E-1,-2.4281949E-1,1.1543618E0,8.993387E-2,4.0321723E-1,2.4313423E-1,-2.7451405E-1,1.2215979E-1,3.457577E-1,-1.0522054E0,7.408389E-1,-1.5401791E0,-5.614992E-1,3.8645414E-1,8.797576E-2,-3.6409277E-1,5.795236E-1,3.6738226E-1,-2.3936862E-1,-1.5572478E0,4.0222734E-2,-3.746608E-1,8.301473E-2,8.823658E-2,3.5910144E-1,7.3355037E-1,3.8015768E-1,-2.5386682E-1,2.3029386E-1,8.581403E-2,3.695673E-1,-7.741847E-1,-3.9834931E-1,-1.6930763E-1,1.3156159E0,4.0024266E-1,1.2636822E0,-4.0869516E-1,6.7769265E-1,-3.4556538E-2,1.4237877E0,1.5184584E0,5.469824E-1,7.29769E-2,1.5829159E0,2.4602649E-1,1.299394E-2,-2.4030003E-1,1.4233525E0,1.1143954E0,-1.1226972E0,-7.9489607E-1,1.3717839E0,-2.7264863E-1,3.7348866E-1,-1.3880269E-1,-4.0485838E-1,3.381961E-1,-3.4067895E-2,-1.7639074E-1,-3.8792908E-1,3.009834E-1,-3.538773E-1,2.9282218E-1,-2.5957805E-1,-2.6267666E-1,-4.0195733E-1,3.0601692E-1,-2.8994036E-1,2.4879764E-1,-2.2874366E-1,-2.2296698E-1,3.2880282E-1,-3.3606085E-1,1.7925967E-1,3.1798464E-1,-3.8393772E-1,3.5645732E-1,-2.7301112E-1,3.4144118E-1,-3.7069103E-1,2.3889965E-1,-3.1923833E-1,-2.4949524E-1,2.2894733E-1,1.5330502E-1,3.7238005E-1,3.821062E-1,7.2510846E-2,2.8602433E-1,-2.436348E-1,3.9586362E-1,1.2858222E-1,-3.300306E-1,2.2863606E-1,3.6070067E-1,2.1708371E-2,-2.5947938E-2,3.601137E-1,-4.3546155E-1,2.2472486E-1,2.9456946E-1,-2.7314758E-1,3.868012E-1,8.316505E-2],"categories":[],"categories_nodes":[],"categories_segments":[],"categories_sizes":[],"default_left":[0,0,0,0,0,0,0,0,0,0,0,0,0,0,0,0,0,0,0,0,0,0,0,0,0,0,0,0,0,0,0,0,0,0,0,0,0,0,0,0,0,0,0,0,0,0,0,0,0,0,0,0,0,0,0,0,0,0,0,0,0,0,0,0,0,0,0,0,0,0,0,0,0,0,0,0,0,0,0,0,0,0,0,0,0,0,0,0,0,0,0,0,0,0,0,0,0,0,0,0,0,0,0,0,0,0,0,0,0,0,0,0,0,0,0,0,0,0,0,0,0,0,0,0,0,0,0,0,0,0,0,0,0,0,0,0,0,0,0,0,0,0,0,0,0,0,0,0,0,0,0,0,0,0,0,0,0,0,0,0,0,0,0,0,0,0,0,0,0,0,0,0,0,0,0,0,0,0,0,0,0,0,0,0,0,0,0,0,0,0,0,0,0,0,0,0,0],"id":1,"left_children":[1,3,5,7,9,11,13,15,17,19,21,23,25,27,29,31,33,35,37,39,41,43,-1,45,47,49,51,-1,53,55,57,59,-1,61,63,65,67,69,-1,-1,-1,71,73,-1,75,77,79,81,83,85,87,89,91,93,95,-1,97,99,-1,101,103,105,107,109,111,-1,113,-1,115,-1,-1,117,119,-1,-1,-1,-1,-1,121,-1,123,125,127,129,131,-1,-1,133,135,-1,137,139,141,143,145,-1,-1,-1,-1,-1,-1,147,149,151,153,-1,-1,-1,155,-1,-1,157,159,-1,161,-1,-1,163,-1,-1,-1,-1,-1,165,-1,167,169,-1,171,-1,173,175,177,179,181,-1,183,-1,-1,185,187,189,191,193,195,-1,-1,-1,-1,-1,-1,-1,-1,-1,-1,-1,-1,-1,-1,-1,-1,-1,-1,-1,-1,-1,-1,-1,-1,-1,-1,-1,-1,-1,-1,-1,-1,-1,-1,-1,-1,-1,-1,-1,-1,-1,-1,-1,-1,-1,-1,-1,-1,-1,-1,-1,-1],"loss_changes":[1.3950976E4,1.402461E2,4.963711E2,6.55293E1,1.0242756E2,1.6886914E2,7.0335785E1,3.4689453E1,4.9505524E1,2.850849E1,9.787415E0,9.897043E1,3.159668E1,4.0733986E1,2.3748604E1,8.264648E0,1.2249829E2,4.1994938E1,4.4686356E0,7.471039E0,8.156403E0,4.6265106E0,0E0,5.1866707E1,5.78349E1,1.1332031E1,6.8108E1,0E0,2.2611492E1,5.02063E0,1.7919569E1,2.4121094E1,0E0,1.1554123E1,6.362863E1,4.4271107E0,1.8662212E1,6.1008224E0,0E0,0E0,0E0,6.078209E0,1.1850852E1,0E0,6.4644947E0,8.292915E0,1.0791542E1,1.4984741E1,7.066931E1,5.3879476E0,7.130371E0,1.3610969E1,1.761679E1,2.5073774E1,1.8472672E0,0E0,5.6309357E0,1.4471817E-1,0E0,2.233459E1,6.437317E0,1.6955185E0,8.279911E0,9.418303E0,1.3026367E1,0E0,5.428627E0,0E0,1.3147392E0,0E0,0E0,1.1091537E0,4.412275E0,0E0,0E0,0E0,0E0,0E0,1.4129448E0,0E0,1.5071335E0,2.719503E1,1.5363464E0,6.518825E1,5.023819E0,0E0,0E0,2.6911835E1,2.0546875E0,0E0,9.970399E-1,7.502136E0,2.0965307E1,4.2445957E1,1.5186165E1,0E0,0E0,0E0,0E0,0E0,0E0,1.5447975E1,4.5722203E0,3.0414429E0,1.5778642E1,0E0,0E0,0E0,7.270927E0,0E0,0E0,3.394928E0,1.0210705E1,0E0,4.113502E0,0E0,0E0,6.892582E0,0E0,0E0,0E0,0E0,0E0,6.759265E0,0E0,3.9751083E1,1.1369789E1,0E0,1.7320686E1,0E0,1.4188618E1,4.106133E0,9.1571045E-1,1.8410034E0,3.4218117E1,0E0,7.006836E-1,0E0,0E0,5.5559998E0,3.837494E0,4.4699907E0,1.0137588E1,2.1967667E1,1.7070541E0,0E0,0E0,0E0,0E0,0E0,0E0,0E0,0E0,0E0,0E0,0E0,0E0,0E0,0E0,0E0,0E0,0E0,0E0,0E0,0E0,0E0,0E0,0E0,0E0,0E0,0E0,0E0,0E0,0E0,0E0,0E0,0E0,0E0,0E0,0E0,0E0,0E0,0E0,0E0,0E0,0E0,0E0,0E0,0E0,0E0,0E0,0E0,0E0,0E0,0E0,0E0,0E0],"parents":[2147483647,0,0,1,1,2,2,3,3,4,4,5,5,6,6,7,7,8,8,9,9,10,10,11,11,12,12,13,13,14,14,15,15,16,16,17,17,18,18,19,19,20,20,21,21,23,23,24,24,25,25,26,26,28,28,29,29,30,30,31,31,33,33,34,34,35,35,36,36,37,37,41,41,42,42,44,44,45,45,46,46,47,47,48,48,49,49,50,50,51,51,52,52,53,53,54,54,56,56,57,57,59,59,60,60,61,61,62,62,63,63,64,64,66,66,68,68,71,71,72,72,78,78,80,80,81,81,82,82,83,83,84,84,87,87,88,88,90,90,91,91,92,92,93,93,94,94,101,101,102,102,103,103,104,104,108,108,111,111,112,112,114,114,117,117,123,123,125,125,126,126,128,128,130,130,131,131,132,132,133,133,134,134,136,136,139,139,140,140,141,141,142,142,143,143,144,144],"right_children":[2,4,6,8,10,12,14,16,18,20,22,24,26,28,30,32,34,36,38,40,42,44,-1,46,48,50,52,-1,54,56,58,60,-1,62,64,66,68,70,-1,-1,-1,72,74,-1,76,78,80,82,84,86,88,90,92,94,96,-1,98,100,-1,102,104,106,108,110,112,-1,114,-1,116,-1,-1,118,120,-1,-1,-1,-1,-1,122,-1,124,126,128,130,132,-1,-1,134,136,-1,138,140,142,144,146,-1,-1,-1,-1,-1,-1,148,150,152,154,-1,-1,-1,156,-1,-1,158,160,-1,162,-1,-1,164,-1,-1,-1,-1,-1,166,-1,168,170,-1,172,-1,174,176,178,180,182,-1,184,-1,-1,186,188,190,192,194,196,-1,-1,-1,-1,-1,-1,-1,-1,-1,-1,-1,-1,-1,-1,-1,-1,-1,-1,-1,-1,-1,-1,-1,-1,-1,-1,-1,-1,-1,-1,-1,-1,-1,-1,-1,-1,-1,-1,-1,-1,-1,-1,-1,-1,-1,-1,-1,-1,-1,-1,-1,-1],"split_conditions":[-4.393467E-2,7.89457E-2,1.2479854E0,6.6564715E-1,6.051244E-1,3.6524087E-2,1.3572794E0,-1.5732216E-2,6.056281E-1,-2.638533E-2,9.659905E0,-2.9387465E-2,1.0498116E0,3.6524087E-2,4.663009E0,-1.2812815E0,-1.4792626E0,-3.6057953E-3,6.889846E-3,-9.995243E-1,-6.076101E-2,2.9964196E-2,1.7985822E-1,-1.0554626E0,6.051244E-1,-2.7900147E0,-1.2019642E-2,-3.7486064E-1,4.663009E0,1.1275686E1,6.889846E-3,-3.1345904E-2,-3.9964256E-1,-6.760819E-2,-1.5728075E-2,-1.6697328E0,-4.1184598E-1,1.2046614E0,-3.957657E-1,1.7228007E-1,-3.609032E-1,-2.8735995E-1,2.8587773E-1,-3.9605865E-1,4.194677E-2,-3.544511E-2,-3.1434964E-2,-1.5732216E-2,6.0005575E-1,2.6336938E-1,-1.83319E-2,5.74484E-1,1.1427134E0,-3.630429E-1,-6.707187E-2,-4.0257365E-1,1.3619015E0,-1.7299138E-2,-3.3606994E-1,-3.135147E-2,-3.5385787E-2,1.5904719E0,-1.782981E-2,-2.5727307E-2,9.6802866E-1,4.933438E-2,-1.047776E-1,-2.9319793E-1,-2.2040538E-2,-2.9323712E-1,2.519244E-1,-4.2217504E-2,-9.7456935E-4,-3.7015748E-1,2.9498115E-1,2.582404E-1,-2.8667584E-1,-2.3042956E-1,-1.5732216E-2,2.3951483E-1,3.9893292E-2,-3.398833E-1,-9.080338E-2,-4.2887513E-2,-4.567891E-2,-3.0289578E-1,2.2472486E-1,1.16527E-1,-1.0625375E-1,-3.9617595E-1,-3.0695565E-2,-8.6391464E-2,-9.807387E-2,5.7823424E0,-5.193713E-2,8.993387E-2,4.0321723E-1,2.4313423E-1,-2.7451405E-1,1.2215979E-1,3.457577E-1,-9.898332E-2,-2.0163364E0,-1.0625375E-1,-1.1521496E-1,3.8645414E-1,8.797576E-2,-3.6409277E-1,-2.957301E-2,3.6738226E-1,-2.3936862E-1,-2.675158E-2,-9.175778E-1,-3.746608E-1,-1.5731612E-2,8.823658E-2,3.5910144E-1,-1.5732216E-2,3.8015768E-1,-2.5386682E-1,2.3029386E-1,8.581403E-2,3.695673E-1,-5.5199794E-2,-3.9834931E-1,-1.0914854E0,3.4573755E-1,4.0024266E-1,1.2383883E0,-4.0869516E-1,1.1521726E0,-1.5732216E-2,-1.9184932E-2,5.050575E-2,4.3078083E-1,7.29769E-2,1.520055E0,2.4602649E-1,1.299394E-2,1.2311338E0,3.0195153E-1,1.2501321E-2,-9.051195E-1,-3.1196538E-2,-9.610961E-2,-2.7264863E-1,3.7348866E-1,-1.3880269E-1,-4.0485838E-1,3.381961E-1,-3.4067895E-2,-1.7639074E-1,-3.8792908E-1,3.009834E-1,-3.538773E-1,2.9282218E-1,-2.5957805E-1,-2.6267666E-1,-4.0195733E-1,3.0601692E-1,-2.8994036E-1,2.4879764E-1,-2.2874366E-1,-2.2296698E-1,3.2880282E-1,-3.3606085E-1,1.7925967E-1,3.1798464E-1,-3.8393772E-1,3.5645732E-1,-2.7301112E-1,3.4144118E-1,-3.7069103E-1,2.3889965E-1,-3.1923833E-1,-2.4949524E-1,2.2894733E-1,1.5330502E-1,3.7238005E-1,3.821062E-1,7.2510846E-2,2.8602433E-1,-2.436348E-1,3.9586362E-1,1.2858222E-1,-3.300306E-1,2.2863606E-1,3.6070067E-1,2.1708371E-2,-2.5947938E-2,3.601137E-1,-4.3546155E-1,2.2472486E-1,2.9456946E-1,-2.7314758E-1,3.868012E-1,8.316505E-2],"split_indices":[12,11,7,21,7,12,7,2,20,4,11,4,7,12,0,7,7,26,26,7,16,16,0,7,7,9,26,0,0,5,26,4,0,16,2,7,6,6,0,0,0,6,16,0,16,23,4,2,6,20,26,12,30,6,22,0,7,4,0,4,23,30,15,5,10,0,5,0,7,0,0,18,2,0,0,0,0,0,2,0,7,29,16,18,20,0,0,7,10,0,4,22,21,5,22,0,0,0,0,0,0,16,9,10,5,0,0,0,4,0,0,26,7,0,2,0,0,2,0,0,0,0,0,5,0,7,20,0,30,0,7,2,21,16,30,0,30,0,0,7,22,4,6,4,16,0,0,0,0,0,0,0,0,0,0,0,0,0,0,0,0,0,0,0,0,0,0,0,0,0,0,0,0,0,0,0,0,0,0,0,0,0,0,0,0,0,0,0,0,0,0,0,0,0,0,0,0],"split_type":[0,0,0,0,0,0,0,0,0,0,0,0,0,0,0,0,0,0,0,0,0,0,0,0,0,0,0,0,0,0,0,0,0,0,0,0,0,0,0,0,0,0,0,0,0,0,0,0,0,0,0,0,0,0,0,0,0,0,0,0,0,0,0,0,0,0,0,0,0,0,0,0,0,0,0,0,0,0,0,0,0,0,0,0,0,0,0,0,0,0,0,0,0,0,0,0,0,0,0,0,0,0,0,0,0,0,0,0,0,0,0,0,0,0,0,0,0,0,0,0,0,0,0,0,0,0,0,0,0,0,0,0,0,0,0,0,0,0,0,0,0,0,0,0,0,0,0,0,0,0,0,0,0,0,0,0,0,0,0,0,0,0,0,0,0,0,0,0,0,0,0,0,0,0,0,0,0,0,0,0,0,0,0,0,0,0,0,0,0,0,0,0,0,0,0,0,0],"sum_hessian":[6.77447E3,3.2734678E3,3.5010027E3,3.187782E3,8.568569E1,3.353487E3,1.4751561E2,3.1163848E3,7.139719E1,4.56923E1,3.9993393E1,3.12557E2,3.04093E3,8.9146034E1,5.8369568E1,2.8811396E3,2.3524524E2,3.923318E1,3.2164005E1,7.054449E0,3.8637848E1,3.841651E1,1.5768803E0,4.2623226E1,2.699338E2,2.857876E3,1.8305391E2,1.1839091E1,7.7306946E1,4.901133E1,9.35824E0,5.0105563E2,2.380084E3,2.3437449E1,2.118078E2,1.5956722E1,2.3276457E1,3.2459478E0,2.8918056E1,1.5245143E0,5.529935E0,3.3914253E1,4.723594E0,3.4717247E1,3.699265E0,1.2215775E1,3.040745E1,1.8712744E2,8.280635E1,2.9392867E0,2.8549368E3,1.3400647E1,1.6965326E2,6.217721E1,1.5129735E1,4.5581177E1,3.4301505E0,5.745334E0,3.6129057E0,6.416207E1,4.3689355E2,1.6190836E1,7.246611E0,9.181936E0,2.0262585E2,2.287856E0,1.3668866E1,2.6007056E0,2.067575E1,1.9241511E0,1.3217969E0,3.1194527E1,2.7197278E0,2.1634839E0,2.5601103E0,1.3296404E0,2.3696246E0,1.2024539E0,1.1013321E1,1.3008066E0,2.9106644E1,5.417211E1,1.3295534E2,4.6989826E1,3.581653E1,1.6740246E0,1.265262E0,2.2101503E2,2.6339216E3,9.573416E0,3.8272312E0,1.5392763E2,1.5725643E1,4.5394707E1,1.6782503E1,2.0188215E0,1.3110913E1,1.3077251E0,2.1224253E0,1.8080872E0,3.937247E0,5.698708E1,7.1749897E0,4.2855847E2,8.335072E0,1.414703E1,2.0438073E0,1.9222966E0,5.3243146E0,7.959645E0,1.2222916E0,1.9743755E2,5.188306E0,1.1150487E1,2.5183797E0,2.008221E0,1.866753E1,5.0496426E0,2.6144884E1,1.4396726E0,1.2800552E0,2.0462203E0,8.9671E0,5.8174257E0,2.3289217E1,1.819268E1,3.597943E1,7.9399185E1,5.3556145E1,2.4116156E1,2.287367E1,2.4865007E0,3.3330025E1,1.8557881E2,3.543621E1,1.7371002E0,2.6321846E3,1.3127749E0,2.5144563E0,2.4872463E0,1.5144037E2,9.877316E0,5.8483267E0,3.4206326E1,1.1188384E1,1.9145374E0,1.4867966E1,3.142867E1,2.5558409E1,3.9068947E0,3.268095E0,6.6907825E0,4.218677E2,2.5838745E0,5.7511973E0,4.1004753E0,1.2238393E0,1.9902222E1,1.7753532E2,2.6016133E0,2.5866926E0,1.3172237E0,1.2011559E0,1.1902484E0,3.859394E0,4.2798905E0,1.5375352E0,8.887653E0,9.305027E0,3.479447E1,1.1849613E0,5.212156E1,1.4345866E0,2.047387E1,2.399802E0,1.2098634E0,1.2766374E0,3.2749221E0,3.0055103E1,1.8384302E2,1.7358001E0,2.5627039E1,9.809171E0,2.630377E3,1.8077012E0,1.211413E0,1.2758334E0,1.4918971E2,2.2506564E0,2.2294755E0,7.6478415E0,4.5830646E0,1.265262E0,4.096426E0,3.0109898E1,9.154076E0,2.0343087E0],"tree_param":{"num_deleted":"0","num_feature":"31","num_nodes":"197","size_leaf_vector":"1"}},{"base_weights":[-2.366341E-3,-1.2873057E0,1.2000068E0,-1.3485378E0,-6.887575E-1,1.27442E0,-2.7560267E-1,-1.352023E0,2.5117058E-1,5.628897E-1,-1.0915732E0,6.617183E-1,1.3388835E0,1.2149441E-1,-1.1643983E0,-1.362328E0,-8.282519E-1,2.317754E-1,-2.323825E-1,9.221326E-1,-3.2771882E-1,5.432898E-1,-1.2317771E0,-3.9998484E-1,8.824824E-1,1.3601245E0,9.810443E-1,-9.909535E-1,4.558362E-1,-3.470701E-1,5.8953278E-2,-1.1642191E0,-1.388658E0,6.207317E-1,-3.473474E-1,-3.6260942E-1,1.313559E0,9.506101E-1,-3.0782214E-1,-6.3317055E-1,-1.3455821E0,9.8756707E-1,-1.197966E0,1.0460206E0,-1.16575986E-1,1.0441339E0,1.3728261E0,-6.3233703E-1,1.1684253E0,6.428996E-1,-3.5279012E-1,5.9650433E-1,-3.2160512E-1,9.1228133E-1,-2.9870737E-1,-1.2088504E0,6.9252694E-1,-1.3910865E0,-7.7420944E-1,3.2366985E-1,-6.9886225E-1,2.8047788E-1,-3.213466E-1,1.4193883E0,4.663362E-1,3.099108E-1,1.0747435E-1,-1.1637805E0,9.667064E-1,5.5347867E-2,-1.3652602E0,3.134502E-2,3.3361077E-1,2.1318804E-1,-1.3087238E0,6.465397E-1,1.2665308E0,-7.361725E-1,1.08062E0,1.2846094E0,-6.91124E-3,3.4883574E-1,1.2914976E0,-3.6648843E-1,2.0155396E-1,1.2019228E0,-3.8475627E-1,2.9049614E-1,-1.9633485E-1,8.374746E-1,-3.5828188E-1,2.8919798E-1,7.292941E-2,-4.308117E-1,-1.3036846E0,3.6638826E-1,-2.4154766E-1,-1.3930186E0,-8.0641896E-1,1.8224306E-1,-3.3494768E-1,-3.2954136E-1,1.716189E-1,1.6766192E-1,3.646765E-1,2.995315E-1,-2.3498027E-1,-2.8368047E-1,2.5071442E-1,-3.433215E-1,3.8297793E-1,-1.9480705E-1,3.310611E-1,-3.525237E-1,-6.479726E-1,-2.9610828E-1,2.526205E-1,-3.5666263E-1,-7.6415694E-1,-2.878549E-1,1.0653727E0,1.317447E0,9.1100866E-1,-1.2436662E0,3.9231244E-1,-1.61489E-2,3.2341444E-1,7.459136E-1,1.3540926E0,-1.2952472E0,1.0646218E0,-6.734205E-1,1.3015418E0,-2.979465E-1,8.7024903E-1,1.2712094E0,4.284124E-1,-3.9599353E-1,1.0490074E0,-9.1432136E-1,2.9839262E-1,-2.2035463E-1,3.0126718E-1,-1.1813668E-1,-3.329697E-1,-3.2516995E-1,-3.511855E-1,-3.1091624E-1,7.2093666E-2,4.395317E-2,-3.0372423E-1,2.1951112E-1,-3.06877E-1,2.9301694E-1,-3.0924726E-1,2.8781396E-1,-2.5342935E-1,3.366398E-1,2.0579225E-1,2.8565806E-1,-2.9443318E-1,1.5716974E-1,-3.6672673E-1,-2.9402325E-1,2.4577996E-1,3.205601E-1,-3.963905E-1,3.417804E-1,9.448129E-2,-4.200221E-1,1.9559886E-1,3.256556E-1,1.5349211E-2,-4.2264882E-1,1.8539809E-1,2.1720302E-1,3.3355242E-1,3.1167728E-1,2.2503594E-3,1.8810876E-1,3.2902738E-1,-1.180295E-1,3.1657982E-1,-3.6652723E-1,1.7318635E-1,-1.1012671E-2,2.9298824E-1,-3.69036E-1,1.4432405E-1],"categories":[],"categories_nodes":[],"categories_segments":[],"categories_sizes":[],"default_left":[0,0,0,0,0,0,0,0,0,0,0,0,0,0,0,0,0,0,0,0,0,0,0,0,0,0,0,0,0,0,0,0,0,0,0,0,0,0,0,0,0,0,0,0,0,0,0,0,0,0,0,0,0,0,0,0,0,0,0,0,0,0,0,0,0,0,0,0,0,0,0,0,0,0,0,0,0,0,0,0,0,0,0,0,0,0,0,0,0,0,0,0,0,0,0,0,0,0,0,0,0,0,0,0,0,0,0,0,0,0,0,0,0,0,0,0,0,0,0,0,0,0,0,0,0,0,0,0,0,0,0,0,0,0,0,0,0,0,0,0,0,0,0,0,0,0,0,0,0,0,0,0,0,0,0,0,0,0,0,0,0,0,0,0,0,0,0,0,0,0,0,0,0,0,0,0,0,0,0,0,0,0,0,0,0,0,0,0,0],"id":2,"left_children":[1,3,5,7,9,11,13,15,17,19,21,23,25,27,29,31,33,-1,-1,35,-1,37,39,41,43,45,47,49,51,-1,53,55,57,59,-1,61,63,65,-1,67,69,71,73,75,77,79,81,83,85,87,-1,89,-1,91,-1,93,95,97,99,-1,101,-1,-1,103,105,-1,107,109,111,-1,113,115,-1,-1,117,119,121,123,125,127,129,-1,131,-1,133,135,-1,-1,-1,137,139,-1,-1,141,143,-1,-1,145,147,-1,-1,-1,-1,-1,-1,-1,-1,-1,-1,-1,-1,-1,-1,-1,149,-1,-1,-1,151,153,155,157,159,161,163,-1,-1,165,167,169,171,173,175,-1,177,179,181,183,185,187,-1,-1,-1,-1,-1,-1,-1,-1,-1,-1,-1,-1,-1,-1,-1,-1,-1,-1,-1,-1,-1,-1,-1,-1,-1,-1,-1,-1,-1,-1,-1,-1,-1,-1,-1,-1,-1,-1,-1,-1,-1,-1,-1,-1,-1,-1,-1,-1,-1],"loss_changes":[9.232623E3,1.049458E2,3.393335E2,1.4944336E1,1.3681476E2,1.1519922E2,5.2739353E1,1.2981445E1,6.079746E0,4.5926273E1,4.7591415E1,6.639567E1,1.8871582E1,3.910072E1,1.2712425E1,1.1747559E1,4.3947113E1,0E0,0E0,2.880423E1,0E0,1.33593445E1,1.2013062E1,5.565027E1,3.828473E1,8.627441E0,4.685495E1,1.7610083E1,2.0516901E1,0E0,9.748907E0,2.6257965E1,2.290039E0,1.4674896E1,0E0,2.0536007E1,3.2287216E0,3.3465347E0,0E0,2.8337883E1,5.1677246E0,6.0974483E0,8.312222E0,1.6871384E1,2.5835108E1,2.5548409E1,2.6054688E0,1.1780563E1,1.42765045E1,5.111696E0,0E0,1.7612532E1,0E0,4.7928953E-1,0E0,2.1567963E1,1.1464037E1,1.4135742E0,1.0445513E1,0E0,5.952936E0,0E0,0E0,1.4289856E-1,7.6173553E0,0E0,6.410317E0,1.5955223E1,6.356657E0,0E0,4.102295E0,8.281045E0,0E0,0E0,8.655319E-1,2.9058815E1,1.1232147E0,1.3567659E1,2.9910927E0,2.0681305E0,2.8725214E1,0E0,1.1441101E1,0E0,9.551857E0,6.739197E0,0E0,0E0,0E0,1.6170437E1,1.4780435E1,0E0,0E0,2.6183065E1,5.6236877E0,0E0,0E0,5.9521484E-1,5.0370398E0,0E0,0E0,0E0,0E0,0E0,0E0,0E0,0E0,0E0,0E0,0E0,0E0,0E0,0E0,0E0,5.3629375E0,0E0,0E0,0E0,6.841268E0,3.404916E1,1.026318E1,4.7485352E-1,1.0693113E1,7.6073723E0,8.425593E0,0E0,0E0,1.6565483E1,3.9416504E-1,8.866935E0,2.6332226E0,6.1206455E0,6.3742676E0,0E0,2.1782994E0,1.9033203E0,1.0166658E1,1.2160019E1,7.0151978E0,1.1114345E1,0E0,0E0,0E0,0E0,0E0,0E0,0E0,0E0,0E0,0E0,0E0,0E0,0E0,0E0,0E0,0E0,0E0,0E0,0E0,0E0,0E0,0E0,0E0,0E0,0E0,0E0,0E0,0E0,0E0,0E0,0E0,0E0,0E0,0E0,0E0,0E0,0E0,0E0,0E0,0E0,0E0,0E0,0E0,0E0,0E0,0E0,0E0,0E0,0E0],"parents":[2147483647,0,0,1,1,2,2,3,3,4,4,5,5,6,6,7,7,8,8,9,9,10,10,11,11,12,12,13,13,14,14,15,15,16,16,19,19,21,21,22,22,23,23,24,24,25,25,26,26,27,27,28,28,30,30,31,31,32,32,33,33,35,35,36,36,37,37,39,39,40,40,41,41,42,42,43,43,44,44,45,45,46,46,47,47,48,48,49,49,51,51,53,53,55,55,56,56,57,57,58,58,60,60,63,63,64,64,66,66,67,67,68,68,70,70,71,71,74,74,75,75,76,76,77,77,78,78,79,79,80,80,82,82,84,84,85,85,89,89,90,90,93,93,94,94,97,97,98,98,114,114,118,118,119,119,120,120,121,121,122,122,123,123,124,124,127,127,128,128,129,129,130,130,131,131,132,132,134,134,135,135,136,136,137,137,138,138,139,139],"right_children":[2,4,6,8,10,12,14,16,18,20,22,24,26,28,30,32,34,-1,-1,36,-1,38,40,42,44,46,48,50,52,-1,54,56,58,60,-1,62,64,66,-1,68,70,72,74,76,78,80,82,84,86,88,-1,90,-1,92,-1,94,96,98,100,-1,102,-1,-1,104,106,-1,108,110,112,-1,114,116,-1,-1,118,120,122,124,126,128,130,-1,132,-1,134,136,-1,-1,-1,138,140,-1,-1,142,144,-1,-1,146,148,-1,-1,-1,-1,-1,-1,-1,-1,-1,-1,-1,-1,-1,-1,-1,150,-1,-1,-1,152,154,156,158,160,162,164,-1,-1,166,168,170,172,174,176,-1,178,180,182,184,186,188,-1,-1,-1,-1,-1,-1,-1,-1,-1,-1,-1,-1,-1,-1,-1,-1,-1,-1,-1,-1,-1,-1,-1,-1,-1,-1,-1,-1,-1,-1,-1,-1,-1,-1,-1,-1,-1,-1,-1,-1,-1,-1,-1,-1,-1,-1,-1,-1,-1],"split_conditions":[-4.393467E-2,-1.5732216E-2,1.2311338E0,3.1702933E0,-9.6778154E-2,3.6524087E-2,1.3619015E0,5.378415E-1,1.1427134E0,1.1237657E0,-1.4990029E0,-2.878444E-2,1.0498116E0,-1.063713E-2,4.663009E0,-1.5299134E0,6.889846E-3,2.317754E-1,-2.323825E-1,-2.67156E-2,-3.2771882E-1,8.326503E-1,-3.602262E-1,-1.0554626E0,8.936222E-1,-2.2661345E-2,4.645855E-3,-1.2874422E0,8.19707E-1,-3.470701E-1,-1.0354597E-1,-4.3220878E-2,3.2420328E-1,1.4625591E-1,-3.473474E-1,-9.995243E-1,1.5904719E0,-2.9016372E-2,-3.0782214E-1,-4.0119495E-2,-1.5728075E-2,-1.7365347E-1,-3.1434964E-2,-4.3944474E-3,1.4704095E0,7.396491E-2,5.704585E-1,-8.413189E-2,2.6306899E0,-3.1196538E-2,-3.5279012E-1,9.394287E-1,-3.2160512E-1,4.2249718E-1,-2.9870737E-1,-3.1353325E-2,-6.540526E-1,1.787456E0,-1.0594011E-1,3.2366985E-1,2.8789965E-3,2.8047788E-1,-3.213466E-1,-1.9479305E-2,-1.573069E-2,3.099108E-1,1.0171582E0,2.632E-1,-9.978225E-2,5.5347867E-2,5.862362E0,-8.702744E-2,3.3361077E-1,2.1318804E-1,-4.0119495E-2,-3.398833E-1,6.2833136E-1,1.2286572E0,-6.425211E-3,-8.872802E-2,3.2420328E-1,3.4883574E-1,-1.059192E-1,-3.6648843E-1,3.0033708E-1,1.1427134E0,-3.8475627E-1,2.9049614E-1,-1.9633485E-1,-1.0114054E-1,4.663009E0,2.8919798E-1,7.292941E-2,-1.4166585E-1,-1.0600284E-1,3.6638826E-1,-2.4154766E-1,-1.0914854E0,2.0509632E-2,1.8224306E-1,-3.3494768E-1,-3.2954136E-1,1.716189E-1,1.6766192E-1,3.646765E-1,2.995315E-1,-2.3498027E-1,-2.8368047E-1,2.5071442E-1,-3.433215E-1,3.8297793E-1,-1.9480705E-1,3.310611E-1,-3.525237E-1,1.1943778E0,-2.9610828E-1,2.526205E-1,-3.5666263E-1,5.8334906E-2,-1.1881845E0,4.438863E-1,1.3153484E-3,-4.176522E-3,-2.859611E-2,-3.5669927E-2,-1.61489E-2,3.2341444E-1,-1.2812815E0,1.6571556E0,6.557218E-1,1.5564422E-1,2.7339908E-1,-1.063713E-2,-2.979465E-1,-1.316584E-2,-1.2395923E0,1.6436032E0,-4.7542346E-1,-1.8651333E-2,6.559294E-2,2.9839262E-1,-2.2035463E-1,3.0126718E-1,-1.1813668E-1,-3.329697E-1,-3.2516995E-1,-3.511855E-1,-3.1091624E-1,7.2093666E-2,4.395317E-2,-3.0372423E-1,2.1951112E-1,-3.06877E-1,2.9301694E-1,-3.0924726E-1,2.8781396E-1,-2.5342935E-1,3.366398E-1,2.0579225E-1,2.8565806E-1,-2.9443318E-1,1.5716974E-1,-3.6672673E-1,-2.9402325E-1,2.4577996E-1,3.205601E-1,-3.963905E-1,3.417804E-1,9.448129E-2,-4.200221E-1,1.9559886E-1,3.256556E-1,1.5349211E-2,-4.2264882E-1,1.8539809E-1,2.1720302E-1,3.3355242E-1,3.1167728E-1,2.2503594E-3,1.8810876E-1,3.2902738E-1,-1.180295E-1,3.1657982E-1,-3.6652723E-1,1.7318635E-1,-1.1012671E-2,2.9298824E-1,-3.69036E-1,1.4432405E-1],"split_indices":[12,2,7,25,16,12,7,20,30,7,7,4,7,26,0,7,26,0,0,4,0,30,7,7,7,26,20,6,20,0,10,18,11,9,0,7,30,4,0,11,2,1,4,1,6,7,7,10,1,4,0,1,0,5,0,4,30,14,10,0,4,0,0,4,2,0,1,6,10,0,1,10,0,0,11,29,7,1,4,27,11,0,10,0,1,30,0,0,0,1,0,0,0,20,10,0,0,7,26,0,0,0,0,0,0,0,0,0,0,0,0,0,0,0,30,0,0,0,11,7,20,10,26,4,17,0,0,7,1,6,5,6,26,0,2,6,5,6,4,26,0,0,0,0,0,0,0,0,0,0,0,0,0,0,0,0,0,0,0,0,0,0,0,0,0,0,0,0,0,0,0,0,0,0,0,0,0,0,0,0,0,0,0,0,0,0,0,0,0],"split_type":[0,0,0,0,0,0,0,0,0,0,0,0,0,0,0,0,0,0,0,0,0,0,0,0,0,0,0,0,0,0,0,0,0,0,0,0,0,0,0,0,0,0,0,0,0,0,0,0,0,0,0,0,0,0,0,0,0,0,0,0,0,0,0,0,0,0,0,0,0,0,0,0,0,0,0,0,0,0,0,0,0,0,0,0,0,0,0,0,0,0,0,0,0,0,0,0,0,0,0,0,0,0,0,0,0,0,0,0,0,0,0,0,0,0,0,0,0,0,0,0,0,0,0,0,0,0,0,0,0,0,0,0,0,0,0,0,0,0,0,0,0,0,0,0,0,0,0,0,0,0,0,0,0,0,0,0,0,0,0,0,0,0,0,0,0,0,0,0,0,0,0,0,0,0,0,0,0,0,0,0,0,0,0,0,0,0,0,0,0],"sum_hessian":[5.9738975E3,2.887763E3,3.0861345E3,2.6186223E3,2.691405E2,2.9381057E3,1.4802863E2,2.6130842E3,5.5382276E0,6.543149E1,2.0370903E2,2.8076892E2,2.657337E3,1.0291255E2,4.5116077E1,2.5610947E3,5.1989506E1,3.6585543E0,1.8796732E0,5.533114E1,1.0100353E1,1.5862896E1,1.8784613E2,4.819185E1,2.3257706E2,2.5057947E3,1.515422E2,2.3328445E1,7.958411E1,3.802281E1,7.0932636E0,3.0575882E2,2.255336E3,1.4483544E1,3.750596E1,1.2938368E1,4.239277E1,1.3279223E1,2.5836725E0,3.1056206E1,1.5678992E2,1.7509048E1,3.0682802E1,1.998209E2,3.2756153E1,1.0004634E2,2.4057483E3,1.5521859E1,1.3602034E2,4.663974E0,1.866447E1,7.424709E1,5.337013E0,4.382737E0,2.7105262E0,2.9892245E2,6.836362E0,2.2451982E3,1.0137568E1,9.599655E0,4.8838887E0,4.8768764E0,8.061492E0,3.708502E1,5.3077517E0,9.538931E0,3.740293E0,2.3526175E1,7.530031E0,1.8174287E0,1.5497249E2,4.9510403E0,1.2558008E1,1.2289584E0,2.9453844E1,7.246813E1,1.27352776E2,2.1838795E1,1.0917357E1,8.12373E1,1.8809038E1,1.8714547E3,5.342937E2,7.38316E0,8.1387E0,1.349073E2,1.1130464E0,3.5574582E0,1.1065159E0,5.9382835E1,1.4864256E1,2.524106E0,1.8586313E0,3.307892E1,2.6584357E2,4.742588E0,2.0937738E0,2.236425E3,8.773252E0,2.6925404E0,7.445028E0,3.4085948E0,1.4752941E0,2.7511451E0,3.4333874E1,3.5884128E0,1.7193388E0,1.4547564E0,2.2855368E0,2.2284794E1,1.241382E0,1.0794444E0,6.450587E0,1.4494662E2,1.0025865E1,2.1150932E0,2.8359468E0,2.2879469E1,6.5743747E0,2.2526163E1,4.994197E1,1.0903205E2,1.8320717E1,1.499382E1,6.844974E0,1.821642E0,9.0957155E0,1.0621904E1,7.0615395E1,8.44572E0,1.0363318E1,2.3814075E0,5.319123E2,2.3856125E0,5.7530866E0,1.23226E2,1.1681294E1,8.565365E0,5.081747E1,1.1245672E1,3.6185832E0,2.6296646E1,6.7822723E0,9.304911E0,2.5653864E2,2.6456195E2,1.971863E3,6.172182E0,2.601069E0,4.3682866E0,5.6575775E0,1.2498145E0,5.32456E0,8.782449E0,1.3743715E1,4.838937E1,1.5526011E0,1.0133904E2,7.6930137E0,1.6899647E1,1.4210702E0,1.403805E0,1.3590015E1,1.601869E0,5.2431054E0,9.001299E0,1.6206057E0,6.929008E1,1.3253189E0,7.287252E0,1.1584672E0,8.134977E0,2.2283413E0,1.2721632E0,1.1092443E0,3.927386E1,4.9263843E2,3.691801E0,2.0612857E0,1.1230258E1,1.1199574E2,5.840663E0,5.8406315E0,4.1448264E0,4.4205384E0,5.202844E0,4.5614628E1,8.176384E0,3.069288E0],"tree_param":{"num_deleted":"0","num_feature":"31","num_nodes":"189","size_leaf_vector":"1"}},{"base_weights":[2.0949116E-3,-1.1606908E0,1.079032E0,-1.1910945E0,-1.11306876E-1,1.1668459E0,3.2704078E-2,-1.2114985E0,-3.7126032E-1,6.439032E-1,-1.0562013E0,5.924481E-1,1.2265532E0,2.834999E-1,-1.1881766E0,-9.8735386E-1,-1.2591531E0,-1.0497984E0,3.788946E-1,-7.144545E-1,8.9558274E-1,-1.1478492E0,1.2525015E-1,7.768271E-1,-7.6819885E-1,-5.7882404E-1,1.2292453E0,-8.010628E-1,5.085365E-1,-3.846128E-1,-3.1716624E-1,-1.0789683E0,5.7140374E-1,-1.2639369E0,-5.7672954E-1,1.4701108E-2,-1.1705703E0,7.198265E-1,-2.711866E-1,1.3113889E-1,-2.8000727E-1,1.0997132E0,-7.5508565E-2,-3.154294E-1,-9.0615995E-2,2.4359085E-1,1.0766474E0,-3.2236087E-1,6.904537E-1,-3.1138918E-1,1.6985309E-1,1.2625911E0,1.08316E0,-3.224725E-1,6.1029565E-1,2.0651707E-1,1.1282037E0,-2.361874E-1,1.8494527E-1,-5.086369E-1,-1.1727425E0,1.0177027E0,-3.114438E-1,-3.187365E-1,-1.0098455E0,4.0481335E-1,-2.9867274E-1,-2.3062074E-1,2.8628966E-1,-3.152331E-1,6.0519916E-3,-2.5074932E-1,1.0261854E0,1.2075725E0,1.9844301E-1,-2.8708E-1,2.4697934E-1,2.2279613E-1,-2.1654657E-1,9.839077E-1,-5.504118E-1,3.160682E-1,9.32425E-1,2.763351E-1,-2.0972736E-1,9.7257257E-1,1.2710459E0,1.9699714E-1,1.1664263E0,-2.3200083E-1,2.9892278E-1,-2.9030588E-1,1.2167572E0,2.872559E-1,1.2136748E0,-7.2647727E-1,9.696103E-1,-1.203815E0,6.0876E-2,3.01417E-1,-6.4921384E-3,-2.8910324E-1,4.026314E-1,6.158377E-1,-1.1571038E0,-2.1145509E-1,2.4028528E-1,1.1315368E0,-2.678937E-2,6.6094196E-1,3.197056E-1,-2.223874E-1,2.2540626E-1,2.1273707E-1,1.211018E0,-3.26442E-1,8.160257E-2,-1.3029923E-1,1.1228528E0,1.1598519E0,-9.2630816E-1,8.920703E-2,1.2715253E0,5.5499095E-1,-1.5940067E0,-2.804984E-1,1.1776786E0,6.430369E-1,-9.0596247E-1,1.2905282E0,2.98646E-1,2.3195398E-1,-2.5259662E-1,6.4818746E-1,3.2321098E-1,-7.04291E-2,-3.2180738E-1,5.890965E-2,3.3623424E-1,-3.0781412E-1,-1.5799111E-1,3.2691315E-1,-2.7093956E-1,2.0604593E-1,-2.0392388E-1,2.199574E-1,-2.0090358E-1,-1.8684553E-1,2.5994182E-1,-9.5838934E-2,-3.1847647E-1,2.972131E-1,8.3879374E-2,2.3393543E-2,2.3801427E-1,-3.034067E-1,2.2898127E-1,3.1027505E-1,6.291132E-2,-2.1566199E-1,2.2077689E-1,2.1040323E-1,-3.3303055E-1,-7.733381E-2,2.9081297E-1,2.9716986E-1,2.5000256E-2,-3.4058243E-1,8.752726E-2,1.3594273E-1,3.1801903E-1,-2.871082E-1,2.6510167E-1,-6.371186E-1,-7.456531E-2,2.1711361E-1,3.1073248E-1,-7.360943E-2,3.256697E-1,-2.918719E-1,9.272213E-2,3.3021405E-1,8.944081E-2,2.1833658E-2,9.992661E-2,-4.1290868E-2,2.6241833E-1],"categories":[],"categories_nodes":[],"categories_segments":[],"categories_sizes":[],"default_left":[0,0,0,0,0,0,0,0,0,0,0,0,0,0,0,0,0,0,0,0,0,0,0,0,0,0,0,0,0,0,0,0,0,0,0,0,0,0,0,0,0,0,0,0,0,0,0,0,0,0,0,0,0,0,0,0,0,0,0,0,0,0,0,0,0,0,0,0,0,0,0,0,0,0,0,0,0,0,0,0,0,0,0,0,0,0,0,0,0,0,0,0,0,0,0,0,0,0,0,0,0,0,0,0,0,0,0,0,0,0,0,0,0,0,0,0,0,0,0,0,0,0,0,0,0,0,0,0,0,0,0,0,0,0,0,0,0,0,0,0,0,0,0,0,0,0,0,0,0,0,0,0,0,0,0,0,0,0,0,0,0,0,0,0,0,0,0,0,0,0,0,0,0,0,0,0,0,0,0,0,0,0,0,0,0,0,0],"id":3,"left_children":[1,3,5,7,9,11,13,15,17,19,21,23,25,27,29,31,33,35,37,39,41,43,-1,45,47,49,51,53,55,57,-1,59,61,63,65,67,69,71,-1,-1,-1,73,75,-1,77,79,81,-1,83,-1,-1,85,87,-1,89,91,93,-1,-1,95,97,99,101,-1,103,105,-1,-1,-1,-1,-1,-1,107,109,111,-1,-1,-1,-1,113,115,-1,117,-1,-1,119,121,123,125,-1,-1,127,129,131,133,135,137,139,141,-1,143,-1,145,147,149,-1,-1,151,-1,153,-1,-1,-1,155,157,-1,159,161,163,165,167,-1,169,171,173,-1,175,177,179,181,183,-1,-1,185,-1,-1,-1,-1,-1,-1,-1,-1,-1,-1,-1,-1,-1,-1,-1,-1,-1,-1,-1,-1,-1,-1,-1,-1,-1,-1,-1,-1,-1,-1,-1,-1,-1,-1,-1,-1,-1,-1,-1,-1,-1,-1,-1,-1,-1,-1,-1,-1,-1,-1,-1,-1,-1],"loss_changes":[6.3870234E3,7.811401E1,2.4326367E2,3.9418457E1,5.0744183E1,8.305469E1,6.3429295E1,2.3591064E1,3.0590813E1,1.4182695E1,5.0768166E0,5.878942E1,1.14626465E1,4.2325207E1,1.7956581E0,5.9491394E1,5.5185547E0,4.0554047E0,1.5205357E1,3.9787943E0,6.7961216E0,3.508587E0,0E0,3.2476173E1,2.231911E1,4.1795335E0,9.393311E0,2.1416084E1,2.6501038E1,3.6273074E0,0E0,2.0247498E1,9.591951E0,4.026367E0,9.679745E0,5.4935064E0,3.0774994E0,1.3721121E1,0E0,0E0,0E0,2.4868507E0,8.912782E0,0E0,3.8204188E0,4.462271E1,2.3601227E0,0E0,6.0485964E0,0E0,0E0,3.1589355E0,3.058078E1,0E0,8.647686E0,4.917041E1,2.9996872E0,0E0,0E0,1.8994625E1,1.2873596E1,3.062992E0,5.696736E0,0E0,2.074849E1,5.4080315E0,0E0,0E0,0E0,0E0,0E0,0E0,2.6179428E0,1.2272644E-1,4.0110235E0,0E0,0E0,0E0,0E0,6.602043E0,1.7686733E1,0E0,1.5881599E1,0E0,0E0,2.0645123E1,3.0810547E-1,2.4651608E1,1.1144775E1,0E0,0E0,3.851095E1,1.7993317E0,5.598849E0,1.0412407E0,1.2126051E1,1.8106885E0,4.334198E0,1.4484357E1,0E0,2.995045E0,0E0,3.8387578E0,5.1716094E0,6.4786224E0,0E0,0E0,4.7794724E-1,0E0,7.2611594E-1,0E0,0E0,0E0,1.1265538E1,5.5472565E-1,0E0,1.6648024E1,1.5968974E1,4.1809998E0,1.4251556E0,3.5359445E0,0E0,4.8828125E-3,2.845345E1,7.19627E0,0E0,6.59021E0,1.6968557E1,1.3852554E1,3.6356735E-1,4.4109672E-2,0E0,0E0,2.511627E0,0E0,0E0,0E0,0E0,0E0,0E0,0E0,0E0,0E0,0E0,0E0,0E0,0E0,0E0,0E0,0E0,0E0,0E0,0E0,0E0,0E0,0E0,0E0,0E0,0E0,0E0,0E0,0E0,0E0,0E0,0E0,0E0,0E0,0E0,0E0,0E0,0E0,0E0,0E0,0E0,0E0,0E0,0E0,0E0,0E0,0E0,0E0,0E0,0E0,0E0,0E0,0E0,0E0],"parents":[2147483647,0,0,1,1,2,2,3,3,4,4,5,5,6,6,7,7,8,8,9,9,10,10,11,11,12,12,13,13,14,14,15,15,16,16,17,17,18,18,19,19,20,20,21,21,23,23,24,24,25,25,26,26,27,27,28,28,29,29,31,31,32,32,33,33,34,34,35,35,36,36,37,37,41,41,42,42,44,44,45,45,46,46,48,48,51,51,52,52,54,54,55,55,56,56,59,59,60,60,61,61,62,62,64,64,65,65,72,72,73,73,74,74,79,79,80,80,82,82,85,85,86,86,87,87,88,88,91,91,92,92,93,93,94,94,95,95,96,96,97,97,98,98,100,100,102,102,103,103,104,104,107,107,109,109,113,113,114,114,116,116,117,117,118,118,119,119,120,120,122,122,123,123,124,124,126,126,127,127,128,128,129,129,130,130,133,133],"right_children":[2,4,6,8,10,12,14,16,18,20,22,24,26,28,30,32,34,36,38,40,42,44,-1,46,48,50,52,54,56,58,-1,60,62,64,66,68,70,72,-1,-1,-1,74,76,-1,78,80,82,-1,84,-1,-1,86,88,-1,90,92,94,-1,-1,96,98,100,102,-1,104,106,-1,-1,-1,-1,-1,-1,108,110,112,-1,-1,-1,-1,114,116,-1,118,-1,-1,120,122,124,126,-1,-1,128,130,132,134,136,138,140,142,-1,144,-1,146,148,150,-1,-1,152,-1,154,-1,-1,-1,156,158,-1,160,162,164,166,168,-1,170,172,174,-1,176,178,180,182,184,-1,-1,186,-1,-1,-1,-1,-1,-1,-1,-1,-1,-1,-1,-1,-1,-1,-1,-1,-1,-1,-1,-1,-1,-1,-1,-1,-1,-1,-1,-1,-1,-1,-1,-1,-1,-1,-1,-1,-1,-1,-1,-1,-1,-1,-1,-1,-1,-1,-1,-1,-1,-1,-1,-1,-1],"split_conditions":[-4.393467E-2,7.89457E-2,1.1521726E0,6.6564715E-1,6.6932607E-1,3.6524087E-2,1.3708569E0,-1.2812815E0,8.7438256E-1,-2.638533E-2,9.659905E0,1.3920894E0,-2.7900147E0,-1.4557279E-2,-9.985861E-2,-1.5732216E-2,1.787456E0,-1.6697328E0,8.19707E-1,-9.995243E-1,-6.9751567E-1,2.9964196E-2,1.2525015E-1,-1.9479305E-2,-1.0848171E-2,2.6336938E-1,1.1703202E0,6.666264E-1,-3.0928323E-1,2.0872166E0,-3.1716624E-1,-3.1345904E-2,-6.760819E-2,-3.3934E-2,-3.602262E-1,-1.0504802E0,2.0284126E0,-7.722148E-3,-2.711866E-1,1.3113889E-1,-2.8000727E-1,-6.076101E-2,2.8220527E0,-3.154294E-1,4.194677E-2,-9.025424E-1,-5.826459E-1,-3.2236087E-1,-8.156294E-2,-3.1138918E-1,1.6985309E-1,-2.3825565E-2,-4.3295976E-2,-3.224725E-1,1.9858224E0,4.663009E0,-6.0293637E-3,-2.361874E-1,1.8494527E-1,-3.135147E-2,-3.5385787E-2,1.5904719E0,4.8071586E-2,-3.187365E-1,-5.90798E-1,-1.230994E-2,-2.9867274E-1,-2.3062074E-1,2.8628966E-1,-3.152331E-1,6.0519916E-3,-2.5074932E-1,-6.350421E-2,-1.782981E-2,9.758015E-2,-2.8708E-1,2.4697934E-1,2.2279613E-1,-2.1654657E-1,-1.7365347E-1,-1.0114054E-1,3.160682E-1,-3.6184814E-2,2.763351E-1,-2.0972736E-1,-1.9951099E-1,-1.0625375E-1,1.2158165E-1,-3.0658456E-2,-2.3200083E-1,2.9892278E-1,-6.507346E-2,-9.435149E-2,2.2824384E-1,-1.7365347E-1,-9.898332E-2,-8.322008E-1,-6.7572117E-1,-1.11623675E-1,3.01417E-1,-1.5731301E-2,-2.8910324E-1,-2.957301E-2,-1.7365347E-1,-5.478061E-2,-2.1145509E-1,2.4028528E-1,1.1521726E0,-2.678937E-2,2.162119E0,3.197056E-1,-2.223874E-1,2.2540626E-1,-8.413189E-2,1.9942619E0,-3.26442E-1,-8.847074E-2,-2.9994598E-1,-5.131178E-1,5.9532493E-1,7.070828E-1,8.920703E-2,-3.1259626E-2,-4.0848922E-2,-1.2755075E-2,-2.804984E-1,-1.1648863E-3,2.5946996E-1,1.7545798E0,3.969087E-1,1.9175217E0,2.3195398E-1,-2.5259662E-1,1.060635E0,3.2321098E-1,-7.04291E-2,-3.2180738E-1,5.890965E-2,3.3623424E-1,-3.0781412E-1,-1.5799111E-1,3.2691315E-1,-2.7093956E-1,2.0604593E-1,-2.0392388E-1,2.199574E-1,-2.0090358E-1,-1.8684553E-1,2.5994182E-1,-9.5838934E-2,-3.1847647E-1,2.972131E-1,8.3879374E-2,2.3393543E-2,2.3801427E-1,-3.034067E-1,2.2898127E-1,3.1027505E-1,6.291132E-2,-2.1566199E-1,2.2077689E-1,2.1040323E-1,-3.3303055E-1,-7.733381E-2,2.9081297E-1,2.9716986E-1,2.5000256E-2,-3.4058243E-1,8.752726E-2,1.3594273E-1,3.1801903E-1,-2.871082E-1,2.6510167E-1,-6.371186E-1,-7.456531E-2,2.1711361E-1,3.1073248E-1,-7.360943E-2,3.256697E-1,-2.918719E-1,9.272213E-2,3.3021405E-1,8.944081E-2,2.1833658E-2,9.992661E-2,-4.1290868E-2,2.6241833E-1],"split_indices":[12,11,7,21,7,12,7,7,6,4,11,8,9,26,21,2,14,7,20,7,6,16,0,4,2,20,8,12,6,8,0,4,16,23,7,6,1,4,0,0,0,16,15,0,16,7,8,0,16,0,0,26,18,0,8,0,26,0,0,4,23,30,21,0,8,8,0,0,0,0,0,0,10,15,16,0,0,0,0,1,1,0,1,0,0,7,10,20,4,0,0,22,21,30,1,16,6,6,20,0,2,0,4,1,7,0,0,7,0,1,0,0,0,10,27,0,10,7,8,30,1,0,4,22,23,0,26,25,25,20,8,0,0,6,0,0,0,0,0,0,0,0,0,0,0,0,0,0,0,0,0,0,0,0,0,0,0,0,0,0,0,0,0,0,0,0,0,0,0,0,0,0,0,0,0,0,0,0,0,0,0,0,0,0,0,0,0],"split_type":[0,0,0,0,0,0,0,0,0,0,0,0,0,0,0,0,0,0,0,0,0,0,0,0,0,0,0,0,0,0,0,0,0,0,0,0,0,0,0,0,0,0,0,0,0,0,0,0,0,0,0,0,0,0,0,0,0,0,0,0,0,0,0,0,0,0,0,0,0,0,0,0,0,0,0,0,0,0,0,0,0,0,0,0,0,0,0,0,0,0,0,0,0,0,0,0,0,0,0,0,0,0,0,0,0,0,0,0,0,0,0,0,0,0,0,0,0,0,0,0,0,0,0,0,0,0,0,0,0,0,0,0,0,0,0,0,0,0,0,0,0,0,0,0,0,0,0,0,0,0,0,0,0,0,0,0,0,0,0,0,0,0,0,0,0,0,0,0,0,0,0,0,0,0,0,0,0,0,0,0,0,0,0,0,0,0,0],"sum_hessian":[5.09845E3,2.4514758E3,2.6469744E3,2.382318E3,6.915768E1,2.441919E3,2.0505531E2,2.3240007E3,5.8317364E1,3.861392E1,3.0543758E1,2.3095917E2,2.21096E3,1.7074774E2,3.4307564E1,4.1127554E2,1.9127252E3,3.0410604E1,2.7906761E1,5.7486615E0,3.2865257E1,2.9094315E1,1.4494451E0,2.0377504E2,2.718413E1,2.9733665E0,2.2079866E3,2.8900799E1,1.4184695E2,3.649623E0,3.065794E1,3.8873578E2,2.2539757E1,1.8985641E3,1.4161212E1,3.1881452E0,2.7222458E1,2.3046614E1,4.860148E0,1.3453428E0,4.4033184E0,2.7047274E1,5.8179846E0,2.6090813E1,3.0035017E0,7.399174E1,1.297833E2,2.011287E1,7.0712624E0,1.9500977E0,1.0232689E0,1.7914276E3,4.1655884E2,2.1529926E1,7.3708735E0,9.626274E1,4.5584206E1,2.5427012E0,1.1069219E0,5.5798077E1,3.329377E2,1.4869928E1,7.6698284E0,1.8158704E3,8.269371E1,5.6043806E0,8.556831E0,1.8436644E0,1.3444808E0,2.5256887E1,1.9655709E0,3.136187E0,1.9910425E1,2.3852837E1,3.1944377E0,2.8564715E0,2.9615128E0,1.2597297E0,1.7437718E0,3.8166584E1,3.5825157E1,5.302913E1,7.675417E1,5.7804046E0,1.2908576E0,5.4032566E1,1.7373951E3,3.606819E1,3.8049066E2,1.8704516E0,5.500422E0,6.500618E1,3.125656E1,4.607912E0,4.097629E1,4.9074776E1,6.723299E0,3.2478128E2,8.156434E0,1.2414392E1,2.455536E0,3.2292194E0,4.440609E0,6.604144E0,7.608956E1,1.5652685E0,4.039112E0,1.8218494E1,1.6919323E0,3.9355633E0,1.9917273E1,1.1500294E0,2.0444083E0,9.123556E0,2.9043026E1,1.5834457E1,1.99907E1,1.17114725E1,6.5042694E1,4.9536194E1,4.496372E0,1.3011211E0,1.736094E3,3.0634878E1,5.433313E0,1.37874E0,3.791119E2,2.5819315E1,3.9186867E1,2.8556395E1,2.700166E0,3.2758439E0,1.3320683E0,6.1605186E0,3.4815773E1,2.820576E1,2.0869017E1,2.8255684E0,3.8977304E0,3.0880927E2,1.5972018E1,3.8358593E0,4.3205748E0,1.2025566E0,1.2529793E0,3.3757477E0,1.0648614E0,1.3855808E0,5.218563E0,1.0541318E1,6.554825E1,1.6534472E1,1.6840228E0,1.7826693E0,2.152894E0,2.772948E0,6.350608E0,2.7875305E1,1.167721E0,9.143034E0,1.0847665E1,6.6407933E0,5.0706787E0,1.6017575E0,6.344094E1,4.810617E1,1.4300238E0,3.301335E0,1.1950371E0,2.060387E0,1.7340336E3,6.7186103E0,2.391627E1,2.5719616E0,2.8613515E0,6.855258E1,3.1055933E2,1.0892572E1,1.4926743E1,3.2596157E1,6.590709E0,2.7254183E1,1.3022102E0,1.4766862E0,1.2234797E0,2.230492E0,3.9300268E0],"tree_param":{"num_deleted":"0","num_feature":"31","num_nodes":"187","size_leaf_vector":"1"}},{"base_weights":[3.0694595E-3,-1.0749758E0,9.92942E-1,-1.1341141E0,-5.1827896E-1,1.0993055E0,4.745701E-1,-1.1403854E0,4.6978852E-1,5.539754E-1,-8.8880754E-1,6.646318E-1,1.1479373E0,-7.225094E-1,7.117722E-1,-1.1499381E0,-4.0862817E-1,8.6508137E-1,-1.8835832E-1,-4.17508E-1,1.0469265E0,-2.0088863E-1,-1.0968812E0,1.0347131E0,2.6489785E-1,9.1022396E-1,1.1696396E0,-1.1398585E0,1.1865329E-1,-9.3536055E-1,7.5904447E-1,-1.0519129E0,-3.020703E-1,4.7853744E-1,-2.857052E-1,2.7485067E-1,2.3023786E-3,4.6152133E-1,-7.7410656E-1,1.1697727E0,-2.0041867E-1,-6.5330046E-1,7.5680244E-1,-1.1851444E0,-1.23361446E-1,1.09709755E-1,1.1004796E0,-7.912048E-1,8.876171E-1,1.0736347E0,-9.58169E-2,-3.914154E-2,1.1713828E0,-1.3354522E0,-6.173049E-1,4.9446836E-1,-2.9762834E-1,-2.9222432E-1,1.07178286E-1,7.966905E-1,-3.1041798E-1,-5.146068E-1,-1.1043875E0,2.770825E-1,-5.984843E-1,2.4455984E-1,-1.8222202E-1,-2.815502E-1,2.0064406E-1,8.507357E-2,3.0439323E-1,8.34074E-1,-9.9925995E-1,1.1031858E0,-2.0999622E-1,-3.0135688E-1,-4.384732E-1,4.9234664E-1,-2.4862163E-1,2.2982594E-1,-2.3551217E-1,1.1200225E0,-4.4137716E-2,2.5021505E-1,-1.0703503E0,9.501153E-1,5.2988064E-2,1.1418192E0,6.051139E-1,5.603993E-1,-1.2827039E0,-4.5871228E-2,1.1726909E0,-1.4306637E0,2.4731047E-2,-1.0193604E0,1.7594232E-1,-2.3666847E-1,7.82148E-1,3.5192978E-1,9.3324596E-1,-6.7079264E-1,6.00097E-1,-1.1118492E0,-3.2757625E-1,-2.981059E-1,1.498593E-1,1.9469148E-1,-1.7236558E-1,1.3322891E-3,1.2211828E0,-3.0299255E-1,-2.2090873E-1,1.9620493E-2,3.214581E-1,1.1940562E-1,-2.2000527E-1,8.481089E-1,-1.6999632E-1,2.9564855E-1,8.6183614E-1,1.8668596E-1,-1.2073671E0,2.8343028E-1,1.0602275E0,-3.021387E-1,1.9154608E-1,1.0208919E-1,2.8751007E-1,9.638507E-1,-3.5417503E-1,8.755615E-1,-6.862404E-1,-3.879024E-1,6.10572E-2,1.1847037E0,1.0056996E0,-2.9605648E-1,-4.444633E-1,8.815373E-2,-3.5000494E-1,-2.846369E-1,9.805492E-1,-9.956976E-1,4.852172E-1,4.6526715E-1,1.00828E0,-2.775162E-1,-4.5270216E-2,2.915388E-1,-1.9810785E-2,-1.8537116E-1,-2.817932E-1,-2.4791205E-1,2.071351E-1,3.7052295E-1,1.0655884E-1,2.096205E-1,-2.4288265E-1,4.6033036E-2,2.623517E-1,-6.9397376E-3,2.6610556E-1,-1.6885033E-1,1.9816102E-1,-3.345422E-1,6.2144447E-2,-2.7345738E-1,1.6019563E-1,1.7012736E-2,2.7749777E-1,-1.6791204E-2,2.6935798E-1,1.322539E-2,2.6760668E-1,-3.0331832E-1,7.165485E-2,3.5867415E-2,2.9633555E-1,6.1284676E-2,2.7373746E-1,-1.950583E-1,8.095146E-2,5.2102353E-2,2.6798305E-1,-3.216083E-1,7.196463E-2,1.8638176E-1,2.1152074E-2,1.6715299E-1,-2.950249E-1,2.6204166E-1,1.0601575E-1],"categories":[],"categories_nodes":[],"categories_segments":[],"categories_sizes":[],"default_left":[0,0,0,0,0,0,0,0,0,0,0,0,0,0,0,0,0,0,0,0,0,0,0,0,0,0,0,0,0,0,0,0,0,0,0,0,0,0,0,0,0,0,0,0,0,0,0,0,0,0,0,0,0,0,0,0,0,0,0,0,0,0,0,0,0,0,0,0,0,0,0,0,0,0,0,0,0,0,0,0,0,0,0,0,0,0,0,0,0,0,0,0,0,0,0,0,0,0,0,0,0,0,0,0,0,0,0,0,0,0,0,0,0,0,0,0,0,0,0,0,0,0,0,0,0,0,0,0,0,0,0,0,0,0,0,0,0,0,0,0,0,0,0,0,0,0,0,0,0,0,0,0,0,0,0,0,0,0,0,0,0,0,0,0,0,0,0,0,0,0,0,0,0,0,0,0,0,0,0,0,0,0,0,0,0,0,0,0,0,0,0,0,0],"id":4,"left_children":[1,3,5,7,9,11,13,15,17,19,21,23,25,27,29,31,33,35,-1,37,39,41,43,45,47,49,51,53,55,57,59,61,-1,63,-1,-1,-1,65,67,69,-1,71,73,75,77,79,81,83,85,87,89,-1,91,93,95,97,-1,-1,-1,99,-1,101,103,-1,105,-1,-1,-1,107,-1,-1,109,111,113,-1,-1,115,117,-1,-1,-1,119,-1,-1,121,123,125,127,129,131,133,-1,135,137,-1,139,-1,-1,141,143,145,147,149,151,153,-1,-1,-1,-1,-1,155,-1,157,-1,-1,-1,-1,159,-1,-1,161,163,165,167,169,-1,-1,-1,-1,171,-1,173,175,-1,-1,177,179,-1,-1,-1,-1,181,183,185,187,189,191,-1,-1,-1,-1,-1,-1,-1,-1,-1,-1,-1,-1,-1,-1,-1,-1,-1,-1,-1,-1,-1,-1,-1,-1,-1,-1,-1,-1,-1,-1,-1,-1,-1,-1,-1,-1,-1,-1,-1,-1,-1,-1,-1,-1,-1,-1],"loss_changes":[4.5616377E3,6.677783E1,1.2234741E2,1.9132568E1,7.929234E1,3.8308105E1,1.08746216E2,1.2406006E1,4.4760633E0,2.5125183E1,2.0933403E1,2.7590553E1,7.5043945E0,2.243927E1,2.5519867E1,9.124268E0,1.7017925E1,1.2819996E0,0E0,6.020935E0,8.768902E0,1.5894641E1,9.584244E0,5.8083572E0,6.113798E1,2.3687614E1,3.6938477E0,3.5254784E0,1.1400378E1,3.4756908E0,2.4360321E1,1.8771362E1,0E0,8.908528E0,0E0,0E0,0E0,4.3058105E0,4.765623E0,8.8386536E-1,0E0,1.3531519E1,7.490374E0,1.0421448E0,6.137321E0,7.32058E0,2.465889E0,1.838744E1,2.989727E0,3.2542877E0,1.7046976E1,0E0,2.902832E0,4.2533455E0,7.861748E0,8.111858E0,0E0,0E0,0E0,1.8206085E1,0E0,1.13537445E1,3.2528076E0,0E0,4.3680496E0,0E0,0E0,0E0,2.7799242E0,0E0,0E0,1.6622791E0,3.1222153E0,1.8051119E0,0E0,0E0,2.1655369E0,3.428691E0,0E0,0E0,0E0,4.290924E-1,0E0,0E0,5.4670715E0,3.6754951E0,5.5318246E0,1.7362976E-1,1.4288039E1,6.178426E0,3.5685625E0,0E0,1.8483887E0,3.1586075E-1,0E0,6.092663E0,0E0,0E0,3.5319843E0,1.3648116E1,7.7083282E0,1.176881E1,3.2680213E0,2.6696777E0,6.46818E0,0E0,0E0,0E0,0E0,0E0,1.0275459E-1,0E0,5.28164E0,0E0,0E0,0E0,0E0,5.674267E-1,0E0,0E0,3.8457146E0,2.550344E0,5.5842094E0,5.1512346E0,2.2015495E0,0E0,0E0,0E0,0E0,1.9140682E0,0E0,1.8303318E0,2.104003E0,0E0,0E0,7.659912E-1,7.0835648E0,0E0,0E0,0E0,0E0,1.2130966E0,7.068653E-1,2.9542723E0,6.962281E0,1.2176836E1,4.2123566E0,0E0,0E0,0E0,0E0,0E0,0E0,0E0,0E0,0E0,0E0,0E0,0E0,0E0,0E0,0E0,0E0,0E0,0E0,0E0,0E0,0E0,0E0,0E0,0E0,0E0,0E0,0E0,0E0,0E0,0E0,0E0,0E0,0E0,0E0,0E0,0E0,0E0,0E0,0E0,0E0,0E0,0E0,0E0,0E0,0E0,0E0],"parents":[2147483647,0,0,1,1,2,2,3,3,4,4,5,5,6,6,7,7,8,8,9,9,10,10,11,11,12,12,13,13,14,14,15,15,16,16,17,17,19,19,20,20,21,21,22,22,23,23,24,24,25,25,26,26,27,27,28,28,29,29,30,30,31,31,33,33,37,37,38,38,39,39,41,41,42,42,43,43,44,44,45,45,46,46,47,47,48,48,49,49,50,50,52,52,53,53,54,54,55,55,59,59,61,61,62,62,64,64,68,68,71,71,72,72,73,73,76,76,77,77,81,81,84,84,85,85,86,86,87,87,88,88,89,89,90,90,92,92,93,93,95,95,98,98,99,99,100,100,101,101,102,102,103,103,104,104,110,110,112,112,117,117,120,120,121,121,122,122,123,123,124,124,129,129,131,131,132,132,135,135,136,136,141,141,142,142,143,143,144,144,145,145,146,146],"right_children":[2,4,6,8,10,12,14,16,18,20,22,24,26,28,30,32,34,36,-1,38,40,42,44,46,48,50,52,54,56,58,60,62,-1,64,-1,-1,-1,66,68,70,-1,72,74,76,78,80,82,84,86,88,90,-1,92,94,96,98,-1,-1,-1,100,-1,102,104,-1,106,-1,-1,-1,108,-1,-1,110,112,114,-1,-1,116,118,-1,-1,-1,120,-1,-1,122,124,126,128,130,132,134,-1,136,138,-1,140,-1,-1,142,144,146,148,150,152,154,-1,-1,-1,-1,-1,156,-1,158,-1,-1,-1,-1,160,-1,-1,162,164,166,168,170,-1,-1,-1,-1,172,-1,174,176,-1,-1,178,180,-1,-1,-1,-1,182,184,186,188,190,192,-1,-1,-1,-1,-1,-1,-1,-1,-1,-1,-1,-1,-1,-1,-1,-1,-1,-1,-1,-1,-1,-1,-1,-1,-1,-1,-1,-1,-1,-1,-1,-1,-1,-1,-1,-1,-1,-1,-1,-1,-1,-1,-1,-1,-1,-1],"split_conditions":[-4.393467E-2,-1.3370864E-1,1.4360398E0,2.4482977E0,-9.6778154E-2,3.6524087E-2,1.20336376E-1,9.8587245E-1,-7.780102E-2,-1.9479305E-2,-1.8856215E-1,-2.1821696E-1,-1.83319E-2,1.0458175E0,-1.10214345E-1,-4.4873428E-1,4.0862723E-3,-2.0221071E-1,-1.8835832E-1,-4.3916568E-1,1.4750006E0,-4.3208793E-2,5.862362E0,-2.9387465E-2,-4.0119495E-2,8.0666274E-1,-1.06232844E-1,-4.7948726E-2,6.670095E-1,1.7474282E-1,2.6306899E0,-3.1345904E-2,-3.020703E-1,1.4625591E-1,-2.857052E-1,2.7485067E-1,2.3023786E-3,-6.387995E-1,7.89457E-2,-2.7900147E0,-2.0041867E-1,-1.2352467E-1,-9.407121E-3,1.5497109E0,-1.1065276E0,-7.5032216E-1,3.086245E0,2.67025E-2,1.2756966E0,-6.060099E-1,-1.161717E0,-3.914154E-2,-3.1215094E-2,2.8093246E-1,7.89457E-2,-3.5413608E-2,-2.9762834E-1,-2.9222432E-1,1.07178286E-1,-1.2581621E0,-3.1041798E-1,-3.135147E-2,-4.6198356E-1,2.770825E-1,1.9196832E-3,2.4455984E-1,-1.8222202E-1,-2.815502E-1,-4.851156E-1,8.507357E-2,3.0439323E-1,-1.4166585E-1,1.4580828E-1,-1.022914E-1,-2.0999622E-1,-3.0135688E-1,-1.1408051E-2,-4.25521E-2,-2.4862163E-1,2.2982594E-1,-2.3551217E-1,1.7373736E0,-4.4137716E-2,2.5021505E-1,-1.7044646E-1,7.89457E-2,9.343614E-3,-9.979916E-2,-3.447738E-2,-9.580944E-2,-6.0632206E-2,-4.5871228E-2,1.2153175E0,3.6524087E-2,2.4731047E-2,1.4637321E0,1.7594232E-1,-2.3666847E-1,-1.2513826E0,-1.0114054E-1,-4.3250494E-2,-9.30912E-2,-2.0163364E0,-1.0594011E-1,-7.332855E-2,-2.981059E-1,1.498593E-1,1.9469148E-1,-1.7236558E-1,1.3322891E-3,-3.1434964E-2,-3.0299255E-1,1.580508E-1,1.9620493E-2,3.214581E-1,1.1940562E-1,-2.2000527E-1,6.33859E-2,-1.6999632E-1,2.9564855E-1,-4.3944474E-3,-6.825258E-2,1.060635E0,-1.0082773E-1,-4.3199968E-2,-3.021387E-1,1.9154608E-1,1.0208919E-1,2.8751007E-1,-3.0621346E-2,-3.5417503E-1,-2.878444E-2,-1.11586966E-1,-3.879024E-1,6.10572E-2,-1.10214345E-1,-1.1648863E-3,-2.9605648E-1,-4.444633E-1,8.815373E-2,-3.5000494E-1,4.4036263E-1,-1.01873204E-1,6.670095E-1,-9.832767E-2,3.8732493E0,7.777534E-1,-2.775162E-1,-4.5270216E-2,2.915388E-1,-1.9810785E-2,-1.8537116E-1,-2.817932E-1,-2.4791205E-1,2.071351E-1,3.7052295E-1,1.0655884E-1,2.096205E-1,-2.4288265E-1,4.6033036E-2,2.623517E-1,-6.9397376E-3,2.6610556E-1,-1.6885033E-1,1.9816102E-1,-3.345422E-1,6.2144447E-2,-2.7345738E-1,1.6019563E-1,1.7012736E-2,2.7749777E-1,-1.6791204E-2,2.6935798E-1,1.322539E-2,2.6760668E-1,-3.0331832E-1,7.165485E-2,3.5867415E-2,2.9633555E-1,6.1284676E-2,2.7373746E-1,-1.950583E-1,8.095146E-2,5.2102353E-2,2.6798305E-1,-3.216083E-1,7.196463E-2,1.8638176E-1,2.1152074E-2,1.6715299E-1,-2.950249E-1,2.6204166E-1,1.0601575E-1],"split_indices":[12,1,8,25,16,12,12,21,16,4,8,8,26,1,20,6,4,28,0,8,8,18,1,4,11,8,10,21,11,15,1,4,0,9,0,0,0,6,11,9,0,15,16,21,6,6,1,12,8,6,6,0,4,23,11,23,0,0,0,6,0,4,6,0,4,0,0,0,3,0,0,20,21,10,0,0,4,18,0,0,0,3,0,0,8,11,20,21,8,10,22,0,8,12,0,8,0,0,6,1,18,10,9,10,21,0,0,0,0,0,4,0,21,0,0,0,0,11,0,0,1,21,6,10,18,0,0,0,0,4,0,4,15,0,0,20,26,0,0,0,0,11,10,11,21,27,15,0,0,0,0,0,0,0,0,0,0,0,0,0,0,0,0,0,0,0,0,0,0,0,0,0,0,0,0,0,0,0,0,0,0,0,0,0,0,0,0,0,0,0,0,0,0],"split_type":[0,0,0,0,0,0,0,0,0,0,0,0,0,0,0,0,0,0,0,0,0,0,0,0,0,0,0,0,0,0,0,0,0,0,0,0,0,0,0,0,0,0,0,0,0,0,0,0,0,0,0,0,0,0,0,0,0,0,0,0,0,0,0,0,0,0,0,0,0,0,0,0,0,0,0,0,0,0,0,0,0,0,0,0,0,0,0,0,0,0,0,0,0,0,0,0,0,0,0,0,0,0,0,0,0,0,0,0,0,0,0,0,0,0,0,0,0,0,0,0,0,0,0,0,0,0,0,0,0,0,0,0,0,0,0,0,0,0,0,0,0,0,0,0,0,0,0,0,0,0,0,0,0,0,0,0,0,0,0,0,0,0,0,0,0,0,0,0,0,0,0,0,0,0,0,0,0,0,0,0,0,0,0,0,0,0,0,0,0,0,0,0,0],"sum_hessian":[4.2726885E3,2.0452126E3,2.2274758E3,1.8478744E3,1.9733829E2,1.8473099E3,3.8016583E2,1.8409653E3,6.909076E0,5.0552315E1,1.4678596E2,1.8735857E2,1.6599514E3,6.253363E1,3.176322E2,1.8166779E3,2.4287521E1,5.442937E0,1.4661393E0,1.7068201E1,3.3484116E1,3.45441E1,1.1224187E2,9.646288E1,9.0895676E1,1.424613E2,1.5174901E3,4.1558815E1,2.0974812E1,8.337505E0,3.092947E2,6.849259E2,1.131752E3,1.1155694E1,1.3131828E1,4.049673E0,1.393264E0,4.8409176E0,1.2227283E1,3.1741959E1,1.7421566E0,2.3676973E1,1.0867128E1,1.0271218E2,9.529685E0,6.5802364E0,8.9882645E1,3.3615242E1,5.7280437E1,1.22496994E2,1.9964315E1,1.8754079E0,1.5156146E3,2.9107967E1,1.2450849E1,1.6780136E1,4.194676E0,7.2409067E0,1.0965989E0,3.041731E2,5.121606E0,6.1901463E1,6.230244E2,7.021043E0,4.1346507E0,3.4999402E0,1.3409774E0,8.868484E0,3.3587997E0,2.1719058E0,2.9570053E1,4.201721E0,1.947525E1,9.184008E0,1.6831206E0,9.939767E1,3.3145084E0,5.8381305E0,3.6915545E0,3.7893276E0,2.790909E0,8.864896E1,1.2336882E0,4.182013E0,2.943323E1,5.3161278E1,4.1191597E0,1.0568013E2,1.681686E1,1.3196154E1,6.768161E0,1.3274307E0,1.5142872E3,2.7298525E1,1.8094429E0,9.720805E0,2.730043E0,2.4110696E0,1.4369067E1,7.2292816E1,2.3188028E2,5.4643383E1,7.258081E0,6.166697E2,6.3547373E0,2.7672265E0,1.3674244E0,2.1120894E0,1.2467103E0,1.66053E0,2.5411913E0,1.4857773E1,4.617478E0,1.605629E0,7.5783787E0,1.0514097E0,2.2630987E0,4.691105E0,1.1470257E0,6.847388E1,2.0175081E1,2.8572626E0,2.6575966E1,8.042314E0,4.511896E1,1.2368271E0,2.8823326E0,1.7330487E0,1.0394708E2,1.4727066E1,2.0897949E0,1.0770845E1,2.4253082E0,5.740967E0,1.0271939E0,1.406979E3,1.073082E2,1.8545605E1,8.752919E0,2.127289E0,7.5935163E0,2.1851368E0,1.218393E1,5.924253E0,6.636856E1,3.303645E1,1.9884383E2,2.813736E1,2.6506021E1,3.5682485E0,3.6898322E0,2.6463047E1,5.9020667E2,4.1266527E0,2.2280846E0,1.2624533E0,1.2787381E0,1.8663515E0,2.7511265E0,1.5367832E0,3.1543217E0,3.9023004E0,1.6272781E1,1.1320755E0,1.7251871E0,2.4459429E1,2.1165373E0,1.2322416E0,6.8100715E0,2.2679772E0,4.2850986E1,1.501957E0,1.3225109E1,2.3062134E0,8.464632E0,1.4128153E0,1.012493E0,1.0006682E0,1.4059784E3,1.166338E1,9.564482E1,1.0486406E0,1.1364962E0,1.6365478E0,1.0547382E1,4.8283515E0,1.0959014E0,3.9706726E1,2.6661835E1,2.9931025E1,3.1054251E0,1.8539229E2,1.3451544E1],"tree_param":{"num_deleted":"0","num_feature":"31","num_nodes":"193","size_leaf_vector":"1"}},{"base_weights":[1.721869E-4,-1.0113277E0,9.1649365E-1,-1.0680698E0,-4.8354247E-1,1.0116255E0,-3.629202E-2,-7.7386916E-1,-1.1112585E0,4.5525253E-1,-8.049502E-1,5.1435E-1,1.0682274E0,2.1931764E-1,-8.0717856E-1,-8.3202404E-1,8.189448E-1,-1.1174484E0,3.522337E-1,7.467689E-1,-2.594385E-1,-2.5010705E-2,-1.0770477E0,2.988153E-1,2.583474E-1,8.8567424E-1,1.1127567E0,-4.1645116E-1,5.0178945E-1,-9.936602E-1,1.3288908E-1,-8.793919E-1,9.106287E-1,-1.7691603E-1,1.2387938E0,-1.1289934E0,-2.9979572E-1,-2.1665148E-1,8.2277036E-1,-2.0137684E-1,1.034393E0,5.039106E-1,-2.7333337E-1,5.1562306E-2,-1.1002986E0,-1.7385665E-1,7.1117723E-1,1.0033484E0,3.7393978E-1,-9.9723935E-2,1.1152021E0,-8.721159E-1,1.9040336E-1,5.8568066E-1,-2.7239817E-1,-1.0887963E0,1.7889899E-1,8.327647E-1,-2.4521932E-1,-3.3832726E-1,-1.0247298E0,6.603276E-2,2.9918745E-1,3.7843063E-1,2.2964895E-2,-1.1319425E0,-5.302078E-1,5.4517543E-1,-2.659532E-1,2.4067104E-1,5.8964383E-2,2.1648096E-1,-2.4624203E-1,1.1272444E0,3.7752596E-1,9.66239E-1,-1.28802E-1,-7.094069E-2,-1.1239144E0,-9.678018E-1,3.7226498E-1,8.642292E-1,6.2327284E-2,1.0216187E0,-2.8352344E-1,-4.6447247E-2,2.8376302E-1,1.1167883E0,-1.4142183E-2,-1.0494515E0,2.0169331E-1,5.995782E-1,-2.7525598E-1,9.2167735E-1,3.0789307E-1,-1.1959968E0,1.9085982E-1,2.5754362E-1,4.1058913E-2,-3.0566314E-1,1.5172039E-1,-1.0592104E0,5.3300256E-1,-9.978002E-1,-1.1467361E0,2.8167605E-1,-2.4350001E-1,8.58653E-1,-2.2013861E-1,1.15309E0,6.937486E-2,2.3516455E-1,-1.7730692E-1,1.1994256E-1,1.1389464E0,-2.4358541E-1,4.1663086E-1,1.2643553E-1,-1.5012124E-1,-2.8713855E-1,-7.0546746E-1,9.998156E-2,-1.0930258E0,6.4478856E-1,-2.3846753E-1,-4.8149202E-2,9.3605864E-1,9.234394E-1,-2.912561E-1,6.6852236E-1,1.0880392E0,-1.0977224E0,4.3136087E-1,1.1308008E0,9.611503E-1,-3.3047515E-1,9.6684024E-2,8.414488E-1,-2.9863873E-1,4.031138E-2,1.0315065E0,7.1186817E-1,-1.2488309E0,-3.1588724E-1,-3.54366E-2,2.3278481E-1,-1.6454923E-1,-2.89478E-1,1.6484351E-1,1.011406E-1,-2.7317116E-1,4.715603E-1,-1.8382128E-1,-2.5877345E-1,2.0217136E-1,-2.8869444E-1,-2.4561921E-1,-1.8670893E-1,2.988192E-1,2.5704852E-1,3.559081E-2,4.233823E-2,3.0000165E-1,-1.494282E-1,1.6951199E-1,9.031322E-2,3.2994854E-1,-1.668313E-1,1.787086E-1,-2.5925776E-1,9.942351E-2,-2.1987836E-1,2.0179391E-1,-3.017961E-1,1.9123724E-2,1.9431226E-1,-1.2055362E-1,6.279042E-2,-3.5768548E-1,1.2988889E-1,-2.4479033E-1,2.4238835E-1,-5.8052684E-3,7.900842E-2,2.5333506E-1,2.7881458E-1,6.5546376E-3,-1.8919422E-3,2.7427575E-1,7.4503394E-3,-4.9454623E-1,2.5382107E-1,-1.37502E-1,2.6043797E-1,2.8597695E-1,-9.041778E-2,2.456453E-1,-2.0027205E-1,2.0859754E-1,-3.7728164E-2,2.4948178E-1,-3.0102238E-1,2.2967936E-1,3.8747262E-2,2.751752E-1,2.3711425E-1,-8.039255E-2,-4.1072893E-1,9.496262E-2],"categories":[],"categories_nodes":[],"categories_segments":[],"categories_sizes":[],"default_left":[0,0,0,0,0,0,0,0,0,0,0,0,0,0,0,0,0,0,0,0,0,0,0,0,0,0,0,0,0,0,0,0,0,0,0,0,0,0,0,0,0,0,0,0,0,0,0,0,0,0,0,0,0,0,0,0,0,0,0,0,0,0,0,0,0,0,0,0,0,0,0,0,0,0,0,0,0,0,0,0,0,0,0,0,0,0,0,0,0,0,0,0,0,0,0,0,0,0,0,0,0,0,0,0,0,0,0,0,0,0,0,0,0,0,0,0,0,0,0,0,0,0,0,0,0,0,0,0,0,0,0,0,0,0,0,0,0,0,0,0,0,0,0,0,0,0,0,0,0,0,0,0,0,0,0,0,0,0,0,0,0,0,0,0,0,0,0,0,0,0,0,0,0,0,0,0,0,0,0,0,0,0,0,0,0,0,0,0,0,0,0,0,0,0,0,0,0,0,0,0,0,0,0,0,0,0,0,0,0],"id":5,"left_children":[1,3,5,7,9,11,13,15,17,19,21,23,25,27,29,31,33,35,37,39,-1,41,43,-1,45,47,49,51,53,55,57,59,61,-1,63,65,67,-1,69,71,73,75,-1,-1,77,79,81,83,85,-1,87,89,91,93,-1,95,-1,97,-1,99,101,-1,-1,-1,-1,103,105,107,-1,-1,-1,-1,-1,109,111,113,115,117,119,121,123,125,127,129,-1,131,-1,133,-1,135,-1,137,-1,139,141,143,145,-1,-1,-1,147,149,151,153,155,157,-1,159,-1,161,-1,-1,-1,163,165,-1,167,-1,-1,-1,169,171,173,175,177,179,181,183,-1,185,187,189,191,193,195,-1,197,199,-1,201,203,205,207,-1,-1,-1,-1,-1,-1,-1,-1,-1,-1,-1,-1,-1,-1,-1,-1,-1,-1,-1,-1,-1,-1,-1,-1,-1,-1,-1,-1,-1,-1,-1,-1,-1,-1,-1,-1,-1,-1,-1,-1,-1,-1,-1,-1,-1,-1,-1,-1,-1,-1,-1,-1,-1,-1,-1,-1,-1,-1,-1,-1,-1,-1,-1,-1,-1,-1],"loss_changes":[3.292873E3,5.0054688E1,1.6899585E2,1.8503174E1,5.037957E1,4.7155518E1,3.371196E1,1.9056091E1,1.2410645E1,1.9452106E1,2.6254044E1,3.021925E1,1.1376587E1,2.3303064E1,7.598749E0,1.6639343E1,5.678212E0,1.2133301E1,4.3533225E0,1.015786E1,0E0,1.9227962E1,2.9656143E0,0E0,2.5283611E1,1.7877258E1,4.949463E0,1.12561035E1,1.2585371E1,6.577881E0,7.000233E0,1.4382599E1,7.139869E-1,0E0,1.8282824E0,1.6999512E0,1.333424E1,0E0,1.9112349E-1,8.654733E0,1.2916641E0,6.791679E0,0E0,0E0,2.1156082E0,2.9228151E1,6.200098E0,1.0759338E1,1.8694635E1,0E0,2.3249512E0,7.719782E0,1.0182351E1,7.711298E0,0E0,4.91658E0,0E0,5.450845E-1,0E0,1.801963E1,8.468414E0,0E0,0E0,0E0,0E0,1.4259033E0,3.252126E0,5.2443957E0,0E0,0E0,0E0,0E0,0E0,2.107296E-1,3.7212934E0,1.8054361E0,5.25084E0,1.2481686E0,9.928894E-2,3.7744408E0,6.8392577E0,3.3794098E0,1.4918215E1,5.001816E0,0E0,1.980895E1,0E0,1.5637207E0,0E0,6.783537E0,0E0,7.224426E0,0E0,3.6625786E0,3.1322365E1,2.0765076E0,2.815357E0,0E0,0E0,0E0,1.8959538E1,7.5126495E0,7.9980416E0,1.0022812E1,3.9733887E-1,4.3661833E0,0E0,9.1485023E-1,0E0,8.64521E-1,0E0,0E0,0E0,1.7549217E0,1.0586758E0,0E0,2.7676368E0,0E0,0E0,0E0,3.154902E0,3.3375618E0,3.379036E0,4.561345E0,8.020524E0,2.9739842E0,1.5395393E0,1.3051939E-1,0E0,1.1812918E1,2.034256E0,1.2280073E1,1.6135326E1,1.03027344E-1,3.3901062E0,0E0,3.9967287E0,2.202817E0,0E0,6.8785515E0,1.8906288E0,9.854996E0,7.2566967E0,0E0,0E0,0E0,0E0,0E0,0E0,0E0,0E0,0E0,0E0,0E0,0E0,0E0,0E0,0E0,0E0,0E0,0E0,0E0,0E0,0E0,0E0,0E0,0E0,0E0,0E0,0E0,0E0,0E0,0E0,0E0,0E0,0E0,0E0,0E0,0E0,0E0,0E0,0E0,0E0,0E0,0E0,0E0,0E0,0E0,0E0,0E0,0E0,0E0,0E0,0E0,0E0,0E0,0E0,0E0,0E0,0E0,0E0,0E0,0E0,0E0,0E0,0E0,0E0,0E0,0E0],"parents":[2147483647,0,0,1,1,2,2,3,3,4,4,5,5,6,6,7,7,8,8,9,9,10,10,11,11,12,12,13,13,14,14,15,15,16,16,17,17,18,18,19,19,21,21,22,22,24,24,25,25,26,26,27,27,28,28,29,29,30,30,31,31,32,32,34,34,35,35,36,36,38,38,39,39,40,40,41,41,44,44,45,45,46,46,47,47,48,48,50,50,51,51,52,52,53,53,55,55,57,57,59,59,60,60,65,65,66,66,67,67,73,73,74,74,75,75,76,76,77,77,78,78,79,79,80,80,81,81,82,82,83,83,85,85,87,87,89,89,91,91,93,93,94,94,95,95,96,96,100,100,101,101,102,102,103,103,104,104,105,105,107,107,109,109,113,113,114,114,116,116,120,120,121,121,122,122,123,123,124,124,125,125,126,126,127,127,129,129,130,130,131,131,132,132,133,133,134,134,136,136,137,137,139,139,140,140,141,141,142,142],"right_children":[2,4,6,8,10,12,14,16,18,20,22,24,26,28,30,32,34,36,38,40,-1,42,44,-1,46,48,50,52,54,56,58,60,62,-1,64,66,68,-1,70,72,74,76,-1,-1,78,80,82,84,86,-1,88,90,92,94,-1,96,-1,98,-1,100,102,-1,-1,-1,-1,104,106,108,-1,-1,-1,-1,-1,110,112,114,116,118,120,122,124,126,128,130,-1,132,-1,134,-1,136,-1,138,-1,140,142,144,146,-1,-1,-1,148,150,152,154,156,158,-1,160,-1,162,-1,-1,-1,164,166,-1,168,-1,-1,-1,170,172,174,176,178,180,182,184,-1,186,188,190,192,194,196,-1,198,200,-1,202,204,206,208,-1,-1,-1,-1,-1,-1,-1,-1,-1,-1,-1,-1,-1,-1,-1,-1,-1,-1,-1,-1,-1,-1,-1,-1,-1,-1,-1,-1,-1,-1,-1,-1,-1,-1,-1,-1,-1,-1,-1,-1,-1,-1,-1,-1,-1,-1,-1,-1,-1,-1,-1,-1,-1,-1,-1,-1,-1,-1,-1,-1,-1,-1,-1,-1,-1,-1],"split_conditions":[-4.393467E-2,-1.5732216E-2,1.1521726E0,-1.5299134E0,-9.6778154E-2,3.6524087E-2,1.3531388E0,-1.047776E-1,2.4482977E0,1.1237657E0,-3.602262E-1,2.67025E-2,-5.4088123E-3,-1.0730808E-2,4.663009E0,-3.54226E-2,-2.7900147E0,9.8587245E-1,-8.872802E-2,-2.67156E-2,-2.594385E-1,1.3661675E0,-1.5728075E-2,2.988153E-1,-3.398833E-1,6.2833136E-1,-2.7900147E0,4.681789E-1,1.7604867E0,1.763514E0,-1.0354597E-1,-3.1306937E-2,-1.0701159E0,-1.7691603E-1,-7.749203E-2,1.787456E0,4.0862723E-3,-2.1665148E-1,1.1257252E1,-9.995243E-1,1.5904719E0,-6.760819E-2,-2.7333337E-1,5.1562306E-2,-1.0617012E-1,-1.5573647E-2,1.0440174E-3,1.1469811E-1,6.8612844E-1,-9.9723935E-2,1.520055E0,1.787456E0,1.2717701E0,7.5406164E-1,-2.7239817E-1,5.3106594E-1,1.7889899E-1,4.3339506E-1,-2.4521932E-1,-1.1115795E0,7.651807E-1,6.603276E-2,2.9918745E-1,3.7843063E-1,2.2964895E-2,-1.147336E0,-3.602262E-1,-8.413189E-2,-2.659532E-1,2.4067104E-1,5.8964383E-2,2.1648096E-1,-2.4624203E-1,1.3153484E-3,-1.573069E-2,-1.4976239E-2,4.8071586E-2,-9.790467E-2,5.862362E0,-1.30237E0,9.9192977E-1,-2.0407036E-2,-3.602262E-1,-2.5727307E-2,-2.8352344E-1,-4.31964E-2,2.8376302E-1,9.36088E-1,-1.4142183E-2,8.95162E-1,2.0169331E-1,5.494531E-3,-2.7525598E-1,-1.2662815E0,-9.4372965E-2,1.1275686E1,5.259909E-1,2.5754362E-1,4.1058913E-2,-3.0566314E-1,-9.978225E-2,-1.0625375E-1,-2.1891404E-2,-5.0926155E-1,-1.8646488E-3,-5.355782E-1,-2.4350001E-1,1.4625591E-1,-2.2013861E-1,-1.9479305E-2,6.937486E-2,2.3516455E-1,-1.7730692E-1,5.31038E-1,-9.978225E-2,-2.4358541E-1,-1.4993949E-2,1.2643553E-1,-1.5012124E-1,-2.8713855E-1,-2.3776093E-2,-9.310461E-1,-4.3295976E-2,8.936222E-1,-6.2472805E-2,-2.2911906E-2,1.4257985E0,9.104692E-3,-2.912561E-1,-1.22649E0,-9.985045E-2,-8.872802E-2,-7.32138E-2,-1.7365347E-1,-1.059192E-1,-3.3047515E-1,-1.474788E-2,2.273323E-2,-2.9863873E-1,8.179229E0,-1.05187364E-1,2.187815E-1,1.3483241E0,-3.1588724E-1,-3.54366E-2,2.3278481E-1,-1.6454923E-1,-2.89478E-1,1.6484351E-1,1.011406E-1,-2.7317116E-1,4.715603E-1,-1.8382128E-1,-2.5877345E-1,2.0217136E-1,-2.8869444E-1,-2.4561921E-1,-1.8670893E-1,2.988192E-1,2.5704852E-1,3.559081E-2,4.233823E-2,3.0000165E-1,-1.494282E-1,1.6951199E-1,9.031322E-2,3.2994854E-1,-1.668313E-1,1.787086E-1,-2.5925776E-1,9.942351E-2,-2.1987836E-1,2.0179391E-1,-3.017961E-1,1.9123724E-2,1.9431226E-1,-1.2055362E-1,6.279042E-2,-3.5768548E-1,1.2988889E-1,-2.4479033E-1,2.4238835E-1,-5.8052684E-3,7.900842E-2,2.5333506E-1,2.7881458E-1,6.5546376E-3,-1.8919422E-3,2.7427575E-1,7.4503394E-3,-4.9454623E-1,2.5382107E-1,-1.37502E-1,2.6043797E-1,2.8597695E-1,-9.041778E-2,2.456453E-1,-2.0027205E-1,2.0859754E-1,-3.7728164E-2,2.4948178E-1,-3.0102238E-1,2.2967936E-1,3.8747262E-2,2.751752E-1,2.3711425E-1,-8.039255E-2,-4.1072893E-1,9.496262E-2],"split_indices":[12,2,7,7,16,12,7,5,25,7,7,12,26,4,0,23,9,21,27,4,0,30,2,0,29,7,9,12,1,6,10,4,6,0,5,14,4,0,15,7,30,16,0,0,10,2,26,16,6,0,30,14,7,30,0,18,0,5,0,6,16,0,0,0,0,7,7,10,0,0,0,0,0,10,2,2,21,21,1,7,30,4,7,5,0,18,0,7,0,6,0,26,0,6,16,5,4,0,0,0,10,10,4,6,4,7,0,9,0,4,0,0,0,1,10,0,2,0,0,0,10,6,18,7,16,4,30,26,0,7,21,27,17,1,10,0,4,1,0,5,10,24,7,0,0,0,0,0,0,0,0,0,0,0,0,0,0,0,0,0,0,0,0,0,0,0,0,0,0,0,0,0,0,0,0,0,0,0,0,0,0,0,0,0,0,0,0,0,0,0,0,0,0,0,0,0,0,0,0,0,0,0,0,0,0,0,0,0,0],"split_type":[0,0,0,0,0,0,0,0,0,0,0,0,0,0,0,0,0,0,0,0,0,0,0,0,0,0,0,0,0,0,0,0,0,0,0,0,0,0,0,0,0,0,0,0,0,0,0,0,0,0,0,0,0,0,0,0,0,0,0,0,0,0,0,0,0,0,0,0,0,0,0,0,0,0,0,0,0,0,0,0,0,0,0,0,0,0,0,0,0,0,0,0,0,0,0,0,0,0,0,0,0,0,0,0,0,0,0,0,0,0,0,0,0,0,0,0,0,0,0,0,0,0,0,0,0,0,0,0,0,0,0,0,0,0,0,0,0,0,0,0,0,0,0,0,0,0,0,0,0,0,0,0,0,0,0,0,0,0,0,0,0,0,0,0,0,0,0,0,0,0,0,0,0,0,0,0,0,0,0,0,0,0,0,0,0,0,0,0,0,0,0,0,0,0,0,0,0,0,0,0,0,0,0,0,0,0,0,0,0],"sum_hessian":[3.5507224E3,1.6876605E3,1.8630618E3,1.5229093E3,1.6475128E2,1.6938734E3,1.691883E2,1.9736703E2,1.3255422E3,4.191269E1,1.2283859E2,1.7413141E2,1.5197421E3,1.2759575E2,4.159255E1,1.9087566E2,6.491377E0,1.3201948E3,5.347427E0,3.548408E1,6.4286075E0,3.2053234E1,9.0785355E1,4.6577217E1,1.275542E2,3.0210703E2,1.217635E3,3.910546E1,8.849029E1,3.4660015E1,6.9325337E0,1.8630693E2,4.568731E0,1.2523175E0,5.2390594E0,1.3014382E3,1.8756536E1,1.2549549E0,4.092472E0,8.328673E0,2.7155407E1,2.1792294E1,1.0260941E1,1.4755257E0,8.930983E1,6.557864E1,6.197556E1,2.4484409E2,5.7262943E1,1.7047054E0,1.2159303E3,2.2085306E1,1.7020153E1,8.4659355E1,3.8309295E0,3.3176437E1,1.4835775E0,4.4122405E0,2.5202932E0,4.015301E1,1.4615392E2,1.9916632E0,2.5770674E0,3.9680822E0,1.2709773E0,1.2941737E3,7.264527E0,9.042425E0,9.71411E0,2.7876701E0,1.304802E0,3.481534E0,4.8471394E0,2.3164848E1,3.990559E0,1.2286968E1,9.505326E0,2.0928054E0,8.7217026E1,2.6410799E1,3.9167843E1,4.9878242E1,1.2097315E1,2.4328654E2,1.5575277E0,3.7493202E1,1.976974E1,1.2143335E3,1.5968678E0,2.031447E1,1.7708371E0,1.3331831E1,3.688323E0,3.726623E1,4.7393124E1,3.0672308E1,2.5041313E0,2.9887395E0,1.4235011E0,1.3783947E1,2.6369062E1,1.4330194E2,2.8519678E0,1.3534721E2,1.1588265E3,2.6966004E0,4.5679264E0,7.7386584E0,1.3037666E0,2.2134624E1,1.030224E0,2.7170668E0,1.2734923E0,2.3696673E0,9.9173E0,3.4189093E0,6.086417E0,1.02333E0,1.0694755E0,8.0719154E1,6.497868E0,2.7933686E0,2.361743E1,2.7044271E1,1.21235695E1,3.6642742E0,4.621397E1,7.254888E0,4.8424263E0,4.027046E1,2.030161E2,1.1310464E1,2.618274E1,1.1082853E3,1.0604813E2,1.6289032E1,4.025439E0,1.2215972E1,1.1158589E0,4.2807517E0,3.298548E1,3.8059315E1,9.333807E0,2.8638721E1,2.0335855E0,1.2861137E0,1.2180176E0,7.0083046E0,1.936076E1,2.9559793E0,1.4034596E2,1.1440519E0,1.7079159E0,1.3302797E2,2.3192549E0,1.0989929E3,5.983367E1,1.3543919E0,1.3422085E0,5.9054365E0,1.8332223E0,1.2174312E0,2.0917194E1,1.005609E0,1.3640581E0,2.436643E0,7.4806576E0,1.0460944E0,5.040323E0,5.04231E0,1.4555581E0,1.0690377E0,1.7243309E0,2.1487774E1,2.129656E0,2.4477669E1,2.5666037E0,9.153755E0,2.9698143E0,2.5508087E0,1.1134654E0,4.464443E1,1.5695397E0,1.5174887E0,5.7373996E0,2.331679E1,1.6953669E1,1.6670978E0,2.01349E2,5.383055E0,5.927409E0,1.639375E1,9.788989E0,1.5252274E2,9.5576263E2,1.4375794E0,1.0461055E2,1.7769778E0,2.2484608E0,1.6687278E0,1.0547244E1,1.6179309E0,2.662821E0,2.6504817E0,3.0335E1,3.1036295E1,7.0230207E0,7.508314E0,1.8254931E0],"tree_param":{"num_deleted":"0","num_feature":"31","num_nodes":"209","size_leaf_vector":"1"}},{"base_weights":[-3.5515653E-3,-9.398051E-1,7.247909E-1,-1.010729E0,-2.2662283E-1,8.829788E-1,-9.879811E-1,-1.0333997E0,-1.6464211E-1,3.992943E-1,-7.145543E-1,1.0086654E0,4.2568713E-1,-1.0211172E0,1.0334911E-1,-8.914856E-1,-2.786042E-1,1.4733516E-1,-8.932579E-1,6.769206E-1,-2.604798E-1,-1.7174193E-1,-1.0954059E0,7.8126395E-1,1.0697018E0,-4.7216585E-1,5.593476E-1,-2.0179088E-1,-1.0361894E0,-1.8185611E-1,1.9193636E-1,-4.8404387E-1,-9.620133E-1,-4.392201E-1,5.2870286E-1,-6.96292E-3,-2.510516E-1,8.457891E-1,-5.797982E-1,-9.3305135E-1,8.2131803E-1,-2.8911692E-1,-4.6239468E-1,8.734403E-1,8.852619E-2,2.2799826E-1,1.0718651E0,-1.07126564E-1,-1.439533E0,1.2319156E-1,6.761757E-1,6.752118E-2,-1.7197669E-1,-8.374037E-1,-2.7968937E-1,-6.100625E-1,1.1278218E0,-9.913991E-1,1.0519167E-1,3.0970967E-1,-2.4206088E-1,-1.626385E-1,7.0101005E-1,-1.5488105E-1,9.04811E-1,-2.2611158E-1,1.1641997E-1,1.4533864E-1,-2.7687132E-1,1.0058886E0,-1.5000275E-1,-2.2206302E-1,1.0931319E-1,1.0242412E0,5.3086114E-1,-9.6625847E-1,6.857216E-1,-1.0574437E-1,1.8071054E-1,2.9031724E-2,1.0730357E0,-9.45558E-1,4.2583013E-1,-4.1654393E-1,-3.0294767E-1,4.0101478E-1,-1.4153527E0,7.660165E-1,-3.183543E-2,-9.589252E-1,5.288302E-1,-9.243029E-1,-5.9891727E-2,5.6933147E-1,-1.7901498E-1,-1.0051087E0,4.388893E-2,-2.2331879E-1,6.851642E-1,-1.90882E-1,3.1918168E-1,8.2921547E-1,-5.000939E-2,1.0825154E0,6.3673866E-1,2.7552676E-1,8.9165986E-2,7.737331E-1,1.0654981E0,1.0027395E0,1.666343E-2,1.3051929E-1,-1.2667919E0,-2.2172184E-1,8.554175E-1,5.598522E-1,1.0751281E0,-2.919557E-1,1.8408646E-1,5.943471E-1,-2.9377857E-1,1.0905719E-1,-2.1366715E-1,6.5975547E-1,-1.415877E-1,-3.985412E-1,6.162532E-4,1.1547159E-1,8.148115E-1,4.903973E-1,-3.274984E-1,-2.7575365E-1,-1.9030492E-1,3.448228E-2,-2.5971705E-1,-2.1222843E-1,1.2789378E-1,-2.7264506E-1,-2.1554817E-1,2.524901E-1,-2.0553763E-1,2.583935E-1,-4.836137E-2,2.4261813E-1,9.9172994E-2,2.804098E-1,4.057135E-2,2.0789462E-1,-1.8444504E-1,2.806897E-1,-1.18749E-1,2.698661E-1,1.3534471E-1,2.6005986E-1,1.8933006E-2,-2.907898E-1,1.1660413E-1,-3.2985505E-2,-3.8563225E-1,1.06565066E-1,-2.5134537E-1,2.3894255E-1,-6.714223E-2,-7.607106E-2,2.4591753E-1,2.7171713E-1,2.335095E-1,2.4752627E-1,5.986155E-4,1.9698778E-1,-7.4117966E-2,-2.6713336E-1,2.3837738E-1,-2.0478246E-1,1.8178299E-1,2.0710757E-1,-1.5987341E-1,-2.8556293E-1,1.7447962E-1,2.4002382E-1,-2.4167012E-1],"categories":[],"categories_nodes":[],"categories_segments":[],"categories_sizes":[],"default_left":[0,0,0,0,0,0,0,0,0,0,0,0,0,0,0,0,0,0,0,0,0,0,0,0,0,0,0,0,0,0,0,0,0,0,0,0,0,0,0,0,0,0,0,0,0,0,0,0,0,0,0,0,0,0,0,0,0,0,0,0,0,0,0,0,0,0,0,0,0,0,0,0,0,0,0,0,0,0,0,0,0,0,0,0,0,0,0,0,0,0,0,0,0,0,0,0,0,0,0,0,0,0,0,0,0,0,0,0,0,0,0,0,0,0,0,0,0,0,0,0,0,0,0,0,0,0,0,0,0,0,0,0,0,0,0,0,0,0,0,0,0,0,0,0,0,0,0,0,0,0,0,0,0,0,0,0,0,0,0,0,0,0,0,0,0,0,0,0,0,0,0,0,0,0,0,0,0,0,0,0,0],"id":6,"left_children":[1,3,5,7,9,11,13,15,17,19,21,23,25,27,29,31,-1,33,35,37,-1,39,41,43,45,47,49,51,53,-1,-1,55,57,59,61,-1,-1,63,65,67,69,-1,71,73,75,77,79,81,83,85,87,-1,-1,89,-1,91,93,95,97,99,-1,-1,101,-1,103,-1,-1,-1,-1,105,-1,-1,-1,107,109,111,113,-1,-1,-1,115,117,119,-1,121,123,125,127,129,131,-1,133,135,-1,-1,137,139,-1,141,-1,-1,143,-1,145,147,-1,-1,149,151,153,155,-1,157,159,161,163,165,-1,-1,167,-1,-1,-1,169,171,-1,-1,173,175,177,-1,-1,179,-1,-1,-1,-1,-1,-1,-1,-1,-1,-1,-1,-1,-1,-1,-1,-1,-1,-1,-1,-1,-1,-1,-1,-1,-1,-1,-1,-1,-1,-1,-1,-1,-1,-1,-1,-1,-1,-1,-1,-1,-1,-1,-1,-1,-1,-1,-1,-1],"loss_changes":[1.9838389E3,6.415759E1,4.4421094E2,2.203247E1,3.584286E1,8.569641E1,5.1256104E0,1.1965454E1,7.2680845E0,2.136891E1,1.3411457E1,1.546875E1,3.9241734E1,1.4558105E0,3.3176715E0,1.1448456E1,0E0,5.341607E0,8.893714E-1,9.808638E0,0E0,2.2169754E1,9.5235825E-1,1.6032059E1,1.4370117E0,1.4898893E1,1.4345467E1,1.0292853E0,1.2320709E0,0E0,0E0,1.3523743E1,1.1156342E1,4.081911E0,3.360774E0,0E0,0E0,3.9433498E0,2.3879008E0,5.0007677E0,3.9659433E0,0E0,2.3235164E0,1.0953186E1,2.0025957E1,1.4774591E0,9.055176E-1,1.471501E1,2.4829674E0,2.6661556E1,1.421656E1,0E0,0E0,1.7370157E1,0E0,1.0189501E1,1.2086853E1,4.9134216E0,6.6043634E0,5.8622317E0,0E0,0E0,1.6623297E0,0E0,1.1212273E0,0E0,0E0,0E0,0E0,3.3889198E-1,0E0,0E0,0E0,7.6148987E-1,1.6991375E1,5.817601E0,3.302126E0,0E0,0E0,0E0,3.8537598E-1,5.629236E0,6.1674223E0,0E0,1.6576706E0,7.4624453E0,2.4271526E0,6.1922073E0,1.8053375E1,4.41436E0,0E0,4.7246895E0,1.0629756E1,0E0,0E0,3.1961365E0,5.3832736E0,0E0,2.3769403E0,0E0,0E0,3.197708E-1,0E0,5.8940315E-1,5.3213787E0,0E0,0E0,1.1581878E1,3.6061096E-1,1.1912918E0,1.8881525E1,0E0,2.888999E0,2.4487984E0,2.2005682E0,2.4309735E0,5E-1,0E0,0E0,4.449953E0,0E0,0E0,0E0,4.6119986E0,1.9058104E1,0E0,0E0,9.160536E0,4.1750793E0,7.317759E0,0E0,0E0,7.8948154E0,0E0,0E0,0E0,0E0,0E0,0E0,0E0,0E0,0E0,0E0,0E0,0E0,0E0,0E0,0E0,0E0,0E0,0E0,0E0,0E0,0E0,0E0,0E0,0E0,0E0,0E0,0E0,0E0,0E0,0E0,0E0,0E0,0E0,0E0,0E0,0E0,0E0,0E0,0E0,0E0,0E0,0E0,0E0,0E0,0E0,0E0,0E0,0E0],"parents":[2147483647,0,0,1,1,2,2,3,3,4,4,5,5,6,6,7,7,8,8,9,9,10,10,11,11,12,12,13,13,14,14,15,15,17,17,18,18,19,19,21,21,22,22,23,23,24,24,25,25,26,26,27,27,28,28,31,31,32,32,33,33,34,34,37,37,38,38,39,39,40,40,42,42,43,43,44,44,45,45,46,46,47,47,48,48,49,49,50,50,53,53,55,55,56,56,57,57,58,58,59,59,62,62,64,64,69,69,73,73,74,74,75,75,76,76,80,80,81,81,82,82,84,84,85,85,86,86,87,87,88,88,89,89,91,91,92,92,95,95,96,96,98,98,101,101,103,103,104,104,107,107,108,108,109,109,110,110,112,112,113,113,114,114,115,115,116,116,119,119,123,123,124,124,127,127,128,128,129,129,132,132],"right_children":[2,4,6,8,10,12,14,16,18,20,22,24,26,28,30,32,-1,34,36,38,-1,40,42,44,46,48,50,52,54,-1,-1,56,58,60,62,-1,-1,64,66,68,70,-1,72,74,76,78,80,82,84,86,88,-1,-1,90,-1,92,94,96,98,100,-1,-1,102,-1,104,-1,-1,-1,-1,106,-1,-1,-1,108,110,112,114,-1,-1,-1,116,118,120,-1,122,124,126,128,130,132,-1,134,136,-1,-1,138,140,-1,142,-1,-1,144,-1,146,148,-1,-1,150,152,154,156,-1,158,160,162,164,166,-1,-1,168,-1,-1,-1,170,172,-1,-1,174,176,178,-1,-1,180,-1,-1,-1,-1,-1,-1,-1,-1,-1,-1,-1,-1,-1,-1,-1,-1,-1,-1,-1,-1,-1,-1,-1,-1,-1,-1,-1,-1,-1,-1,-1,-1,-1,-1,-1,-1,-1,-1,-1,-1,-1,-1,-1,-1,-1,-1,-1,-1],"split_conditions":[-3.5446938E-2,-1.5732216E-2,1.520055E0,-7.7447696E-3,-9.251483E-2,1.3062825E0,6.777388E-1,-4.4873428E-1,6.889846E-3,1.4360398E0,2.8527461E-2,-7.4199345E-3,-4.3295976E-2,1.5904719E0,-8.034146E-1,-3.1306937E-2,-2.786042E-1,-4.581811E-3,9.550718E-2,1.4951159E0,-2.604798E-1,-4.3259647E-2,5.862362E0,8.0666274E-1,-1.0617012E-1,1.2158165E-1,-3.4839693E-2,-9.292187E-2,9.7326374E-1,-1.8185611E-1,1.9193636E-1,-1.12979464E-1,3.2420328E-1,-9.406733E-1,-7.140058E-1,-6.96292E-3,-2.510516E-1,-2.7900147E0,-2.1407174E-2,2.0080272E-2,1.0227437E0,-2.8911692E-1,-2.3776093E-2,-7.140058E-1,7.89457E-2,2.2551855E-2,-9.8000176E-2,-1.3504721E-2,2.8093246E-1,-8.156294E-2,3.2447202E0,6.752118E-2,-1.7197669E-1,9.4664913E-1,-2.7968937E-1,-1.4166585E-1,-9.884848E-2,-4.6198356E-1,-3.1983886E-2,-1.0446658E0,-2.4206088E-1,-1.626385E-1,-8.413189E-2,-1.5488105E-1,-3.2798555E-1,-2.2611158E-1,1.1641997E-1,1.4533864E-1,-2.7687132E-1,-2.0407036E-2,-1.5000275E-1,-2.2206302E-1,1.0931319E-1,-1.2587287E-1,-5.4641E-1,-1.247774E-1,-2.878444E-2,-1.0574437E-1,1.8071054E-1,2.9031724E-2,-2.7900147E0,4.663009E0,-5.7231348E-2,-4.1654393E-1,2.1820571E0,7.473244E-1,7.900344E-2,-1.2838202E0,5.7069206E-1,-1.12979464E-1,5.288302E-1,-3.1434964E-2,-9.550401E-2,5.6933147E-1,-1.7901498E-1,-8.890929E-2,-3.0658456E-2,-2.2331879E-1,1.205297E0,-1.90882E-1,3.1918168E-1,-3.2069145E-3,-5.000939E-2,1.6906906E0,-2.7868596E-1,2.7552676E-1,8.9165986E-2,-2.1821696E-1,1.5114833E0,1.0329879E-1,-1.3370864E-1,1.3051929E-1,-1.2085185E0,-1.37872575E-2,-7.133433E-2,9.336892E-1,1.1620157E0,-2.919557E-1,1.8408646E-1,1.8075945E0,-2.9377857E-1,1.0905719E-1,-2.1366715E-1,3.010989E0,4.9643737E-1,-3.985412E-1,6.162532E-4,7.962725E-2,3.4214034E0,1.513542E-1,-3.274984E-1,-2.7575365E-1,-4.3295864E-2,3.448228E-2,-2.5971705E-1,-2.1222843E-1,1.2789378E-1,-2.7264506E-1,-2.1554817E-1,2.524901E-1,-2.0553763E-1,2.583935E-1,-4.836137E-2,2.4261813E-1,9.9172994E-2,2.804098E-1,4.057135E-2,2.0789462E-1,-1.8444504E-1,2.806897E-1,-1.18749E-1,2.698661E-1,1.3534471E-1,2.6005986E-1,1.8933006E-2,-2.907898E-1,1.1660413E-1,-3.2985505E-2,-3.8563225E-1,1.06565066E-1,-2.5134537E-1,2.3894255E-1,-6.714223E-2,-7.607106E-2,2.4591753E-1,2.7171713E-1,2.335095E-1,2.4752627E-1,5.986155E-4,1.9698778E-1,-7.4117966E-2,-2.6713336E-1,2.3837738E-1,-2.0478246E-1,1.8178299E-1,2.0710757E-1,-1.5987341E-1,-2.8556293E-1,1.7447962E-1,2.4002382E-1,-2.4167012E-1],"split_indices":[23,2,30,26,16,8,10,6,26,8,8,26,18,30,6,4,0,4,20,30,0,18,1,8,10,20,23,1,8,0,0,19,11,6,6,0,0,9,4,1,30,0,10,6,11,4,20,4,23,16,28,0,0,8,0,20,16,6,18,6,0,0,10,0,8,0,0,0,0,4,0,0,0,15,8,20,4,0,0,0,9,0,10,0,20,30,20,6,25,19,0,4,10,0,0,10,4,0,8,0,0,4,0,6,6,0,0,8,11,20,1,0,6,2,16,8,30,0,0,27,0,0,0,27,25,0,0,26,1,17,0,0,18,0,0,0,0,0,0,0,0,0,0,0,0,0,0,0,0,0,0,0,0,0,0,0,0,0,0,0,0,0,0,0,0,0,0,0,0,0,0,0,0,0,0,0,0,0,0,0,0],"split_type":[0,0,0,0,0,0,0,0,0,0,0,0,0,0,0,0,0,0,0,0,0,0,0,0,0,0,0,0,0,0,0,0,0,0,0,0,0,0,0,0,0,0,0,0,0,0,0,0,0,0,0,0,0,0,0,0,0,0,0,0,0,0,0,0,0,0,0,0,0,0,0,0,0,0,0,0,0,0,0,0,0,0,0,0,0,0,0,0,0,0,0,0,0,0,0,0,0,0,0,0,0,0,0,0,0,0,0,0,0,0,0,0,0,0,0,0,0,0,0,0,0,0,0,0,0,0,0,0,0,0,0,0,0,0,0,0,0,0,0,0,0,0,0,0,0,0,0,0,0,0,0,0,0,0,0,0,0,0,0,0,0,0,0,0,0,0,0,0,0,0,0,0,0,0,0,0,0,0,0,0,0],"sum_hessian":[2.9072263E3,1.2719271E3,1.6352991E3,1.1564995E3,1.1542764E2,1.4974796E3,1.3781955E2,1.1261044E3,3.0395132E1,5.0643703E1,6.478394E1,1.1736863E3,3.2379327E2,1.3382066E2,3.998877E0,4.1360864E2,7.1249567E2,2.1841059E1,8.554073E0,4.290841E1,7.735293E0,2.7310436E1,3.7473507E1,2.5128413E2,9.2240216E2,4.162802E1,2.8216525E2,2.6771703E0,1.311435E2,1.7347937E0,2.2640834E0,6.2191124E1,3.5141754E2,8.545744E0,1.3295315E1,1.1142077E0,7.4398656E0,3.811393E1,4.7944794E0,1.5493265E1,1.1817171E1,3.342256E1,4.0509453E0,2.2154436E2,2.9739779E1,2.6373763E0,9.197648E2,3.1029627E1,1.0598395E1,6.004665E1,2.221186E2,1.5839871E0,1.093183E0,4.1756126E1,8.938737E1,5.8257927E1,3.933194E0,3.4206958E2,9.347946E0,3.7092223E0,4.8365216E0,1.3411365E0,1.1954178E1,1.1080614E0,3.7005867E1,3.7613723E0,1.0331069E0,1.3592949E0,1.413397E1,1.0717687E1,1.0994847E0,2.7580569E0,1.2928884E0,1.5244804E2,6.909631E1,1.0527607E1,1.9212173E1,1.2017214E0,1.4356549E0,1.2477922E0,9.1851697E2,1.1758047E1,1.927158E1,8.447883E0,2.1505134E0,5.1488457E1,8.558193E0,1.9703462E2,2.5083988E1,4.0754105E1,1.0020231E0,3.6646538E1,2.161139E1,2.2779891E0,1.6552049E0,3.3762778E2,4.4418235E0,3.236266E0,6.11168E0,1.8577926E0,1.8514297E0,1.0534937E1,1.4192408E0,2.0426838E1,1.6579031E1,8.726761E0,1.9909257E0,2.4350153E1,1.280979E2,3.5535416E1,3.3560894E1,1.6448128E0,8.882793E0,2.978446E0,1.6233727E1,4.8204417E0,9.1369653E2,1.0655561E1,1.1024858E0,1.8005098E1,1.2664826E0,1.0085816E0,1.1419317E0,3.4717472E1,1.6770983E1,7.4892817E0,1.0689113E0,1.3982579E1,1.8305203E2,1.824552E1,6.83847E0,3.3953884E1,6.8002214E0,3.5478158E0,3.309872E1,8.873829E0,1.2737561E1,2.0712492E2,1.3050284E2,2.0210967E0,2.4207268E0,4.249987E0,1.8616927E0,7.0038257E0,3.5311117E0,1.9383858E1,1.0429809E0,1.4866666E1,1.7123647E0,1.9109762E1,5.2403893E0,1.2374097E2,4.356924E0,3.4036404E1,1.4990127E0,8.824819E0,2.4736076E1,2.025394E0,6.8574E0,1.8800004E0,1.0984455E0,1.5040526E1,1.1932003E0,1.6790371E0,3.1414044E0,8.373181E2,7.637845E1,1.0387671E1,7.6174264E0,3.0768505E1,3.9489675E0,9.09596E0,7.6750236E0,5.3969646E0,8.585614E0,1.8178012E2,1.271909E0,1.54964E0,1.6695879E1,2.6447322E0,4.155489E0],"tree_param":{"num_deleted":"0","num_feature":"31","num_nodes":"181","size_leaf_vector":"1"}},{"base_weights":[-5.083173E-3,-9.107882E-1,7.963048E-1,-9.68163E-1,-4.1035965E-1,9.0215915E-1,-1.3614786E-1,-6.9798386E-1,-1.0372211E0,4.314148E-1,-7.203453E-1,3.698328E-1,9.682268E-1,-2.8767312E-1,8.485506E-1,-7.820072E-1,1.8907276E-1,-1.0501274E0,7.892469E-2,6.735303E-1,-2.2911291E-1,-2.1364175E-2,-9.946484E-1,2.7405074E-1,1.1631999E-1,1.0364394E0,7.853557E-1,-5.3350455E-1,6.84913E-1,-1.6705038E-1,2.5184613E-1,-3.078159E-1,-8.979291E-1,1.1369234E0,-5.5021024E-1,-1.0747216E0,-5.8133334E-1,-2.151854E-1,6.322561E-1,-6.1464566E-1,8.7092835E-1,-4.509795E-1,7.543099E-1,-1.0485921E0,-4.0270343E-1,8.9197385E-1,-1.4102283E-1,5.991696E-1,1.0482466E0,-8.260684E-1,8.4624106E-1,-6.4940846E-1,4.7911865E-1,8.352287E-1,-1.9685669E-1,-5.6100285E-1,8.6212856E-1,-9.5832354E-1,1.08157344E-1,3.4771758E-1,4.2924456E-2,-2.5152653E-1,2.1313062E-1,-8.6852664E-1,-2.719272E-1,9.215143E-1,-7.757592E-1,2.2475186E-1,-3.5785746E-2,1.8604398E-3,-2.0209517E-1,9.674706E-1,-1.12728976E-1,4.8098952E-1,-7.7844673E-1,3.847234E-2,2.4704967E-1,-1.6253887E-2,-2.6973498E-1,-6.6036844E-1,1.1158768E-1,-7.0862606E-2,9.7438866E-1,-5.913796E-1,5.5095226E-1,8.463982E-1,-2.789297E-1,9.394437E-1,1.0710145E0,2.736124E-3,-4.505618E-1,4.3347102E-1,9.4244367E-1,-7.72426E-1,2.912691E-1,9.0380275E-1,-2.0520966E-1,9.563931E-1,-1.140917E-1,-9.271385E-1,2.3716918E-1,1.6698585E-1,1.1404214E0,-9.921358E-1,4.437941E-1,-2.3411277E-1,1.314099E0,-2.6860756E-1,-2.3105939E-1,4.5256382E-1,-1.6808948E-1,-9.9450016E-1,2.0357811E-1,1.0314819E0,3.019839E-1,-1.6941738E-1,1.3333009E-1,-7.715535E-2,2.2342297E-1,-9.3132836E-1,1.4109556E-2,1.6812725E-1,-1.7979349E-1,7.123938E-2,-2.3246418E-1,1.0098578E0,8.073371E-2,2.0872302E-1,-8.071463E-1,8.075179E-1,2.7474638E-2,-2.5241459E-2,9.586021E-1,9.797645E-1,-6.120565E-1,1.0723981E0,3.93261E-2,-2.5492474E-1,7.2091E-1,6.084706E-1,-6.2639254E-1,1.1452624E-1,9.942715E-1,-9.8278105E-1,8.079465E-2,6.96013E-1,-2.3420705E-1,2.5169274E-1,2.9242411E-2,5.7694912E-2,1.0264821E0,7.006035E-2,-2.831558E-1,-2.7004266E-1,2.4368612E-1,-1.7977522E-1,2.2120899E-1,4.323599E-1,1.3176572E-1,3.666307E-2,-2.5630325E-1,3.9934424E-1,-1.7595328E-1,-2.0706104E-1,1.099809E0,6.1147064E-1,-2.511847E-1,-2.659335E-1,-1.3630734E-1,1.9004959E-1,-2.1695133E-1,9.3144074E-2,2.676772E-1,1.5368849E-1,-4.449616E-2,-1.4191344E-1,1.0954818E-1,9.9319015E-3,-2.5886858E-1,2.6319087E-1,9.4817825E-2,-2.408042E-1,-2.2363426E-2,-1.5241939E-1,2.4376231E-1,1.8790326E-1,-1.6432309E-1,8.210453E-2,2.5964457E-1,2.5554989E-3,2.5472996E-1,1.6601568E-1,-4.039669E-1,2.685138E-1,8.129581E-2,2.0572674E-1,5.6920007E-2,1.8461959E-1,-1.662466E-1,1.1477236E-1,-4.416614E-1,1.8984126E-1,-2.617031E-1,2.653744E-1,1.8485339E-1,-2.6590037E-1,-4.441881E-3,-2.6286477E-1,1.5709618E-1,2.576245E-1,-7.434913E-3,7.073071E-2,2.6502714E-1],"categories":[],"categories_nodes":[],"categories_segments":[],"categories_sizes":[],"default_left":[0,0,0,0,0,0,0,0,0,0,0,0,0,0,0,0,0,0,0,0,0,0,0,0,0,0,0,0,0,0,0,0,0,0,0,0,0,0,0,0,0,0,0,0,0,0,0,0,0,0,0,0,0,0,0,0,0,0,0,0,0,0,0,0,0,0,0,0,0,0,0,0,0,0,0,0,0,0,0,0,0,0,0,0,0,0,0,0,0,0,0,0,0,0,0,0,0,0,0,0,0,0,0,0,0,0,0,0,0,0,0,0,0,0,0,0,0,0,0,0,0,0,0,0,0,0,0,0,0,0,0,0,0,0,0,0,0,0,0,0,0,0,0,0,0,0,0,0,0,0,0,0,0,0,0,0,0,0,0,0,0,0,0,0,0,0,0,0,0,0,0,0,0,0,0,0,0,0,0,0,0,0,0,0,0,0,0,0,0,0,0,0,0,0,0,0,0,0,0,0,0,0,0,0,0,0,0,0,0,0,0,0,0],"id":7,"left_children":[1,3,5,7,9,11,13,15,17,19,21,23,25,27,29,31,33,35,37,39,-1,41,43,-1,45,47,49,51,53,-1,-1,55,57,59,61,63,65,-1,67,69,71,73,75,77,79,81,83,85,87,89,91,93,95,97,-1,99,101,103,105,-1,-1,-1,-1,107,-1,109,111,-1,-1,-1,-1,113,115,117,119,121,-1,-1,-1,123,-1,-1,125,127,129,131,-1,133,135,137,-1,139,141,143,145,147,-1,149,-1,151,153,155,157,159,161,-1,163,-1,165,-1,-1,167,169,171,173,-1,-1,175,-1,177,-1,-1,-1,-1,-1,179,-1,-1,181,183,185,-1,187,189,191,193,-1,-1,195,197,199,201,203,205,207,209,-1,-1,-1,-1,211,-1,-1,-1,-1,-1,-1,-1,-1,-1,-1,-1,-1,-1,-1,-1,-1,-1,-1,-1,-1,-1,-1,-1,-1,-1,-1,-1,-1,-1,-1,-1,-1,-1,-1,-1,-1,-1,-1,-1,-1,-1,-1,-1,-1,-1,-1,-1,-1,-1,-1,-1,-1,-1,-1,-1,-1,-1,-1,-1,-1,-1,-1],"loss_changes":[1.744075E3,3.1990723E1,1.2595795E2,1.8144226E1,3.1039637E1,3.991211E1,1.9766407E1,1.571936E1,1.1655334E1,1.1164635E1,1.6552658E1,2.34501E1,1.18845825E1,2.7655094E1,4.9377356E0,1.0224747E1,1.3856869E1,8.532471E0,5.8025465E0,7.6489153E0,0E0,8.799292E0,1.5593605E0,0E0,1.9294575E1,3.183838E0,2.8237991E1,1.10704E1,5.851262E0,0E0,0E0,1.205054E1,9.399521E0,1.8692102E0,8.072639E0,1.072937E0,1.2919409E1,0E0,1.5644784E0,5.246732E-1,2.4519863E0,5.5510864E0,1.5395064E0,1.6089439E0,1.7838284E0,2.6069584E0,2.306635E1,1.0163937E1,7.7130127E-1,8.682379E0,1.0351318E1,9.792866E0,6.257338E0,3.8446636E0,0E0,9.778347E0,1.2297721E0,7.287369E0,1.3276511E1,0E0,0E0,0E0,0E0,6.263096E0,0E0,8.642302E0,8.241552E0,0E0,0E0,0E0,0E0,6.499996E-1,1.4930882E0,1.2272412E0,1.7034016E0,2.0981505E0,0E0,0E0,0E0,1.697998E0,0E0,0E0,1.986084E-1,1.4425415E1,3.9111404E0,2.177517E0,0E0,8.876755E0,5.7232666E-1,5.727523E0,0E0,1.0223837E1,9.278763E0,1.3251938E1,5.766034E0,5.309019E-1,0E0,7.921314E-1,0E0,5.930849E0,1.1820339E1,2.7164752E0,9.2052555E-1,5.474121E0,6.5412025E0,0E0,3.5728985E1,0E0,3.0179873E1,0E0,0E0,3.7945938E-1,5.2406797E0,1.2257767E-1,6.1899763E-1,0E0,0E0,1.0217577E0,0E0,1.1524734E0,0E0,0E0,0E0,0E0,0E0,1.7068481E-1,0E0,0E0,4.3183193E0,5.2523603E0,5.7838373E0,0E0,5.4579353E-1,4.899826E0,6.1546087E0,3.753662E-1,0E0,0E0,4.302931E-2,8.115755E0,1.0729201E1,1.1298541E1,2.7423096E0,4.579033E0,1.0233555E1,2.0483804E0,0E0,0E0,0E0,0E0,1.5416145E-1,0E0,0E0,0E0,0E0,0E0,0E0,0E0,0E0,0E0,0E0,0E0,0E0,0E0,0E0,0E0,0E0,0E0,0E0,0E0,0E0,0E0,0E0,0E0,0E0,0E0,0E0,0E0,0E0,0E0,0E0,0E0,0E0,0E0,0E0,0E0,0E0,0E0,0E0,0E0,0E0,0E0,0E0,0E0,0E0,0E0,0E0,0E0,0E0,0E0,0E0,0E0,0E0,0E0,0E0,0E0,0E0,0E0,0E0,0E0,0E0,0E0,0E0],"parents":[2147483647,0,0,1,1,2,2,3,3,4,4,5,5,6,6,7,7,8,8,9,9,10,10,11,11,12,12,13,13,14,14,15,15,16,16,17,17,18,18,19,19,21,21,22,22,24,24,25,25,26,26,27,27,28,28,31,31,32,32,33,33,34,34,35,35,36,36,38,38,39,39,40,40,41,41,42,42,43,43,44,44,45,45,46,46,47,47,48,48,49,49,50,50,51,51,52,52,53,53,55,55,56,56,57,57,58,58,63,63,65,65,66,66,71,71,72,72,73,73,74,74,75,75,79,79,82,82,83,83,84,84,85,85,87,87,88,88,89,89,91,91,92,92,93,93,94,94,95,95,97,97,99,99,100,100,101,101,102,102,103,103,104,104,106,106,108,108,111,111,112,112,113,113,114,114,117,117,119,119,125,125,128,128,129,129,130,130,132,132,133,133,134,134,135,135,138,138,139,139,140,140,141,141,142,142,143,143,144,144,145,145,150,150],"right_children":[2,4,6,8,10,12,14,16,18,20,22,24,26,28,30,32,34,36,38,40,-1,42,44,-1,46,48,50,52,54,-1,-1,56,58,60,62,64,66,-1,68,70,72,74,76,78,80,82,84,86,88,90,92,94,96,98,-1,100,102,104,106,-1,-1,-1,-1,108,-1,110,112,-1,-1,-1,-1,114,116,118,120,122,-1,-1,-1,124,-1,-1,126,128,130,132,-1,134,136,138,-1,140,142,144,146,148,-1,150,-1,152,154,156,158,160,162,-1,164,-1,166,-1,-1,168,170,172,174,-1,-1,176,-1,178,-1,-1,-1,-1,-1,180,-1,-1,182,184,186,-1,188,190,192,194,-1,-1,196,198,200,202,204,206,208,210,-1,-1,-1,-1,212,-1,-1,-1,-1,-1,-1,-1,-1,-1,-1,-1,-1,-1,-1,-1,-1,-1,-1,-1,-1,-1,-1,-1,-1,-1,-1,-1,-1,-1,-1,-1,-1,-1,-1,-1,-1,-1,-1,-1,-1,-1,-1,-1,-1,-1,-1,-1,-1,-1,-1,-1,-1,-1,-1,-1,-1,-1,-1,-1,-1,-1,-1],"split_conditions":[-4.393467E-2,-1.3370864E-1,1.1521726E0,-1.2812815E0,-9.6778154E-2,3.6524087E-2,1.2046614E0,-6.2328845E-1,3.2420328E-1,1.1237657E0,-3.602262E-1,2.67025E-2,9.7326374E-1,4.663009E0,-1.474788E-2,-3.1345904E-2,-6.0370064E-1,1.6436966E-1,-3.1983886E-2,-3.0695565E-2,-2.2911291E-1,-4.0119495E-2,5.862362E0,2.7405074E-1,-5.826459E-1,-2.4207575E-2,-2.6110099E-3,8.179229E0,1.3769234E0,-1.6705038E-1,2.5184613E-1,-3.135147E-2,-1.3148882E0,-9.730786E-2,7.89457E-2,-1.0914854E0,1.8646021E-1,-2.151854E-1,6.051244E-1,-1.047716E0,1.3535922E0,-6.206561E-1,-9.978225E-2,-7.372769E-2,-9.407121E-3,-2.67156E-2,7.89457E-2,-2.9994598E-1,-6.744268E-3,-8.517246E-2,-3.6057953E-3,1.1314281E0,1.3619015E0,1.5402009E-2,-1.9685669E-1,-1.4166585E-1,-1.0124592E-1,7.651807E-1,-1.3417292E-1,3.4771758E-1,4.2924456E-2,-2.5152653E-1,2.1313062E-1,-7.163656E-2,-2.719272E-1,-1.2584582E-1,1.5383716E0,2.2475186E-1,-3.5785746E-2,1.8604398E-3,-2.0209517E-1,1.3165954E-1,8.8781066E-2,-6.217363E-1,-4.3253146E-2,-1.2958955E0,2.4704967E-1,-1.6253887E-2,-2.6973498E-1,-1.05354644E-1,1.1158768E-1,-7.0862606E-2,1.5025318E0,-1.3884571E0,6.051244E-1,-9.8158464E-2,-2.789297E-1,3.5099585E-2,5.400771E0,2.693412E-2,-4.505618E-1,-7.274359E-2,-1.3370864E-1,2.1269436E0,8.95454E-2,-9.491705E-2,-2.0520966E-1,-2.1407174E-2,-1.140917E-1,-3.1434964E-2,-7.1868025E-2,-6.4947516E-1,-9.873678E-2,-1.0625375E-1,-2.1891404E-2,-2.3411277E-1,-1.5738152E-1,-2.6860756E-1,-3.0658456E-2,4.5256382E-1,-1.6808948E-1,9.264409E-1,1.1577575E0,-2.67156E-2,1.2549993E-1,-1.6941738E-1,1.3333009E-1,-3.8243603E-4,2.2342297E-1,-9.790467E-2,1.4109556E-2,1.6812725E-1,-1.7979349E-1,7.123938E-2,-2.3246418E-1,3.272496E-1,8.073371E-2,2.0872302E-1,-4.0119495E-2,-1.0396416E-1,-9.5767245E-2,-2.5241459E-2,-8.872802E-2,-7.749203E-2,-1.1030961E0,1.091902E0,3.93261E-2,-2.5492474E-1,-2.5727307E-2,1.039899E0,2.0214921E-1,1.2158165E-1,9.36088E-1,2.1689503E-1,2.0604737E-1,-2.0221071E-1,-2.3420705E-1,2.5169274E-1,2.9242411E-2,5.7694912E-2,-1.2605624E0,7.006035E-2,-2.831558E-1,-2.7004266E-1,2.4368612E-1,-1.7977522E-1,2.2120899E-1,4.323599E-1,1.3176572E-1,3.666307E-2,-2.5630325E-1,3.9934424E-1,-1.7595328E-1,-2.0706104E-1,1.099809E0,6.1147064E-1,-2.511847E-1,-2.659335E-1,-1.3630734E-1,1.9004959E-1,-2.1695133E-1,9.3144074E-2,2.676772E-1,1.5368849E-1,-4.449616E-2,-1.4191344E-1,1.0954818E-1,9.9319015E-3,-2.5886858E-1,2.6319087E-1,9.4817825E-2,-2.408042E-1,-2.2363426E-2,-1.5241939E-1,2.4376231E-1,1.8790326E-1,-1.6432309E-1,8.210453E-2,2.5964457E-1,2.5554989E-3,2.5472996E-1,1.6601568E-1,-4.039669E-1,2.685138E-1,8.129581E-2,2.0572674E-1,5.6920007E-2,1.8461959E-1,-1.662466E-1,1.1477236E-1,-4.416614E-1,1.8984126E-1,-2.617031E-1,2.653744E-1,1.8485339E-1,-2.6590037E-1,-4.441881E-3,-2.6286477E-1,1.5709618E-1,2.576245E-1,-7.434913E-3,7.073071E-2,2.6502714E-1],"split_indices":[12,1,7,7,16,12,6,8,11,7,7,12,8,0,4,4,8,20,18,4,0,11,1,0,8,26,5,5,7,0,0,4,7,16,11,7,20,0,7,6,8,8,10,25,16,4,11,7,26,21,26,17,7,22,0,20,10,16,20,0,0,0,0,21,0,7,6,0,0,0,0,5,17,8,18,6,0,0,0,10,0,0,6,7,7,21,0,16,1,20,0,16,1,8,26,16,0,4,0,4,10,6,10,10,4,0,11,0,4,0,0,6,7,4,1,0,0,15,0,21,0,0,0,0,0,21,0,0,11,10,16,0,27,5,6,22,0,0,5,7,12,20,7,26,12,28,0,0,0,0,6,0,0,0,0,0,0,0,0,0,0,0,0,0,0,0,0,0,0,0,0,0,0,0,0,0,0,0,0,0,0,0,0,0,0,0,0,0,0,0,0,0,0,0,0,0,0,0,0,0,0,0,0,0,0,0,0,0,0,0,0,0,0],"split_type":[0,0,0,0,0,0,0,0,0,0,0,0,0,0,0,0,0,0,0,0,0,0,0,0,0,0,0,0,0,0,0,0,0,0,0,0,0,0,0,0,0,0,0,0,0,0,0,0,0,0,0,0,0,0,0,0,0,0,0,0,0,0,0,0,0,0,0,0,0,0,0,0,0,0,0,0,0,0,0,0,0,0,0,0,0,0,0,0,0,0,0,0,0,0,0,0,0,0,0,0,0,0,0,0,0,0,0,0,0,0,0,0,0,0,0,0,0,0,0,0,0,0,0,0,0,0,0,0,0,0,0,0,0,0,0,0,0,0,0,0,0,0,0,0,0,0,0,0,0,0,0,0,0,0,0,0,0,0,0,0,0,0,0,0,0,0,0,0,0,0,0,0,0,0,0,0,0,0,0,0,0,0,0,0,0,0,0,0,0,0,0,0,0,0,0,0,0,0,0,0,0,0,0,0,0,0,0,0,0,0,0,0,0],"sum_hessian":[2.4009E3,1.1270288E3,1.2738712E3,1.01026575E3,1.16763084E2,1.1440305E3,1.2984067E2,2.0791945E2,8.023463E2,3.1320284E1,8.5442795E1,1.2703888E2,1.01699164E3,1.1313875E2,1.6701916E1,1.9003725E2,1.7882198E1,7.932331E2,9.11322E0,2.6975086E1,4.345199E0,2.4384335E1,6.1058464E1,3.200718E1,9.50317E1,7.373031E2,2.796885E2,9.067192E1,2.2466833E1,1.2792318E0,1.5422684E1,3.8048992E1,1.5198827E2,7.600088E0,1.028211E1,7.5246423E2,4.0768837E1,3.1716197E0,5.941601E0,3.303493E0,2.3671593E1,1.5962134E1,8.422201E0,5.5251945E1,5.806516E0,2.3060186E1,7.197151E1,2.0745895E1,7.165572E2,9.725325E0,2.699632E2,8.168143E1,8.990491E0,2.0778238E1,1.6885941E0,3.1707647E1,6.341344E0,1.4342601E2,8.562253E0,5.6679063E0,1.9321818E0,7.9734483E0,2.3086622E0,4.8607754E1,7.038565E2,4.24176E0,3.6527077E1,4.302165E0,1.6394355E0,1.0128372E0,2.2906559E0,2.1570944E1,2.1006494E0,4.0284324E0,1.19337015E1,2.360911E0,6.06129E0,1.7478056E0,5.350414E1,4.625141E0,1.1813751E0,1.3511E0,2.1709085E1,4.368528E1,2.828623E1,1.8574522E1,2.171373E0,1.3131088E2,5.8524634E2,5.799E0,3.9263248E0,5.2067295E1,2.1789589E2,7.239305E1,9.288376E0,7.006331E0,1.98416E0,1.9233473E1,1.544765E0,2.162589E1,1.0081758E1,2.2703393E0,4.0710044E0,1.4033423E2,3.0917823E0,4.707768E0,3.854485E0,3.622237E1,1.2385386E1,2.636109E0,1.6056505E0,2.9845434E1,6.681642E0,1.9176449E1,2.3944945E0,1.0945616E0,1.0060878E0,2.0580897E0,