{"learner":{"attributes":{"scikit_learn":"{\"_estimator_type\": \"classifier\"}"},"feature_names":[],"feature_types":[],"gradient_booster":{"model":{"cats":{"enc":[],"feature_segments":[],"sorted_idx":[]},"gbtree_model_param":{"num_parallel_tree":"1","num_trees":"600"},"iteration_indptr":[0,1,2,3,4,5,6,7,8,9,10,11,12,13,14,15,16,17,18,19,20,21,22,23,24,25,26,27,28,29,30,31,32,33,34,35,36,37,38,39,40,41,42,43,44,45,46,47,48,49,50,51,52,53,54,55,56,57,58,59,60,61,62,63,64,65,66,67,68,69,70,71,72,73,74,75,76,77,78,79,80,81,82,83,84,85,86,87,88,89,90,91,92,93,94,95,96,97,98,99,100,101,102,103,104,105,106,107,108,109,110,111,112,113,114,115,116,117,118,119,120,121,122,123,124,125,126,127,128,129,130,131,132,133,134,135,136,137,138,139,140,141,142,143,144,145,146,147,148,149,150,151,152,153,154,155,156,157,158,159,160,161,162,163,164,165,166,167,168,169,170,171,172,173,174,175,176,177,178,179,180,181,182,183,184,185,186,187,188,189,190,191,192,193,194,195,196,197,198,199,200,201,202,203,204,205,206,207,208,209,210,211,212,213,214,215,216,217,218,219,220,221,222,223,224,225,226,227,228,229,230,231,232,233,234,235,236,237,238,239,240,241,242,243,244,245,246,247,248,249,250,251,252,253,254,255,256,257,258,259,260,261,262,263,264,265,266,267,268,269,270,271,272,273,274,275,276,277,278,279,280,281,282,283,284,285,286,287,288,289,290,291,292,293,294,295,296,297,298,299,300,301,302,303,304,305,306,307,308,309,310,311,312,313,314,315,316,317,318,319,320,321,322,323,324,325,326,327,328,329,330,331,332,333,334,335,336,337,338,339,340,341,342,343,344,345,346,347,348,349,350,351,352,353,354,355,356,357,358,359,360,361,362,363,364,365,366,367,368,369,370,371,372,373,374,375,376,377,378,379,380,381,382,383,384,385,386,387,388,389,390,391,392,393,394,395,396,397,398,399,400,401,402,403,404,405,406,407,408,409,410,411,412,413,414,415,416,417,418,419,420,421,422,423,424,425,426,427,428,429,430,431,432,433,434,435,436,437,438,439,440,441,442,443,444,445,446,447,448,449,450,451,452,453,454,455,456,457,458,459,460,461,462,463,464,465,466,467,468,469,470,471,472,473,474,475,476,477,478,479,480,481,482,483,484,485,486,487,488,489,490,491,492,493,494,495,496,497,498,499,500,501,502,503,504,505,506,507,508,509,510,511,512,513,514,515,516,517,518,519,520,521,522,523,524,525,526,527,528,529,530,531,532,533,534,535,536,537,538,539,540,541,542,543,544,545,546,547,548,549,550,551,552,553,554,555,556,557,558,559,560,561,562,563,564,565,566,567,568,569,570,571,572,573,574,575,576,577,578,579,580,581,582,583,584,585,586,587,588,589,590,591,592,593,594,595,596,597,598,599,600],"tree_info":[0,0,0,0,0,0,0,0,0,0,0,0,0,0,0,0,0,0,0,0,0,0,0,0,0,0,0,0,0,0,0,0,0,0,0,0,0,0,0,0,0,0,0,0,0,0,0,0,0,0,0,0,0,0,0,0,0,0,0,0,0,0,0,0,0,0,0,0,0,0,0,0,0,0,0,0,0,0,0,0,0,0,0,0,0,0,0,0,0,0,0,0,0,0,0,0,0,0,0,0,0,0,0,0,0,0,0,0,0,0,0,0,0,0,0,0,0,0,0,0,0,0,0,0,0,0,0,0,0,0,0,0,0,0,0,0,0,0,0,0,0,0,0,0,0,0,0,0,0,0,0,0,0,0,0,0,0,0,0,0,0,0,0,0,0,0,0,0,0,0,0,0,0,0,0,0,0,0,0,0,0,0,0,0,0,0,0,0,0,0,0,0,0,0,0,0,0,0,0,0,0,0,0,0,0,0,0,0,0,0,0,0,0,0,0,0,0,0,0,0,0,0,0,0,0,0,0,0,0,0,0,0,0,0,0,0,0,0,0,0,0,0,0,0,0,0,0,0,0,0,0,0,0,0,0,0,0,0,0,0,0,0,0,0,0,0,0,0,0,0,0,0,0,0,0,0,0,0,0,0,0,0,0,0,0,0,0,0,0,0,0,0,0,0,0,0,0,0,0,0,0,0,0,0,0,0,0,0,0,0,0,0,0,0,0,0,0,0,0,0,0,0,0,0,0,0,0,0,0,0,0,0,0,0,0,0,0,0,0,0,0,0,0,0,0,0,0,0,0,0,0,0,0,0,0,0,0,0,0,0,0,0,0,0,0,0,0,0,0,0,0,0,0,0,0,0,0,0,0,0,0,0,0,0,0,0,0,0,0,0,0,0,0,0,0,0,0,0,0,0,0,0,0,0,0,0,0,0,0,0,0,0,0,0,0,0,0,0,0,0,0,0,0,0,0,0,0,0,0,0,0,0,0,0,0,0,0,0,0,0,0,0,0,0,0,0,0,0,0,0,0,0,0,0,0,0,0,0,0,0,0,0,0,0,0,0,0,0,0,0,0,0,0,0,0,0,0,0,0,0,0,0,0,0,0,0,0,0,0,0,0,0,0,0,0,0,0,0,0,0,0,0,0,0,0,0,0,0,0,0,0,0,0,0,0,0,0,0,0,0,0,0,0,0,0,0,0,0,0,0,0,0,0,0,0,0,0,0,0,0,0,0,0,0,0,0,0,0,0,0,0,0,0,0,0,0,0,0,0,0,0,0,0,0,0,0,0,0,0,0,0,0,0,0,0,0,0,0,0,0,0,0,0,0,0,0,0,0,0,0,0,0,0,0,0,0,0,0,0,0],"trees":[{"base_weights":[1.1537038E-2,1.3717504E0,-4.9979362E-1,-1.8907992E0,1.660555E0,-1.9482157E0,-1.1518456E0,-1.4990102E0,1.7828617E0,-4.9226087E-1,-1.3744627E0,-4.710145E-1,7.548952E-1,2.1763982E-1,-1.8629569E0,1.8886436E0,-9.276926E-2,-4.4444445E-1,-3.1932014E-1,3.6907127E-1,-3E-1,-4.2849943E-1,4.2827508E-1,-4.949367E-1,3.7454644E-1,-3.915595E-1,1.9117677E0,5.0249046E-1,-1.6984538E0,2.9941985E-1,-3.4615386E-1,3.7454644E-1,-9.661404E-1,-7.962678E-1,4.0873092E-1,1.9327555E0,-5.4270446E-1,-8.294421E-1,8.6478984E-1,-4.878788E-1,3.2930648E-1,-4.2307693E-1,-2.5407472E-1,1.6499366E-1,-4.6078432E-1,1.968232E0,1.6484187E0,3.9613736E-1,-1.293551E0,-1.5507423E0,4.7198138E-1,3.7133545E-1,1.82008E0,-3.181818E-1,3.2292688E-1,2.9941985E-1,-1.930787E-1,2.101797E-1,-3.888889E-1,4.2104837E-1,4.9509943E-1,-1.0104305E-1,4.307509E-1,1.07709005E-1,-4.6666667E-1,-4.6923077E-1,2.9941985E-1,2.639025E-1,-3.3333334E-1,2.9467848E-1,-2.879614E-1,4.7588843E-1,1.1452698E-1],"categories":[],"categories_nodes":[],"categories_segments":[],"categories_sizes":[],"default_left":[0,0,0,0,0,0,0,0,0,0,0,0,0,0,0,0,0,0,0,0,0,0,0,0,0,0,0,0,0,0,0,0,0,0,0,0,0,0,0,0,0,0,0,0,0,0,0,0,0,0,0,0,0,0,0,0,0,0,0,0,0,0,0,0,0,0,0,0,0,0,0,0,0],"id":0,"left_children":[1,3,-1,5,7,9,11,13,15,-1,17,-1,19,21,23,25,27,-1,29,-1,-1,31,-1,-1,-1,33,35,37,39,-1,-1,-1,41,43,-1,45,47,49,51,-1,53,-1,55,57,-1,59,61,-1,63,65,67,69,71,-1,-1,-1,-1,-1,-1,-1,-1,-1,-1,-1,-1,-1,-1,-1,-1,-1,-1,-1,-1],"loss_changes":[1.6421281E4,3.3776553E3,0E0,1.0132935E1,1.2743047E3,5.109863E-1,3.4201256E1,7.736304E1,6.2882715E2,0E0,4.855068E0,0E0,1.1965202E1,2.2419369E1,4.290207E1,1.5889941E2,1.6344402E2,0E0,9.322889E0,0E0,0E0,1.8509266E1,0E0,0E0,0E0,2.667857E1,1.5401562E2,6.097628E1,2.4368317E1,0E0,0E0,0E0,6.5431128E0,2.6935078E1,0E0,2.6457031E1,4.3508667E1,2.627802E1,4.5831757E1,0E0,1.0872488E1,0E0,6.9329624E0,1.8414373E1,0E0,5.6933594E0,5.1642822E1,0E0,2.030833E1,1.8154034E1,1.2440155E1,8.29071E1,2.919281E0,0E0,0E0,0E0,0E0,0E0,0E0,0E0,0E0,0E0,0E0,0E0,0E0,0E0,0E0,0E0,0E0,0E0,0E0,0E0,0E0],"parents":[2147483647,0,0,1,1,3,3,4,4,5,5,6,6,7,7,8,8,10,10,12,12,13,13,14,14,15,15,16,16,18,18,21,21,25,25,26,26,27,27,28,28,32,32,33,33,35,35,36,36,37,37,38,38,40,40,42,42,43,43,45,45,46,46,48,48,49,49,50,50,51,51,52,52],"right_children":[2,4,-1,6,8,10,12,14,16,-1,18,-1,20,22,24,26,28,-1,30,-1,-1,32,-1,-1,-1,34,36,38,40,-1,-1,-1,42,44,-1,46,48,50,52,-1,54,-1,56,58,-1,60,62,-1,64,66,68,70,72,-1,-1,-1,-1,-1,-1,-1,-1,-1,-1,-1,-1,-1,-1,-1,-1,-1,-1,-1,-1],"split_conditions":[5.5081904E-1,-2.544413E0,-4.9979362E-1,4.519257E-1,-9.768519E-2,2.9192832E0,7.943031E-1,-1.5583476E0,1.181668E0,-4.9226087E-1,5.6485172E-2,-4.710145E-1,3.4585327E-2,-6.297501E-1,3.8215141E0,-6.29905E-1,1.3625256E0,-4.4444445E-1,-3.7341565E-1,3.6907127E-1,-3E-1,-8.726466E-2,4.2827508E-1,-4.949367E-1,3.7454644E-1,-1.2872739E-1,1.5979075E0,-1.2523617E-2,3.337111E-1,2.9941985E-1,-3.4615386E-1,3.7454644E-1,-1.0685253E0,-4.3730482E-1,4.0873092E-1,1.3920581E0,-1.2698483E0,2.071642E0,-5.130551E-1,-4.878788E-1,-5.153416E-2,-4.2307693E-1,-1.0642239E0,-1.2524171E-1,-4.6078432E-1,-4.1666795E-2,-4.164856E-2,3.9613736E-1,-1.1100433E-1,4.573033E-1,-9.426825E-2,-9.522181E-2,1.217938E0,-3.181818E-1,3.2292688E-1,2.9941985E-1,-1.930787E-1,2.101797E-1,-3.888889E-1,4.2104837E-1,4.9509943E-1,-1.0104305E-1,4.307509E-1,1.07709005E-1,-4.6666667E-1,-4.6923077E-1,2.9941985E-1,2.639025E-1,-3.3333334E-1,2.9467848E-1,-2.879614E-1,4.7588843E-1,1.1452698E-1],"split_indices":[9,10,0,24,23,16,6,7,7,0,28,0,4,8,29,8,7,0,7,0,0,4,0,0,0,5,32,28,6,0,0,0,6,6,0,8,7,8,6,0,4,0,6,22,0,25,25,0,24,2,23,23,32,0,0,0,0,0,0,0,0,0,0,0,0,0,0,0,0,0,0,0,0],"split_type":[0,0,0,0,0,0,0,0,0,0,0,0,0,0,0,0,0,0,0,0,0,0,0,0,0,0,0,0,0,0,0,0,0,0,0,0,0,0,0,0,0,0,0,0,0,0,0,0,0,0,0,0,0,0,0,0,0,0,0,0,0,0,0,0,0,0,0,0,0,0,0,0,0],"sum_hessian":[6.0021294E3,3.5803792E3,2.42175E3,2.9071384E2,3.2896653E3,2.6823553E2,2.2478308E1,1.2217769E2,3.1674875E3,2.5649277E2,1.1742769E1,1.625E1,6.2283072E0,2.1442154E1,1.00735535E2,2.9983782E3,1.6910953E2,8E0,3.7427692E0,4.7283072E0,1.5E0,1.5471077E1,5.9710765E0,9.775E1,2.9855382E0,2.9942154E1,2.968436E3,1.2387399E2,4.523554E1,1.4927691E0,2.25E0,2.9855382E0,1.24855385E1,2.5463846E1,4.4783072E0,2.9434792E3,2.4956615E1,2.6213846E1,9.766015E1,4.025E1,4.9855385E0,5.5E0,6.9855385E0,1.3713845E1,1.175E1,2.6116973E3,3.3178214E2,6.2210765E0,1.8735538E1,1.674277E1,9.471077E0,6.5312E1,3.2348152E1,1.75E0,3.2355382E0,1.4927691E0,5.4927692E0,1.0213845E1,3.5E0,1.12993835E2,2.4987034E3,1.1478308E1,3.2030383E2,4.7355385E0,1.4E1,1.525E1,1.4927691E0,7.4710765E0,2E0,4.283369E1,2.2478308E1,3.0105383E1,2.2427692E0],"tree_param":{"num_deleted":"0","num_feature":"33","num_nodes":"73","size_leaf_vector":"1"}},{"base_weights":[-4.8284237E-3,-1.4324224E0,1.3746928E0,-1.5501163E0,-4.1111612E-1,1.4734629E0,-3.9732897E-1,-1.2585917E0,-4.014704E-1,4.7967243E-1,-1.5843835E0,1.5285131E0,-7.339429E-1,-9.5317826E-2,-1.4325554E0,1.1846558E0,-3.921824E-1,3.1501484E-1,-1.6292425E0,-3.6821193E-1,1.5408891E0,-1.106413E0,8.009729E-1,-3.7866503E-1,5.2751267E-1,-1.4616055E0,9.662236E-1,-3.6161098E-1,1.3879366E0,-1.171991E0,-4.178977E-1,1.5655484E0,7.7161735E-1,-1.4294058E0,3.436409E-1,-5.3295326E-1,3.6664313E-1,-1.4261319E-1,3.8357258E-1,-1.5092463E0,-3.992912E-1,6.774031E-2,3.8562453E-1,1.4219179E0,-3.0240744E-2,-3.7405577E-1,1.3894512E-1,1.5921648E0,1.3942978E0,-1.6461906E-1,1.1024601E0,-1.5294371E0,-3.3255857E-1,3.7245268E-1,-3.2289508E-1,-3.4411666E-1,2.5540945E-1,3.5164163E-1,-5.6580746E-1,-1.0072346E0,-1.5773138E0,1.2052004E0,-3.7614208E-1,3.9236608E-1,1.1476836E0,-3.027265E-1,2.583419E-1,1.5947745E0,8.0462015E-1,-3.6619848E-1,1.4252993E0,-1.1204586E0,5.8545065E-1,1.4486549E0,3.690077E-1,-4.1224787E-1,-4.6347868E-1,2.5893816E-1,-2.9376984E-1,-3.9635563E-1,-7.66974E-3,-3.8652307E-1,-5.3528864E-2,-3.981432E-1,-1.3875377E-1,1.300248E-1,3.3749264E-1,3.4229916E-1,-1.9591494E-1,3.656154E-1,4.008065E-1,-3.5417742E-1,3.2339525E-1,-4.3930316E-1,3.0606297E-1,3.728342E-1,2.0323303E-1,-3.8608006E-1,2.3723885E-1,2.2357343E-1,-2.9742762E-1,3.8840368E-1,-2.896521E-1,3.0429465E-1,-1.7127474E-1,-3.1642136E-1,2.628478E-1],"categories":[],"categories_nodes":[],"categories_segments":[],"categories_sizes":[],"default_left":[0,0,0,0,0,0,0,0,0,0,0,0,0,0,0,0,0,0,0,0,0,0,0,0,0,0,0,0,0,0,0,0,0,0,0,0,0,0,0,0,0,0,0,0,0,0,0,0,0,0,0,0,0,0,0,0,0,0,0,0,0,0,0,0,0,0,0,0,0,0,0,0,0,0,0,0,0,0,0,0,0,0,0,0,0,0,0,0,0,0,0,0,0,0,0,0,0,0,0,0,0,0,0,0,0,0,0],"id":1,"left_children":[1,3,5,7,9,11,-1,13,-1,15,17,19,21,23,25,27,-1,-1,29,-1,31,33,35,-1,37,39,41,-1,43,45,-1,47,49,51,53,55,-1,57,-1,59,61,-1,-1,63,65,-1,-1,67,69,71,73,75,77,-1,-1,-1,-1,-1,79,81,83,85,-1,-1,87,-1,-1,89,91,93,95,97,99,101,103,-1,105,-1,-1,-1,-1,-1,-1,-1,-1,-1,-1,-1,-1,-1,-1,-1,-1,-1,-1,-1,-1,-1,-1,-1,-1,-1,-1,-1,-1,-1,-1],"loss_changes":[1.1068576E4,3.313623E2,8.391162E2,3.8234863E1,3.0046536E2,3.3731494E2,0E0,8.1264404E1,0E0,2.3835938E2,1.7874084E1,1.0254785E2,3.975851E1,4.8005005E1,2.5791016E1,6.7478226E1,0E0,0E0,4.130249E-1,0E0,4.9802246E1,2.6314262E1,1.3085224E1,0E0,2.5758656E1,1.6911072E1,1.5004344E0,0E0,5.5435944E0,8.522928E0,0E0,9.651367E0,2.6662472E1,4.4600296E0,2.225993E1,8.417028E0,0E0,1.6296005E1,0E0,9.71637E0,3.0565388E1,0E0,0E0,2.7099E0,5.8350058E0,0E0,0E0,3.3354492E0,2.008252E1,1.728388E1,1.5538315E1,4.4891357E0,7.053478E0,0E0,0E0,0E0,0E0,0E0,1.047261E1,1.7733982E1,3.6333008E0,8.845329E-3,0E0,0E0,1.9350319E1,0E0,0E0,1.586914E-1,1.2086012E1,1.7632286E1,1.3038513E1,1.0711264E1,8.548567E0,1.3474388E1,2.018064E1,0E0,8.072995E0,0E0,0E0,0E0,0E0,0E0,0E0,0E0,0E0,0E0,0E0,0E0,0E0,0E0,0E0,0E0,0E0,0E0,0E0,0E0,0E0,0E0,0E0,0E0,0E0,0E0,0E0,0E0,0E0,0E0,0E0],"parents":[2147483647,0,0,1,1,2,2,3,3,4,4,5,5,7,7,9,9,10,10,11,11,12,12,13,13,14,14,15,15,18,18,20,20,21,21,22,22,24,24,25,25,26,26,28,28,29,29,31,31,32,32,33,33,34,34,35,35,37,37,39,39,40,40,43,43,44,44,47,47,48,48,49,49,50,50,51,51,52,52,58,58,59,59,60,60,61,61,64,64,67,67,68,68,69,69,70,70,71,71,72,72,73,73,74,74,76,76],"right_children":[2,4,6,8,10,12,-1,14,-1,16,18,20,22,24,26,28,-1,-1,30,-1,32,34,36,-1,38,40,42,-1,44,46,-1,48,50,52,54,56,-1,58,-1,60,62,-1,-1,64,66,-1,-1,68,70,72,74,76,78,-1,-1,-1,-1,-1,80,82,84,86,-1,-1,88,-1,-1,90,92,94,96,98,100,102,104,-1,106,-1,-1,-1,-1,-1,-1,-1,-1,-1,-1,-1,-1,-1,-1,-1,-1,-1,-1,-1,-1,-1,-1,-1,-1,-1,-1,-1,-1,-1,-1],"split_conditions":[6.235875E-3,-1.7759554E-1,5.5081904E-1,5.5081904E-1,6.5286016E-1,1.3270329E0,-3.9732897E-1,-1.5583476E0,-4.014704E-1,5.5081904E-1,-7.5855404E-2,-2.544413E0,-3.7345E-1,-2.544413E0,2.286383E0,-2.544413E0,-3.921824E-1,3.1501484E-1,9.4482595E-1,-3.6821193E-1,1.181668E0,4.028709E0,-1.7886783E-1,-3.7866503E-1,-6.297501E-1,-6.377258E-3,6.4296985E-1,-3.6161098E-1,1.0253451E0,9.268629E-1,-4.178977E-1,8.0540687E-1,1.214201E-2,2.0237403E0,1.3625256E0,1.5324875E0,3.6664313E-1,-8.721998E-2,3.8357258E-1,-1.1046036E0,5.237716E-1,6.774031E-2,3.8562453E-1,-1.0365757E-1,1.2502573E0,-3.7405577E-1,1.3894512E-1,3.3331792E0,-8.060228E-2,1.8821931E0,-3.3759557E-2,2.2066126E0,-1.6176494E-2,3.7245268E-1,-3.2289508E-1,-3.4411666E-1,2.5540945E-1,3.5164163E-1,-8.516511E-2,-1.4212853E-1,8.328558E-1,4.0220538E-1,-3.7614208E-1,3.9236608E-1,3.0168388E-2,-3.027265E-1,2.583419E-1,1.9621104E-2,2.858297E-1,-7.571744E-3,1.2314625E0,1.1912308E0,8.4700304E-1,2.8921723E-1,6.999842E-1,-4.1224787E-1,-2.4765912E-2,2.5893816E-1,-2.9376984E-1,-3.9635563E-1,-7.66974E-3,-3.8652307E-1,-5.3528864E-2,-3.981432E-1,-1.3875377E-1,1.300248E-1,3.3749264E-1,3.4229916E-1,-1.9591494E-1,3.656154E-1,4.008065E-1,-3.5417742E-1,3.2339525E-1,-4.3930316E-1,3.0606297E-1,3.728342E-1,2.0323303E-1,-3.8608006E-1,2.3723885E-1,2.2357343E-1,-2.9742762E-1,3.8840368E-1,-2.896521E-1,3.0429465E-1,-1.7127474E-1,-3.1642136E-1,2.628478E-1],"split_indices":[14,1,12,12,8,7,0,7,0,12,14,10,6,10,27,10,0,0,8,0,7,14,31,0,8,25,13,0,7,8,0,7,22,0,7,6,0,4,0,7,22,0,0,18,1,0,0,1,4,8,19,8,22,0,0,0,0,0,4,22,24,22,0,0,8,0,0,14,8,22,32,6,1,22,32,0,20,0,0,0,0,0,0,0,0,0,0,0,0,0,0,0,0,0,0,0,0,0,0,0,0,0,0,0,0,0,0],"split_type":[0,0,0,0,0,0,0,0,0,0,0,0,0,0,0,0,0,0,0,0,0,0,0,0,0,0,0,0,0,0,0,0,0,0,0,0,0,0,0,0,0,0,0,0,0,0,0,0,0,0,0,0,0,0,0,0,0,0,0,0,0,0,0,0,0,0,0,0,0,0,0,0,0,0,0,0,0,0,0,0,0,0,0,0,0,0,0,0,0,0,0,0,0,0,0,0,0,0,0,0,0,0,0,0,0,0,0],"sum_hessian":[5.6182896E3,2.7610186E3,2.857271E3,2.4752556E3,2.8576288E2,2.765615E3,9.165608E1,4.0124313E2,2.0740125E3,1.6277167E2,1.22991196E2,2.698622E3,6.699301E1,5.2399868E1,3.4884326E2,1.2140893E2,4.1362743E1,1.4889654E0,1.21502235E2,1.0597451E1,2.6880247E3,5.4135418E1,1.2857592E1,1.5544426E1,3.6855442E1,3.450552E2,3.7880542E0,8.268806E0,1.1314013E2,1.2729691E1,1.08772545E2,2.6035322E3,8.449228E1,4.428531E1,9.850107E0,4.346358E0,8.511234E0,2.2642565E1,1.4212874E1,3.2984232E2,1.5212896E1,2.3830965E0,1.4049579E0,1.10490005E2,2.65012E0,1.0831144E1,1.8985469E0,2.2461335E3,3.5739874E2,2.2192682E1,6.22996E1,4.0222652E1,4.062657E0,5.8433046E0,4.0068026E0,2.8918395E0,1.4545184E0,4.359636E0,1.828293E1,4.1269398E1,2.885729E2,6.1682544E0,9.0446415E0,6.8767784E1,4.172222E1,1.1903148E0,1.4598053E0,2.2376934E3,8.440175E0,5.9975777E0,3.5140115E2,9.540759E0,1.2651924E1,4.166045E1,2.0639147E1,3.5674557E1,4.5480976E0,1.4608262E0,2.601831E0,5.6172757E0,1.2665654E1,2.4008358E1,1.7261042E1,2.837793E2,4.7935996E0,1.8772168E0,4.2910376E0,3.769043E1,4.0317917E0,1.4479962E2,2.0928938E3,1.1803777E0,7.259797E0,3.143451E0,2.854127E0,3.1589926E2,3.5501907E1,8.129416E0,1.4113431E0,1.1199627E1,1.4522965E0,4.043672E1,1.2237275E0,1.135102E1,9.288127E0,3.0810204E0,1.467077E0],"tree_param":{"num_deleted":"0","num_feature":"33","num_nodes":"107","size_leaf_vector":"1"}},{"base_weights":[-3.0081053E-3,-1.252242E0,1.1911441E0,-1.3502177E0,-2.7061588E-1,1.2764026E0,-3.4762523E-1,-1.0789496E0,-3.5131428E-1,4.1518265E-1,-3.4755477E-1,1.3511293E0,-3.4643125E-2,-5.444677E-2,-1.2249424E0,-3.3797795E-1,7.4600464E-1,-3.1600004E-1,1.3606317E0,-4.5546082E-1,1.104986E0,-3.2961708E-1,4.5816776E-1,-1.3192933E0,-7.6157874E-1,9.8243505E-1,-1.1081636E0,1.3907923E0,1.1949863E0,-7.7691877E-1,8.6822236E-1,-2.5275442E-1,1.2695376E0,7.322622E-1,-3.3114034E-1,-1.3348371E0,2.411007E-1,-1.1523436E0,8.486772E-1,1.3208538E0,6.292856E-1,-3.5224018E-1,2.2811364E-1,1.3934215E0,5.257919E-1,-4.503847E-1,1.212779E0,-1.0255715E0,5.9217584E-1,1.256944E0,-2.699264E-1,1.3179907E0,8.568347E-2,8.9366984E-1,-2.7870485E-1,-9.184317E-1,-1.3946753E0,3.70636E-1,-3.567112E-1,1.1846945E0,-2.2047521E-1,3.3642963E-1,9.373865E-2,9.0054333E-1,-3.7490696E-1,1.2720721E0,3.50306E-1,-3.1879845E-1,2.679427E-1,6.05001E-1,1.2803996E0,6.7610353E-1,-1.2012147E0,3.3157682E-1,-2.7921188E-1,4.22382E-2,3.4878537E-1,8.093925E-2,3.41448E-1,3.884893E-2,2.878033E-1,-3.37567E-1,-6.775416E-2,-3.529512E-1,-1.1533049E-1,2.1351947E-1,-2.488136E-1,3.2429555E-1,9.451902E-2,2.6763448E-1,-1.3198083E-2,3.271008E-1,-1.19689345E-1,-8.503221E-2,3.3682963E-1,-1.3436355E-1,3.27706E-1,3.447836E-1,-2.3800956E-1,-3.464223E-1,-4.9202077E-2],"categories":[],"categories_nodes":[],"categories_segments":[],"categories_sizes":[],"default_left":[0,0,0,0,0,0,0,0,0,0,0,0,0,0,0,0,0,0,0,0,0,0,0,0,0,0,0,0,0,0,0,0,0,0,0,0,0,0,0,0,0,0,0,0,0,0,0,0,0,0,0,0,0,0,0,0,0,0,0,0,0,0,0,0,0,0,0,0,0,0,0,0,0,0,0,0,0,0,0,0,0,0,0,0,0,0,0,0,0,0,0,0,0,0,0,0,0,0,0,0,0],"id":2,"left_children":[1,3,5,7,9,11,-1,13,-1,15,-1,17,19,21,23,-1,25,-1,27,29,31,-1,33,35,37,39,41,43,45,47,49,-1,51,53,-1,55,-1,57,59,61,63,-1,-1,65,67,-1,69,71,73,75,-1,77,-1,79,-1,81,83,85,-1,87,-1,-1,-1,89,-1,91,-1,-1,-1,93,95,97,99,-1,-1,-1,-1,-1,-1,-1,-1,-1,-1,-1,-1,-1,-1,-1,-1,-1,-1,-1,-1,-1,-1,-1,-1,-1,-1,-1,-1],"loss_changes":[7.408746E3,2.3307349E2,5.60666E2,3.1430664E1,1.706688E2,2.4090796E2,0E0,5.6249054E1,0E0,8.176813E1,0E0,5.9520996E1,6.455012E1,3.1711483E1,1.340097E1,0E0,5.2382225E1,0E0,9.918945E0,4.247728E1,1.392535E1,0E0,1.802269E1,1.0956757E1,3.7542507E1,1.163443E1,9.613913E0,3.713379E0,2.160028E1,2.769638E1,1.6250187E1,0E0,1.0809555E0,1.0206221E1,0E0,5.4709473E0,0E0,2.0255459E1,7.9784794E0,7.2673035E-1,3.1928917E1,0E0,0E0,6.225586E-2,8.7710705E0,0E0,1.4127808E1,2.1049438E1,1.762184E1,2.2991085E0,0E0,1.0826111E0,0E0,5.328352E0,0E0,9.971626E0,3.105896E0,6.132522E0,0E0,4.5427227E-1,0E0,0E0,0E0,7.7692986E0,0E0,8.803726E0,0E0,0E0,0E0,2.7258572E1,1.8701843E1,9.296497E0,1.116581E1,0E0,0E0,0E0,0E0,0E0,0E0,0E0,0E0,0E0,0E0,0E0,0E0,0E0,0E0,0E0,0E0,0E0,0E0,0E0,0E0,0E0,0E0,0E0,0E0,0E0,0E0,0E0,0E0],"parents":[2147483647,0,0,1,1,2,2,3,3,4,4,5,5,7,7,9,9,11,11,12,12,13,13,14,14,16,16,18,18,19,19,20,20,22,22,23,23,24,24,25,25,26,26,27,27,28,28,29,29,30,30,32,32,33,33,35,35,37,37,38,38,39,39,40,40,43,43,44,44,46,46,47,47,48,48,49,49,51,51,53,53,55,55,56,56,57,57,59,59,63,63,65,65,69,69,70,70,71,71,72,72],"right_children":[2,4,6,8,10,12,-1,14,-1,16,-1,18,20,22,24,-1,26,-1,28,30,32,-1,34,36,38,40,42,44,46,48,50,-1,52,54,-1,56,-1,58,60,62,64,-1,-1,66,68,-1,70,72,74,76,-1,78,-1,80,-1,82,84,86,-1,88,-1,-1,-1,90,-1,92,-1,-1,-1,94,96,98,100,-1,-1,-1,-1,-1,-1,-1,-1,-1,-1,-1,-1,-1,-1,-1,-1,-1,-1,-1,-1,-1,-1,-1,-1,-1,-1,-1,-1],"split_conditions":[6.235875E-3,9.673042E-2,5.5081904E-1,5.5081904E-1,5.5081904E-1,1.181668E0,-3.4762523E-1,-1.5583476E0,-3.5131428E-1,-2.544413E0,-3.4755477E-1,-2.544413E0,-3.242504E-1,-2.544413E0,-4.0602993E-2,-3.3797795E-1,1.0253451E0,-3.1600004E-1,7.580833E-1,2.0237403E0,-5.153416E-2,-3.2961708E-1,-9.953675E-2,6.4935107E0,5.2499E-1,-1.0629565E-1,9.887225E-1,3.3331792E0,-1.2149856E-1,4.028709E0,1.3270329E0,-2.5275442E-1,1.3665985E0,2.3671057E-2,-3.3114034E-1,-1.1046036E0,2.411007E-1,-3.7341565E-1,2.9192832E0,1.2207116E-1,1.1082239E0,-3.5224018E-1,2.2811364E-1,1.9621104E-2,-4.3408398E-2,-4.503847E-1,1.9621104E-2,-1.215723E-1,1.3625256E0,-1.2464005E0,-2.699264E-1,-1.3653074E-2,8.568347E-2,-1.1564694E-1,-2.7870485E-1,-1.4212853E-1,4.641696E-1,1.6452327E-1,-3.567112E-1,8.324628E-1,-2.2047521E-1,3.3642963E-1,9.373865E-2,-1.01748906E-1,-3.7490696E-1,6.0243917E-1,3.50306E-1,-3.1879845E-1,2.679427E-1,7.4158245E-1,-9.361925E-2,7.3414433E-1,2.9192832E0,3.3157682E-1,-2.7921188E-1,4.22382E-2,3.4878537E-1,8.093925E-2,3.41448E-1,3.884893E-2,2.878033E-1,-3.37567E-1,-6.775416E-2,-3.529512E-1,-1.1533049E-1,2.1351947E-1,-2.488136E-1,3.2429555E-1,9.451902E-2,2.6763448E-1,-1.3198083E-2,3.271008E-1,-1.19689345E-1,-8.503221E-2,3.3682963E-1,-1.3436355E-1,3.27706E-1,3.447836E-1,-2.3800956E-1,-3.464223E-1,-4.9202077E-2],"split_indices":[14,1,9,9,9,7,0,7,0,10,0,10,6,10,25,0,7,0,7,0,4,0,11,27,6,18,6,1,11,14,7,0,7,18,0,7,0,7,16,5,32,0,0,14,20,0,14,11,7,6,0,4,0,11,0,22,22,22,0,7,0,0,0,11,0,7,0,0,0,6,22,32,16,0,0,0,0,0,0,0,0,0,0,0,0,0,0,0,0,0,0,0,0,0,0,0,0,0,0,0,0],"split_type":[0,0,0,0,0,0,0,0,0,0,0,0,0,0,0,0,0,0,0,0,0,0,0,0,0,0,0,0,0,0,0,0,0,0,0,0,0,0,0,0,0,0,0,0,0,0,0,0,0,0,0,0,0,0,0,0,0,0,0,0,0,0,0,0,0,0,0,0,0,0,0,0,0,0,0,0,0,0,0,0,0,0,0,0,0,0,0,0,0,0,0,0,0,0,0,0,0,0,0,0,0],"sum_hessian":[4.9643945E3,2.426217E3,2.5381777E3,2.2056924E3,2.2052472E2,2.457524E3,8.065383E1,3.7551727E2,1.830175E3,1.3714655E2,8.337818E1,2.324975E3,1.3254887E2,4.7008526E1,3.2850873E2,2.1140022E1,1.1600652E2,7.9395547E0,2.3170354E3,9.7241844E1,3.5307034E1,1.3109832E1,3.3898693E1,2.713989E2,5.7109837E1,1.0330406E2,1.27024555E1,1.9538785E3,3.6315692E2,7.857329E1,1.866855E1,2.1763852E0,3.3130646E1,2.9892042E1,4.0066524E0,2.699768E2,1.422082E0,4.6186108E1,1.0923729E1,5.135295E1,5.1951115E1,1.1320021E1,1.3824345E0,1.9473484E3,6.5301065E0,1.5518562E0,3.6160507E2,6.670868E1,1.1864609E1,1.5858594E1,2.8099573E0,3.1083529E1,2.0471184E0,2.7964527E1,1.9275141E0,3.59757E1,2.3400111E2,6.999801E0,3.9186306E1,9.411736E0,1.5119933E0,4.962576E1,1.7271895E0,4.659159E1,5.359523E0,1.2755483E2,1.8197936E3,1.2084057E0,5.321701E0,3.719958E1,3.244055E2,5.974726E0,6.0733955E1,8.45612E0,3.408489E0,2.0378337E0,1.3820761E1,1.7824683E0,2.930106E1,7.6470017E0,2.0317526E1,2.0929653E1,1.5046045E1,2.2928058E2,4.7205415E0,5.4467087E0,1.5530927E0,7.7261105E0,1.6856251E0,3.943651E1,7.155084E0,1.2520933E2,2.3455024E0,1.6602646E1,2.0596935E1,5.065703E0,3.1933978E2,4.2796955E0,1.6950309E0,5.098937E1,9.744587E0],"tree_param":{"num_deleted":"0","num_feature":"33","num_nodes":"101","size_leaf_vector":"1"}},{"base_weights":[-1.8573501E-4,-1.1346432E0,1.0798668E0,-1.234766E0,-3.0342734E-1,1.1533366E0,-3.1713217E-1,-9.8184437E-1,-3.2123175E-1,4.606555E-1,-1.1237977E0,1.2000005E0,-6.282651E-1,-8.609501E-2,-1.122983E0,9.515345E-1,-3.1016228E-1,-4.8184726E-1,-3.3379826E-1,1.2552831E0,8.6639845E-1,5.917153E-2,-1.1609654E0,-5.060937E-1,1.0655539E0,-1.1762837E0,-4.0336558E-1,1.0780678E0,-4.772166E-1,-3.206063E-1,6.9181967E-1,1.0556401E0,1.2707945E0,2.5228176E-1,1.0276271E0,6.9609374E-1,-6.0865957E-1,-3.208756E-1,2.1683145E-1,2.2791286E-1,-7.358167E-1,3.007854E-1,5.2497935E-2,-1.1907853E0,2.148388E-1,6.090825E-1,-3.0347937E-1,3.2048163E-1,7.4422556E-1,2.279877E-1,-2.8927568E-1,1.0603223E0,-2.4388425E-1,1.253506E0,2.879789E-1,3.2611836E-2,3.1794533E-1,4.1829228E-1,-4.2476556E-1,-4.359368E-1,1.0813382E0,-2.611478E-1,1.1225522E0,-3.2842907E-1,3.97858E-1,-2.8820944E-1,-3.2619795E-1,-7.052636E-1,-1.2672939E0,8.8802993E-1,-1.7702243E-1,-1.573335E-1,1.2043406E0,-7.3258188E-3,3.2132155E-1,3.1534648E-1,9.343876E-2,-4.782345E-1,5.922737E-1,5.69918E-1,-2.9788673E-1,7.682871E-1,-4.6612412E-1,-2.753568E-1,1.0977508E0,3.147611E-1,6.6521615E-2,-2.0510389E-1,2.3486826E-1,-2.9772925E-1,4.3184336E-2,-3.0846003E-1,-2.1509835E-2,-3.2157066E-1,-7.580332E-2,7.6471955E-2,2.7820548E-1,1.823911E-1,-4.3138045E-1,3.0889884E-1,9.732727E-2,2.1205337E-1,-3.3019596E-1,-2.1713956E-1,1.7427796E-1,3.1475893E-1,-5.047196E-2,2.7862108E-1,-2.6941118E-1],"categories":[],"categories_nodes":[],"categories_segments":[],"categories_sizes":[],"default_left":[0,0,0,0,0,0,0,0,0,0,0,0,0,0,0,0,0,0,0,0,0,0,0,0,0,0,0,0,0,0,0,0,0,0,0,0,0,0,0,0,0,0,0,0,0,0,0,0,0,0,0,0,0,0,0,0,0,0,0,0,0,0,0,0,0,0,0,0,0,0,0,0,0,0,0,0,0,0,0,0,0,0,0,0,0,0,0,0,0,0,0,0,0,0,0,0,0,0,0,0,0,0,0,0,0,0,0,0,0],"id":3,"left_children":[1,3,5,7,9,11,-1,13,-1,15,17,19,21,23,25,27,-1,29,-1,31,33,35,37,39,41,43,45,47,49,-1,51,53,55,57,59,61,63,-1,-1,-1,65,-1,-1,67,-1,69,-1,-1,71,-1,-1,73,-1,75,77,-1,-1,79,-1,81,83,-1,85,-1,87,89,-1,91,93,95,-1,97,99,-1,-1,-1,-1,-1,101,103,-1,105,-1,-1,107,-1,-1,-1,-1,-1,-1,-1,-1,-1,-1,-1,-1,-1,-1,-1,-1,-1,-1,-1,-1,-1,-1,-1,-1],"loss_changes":[5.1742397E3,1.7103223E2,3.7471704E2,2.2054688E1,1.401383E2,1.7519336E2,0E0,3.8893707E1,0E0,9.808614E1,1.3972733E1,3.662744E1,1.9920563E1,2.1368347E1,9.741547E0,1.689695E1,0E0,2.7427303E1,0E0,4.0842285E0,2.8844894E1,1.0895714E1,8.716412E0,1.1168697E1,1.1399031E0,8.328217E0,1.7061266E1,4.7323074E0,8.673021E0,0E0,8.471118E0,1.9722672E1,1.657959E0,2.094064E1,1.8747574E1,1.0873237E1,9.429944E0,0E0,0E0,0E0,6.8292027E0,0E0,0E0,8.248962E0,0E0,4.122663E0,0E0,0E0,1.4318962E1,0E0,0E0,2.584999E0,0E0,2.5526428E-1,2.0149548E1,0E0,0E0,1.4923156E1,0E0,1.6816929E1,9.25354E0,0E0,9.483576E-1,0E0,4.6888533E0,7.328605E0,0E0,1.1598236E1,3.4793396E0,7.4455357E-1,0E0,1.8496761E1,9.63974E-2,0E0,0E0,0E0,0E0,0E0,1.3708207E1,1.0487146E1,0E0,2.901662E0,0E0,0E0,9.332367E0,0E0,0E0,0E0,0E0,0E0,0E0,0E0,0E0,0E0,0E0,0E0,0E0,0E0,0E0,0E0,0E0,0E0,0E0,0E0,0E0,0E0,0E0,0E0,0E0],"parents":[2147483647,0,0,1,1,2,2,3,3,4,4,5,5,7,7,9,9,10,10,11,11,12,12,13,13,14,14,15,15,17,17,19,19,20,20,21,21,22,22,23,23,24,24,25,25,26,26,27,27,28,28,30,30,31,31,32,32,33,33,34,34,35,35,36,36,40,40,43,43,45,45,48,48,51,51,53,53,54,54,57,57,59,59,60,60,62,62,64,64,65,65,67,67,68,68,69,69,71,71,72,72,78,78,79,79,81,81,84,84],"right_children":[2,4,6,8,10,12,-1,14,-1,16,18,20,22,24,26,28,-1,30,-1,32,34,36,38,40,42,44,46,48,50,-1,52,54,56,58,60,62,64,-1,-1,-1,66,-1,-1,68,-1,70,-1,-1,72,-1,-1,74,-1,76,78,-1,-1,80,-1,82,84,-1,86,-1,88,90,-1,92,94,96,-1,98,100,-1,-1,-1,-1,-1,102,104,-1,106,-1,-1,108,-1,-1,-1,-1,-1,-1,-1,-1,-1,-1,-1,-1,-1,-1,-1,-1,-1,-1,-1,-1,-1,-1,-1,-1],"split_conditions":[6.235875E-3,-1.7759554E-1,5.5081904E-1,5.5081904E-1,4.07967E-1,1.3270329E0,-3.1713217E-1,-1.5583476E0,-3.2123175E-1,5.5081904E-1,5.456121E-1,1.3920581E0,1.3625256E0,-6.2662274E-1,-3.148681E-2,1.5979075E0,-3.1016228E-1,-3.7820138E-2,-3.3379826E-1,1.9621104E-2,1.067692E-1,3.0663127E-1,1.5324875E0,-8.721998E-2,8.3864766E-1,6.4935107E0,9.971578E-2,-4.8241213E-1,-1.3927545E-2,-3.206063E-1,1.9513387E-2,1.9294252E-1,-1.21867254E-1,8.688655E-2,-3.4869235E-2,1.7083337E0,-9.532615E-2,-3.208756E-1,2.1683145E-1,2.2791286E-1,-1.1158072E-1,3.007854E-1,5.2497935E-2,-1.1046036E0,2.148388E-1,5.638292E-1,-3.0347937E-1,3.2048163E-1,1.2502573E0,2.279877E-1,-2.8927568E-1,2.930885E-2,-2.4388425E-1,1.7450837E0,-9.410824E-2,3.2611836E-2,3.1794533E-1,1.18962E0,-4.2476556E-1,2.428616E-1,-1.2176894E-1,-2.611478E-1,-1.1093349E-1,-3.2842907E-1,-2.0750515E-2,-8.516511E-2,-3.2619795E-1,-9.409195E-2,1.0750245E0,1.2184476E0,-1.7702243E-1,-1.2922494E0,3.742243E-1,-7.3258188E-3,3.2132155E-1,3.1534648E-1,9.343876E-2,-4.782345E-1,8.244139E-1,-8.018748E-2,-2.9788673E-1,-1.2785515E0,-4.6612412E-1,-2.753568E-1,3.1912699E0,3.147611E-1,6.6521615E-2,-2.0510389E-1,2.3486826E-1,-2.9772925E-1,4.3184336E-2,-3.0846003E-1,-2.1509835E-2,-3.2157066E-1,-7.580332E-2,7.6471955E-2,2.7820548E-1,1.823911E-1,-4.3138045E-1,3.0889884E-1,9.732727E-2,2.1205337E-1,-3.3019596E-1,-2.1713956E-1,1.7427796E-1,3.1475893E-1,-5.047196E-2,2.7862108E-1,-2.6941118E-1],"split_indices":[14,1,9,9,8,7,0,7,0,9,7,8,7,8,25,32,0,4,0,14,14,1,6,4,32,27,4,8,2,0,18,8,11,28,28,29,18,0,0,0,11,0,0,7,0,8,0,0,1,0,0,31,0,29,5,0,0,7,0,32,11,0,18,0,20,4,0,23,23,6,0,7,8,0,0,0,0,0,7,4,0,6,0,0,17,0,0,0,0,0,0,0,0,0,0,0,0,0,0,0,0,0,0,0,0,0,0,0,0],"split_type":[0,0,0,0,0,0,0,0,0,0,0,0,0,0,0,0,0,0,0,0,0,0,0,0,0,0,0,0,0,0,0,0,0,0,0,0,0,0,0,0,0,0,0,0,0,0,0,0,0,0,0,0,0,0,0,0,0,0,0,0,0,0,0,0,0,0,0,0,0,0,0,0,0,0,0,0,0,0,0,0,0,0,0,0,0,0,0,0,0,0,0,0,0,0,0,0,0,0,0,0,0,0,0,0,0,0,0,0,0],"sum_hessian":[4.2209263E3,2.0585896E3,2.1623364E3,1.8368491E3,2.217405E2,2.0972332E3,6.510334E1,3.0740826E2,1.5294409E3,1.1503592E2,1.0670457E2,2.0440223E3,5.3210773E1,4.2062775E1,2.653455E2,8.961882E1,2.5417097E1,2.7245813E1,7.9458755E1,1.7510806E3,2.9294186E2,2.3619421E1,2.9591354E1,3.1232897E1,1.082988E1,2.4645631E2,1.8889177E1,8.2553185E1,7.06564E0,1.614225E1,1.1103563E1,1.312216E2,1.6198589E3,6.144894E1,2.3149292E2,1.2067815E1,1.1551606E1,2.8251755E1,1.3395983E0,3.9411912E0,2.7291704E1,8.979568E0,1.8503119E0,2.451251E2,1.3312016E0,8.509121E0,1.0380055E1,4.949155E1,3.3061634E1,2.2095928E0,4.856047E0,9.391924E0,1.7116396E0,1.0382713E2,2.7394476E1,1.5157212E0,1.6183431E3,5.7355095E1,4.0938435E0,7.9428644E0,2.2355006E2,2.0895197E0,9.978295E0,6.6136165E0,4.9379897E0,1.6118208E1,1.1173497E1,3.4759644E1,2.1036546E2,7.290882E0,1.2182391E0,1.1394015E1,2.1667618E1,1.7560655E0,7.6358585E0,1.0247545E2,1.3516866E0,2.6853433E0,2.4709131E1,5.300838E1,4.3467145E0,4.560621E0,3.3822434E0,1.1749891E0,2.2237508E2,8.201242E0,1.7770528E0,1.3612732E0,3.5767167E0,4.9130235E0,1.1205184E1,1.8216925E1,1.6542719E1,2.0597435E2,4.391109E0,2.6887097E0,4.602172E0,7.619523E0,3.7744925E0,2.0370443E1,1.2971742E0,2.2284414E1,2.4247177E0,3.8328493E0,4.9175533E1,2.8309076E0,1.7297133E0,2.2116154E2,1.213535E0],"tree_param":{"num_deleted":"0","num_feature":"33","num_nodes":"109","size_leaf_vector":"1"}},{"base_weights":[3.1683387E-4,-1.0513952E0,9.9020535E-1,-5.147001E-1,-3.0160007E-1,1.0587554E0,-2.9702413E-1,-8.4072906E-1,3.5474202E-1,1.1223018E0,-1.5185836E-1,-2.7834374E-1,-1.0391011E0,7.9715544E-1,-1.1142726E0,-2.9245514E-1,1.1332077E0,-4.7016805E-1,8.070583E-1,-6.456384E-1,7.422823E-1,-1.0797168E0,1.2460924E0,-2.6199886E-1,9.497209E-1,2.3204048E-1,-3.1879997E-1,1.1834321E0,8.751382E-1,-8.800224E-2,-2.944913E-1,-2.2047557E-1,1.0107535E0,-3.8860527E-1,-3.213723E-1,-2.3054929E-1,9.927494E-1,-3.0190372E-1,-5.2598363E-1,4.4847438E-1,8.770847E-2,1.0991727E0,5.535783E-1,1.1847173E0,-2.4236137E-2,1.05957344E-1,9.5914185E-1,2.557191E-1,-1.1523336E0,2.6777962E-1,1.1381462E0,-7.050579E-1,1.9702335E-1,1.1337143E0,1.2753697E-1,3.656163E-1,-3.0319932E-1,1.1135556E0,6.546472E-2,-3.7738127E-1,9.592741E-1,1.0310079E0,2.9906696E-1,-4.8250026E-1,1.0354813E0,-3.5672918E-1,1.0273477E0,-3.176381E-1,5.159793E-1,-3.5252556E-1,1.6680206E-1,-2.1329868E-1,2.3099904E-1,2.954612E-1,6.813011E-2,8.410626E-3,-2.6249045E-1,-2.4827826E-1,1.4889485E-1,8.305742E-2,2.9899028E-1,2.610159E-1,-2.4108851E-1,-2.5584576E-1,1.9427682E-1,2.82412E-1,4.5079466E-2,2.6426846E-1,-3.265429E-2,2.9129168E-1,9.6059516E-2,5.9296235E-2,-4.0863442E-1,3.1723076E-1,-1.5159601E-2,2.6503822E-1,-2.89278E-1,-2.9129624E-1,2.609612E-1,-1.0180876E-1,2.2340389E-1],"categories":[],"categories_nodes":[],"categories_segments":[],"categories_sizes":[],"default_left":[0,0,0,0,0,0,0,0,0,0,0,0,0,0,0,0,0,0,0,0,0,0,0,0,0,0,0,0,0,0,0,0,0,0,0,0,0,0,0,0,0,0,0,0,0,0,0,0,0,0,0,0,0,0,0,0,0,0,0,0,0,0,0,0,0,0,0,0,0,0,0,0,0,0,0,0,0,0,0,0,0,0,0,0,0,0,0,0,0,0,0,0,0,0,0,0,0,0,0,0,0],"id":4,"left_children":[1,3,5,7,-1,9,-1,11,13,15,17,19,21,23,25,-1,27,29,31,33,35,37,39,-1,41,-1,-1,43,45,47,-1,-1,49,51,-1,-1,53,-1,55,-1,-1,57,59,61,-1,63,65,67,69,71,73,75,77,79,81,83,-1,85,-1,-1,87,89,-1,91,93,95,97,-1,99,-1,-1,-1,-1,-1,-1,-1,-1,-1,-1,-1,-1,-1,-1,-1,-1,-1,-1,-1,-1,-1,-1,-1,-1,-1,-1,-1,-1,-1,-1,-1,-1],"loss_changes":[3.6710066E3,1.4160913E2,2.7249805E2,1.0939582E2,0E0,1.3568921E2,0E0,3.0971176E1,6.956185E1,4.316748E1,2.7464684E1,2.83815E1,2.0537308E1,2.402023E1,9.359327E0,0E0,2.0563477E1,1.8088112E1,8.626272E0,8.590178E0,9.321222E0,1.3791183E1,1.369215E0,0E0,3.8951874E0,0E0,0E0,2.4056396E0,1.7687744E1,1.666703E1,0E0,0E0,1.6383076E0,7.7118278E0,0E0,0E0,2.0516224E0,0E0,2.4933723E1,0E0,0E0,3.6134338E-1,2.0575077E1,1.2358398E0,0E0,1.5941929E1,2.2632187E1,1.4418381E1,6.149995E0,3.9605992E0,3.2917404E-1,6.8498526E0,7.7617803E0,3.68845E-1,4.6590905E0,1.11808405E1,0E0,5.921936E-1,0E0,0E0,2.2387962E0,8.615044E0,0E0,1.5286343E1,2.9586878E0,1.5932655E1,9.756775E0,0E0,1.0931498E1,0E0,0E0,0E0,0E0,0E0,0E0,0E0,0E0,0E0,0E0,0E0,0E0,0E0,0E0,0E0,0E0,0E0,0E0,0E0,0E0,0E0,0E0,0E0,0E0,0E0,0E0,0E0,0E0,0E0,0E0,0E0,0E0],"parents":[2147483647,0,0,1,1,2,2,3,3,5,5,7,7,8,8,9,9,10,10,11,11,12,12,13,13,14,14,16,16,17,17,18,18,19,19,20,20,21,21,22,22,24,24,27,27,28,28,29,29,32,32,33,33,36,36,38,38,41,41,42,42,43,43,45,45,46,46,47,47,48,48,49,49,50,50,51,51,52,52,53,53,54,54,55,55,57,57,60,60,61,61,63,63,64,64,65,65,66,66,68,68],"right_children":[2,4,6,8,-1,10,-1,12,14,16,18,20,22,24,26,-1,28,30,32,34,36,38,40,-1,42,-1,-1,44,46,48,-1,-1,50,52,-1,-1,54,-1,56,-1,-1,58,60,62,-1,64,66,68,70,72,74,76,78,80,82,84,-1,86,-1,-1,88,90,-1,92,94,96,98,-1,100,-1,-1,-1,-1,-1,-1,-1,-1,-1,-1,-1,-1,-1,-1,-1,-1,-1,-1,-1,-1,-1,-1,-1,-1,-1,-1,-1,-1,-1,-1,-1,-1],"split_conditions":[6.235875E-3,5.5081904E-1,5.5081904E-1,9.673042E-2,-3.0160007E-1,1.2381073E0,-2.9702413E-1,-1.1046036E0,9.4482595E-1,-2.544413E0,-3.242504E-1,-6.2662274E-1,2.286383E0,-2.544413E0,-7.5855404E-2,-2.9245514E-1,1.2867124E0,1.3625256E0,-3.593119E-2,-8.299218E-2,-2.544413E0,1.0680955E-1,4.9188817E-1,-2.6199886E-1,-1.950653E-1,2.3204048E-1,-3.1879997E-1,7.366434E-1,1.9621104E-2,-3.948435E-2,-2.944913E-1,-2.2047557E-1,-1.7886783E-1,-8.516511E-2,-3.213723E-1,-2.3054929E-1,-9.825925E-1,-3.0190372E-1,5.638292E-1,4.4847438E-1,8.770847E-2,3.1194708E-1,-9.410824E-2,-4.7667194E-2,-2.4236137E-2,-1.0909181E-2,-3.4869235E-2,1.6082942E0,8.176151E0,1.5324875E0,-3.7227616E-2,-8.692962E-2,-2.544413E0,-1.16742425E-1,-1.2872739E-1,1.6024867E-3,-3.0319932E-1,3.1220201E-2,6.546472E-2,-3.7738127E-1,4.6600404E0,-2.7150398E-1,2.9906696E-1,-1.1789151E0,1.2207116E-1,8.8327155E-2,-1.2149856E-1,-3.176381E-1,4.5972118E-1,-3.5252556E-1,1.6680206E-1,-2.1329868E-1,2.3099904E-1,2.954612E-1,6.813011E-2,8.410626E-3,-2.6249045E-1,-2.4827826E-1,1.4889485E-1,8.305742E-2,2.9899028E-1,2.610159E-1,-2.4108851E-1,-2.5584576E-1,1.9427682E-1,2.82412E-1,4.5079466E-2,2.6426846E-1,-3.265429E-2,2.9129168E-1,9.6059516E-2,5.9296235E-2,-4.0863442E-1,3.1723076E-1,-1.5159601E-2,2.6503822E-1,-2.89278E-1,-2.9129624E-1,2.609612E-1,-1.0180876E-1,2.2340389E-1],"split_indices":[14,9,9,1,0,7,0,7,8,10,6,8,27,10,14,0,8,7,4,4,10,24,7,0,8,0,0,23,14,25,0,0,31,4,0,0,6,0,8,0,0,13,5,28,0,2,28,8,13,6,11,4,10,11,5,4,0,5,0,0,1,7,0,6,5,14,11,0,14,0,0,0,0,0,0,0,0,0,0,0,0,0,0,0,0,0,0,0,0,0,0,0,0,0,0,0,0,0,0,0,0],"split_type":[0,0,0,0,0,0,0,0,0,0,0,0,0,0,0,0,0,0,0,0,0,0,0,0,0,0,0,0,0,0,0,0,0,0,0,0,0,0,0,0,0,0,0,0,0,0,0,0,0,0,0,0,0,0,0,0,0,0,0,0,0,0,0,0,0,0,0,0,0,0,0,0,0,0,0,0,0,0,0,0,0,0,0,0,0,0,0,0,0,0,0,0,0,0,0,0,0,0,0,0,0],"sum_hessian":[3.5241602E3,1.7086908E3,1.8154694E3,3.8387372E2,1.324817E3,1.7605787E3,5.4890575E1,2.7920767E2,1.04666046E2,1.6728423E3,8.77364E1,7.343172E1,2.0577597E2,8.0791855E1,2.3874195E1,7.4184093E0,1.665424E3,6.625344E1,2.1482958E1,5.426917E1,1.9162544E1,2.0270079E2,3.0751724E0,5.721843E0,7.5070015E1,1.3954922E0,2.2478703E1,1.3911066E3,2.743174E2,4.3753593E1,2.249985E1,1.9537467E0,1.9529211E1,3.9863163E1,1.4406009E1,2.1555996E0,1.7006945E1,1.6370769E2,3.8993114E1,1.2850686E0,1.7901039E0,5.3217915E1,2.1852097E1,1.3897863E3,1.3202358E0,2.7231659E1,2.4708575E2,3.364713E1,1.01064625E1,3.3124554E0,1.6216755E1,2.5746658E1,1.4116503E1,1.4357427E1,2.6495173E0,1.7170532E1,2.1822582E1,5.199487E1,1.2230471E0,3.1438255E0,1.8708271E1,1.03445724E2,1.2863406E3,1.6969576E1,1.0262082E1,1.1967649E1,2.351181E2,4.3361764E0,2.9310953E1,9.049476E0,1.0569866E0,1.1122665E0,2.200189E0,1.5089689E1,1.1270663E0,8.482233E0,1.7264427E1,3.167171E0,1.0949331E1,1.4914134E0,1.2866014E1,1.464243E0,1.1852742E0,3.5843725E0,1.3586159E1,5.090659E1,1.0882779E0,1.7195381E1,1.5128902E0,8.5010544E1,1.8435177E1,1.0933478E1,6.0360975E0,8.330317E0,1.9317654E0,4.2028947E0,7.764755E0,1.2358829E0,2.3388223E2,8.486202E0,2.0824753E1],"tree_param":{"num_deleted":"0","num_feature":"33","num_nodes":"101","size_leaf_vector":"1"}},{"base_weights":[3.9633765E-6,-9.949673E-1,9.285929E-1,-4.7618815E-1,-2.8806633E-1,9.940072E-1,-2.8276137E-1,-1.0410178E0,-4.8308905E-2,1.0674605E0,8.581442E-3,-1.114864E0,-6.614126E-1,-7.508119E-1,3.398732E-1,-2.679503E-1,1.0778513E0,2.319157E-1,-9.75172E-1,-7.496978E-1,-2.8997463E-1,-2.6335854E-2,-2.7371565E-1,-8.5806674E-1,1.1645825E0,6.441285E-1,-1.070879E0,1.1245904E0,8.384475E-1,6.3953304E-1,-2.1184172E-1,1.7493951E-1,-2.7954236E-1,-2.725253E-1,2.67059E-1,3.9749283E-1,-2.4922799E-1,5.8155403E-2,-2.840682E-1,1.1363675E-1,3.5502863E-1,-1.9415048E-1,8.638937E-1,2.0771626E-1,-3.078032E-1,1.1288112E0,5.594494E-1,3.22939E-1,9.8460203E-1,-2.3732863E-1,7.50781E-1,2.3479891E-1,-3.3529228E-1,-2.0296383E-1,8.3288074E-1,-4.199174E-1,7.094902E-1,2.8984508E-1,-2.970502E-1,9.6749413E-1,-9.466297E-2,1.1315709E0,2.3899801E-1,-3.4270304E-1,9.626447E-1,4.334403E-1,-3.8170254E-1,5.4209495E-1,1.0703182E0,8.974475E-1,-3.5827916E-2,-1.2839308E-1,8.584512E-1,3.231472E-1,3.997994E-2,1.6964525E-1,-1.9693185E-1,2.6648337E-1,-1.6981481E-1,1.5677401E-1,-2.5592303E-1,2.885281E-1,1.6977027E-1,1.8582582E-1,-2.7410164E-1,1.3658376E-1,2.836483E-1,2.1837313E-1,-1.4605106E-1,2.617971E-1,8.93825E-2,-3.1410426E-2,1.8459839E-1,1.8570404E-1,-5.9592533E-1,-8.292275E-2,2.72487E-1,2.5865635E-1,5.0969534E-2,1.3286498E-1,-2.687339E-1,5.793261E-2,-2.9790482E-1,2.7387205E-1,-1.7878172E-1],"categories":[],"categories_nodes":[],"categories_segments":[],"categories_sizes":[],"default_left":[0,0,0,0,0,0,0,0,0,0,0,0,0,0,0,0,0,0,0,0,0,0,0,0,0,0,0,0,0,0,0,0,0,0,0,0,0,0,0,0,0,0,0,0,0,0,0,0,0,0,0,0,0,0,0,0,0,0,0,0,0,0,0,0,0,0,0,0,0,0,0,0,0,0,0,0,0,0,0,0,0,0,0,0,0,0,0,0,0,0,0,0,0,0,0,0,0,0,0,0,0,0,0,0,0],"id":5,"left_children":[1,3,5,7,-1,9,-1,11,13,15,17,19,21,23,25,-1,27,29,31,33,-1,35,-1,37,39,41,43,45,47,49,51,-1,-1,-1,-1,53,-1,55,-1,-1,-1,57,59,-1,-1,61,63,65,67,-1,69,71,-1,-1,73,75,77,79,-1,81,83,85,87,-1,89,91,-1,93,95,97,99,101,103,-1,-1,-1,-1,-1,-1,-1,-1,-1,-1,-1,-1,-1,-1,-1,-1,-1,-1,-1,-1,-1,-1,-1,-1,-1,-1,-1,-1,-1,-1,-1,-1],"loss_changes":[2.6775151E3,1.1361328E2,2.030846E2,7.90266E1,0E0,1.0519141E2,0E0,3.2146454E0,5.130915E1,3.1220947E1,2.2598444E1,1.0473175E0,6.968045E0,1.47518425E1,5.2743984E1,0E0,1.4123901E1,1.5292778E1,5.340893E0,1.0833531E1,0E0,5.059195E0,0E0,1.6371803E1,7.552719E-2,1.8660793E1,7.6976833E0,2.0489502E0,1.6549545E1,8.476805E0,2.093021E1,0E0,0E0,0E0,0E0,5.20701E0,0E0,5.23372E0,0E0,0E0,0E0,1.0768736E1,8.007961E0,0E0,0E0,2.4659424E0,9.345651E0,1.1073791E1,6.0171356E0,0E0,4.8325996E0,6.9367876E0,0E0,0E0,1.9033852E0,4.481827E0,4.229454E0,7.4533515E0,0E0,3.0931473E0,8.1064205E0,1.3446045E0,2.972082E0,0E0,9.207344E-2,8.420859E0,0E0,1.953617E1,4.343384E0,3.129404E0,4.992709E0,7.902018E0,4.9692287E0,0E0,0E0,0E0,0E0,0E0,0E0,0E0,0E0,0E0,0E0,0E0,0E0,0E0,0E0,0E0,0E0,0E0,0E0,0E0,0E0,0E0,0E0,0E0,0E0,0E0,0E0,0E0,0E0,0E0,0E0,0E0,0E0],"parents":[2147483647,0,0,1,1,2,2,3,3,5,5,7,7,8,8,9,9,10,10,11,11,12,12,13,13,14,14,16,16,17,17,18,18,19,19,21,21,23,23,24,24,25,25,26,26,27,27,28,28,29,29,30,30,35,35,37,37,41,41,42,42,45,45,46,46,47,47,48,48,50,50,51,51,54,54,55,55,56,56,57,57,59,59,60,60,61,61,62,62,64,64,65,65,67,67,68,68,69,69,70,70,71,71,72,72],"right_children":[2,4,6,8,-1,10,-1,12,14,16,18,20,22,24,26,-1,28,30,32,34,-1,36,-1,38,40,42,44,46,48,50,52,-1,-1,-1,-1,54,-1,56,-1,-1,-1,58,60,-1,-1,62,64,66,68,-1,70,72,-1,-1,74,76,78,80,-1,82,84,86,88,-1,90,92,-1,94,96,98,100,102,104,-1,-1,-1,-1,-1,-1,-1,-1,-1,-1,-1,-1,-1,-1,-1,-1,-1,-1,-1,-1,-1,-1,-1,-1,-1,-1,-1,-1,-1,-1,-1,-1],"split_conditions":[6.235875E-3,5.5081904E-1,5.5081904E-1,-2.544413E0,-2.8806633E-1,1.181668E0,-2.8276137E-1,1.5591851E-1,-9.764963E-2,-2.544413E0,1.3665985E0,-8.692962E-2,5.638292E-1,5.6959662E0,9.4482595E-1,-2.679503E-1,1.2743616E0,3.5588384E-1,-6.019385E-1,-8.696153E-2,-2.8997463E-1,6.098191E-1,-2.7371565E-1,-1.5583476E0,5.242262E-1,-6.297501E-1,-7.5855404E-2,3.3331792E0,1.067692E-1,-5.785193E-2,9.398022E-1,1.7493951E-1,-2.7954236E-1,-2.725253E-1,2.67059E-1,6.9808257E-3,-2.4922799E-1,-1.6813112E0,-2.840682E-1,1.1363675E-1,3.5502863E-1,-8.443123E-2,1.5979075E0,2.0771626E-1,-3.078032E-1,1.4932089E0,2.858297E-1,8.688655E-2,-4.085492E-2,-2.3732863E-1,-5.6891248E-2,-1.7886783E-1,-3.3529228E-1,-2.0296383E-1,-3.1131504E-2,-1.0817709E-1,-9.953675E-2,-6.075122E-1,-2.970502E-1,-4.0058306E-1,-1.2698483E0,-6.1719354E-2,4.677667E-3,-3.4270304E-1,1.9696794E-1,-2.0296304E-2,-3.8170254E-1,-7.84462E-2,-1.21400245E-1,-1.0927042E-1,-4.014453E-2,-9.426825E-2,1.7083337E0,3.231472E-1,3.997994E-2,1.6964525E-1,-1.9693185E-1,2.6648337E-1,-1.6981481E-1,1.5677401E-1,-2.5592303E-1,2.885281E-1,1.6977027E-1,1.8582582E-1,-2.7410164E-1,1.3658376E-1,2.836483E-1,2.1837313E-1,-1.4605106E-1,2.617971E-1,8.93825E-2,-3.1410426E-2,1.8459839E-1,1.8570404E-1,-5.9592533E-1,-8.292275E-2,2.72487E-1,2.5865635E-1,5.0969534E-2,1.3286498E-1,-2.687339E-1,5.793261E-2,-2.9790482E-1,2.7387205E-1,-1.7878172E-1],"split_indices":[14,12,12,10,0,7,0,22,23,10,7,4,8,21,8,0,8,1,8,4,0,22,0,7,13,8,14,1,14,4,32,0,0,0,0,4,0,7,0,0,0,4,32,0,0,32,8,28,25,0,11,31,0,0,25,18,11,7,0,8,7,28,8,0,4,4,0,24,11,18,25,23,29,0,0,0,0,0,0,0,0,0,0,0,0,0,0,0,0,0,0,0,0,0,0,0,0,0,0,0,0,0,0,0,0],"split_type":[0,0,0,0,0,0,0,0,0,0,0,0,0,0,0,0,0,0,0,0,0,0,0,0,0,0,0,0,0,0,0,0,0,0,0,0,0,0,0,0,0,0,0,0,0,0,0,0,0,0,0,0,0,0,0,0,0,0,0,0,0,0,0,0,0,0,0,0,0,0,0,0,0,0,0,0,0,0,0,0,0,0,0,0,0,0,0,0,0,0,0,0,0,0,0,0,0,0,0,0,0,0,0,0,0],"sum_hessian":[2.8959966E3,1.3979933E3,1.4980034E3,3.2619818E2,1.071795E3,1.4523927E3,4.5610725E1,1.3998091E2,1.8621725E2,1.3515643E3,1.0082836E2,1.1556304E2,2.4417866E1,6.594349E1,1.2027377E2,6.039329E0,1.345525E3,8.279604E1,1.803232E1,1.4624697E1,1.0093835E2,1.0335455E1,1.4082411E1,6.296945E1,2.9740343E0,9.93833E1,2.0890469E1,1.1226512E3,2.228738E2,4.292538E1,3.9870667E1,1.1121542E0,1.6920166E1,1.2655373E1,1.9693241E0,7.604986E0,2.730469E0,1.4851069E1,4.811838E1,1.5224622E0,1.451572E0,2.0667004E1,7.87163E1,1.299136E0,1.9591333E1,1.1133386E3,9.312643E0,4.9939465E1,1.7293433E2,2.3159256E0,4.0609455E1,2.913864E1,1.0732027E1,1.7842689E0,5.820717E0,8.769585E0,6.0814853E0,1.4375904E1,6.2910986E0,7.1030075E1,7.686229E0,1.1096254E3,3.7131958E0,1.1944498E0,8.118194E0,4.784684E1,2.0926235E0,2.9251049E1,1.4368327E2,3.4108818E1,6.500637E0,1.8916498E1,1.0222141E1,2.911254E0,2.9094632E0,1.9878289E0,6.781756E0,5.024359E0,1.0571262E0,1.1854777E1,2.521127E0,4.1303165E1,2.9726908E1,4.325721E0,3.3605084E0,6.6347513E0,1.1029906E3,2.062446E0,1.6507497E0,6.4819984E0,1.6361952E0,1.7094627E1,3.0752213E1,2.8071358E1,1.1796918E0,1.7644591E0,1.4191882E2,2.8066023E1,6.042793E0,4.520997E0,1.97964E0,1.4714593E1,4.2019053E0,9.147956E0,1.074185E0],"tree_param":{"num_deleted":"0","num_feature":"33","num_nodes":"105","size_leaf_vector":"1"}},{"base_weights":[-8.925567E-4,-9.5360696E-1,8.745608E-1,-4.4495496E-1,-2.7841678E-1,9.363041E-1,-2.7202487E-1,-7.399292E-1,2.9592338E-1,1.0158819E0,1.8686213E-2,-1.3106683E-1,-9.3270415E-1,6.6573185E-1,-9.6266884E-1,-2.4590121E-1,1.025256E0,-2.3385364E-1,8.2456726E-1,1.1709525E-1,-2.784383E-1,-9.7875E-1,9.423368E-1,-2.2609422E-1,7.8748363E-1,1.8808755E-1,-2.8181252E-1,1.0789657E0,7.553194E-1,8.7151915E-2,-1.1295744E0,-1.7940384E-1,9.5449966E-1,-1.8081816E-1,7.7783394E-1,-1.0938679E0,-4.910466E-1,8.48569E-2,2.964925E-1,2.7774343E-1,5.234841E-1,1.0837986E0,4.452223E-1,-7.784632E-2,8.44801E-1,3.2133386E-1,-2.556377E-1,1.0744948E-1,-3.169717E-1,1.0161312E0,-9.836018E-3,-4.3452615E-1,1.0704892E0,-1.4548549E-2,9.279746E-1,-7.00484E-1,-2.785966E-1,-9.4178766E-1,4.462792E-1,-9.078638E-2,8.175205E-1,8.910637E-1,2.7477828E-1,-2.8834006E-1,8.7267554E-1,4.7501194E-1,-4.6867377E-1,-1.7122354E-1,9.319144E-1,7.801088E-2,9.446421E-1,2.692999E-1,-8.052021E-3,-2.581359E-1,-3.4359347E-2,-1.4680938E-1,4.1643965E-1,2.4638449E-1,4.722054E-2,-2.6875854E-1,2.00547E-1,1.17202945E-1,-2.778035E-1,2.0248552E-1,-2.2417784E-1,1.713988E-1,-3.8236675E-1,2.2990407E-1,-7.482725E-2,2.6580077E-1,-5.7062516E-3,2.4385042E-1,6.1409537E-2,-2.6636887E-1,2.6014286E-1,1.3874228E-1,-4.481515E-1,-6.259088E-2,2.3687884E-1,-9.343918E-2,1.9517909E-1,1.2363683E-2,2.602038E-1],"categories":[],"categories_nodes":[],"categories_segments":[],"categories_sizes":[],"default_left":[0,0,0,0,0,0,0,0,0,0,0,0,0,0,0,0,0,0,0,0,0,0,0,0,0,0,0,0,0,0,0,0,0,0,0,0,0,0,0,0,0,0,0,0,0,0,0,0,0,0,0,0,0,0,0,0,0,0,0,0,0,0,0,0,0,0,0,0,0,0,0,0,0,0,0,0,0,0,0,0,0,0,0,0,0,0,0,0,0,0,0,0,0,0,0,0,0,0,0,0,0,0,0],"id":6,"left_children":[1,3,5,7,-1,9,-1,11,13,15,17,19,21,23,25,-1,27,29,31,33,-1,35,37,-1,39,-1,-1,41,43,45,47,-1,49,51,53,55,57,-1,-1,-1,59,61,63,65,67,69,-1,-1,-1,71,-1,73,75,-1,77,79,-1,81,83,85,87,89,-1,-1,91,93,-1,95,97,99,101,-1,-1,-1,-1,-1,-1,-1,-1,-1,-1,-1,-1,-1,-1,-1,-1,-1,-1,-1,-1,-1,-1,-1,-1,-1,-1,-1,-1,-1,-1,-1,-1],"loss_changes":[1.9730066E3,9.173047E1,1.504065E2,5.983786E1,0E0,8.729358E1,0E0,2.2813187E1,3.7131065E1,2.1631226E1,1.9819536E1,1.1873511E1,1.3722031E1,1.2408779E1,5.9889793E0,0E0,1.506958E1,2.1435175E1,5.339985E0,7.8864355E0,0E0,7.614258E0,1.9423819E-1,0E0,4.313423E0,0E0,0E0,2.309204E0,1.3869514E1,1.4766377E1,4.782915E0,0E0,1.378643E0,9.332933E0,1.6126289E0,1.6093445E-1,1.2900945E1,0E0,0E0,0E0,6.1162434E0,1.6884766E0,6.879949E0,1.9638477E1,1.4965515E1,6.9995027E0,0E0,0E0,0E0,1.3545456E0,0E0,4.11056E0,5.909714E0,0E0,2.6421547E-1,5.632351E0,0E0,5.365221E0,5.742639E0,1.4149586E1,2.8661938E0,1.1322212E1,0E0,0E0,2.33922E-1,1.43775215E1,0E0,1.7543428E1,3.0818787E0,1.1286287E1,1.0680923E0,0E0,0E0,0E0,0E0,0E0,0E0,0E0,0E0,0E0,0E0,0E0,0E0,0E0,0E0,0E0,0E0,0E0,0E0,0E0,0E0,0E0,0E0,0E0,0E0,0E0,0E0,0E0,0E0,0E0,0E0,0E0,0E0],"parents":[2147483647,0,0,1,1,2,2,3,3,5,5,7,7,8,8,9,9,10,10,11,11,12,12,13,13,14,14,16,16,17,17,18,18,19,19,21,21,22,22,24,24,27,27,28,28,29,29,30,30,32,32,33,33,34,34,35,35,36,36,40,40,41,41,42,42,43,43,44,44,45,45,49,49,51,51,52,52,54,54,55,55,57,57,58,58,59,59,60,60,61,61,64,64,65,65,67,67,68,68,69,69,70,70],"right_children":[2,4,6,8,-1,10,-1,12,14,16,18,20,22,24,26,-1,28,30,32,34,-1,36,38,-1,40,-1,-1,42,44,46,48,-1,50,52,54,56,58,-1,-1,-1,60,62,64,66,68,70,-1,-1,-1,72,-1,74,76,-1,78,80,-1,82,84,86,88,90,-1,-1,92,94,-1,96,98,100,102,-1,-1,-1,-1,-1,-1,-1,-1,-1,-1,-1,-1,-1,-1,-1,-1,-1,-1,-1,-1,-1,-1,-1,-1,-1,-1,-1,-1,-1,-1,-1,-1],"split_conditions":[6.235875E-3,5.5081904E-1,5.5081904E-1,9.673042E-2,-2.7841678E-1,1.1493756E0,-2.7202487E-1,-1.2507585E0,9.4482595E-1,-2.544413E0,-3.242504E-1,-9.953675E-2,5.6959662E0,-2.544413E0,-7.5855404E-2,-2.4590121E-1,1.2743616E0,-9.3712E-2,-2.1303395E-2,-6.2662274E-1,-2.784383E-1,1.0680955E-1,2.240822E-1,-2.2609422E-1,-1.1198828E-1,1.8808755E-1,-2.8181252E-1,3.3331792E0,-3.4869235E-2,1.3625256E0,-1.216952E-1,-1.7940384E-1,5.675841E-1,-6.4628416E-1,-1.16742425E-1,-1.1316596E0,7.127479E-1,8.48569E-2,2.964925E-1,2.7774343E-1,-4.5244142E-2,1.9621104E-2,2.858297E-1,1.5495506E-1,1.9621104E-2,2.0237403E0,-2.556377E-1,1.0744948E-1,-3.169717E-1,2.8262344E-1,-9.836018E-3,-2.544413E0,-1.4212853E-1,-1.4548549E-2,-3.6858037E-2,-1.0699064E-1,-2.785966E-1,1.10210136E-1,3.508237E-2,-4.0058306E-1,1.6846491E-1,1.9294252E-1,2.7477828E-1,-2.8834006E-1,1.0060024E0,-1.1820709E-2,-4.6867377E-1,-1.1789151E0,-1.21400245E-1,2.177175E-1,1.0486977E-2,2.692999E-1,-8.052021E-3,-2.581359E-1,-3.4359347E-2,-1.4680938E-1,4.1643965E-1,2.4638449E-1,4.722054E-2,-2.6875854E-1,2.00547E-1,1.17202945E-1,-2.778035E-1,2.0248552E-1,-2.2417784E-1,1.713988E-1,-3.8236675E-1,2.2990407E-1,-7.482725E-2,2.6580077E-1,-5.7062516E-3,2.4385042E-1,6.1409537E-2,-2.6636887E-1,2.6014286E-1,1.3874228E-1,-4.481515E-1,-6.259088E-2,2.3687884E-1,-9.343918E-2,1.9517909E-1,1.2363683E-2,2.602038E-1],"split_indices":[14,9,9,1,0,7,0,7,8,10,6,11,21,10,14,0,8,23,28,8,0,24,5,0,18,0,0,1,28,7,11,0,5,6,11,7,6,0,0,0,20,14,8,5,14,0,0,0,0,24,0,10,22,0,28,26,0,24,28,8,13,8,0,0,5,2,0,6,11,28,28,0,0,0,0,0,0,0,0,0,0,0,0,0,0,0,0,0,0,0,0,0,0,0,0,0,0,0,0,0,0,0,0],"split_type":[0,0,0,0,0,0,0,0,0,0,0,0,0,0,0,0,0,0,0,0,0,0,0,0,0,0,0,0,0,0,0,0,0,0,0,0,0,0,0,0,0,0,0,0,0,0,0,0,0,0,0,0,0,0,0,0,0,0,0,0,0,0,0,0,0,0,0,0,0,0,0,0,0,0,0,0,0,0,0,0,0,0,0,0,0,0,0,0,0,0,0,0,0,0,0,0,0,0,0,0,0,0,0],"sum_hessian":[2.3635537E3,1.1317905E3,1.2317632E3,2.718054E2,8.599851E2,1.194702E3,3.7061195E1,1.9440573E2,7.7399666E1,1.0992644E3,9.543765E1,4.7153988E1,1.4725174E2,6.018634E1,1.7213326E1,4.6446385E0,1.0946198E3,7.320663E1,2.2231026E1,3.835011E1,8.803879E0,1.4418887E2,3.0628672E0,3.8686225E0,5.631772E1,1.1945207E0,1.6018805E1,9.1046606E2,1.8415369E2,5.4557266E1,1.8649359E1,1.3760102E0,2.0855015E1,2.6932941E1,1.1417167E1,1.1564827E2,2.8540604E1,1.5702423E0,1.4926248E0,2.3865746E1,3.2451973E1,9.028706E2,7.5954547E0,1.7872484E1,1.662812E2,4.563689E1,8.920378E0,1.3476888E0,1.730167E1,1.9616129E1,1.2388866E0,2.2935427E1,3.9975152E0,1.8314588E0,9.585708E0,7.475037E0,1.0817323E2,1.9269522E1,9.271084E0,1.0729095E1,2.1722878E1,7.081672E1,8.320539E2,1.2442006E0,6.3512545E0,1.4229854E1,3.6426303E0,1.3054764E1,1.5322644E2,3.3632725E1,1.2004166E1,1.8510328E1,1.1058013E0,6.7907047E0,1.6144722E1,1.059758E0,2.9377573E0,8.583731E0,1.001977E0,6.211394E0,1.2636429E0,1.8767926E0,1.7392729E1,7.6078863E0,1.6631968E0,7.30852E0,3.4205754E0,2.0065186E1,1.6576904E0,5.945452E1,1.1362197E1,4.979845E0,1.3714092E0,3.5839248E0,1.0645929E1,9.470699E0,3.5840642E0,1.7996117E0,1.5142683E2,2.0756525E1,1.2876201E1,1.3114355E0,1.069273E1],"tree_param":{"num_deleted":"0","num_feature":"33","num_nodes":"103","size_leaf_vector":"1"}},{"base_weights":[-1.6860281E-3,-9.1785234E-1,8.301338E-1,-4.2179295E-1,-2.713596E-1,8.888902E-1,-2.6358628E-1,-9.6154577E-1,-5.238191E-2,1.026584E0,4.159245E-1,-1.0047231E0,-3.2865027E-1,-6.349708E-1,2.5393152E-1,-1.8492463E-1,1.0318037E0,-5.6089707E-2,5.5402356E-1,-6.3105315E-1,-1.0484158E0,3.9083815E-1,-2.2633626E-1,-1.131946E-1,-2.6453635E-1,5.216384E-1,-9.7407454E-1,7.586445E-1,1.0544972E0,1.4379619E-1,-9.2610615E-1,7.7299404E-1,2.8880996E-1,-2.4983518E-1,1.9924863E-1,-2.7137226E-1,-5.4421836E-1,-2.9087584E-2,2.0722605E-1,-2.9104093E-1,2.0392466E-1,-1.5701972E-1,7.371534E-1,1.7172013E-1,-2.8316334E-1,9.694381E-1,1.285242E-1,1.0567124E0,-4.8654452E-2,-4.1269717E-1,6.211603E-1,-1.4265594E0,1.8615992E-1,3.524352E-2,9.2509395E-1,4.308168E-1,-1.1570406E0,1.20764095E-2,-2.258892E-1,4.3677133E-1,-2.132005E-1,1.9826771E-1,-2.5801387E-1,9.799746E-1,4.2394146E-1,-1.09671414E-1,1.0247176E0,5.929198E-1,-5.460431E-1,1.0651242E0,8.5715216E-1,1.22895434E-1,-1.7171614E0,-2.0901382E-1,7.567669E-1,1.3046669E-2,-4.225438E-1,7.786591E-1,-1.1228086E0,9.818998E-1,3.2437843E-1,6.380422E-2,6.1059314E-1,-1.3414809E0,-1.6600955E-3,-1.7095283E-1,2.0072936E-1,-4.6783886E-3,2.2825667E-1,-8.360814E-2,2.7935854E-1,1.5120274E-1,2.684648E-1,1.8254538E-1,-5.706806E-2,2.6083514E-1,5.025109E-2,2.0556259E-1,-1.4110014E-1,2.6698753E-1,1.6768366E-1,-9.546825E-2,2.2779633E-1,-1.7403288E-1,1.3894463E-1,-1.5912625E-1,-6.114352E-1,1.1041654E-1,2.5866398E-1,-1.2787635E-2,2.2284861E-1,1.6793054E-1,-4.364131E-1,2.508888E-1,3.3424634E-2,-3.0806163E-1,1.8553945E-1,-1.023079E-1,2.2468002E-1,1.6809978E-1,-2.1445669E-1,-3.9962825E-1,-2.1621024E-2],"categories":[],"categories_nodes":[],"categories_segments":[],"categories_sizes":[],"default_left":[0,0,0,0,0,0,0,0,0,0,0,0,0,0,0,0,0,0,0,0,0,0,0,0,0,0,0,0,0,0,0,0,0,0,0,0,0,0,0,0,0,0,0,0,0,0,0,0,0,0,0,0,0,0,0,0,0,0,0,0,0,0,0,0,0,0,0,0,0,0,0,0,0,0,0,0,0,0,0,0,0,0,0,0,0,0,0,0,0,0,0,0,0,0,0,0,0,0,0,0,0,0,0,0,0,0,0,0,0,0,0,0,0,0,0,0,0,0,0,0,0,0,0],"id":7,"left_children":[1,3,5,7,-1,9,-1,11,13,15,17,19,21,23,25,-1,27,29,31,33,35,37,-1,39,-1,41,43,45,47,49,51,53,55,-1,-1,-1,57,-1,-1,-1,59,61,63,-1,-1,65,67,69,-1,71,73,75,-1,77,79,81,83,85,-1,87,-1,89,-1,91,93,-1,95,97,-1,99,101,103,105,-1,107,-1,-1,109,111,113,115,117,119,121,-1,-1,-1,-1,-1,-1,-1,-1,-1,-1,-1,-1,-1,-1,-1,-1,-1,-1,-1,-1,-1,-1,-1,-1,-1,-1,-1,-1,-1,-1,-1,-1,-1,-1,-1,-1,-1,-1,-1],"loss_changes":[1.468955E3,7.5797E1,1.1280066E2,4.64609E1,0E0,6.3412964E1,0E0,2.258278E0,2.506348E1,7.756714E0,1.454884E1,7.7819824E-1,3.4805605E0,1.0560892E1,3.0809137E1,0E0,3.8909912E0,9.0579405E0,9.788536E0,6.9730973E0,8.568497E-1,9.9654686E-1,0E0,7.8302813E0,0E0,1.1279224E1,5.2150774E0,8.058838E0,2.131897E0,1.1572442E1,9.191418E0,1.0496754E1,1.6834293E1,0E0,0E0,0E0,1.4721255E0,0E0,0E0,0E0,4.8881392E0,6.1800833E0,4.003708E0,0E0,0E0,4.031246E0,1.9120174E1,2.5378418E-1,0E0,1.4372564E1,5.242546E0,3.1382961E0,0E0,1.5577431E1,2.3348541E0,4.7891855E0,1.5584297E0,2.6708806E0,0E0,3.4228044E0,0E0,7.4778814E0,0E0,4.7650146E-1,5.5868893E0,0E0,4.7406387E-1,4.341163E0,0E0,2.2399902E-2,2.5729084E0,5.8123956E0,3.1411343E0,0E0,1.4577723E0,0E0,0E0,1.0738711E0,9.093472E0,1.1616058E0,6.254345E0,1.0310842E1,5.0238857E0,1.9137096E0,0E0,0E0,0E0,0E0,0E0,0E0,0E0,0E0,0E0,0E0,0E0,0E0,0E0,0E0,0E0,0E0,0E0,0E0,0E0,0E0,0E0,0E0,0E0,0E0,0E0,0E0,0E0,0E0,0E0,0E0,0E0,0E0,0E0,0E0,0E0,0E0,0E0,0E0,0E0],"parents":[2147483647,0,0,1,1,2,2,3,3,5,5,7,7,8,8,9,9,10,10,11,11,12,12,13,13,14,14,16,16,17,17,18,18,19,19,20,20,21,21,23,23,25,25,26,26,27,27,28,28,29,29,30,30,31,31,32,32,36,36,40,40,41,41,42,42,45,45,46,46,47,47,49,49,50,50,51,51,53,53,54,54,55,55,56,56,57,57,59,59,61,61,63,63,64,64,66,66,67,67,69,69,70,70,71,71,72,72,74,74,77,77,78,78,79,79,80,80,81,81,82,82,83,83],"right_children":[2,4,6,8,-1,10,-1,12,14,16,18,20,22,24,26,-1,28,30,32,34,36,38,-1,40,-1,42,44,46,48,50,52,54,56,-1,-1,-1,58,-1,-1,-1,60,62,64,-1,-1,66,68,70,-1,72,74,76,-1,78,80,82,84,86,-1,88,-1,90,-1,92,94,-1,96,98,-1,100,102,104,106,-1,108,-1,-1,110,112,114,116,118,120,122,-1,-1,-1,-1,-1,-1,-1,-1,-1,-1,-1,-1,-1,-1,-1,-1,-1,-1,-1,-1,-1,-1,-1,-1,-1,-1,-1,-1,-1,-1,-1,-1,-1,-1,-1,-1,-1,-1,-1],"split_conditions":[6.235875E-3,5.5081904E-1,5.5081904E-1,-2.544413E0,-2.713596E-1,1.2867124E0,-2.6358628E-1,3.8303015E-1,-9.764963E-2,-2.544413E0,1.067692E-1,-8.692962E-2,2.8972661E-2,-8.946613E-1,6.5286016E-1,-1.8492463E-1,-4.6375293E-2,3.6873348E-2,8.329805E-1,-9.363254E-2,2.9192832E0,5.237716E-1,-2.2633626E-1,-1.16742425E-1,-2.6453635E-1,-6.297501E-1,-7.5855404E-2,-9.329571E-1,7.366434E-1,-1.3653074E-2,2.2253125E0,-4.099803E-2,-8.964165E-2,-2.4983518E-1,1.9924863E-1,-2.7137226E-1,-6.2411106E-1,-2.9087584E-2,2.0722605E-1,-2.9104093E-1,2.3671057E-2,-8.443123E-2,-1.1198828E-1,1.7172013E-1,-2.8316334E-1,-3.096385E-1,7.9408824E-1,1.1625675E0,-4.8654452E-2,-5.1657062E-2,-5.0595496E-2,-3.096385E-1,1.8615992E-1,-1.10517725E-1,3.5626605E-1,9.537062E-2,-1.097455E0,-6.7416716E-1,-2.258892E-1,-4.401455E-2,-2.132005E-1,-8.516511E-2,-2.5801387E-1,-1.2457854E-1,-1.950653E-1,-1.09671414E-1,1.0589242E0,-9.361925E-2,-5.460431E-1,8.176151E0,-6.1457526E-2,-6.799541E-2,-6.556523E-2,-2.0901382E-1,2.560211E-3,1.3046669E-2,-4.225438E-1,-9.709902E-2,1.3034458E0,4.1426904E-2,2.5480574E-1,2.0237403E0,2.8262344E-1,-4.4601478E-2,-1.6600955E-3,-1.7095283E-1,2.0072936E-1,-4.6783886E-3,2.2825667E-1,-8.360814E-2,2.7935854E-1,1.5120274E-1,2.684648E-1,1.8254538E-1,-5.706806E-2,2.6083514E-1,5.025109E-2,2.0556259E-1,-1.4110014E-1,2.6698753E-1,1.6768366E-1,-9.546825E-2,2.2779633E-1,-1.7403288E-1,1.3894463E-1,-1.5912625E-1,-6.114352E-1,1.1041654E-1,2.5866398E-1,-1.2787635E-2,2.2284861E-1,1.6793054E-1,-4.364131E-1,2.508888E-1,3.3424634E-2,-3.0806163E-1,1.8553945E-1,-1.023079E-1,2.2468002E-1,1.6809978E-1,-2.1445669E-1,-3.9962825E-1,-2.1621024E-2],"split_indices":[14,12,12,10,0,8,0,23,23,10,14,4,28,6,8,0,28,28,13,23,16,22,0,11,0,8,14,6,23,4,8,25,23,0,0,0,6,0,0,0,18,4,18,0,0,29,8,8,0,24,22,29,0,18,21,17,6,6,0,19,0,4,0,17,8,0,13,22,0,13,4,17,21,0,19,0,0,23,8,11,14,0,24,11,0,0,0,0,0,0,0,0,0,0,0,0,0,0,0,0,0,0,0,0,0,0,0,0,0,0,0,0,0,0,0,0,0,0,0,0,0,0,0],"split_type":[0,0,0,0,0,0,0,0,0,0,0,0,0,0,0,0,0,0,0,0,0,0,0,0,0,0,0,0,0,0,0,0,0,0,0,0,0,0,0,0,0,0,0,0,0,0,0,0,0,0,0,0,0,0,0,0,0,0,0,0,0,0,0,0,0,0,0,0,0,0,0,0,0,0,0,0,0,0,0,0,0,0,0,0,0,0,0,0,0,0,0,0,0,0,0,0,0,0,0,0,0,0,0,0,0,0,0,0,0,0,0,0,0,0,0,0,0,0,0,0,0,0,0],"sum_hessian":[1.9255469E3,9.16267E2,1.0092799E3,2.3226703E2,6.84E2,9.7927527E2,3.0004642E1,9.3723335E1,1.3854369E2,7.57558E2,2.2171727E2,8.718772E1,6.535616E0,4.737206E1,9.117163E1,1.8175174E0,7.557405E2,5.0320095E1,1.7139717E2,1.0744151E1,7.644357E1,3.0511985E0,3.4844174E0,2.178211E1,2.558995E1,7.532574E1,1.5845891E1,6.061049E1,6.9512994E2,4.159775E1,8.722344E0,9.283469E1,7.8562485E1,8.780024E0,1.9641268E0,7.013377E1,6.309794E0,1.754387E0,1.2968115E0,4.4298906E0,1.7352219E1,1.8220545E1,5.7105194E1,1.0906757E0,1.4755216E1,4.5013626E1,1.5596863E1,6.9405316E2,1.0767884E0,1.9269524E1,2.2328228E1,6.8243427E0,1.8980016E0,1.6078531E1,7.675616E1,7.217565E1,6.38683E0,2.855525E0,3.454269E0,1.4699829E1,2.6523898E0,1.3508968E1,4.7115774E0,3.0968054E1,2.613714E1,1.4383765E0,4.357525E1,1.360797E1,1.9888927E0,6.6181934E2,3.2233833E1,1.4302804E1,4.966719E0,1.4611843E0,2.0867044E1,1.1538553E0,5.6704874E0,9.991845E0,6.0866866E0,6.954516E1,7.2109976E0,2.4175797E1,4.7999855E1,5.3611875E0,1.0256424E0,1.5909399E0,1.2645851E0,8.004822E0,6.695008E0,8.955177E0,4.5537906E0,7.6881623E0,2.3279892E1,1.7704592E1,8.432548E0,4.2351124E1,1.2241267E0,1.1599064E1,2.0089068E0,6.5541516E2,6.404208E0,1.0934193E0,3.1140415E1,4.735319E0,9.567485E0,2.754607E0,2.2121122E0,1.0992226E1,9.874818E0,1.2604376E0,8.731407E0,1.5480337E0,4.538653E0,6.763521E1,1.9099495E0,1.1133175E0,6.09768E0,1.5757799E1,8.417997E0,4.6581337E1,1.418519E0,4.222642E0,1.1385458E0],"tree_param":{"num_deleted":"0","num_feature":"33","num_nodes":"123","size_leaf_vector":"1"}},{"base_weights":[-3.620841E-4,-8.8545585E-1,7.837484E-1,-3.8274014E-1,-2.6609743E-1,8.3767694E-1,-2.5635025E-1,-9.2796844E-1,-3.6079638E-2,9.889272E-1,3.750299E-1,-1.0036099E0,-3.2780188E-1,-6.1958206E-1,2.5838137E-1,-1.8983684E-1,9.951631E-1,5.028723E-1,-3.9810993E-2,-5.634383E-1,-2.6548684E-1,-2.2542481E-1,3.3606616E-1,-1.4017266E-1,-2.5693396E-1,4.6566004E-1,-8.6169195E-1,6.854821E-1,1.0222696E0,1.1007993E-1,6.611977E-1,-6.459887E-1,2.9986313E-1,-2.3811786E-1,1.625188E-1,-5.8835544E-2,1.8886828E-1,-2.6935673E-1,1.2900278E-1,-1.6742566E-1,6.646858E-1,-2.5935403E-1,1.4640342E-1,9.765817E-1,-2.1222484E-1,6.558879E-1,1.0331767E0,2.3636703E-1,-3.8058832E-1,-2.8105912E-1,6.928785E-1,3.2821923E-2,-1.389325E0,4.9498895E-1,-5.8430773E-1,1.876844E-1,-1.8623579E-1,3.6981297E-1,-1.9906393E-1,1.8682002E-1,-2.55733E-1,7.779602E-1,-3.4999797E-1,5.748508E-1,2.6063567E-1,-4.3976706E-1,1.2144356E-1,7.812827E-1,-1.6522217E-1,1.0361425E0,2.2400616E-2,3.3997497E-1,-3.0246204E-1,9.4753385E-1,4.8985696E-1,-4.4481263E-1,7.321899E-1,-1.5491054E0,-3.1064672E-2,6.5705675E-1,-1.411879E-1,1.0259262E-1,-2.924673E-1,1.3224787E-1,-1.626118E-1,9.8552294E-2,-1.972451E-1,2.6425245E-1,1.1933652E-1,1.5261571E-1,-2.8327456E-1,2.2765544E-1,-7.590451E-2,1.1687223E-1,-9.5509626E-2,2.4549049E-1,8.897214E-2,1.8043981E-1,2.6031706E-1,1.07802E-1,-3.315972E-1,2.4593996E-1,1.0791918E-2,2.0966594E-1,7.707242E-2,-2.3314452E-1,1.5897343E-1,2.4766235E-1,3.9432143E-6,-1.28606E-1,-4.698342E-1,-2.3544107E-2,2.0669891E-1,1.7950068E-1,-2.5924996E-1],"categories":[],"categories_nodes":[],"categories_segments":[],"categories_sizes":[],"default_left":[0,0,0,0,0,0,0,0,0,0,0,0,0,0,0,0,0,0,0,0,0,0,0,0,0,0,0,0,0,0,0,0,0,0,0,0,0,0,0,0,0,0,0,0,0,0,0,0,0,0,0,0,0,0,0,0,0,0,0,0,0,0,0,0,0,0,0,0,0,0,0,0,0,0,0,0,0,0,0,0,0,0,0,0,0,0,0,0,0,0,0,0,0,0,0,0,0,0,0,0,0,0,0,0,0,0,0,0,0,0,0,0,0,0,0],"id":8,"left_children":[1,3,5,7,-1,9,-1,11,13,15,17,19,21,23,25,-1,27,29,31,33,-1,-1,35,37,-1,39,41,43,45,47,49,51,53,-1,-1,55,-1,-1,57,59,61,-1,-1,63,65,67,69,71,-1,-1,73,75,77,79,81,-1,-1,83,-1,85,-1,87,89,91,-1,-1,93,95,-1,97,-1,99,-1,101,103,105,107,109,-1,111,113,-1,-1,-1,-1,-1,-1,-1,-1,-1,-1,-1,-1,-1,-1,-1,-1,-1,-1,-1,-1,-1,-1,-1,-1,-1,-1,-1,-1,-1,-1,-1,-1,-1,-1],"loss_changes":[1.0944635E3,6.622992E1,8.244354E1,3.7016663E1,0E0,5.6487976E1,0E0,3.1280289E0,2.0928331E1,7.425049E0,1.0722628E1,1.1257629E0,4.116127E0,7.8460445E0,1.921586E1,0E0,4.419861E0,9.525398E0,1.0173186E1,5.3342075E0,0E0,0E0,9.336724E-1,5.1685133E0,0E0,8.809489E0,3.9152508E0,1.3830505E1,1.5556641E0,9.747784E0,6.9896965E0,8.988081E0,5.7659245E0,0E0,0E0,2.6105435E0,0E0,0E0,3.944311E0,5.437141E0,6.3321304E0,0E0,0E0,4.485817E-1,7.226269E0,3.6362276E0,1.4210815E0,6.8744783E0,0E0,0E0,5.1455956E0,3.7463481E0,1.5220528E0,2.8298407E0,4.089897E0,0E0,0E0,2.5658946E0,0E0,2.9594355E0,0E0,3.5000458E0,5.1927776E0,2.5790827E0,0E0,0E0,2.2887611E0,1.1624279E0,0E0,1.1730957E-1,0E0,6.8097863E0,0E0,1.49934E0,3.696103E0,4.128357E0,8.578832E-1,1.5766716E0,0E0,2.7982168E0,5.5264893E0,0E0,0E0,0E0,0E0,0E0,0E0,0E0,0E0,0E0,0E0,0E0,0E0,0E0,0E0,0E0,0E0,0E0,0E0,0E0,0E0,0E0,0E0,0E0,0E0,0E0,0E0,0E0,0E0,0E0,0E0,0E0,0E0,0E0,0E0],"parents":[2147483647,0,0,1,1,2,2,3,3,5,5,7,7,8,8,9,9,10,10,11,11,12,12,13,13,14,14,16,16,17,17,18,18,19,19,22,22,23,23,25,25,26,26,27,27,28,28,29,29,30,30,31,31,32,32,35,35,38,38,39,39,40,40,43,43,44,44,45,45,46,46,47,47,50,50,51,51,52,52,53,53,54,54,57,57,59,59,61,61,62,62,63,63,66,66,67,67,69,69,71,71,73,73,74,74,75,75,76,76,77,77,79,79,80,80],"right_children":[2,4,6,8,-1,10,-1,12,14,16,18,20,22,24,26,-1,28,30,32,34,-1,-1,36,38,-1,40,42,44,46,48,50,52,54,-1,-1,56,-1,-1,58,60,62,-1,-1,64,66,68,70,72,-1,-1,74,76,78,80,82,-1,-1,84,-1,86,-1,88,90,92,-1,-1,94,96,-1,98,-1,100,-1,102,104,106,108,110,-1,112,114,-1,-1,-1,-1,-1,-1,-1,-1,-1,-1,-1,-1,-1,-1,-1,-1,-1,-1,-1,-1,-1,-1,-1,-1,-1,-1,-1,-1,-1,-1,-1,-1,-1,-1],"split_conditions":[6.235875E-3,5.5081904E-1,5.5081904E-1,-2.544413E0,-2.6609743E-1,1.2867124E0,-2.5635025E-1,2.3204921E-1,-9.764963E-2,-2.544413E0,1.1350522E0,-8.692962E-2,7.943031E-1,-8.946613E-1,9.4482595E-1,-1.8983684E-1,1.9621104E-2,2.500813E-3,6.1335508E-2,-8.696153E-2,-2.6548684E-1,-2.2542481E-1,-5.159749E-1,-1.16742425E-1,-2.5693396E-1,-6.297501E-1,1.1495124E1,1.9294252E-1,-8.812689E-2,4.8359133E-2,-7.259339E-2,6.9998115E-2,-9.707214E-2,-2.3811786E-1,1.625188E-1,9.6807194E-1,1.8886828E-1,-2.6935673E-1,1.1530799E0,-4.3730482E-1,1.5979075E0,-2.5935403E-1,1.4640342E-1,-7.453977E-2,-9.410824E-2,-9.013913E-2,1.4932089E0,1.6168112E0,-3.8058832E-1,-2.8105912E-1,-2.031192E-2,1.7083337E0,-4.195345E-2,1.0551895E0,-1.179714E-1,1.876844E-1,-1.8623579E-1,2.3671057E-2,-1.9906393E-1,-8.443123E-2,-2.55733E-1,-4.8241213E-1,-9.4871426E-1,-4.1189965E-2,2.6063567E-1,-4.3976706E-1,-7.6488696E-2,1.4021854E-1,-1.6522217E-1,-8.443123E-2,2.2400616E-2,9.0585984E-2,-3.0246204E-1,2.5602747E-2,1.5220972E0,1.10249616E-1,-3.768837E-2,-1.2858441E-1,-3.1064672E-2,-1.3927545E-2,-1.2816919E0,1.0259262E-1,-2.924673E-1,1.3224787E-1,-1.626118E-1,9.8552294E-2,-1.972451E-1,2.6425245E-1,1.1933652E-1,1.5261571E-1,-2.8327456E-1,2.2765544E-1,-7.590451E-2,1.1687223E-1,-9.5509626E-2,2.4549049E-1,8.897214E-2,1.8043981E-1,2.6031706E-1,1.07802E-1,-3.315972E-1,2.4593996E-1,1.0791918E-2,2.0966594E-1,7.707242E-2,-2.3314452E-1,1.5897343E-1,2.4766235E-1,3.9432143E-6,-1.28606E-1,-4.698342E-1,-2.3544107E-2,2.0669891E-1,1.7950068E-1,-2.5924996E-1],"split_indices":[14,9,9,10,0,8,0,23,23,10,32,4,6,6,8,0,14,28,22,4,0,0,3,11,0,8,17,8,26,22,4,14,18,0,0,6,0,0,32,6,32,0,0,4,5,26,32,13,0,0,27,29,20,1,11,0,0,18,0,4,0,8,6,26,0,0,19,3,0,4,0,11,0,17,8,11,22,19,0,2,6,0,0,0,0,0,0,0,0,0,0,0,0,0,0,0,0,0,0,0,0,0,0,0,0,0,0,0,0,0,0,0,0,0,0],"split_type":[0,0,0,0,0,0,0,0,0,0,0,0,0,0,0,0,0,0,0,0,0,0,0,0,0,0,0,0,0,0,0,0,0,0,0,0,0,0,0,0,0,0,0,0,0,0,0,0,0,0,0,0,0,0,0,0,0,0,0,0,0,0,0,0,0,0,0,0,0,0,0,0,0,0,0,0,0,0,0,0,0,0,0,0,0,0,0,0,0,0,0,0,0,0,0,0,0,0,0,0,0,0,0,0,0,0,0,0,0,0,0,0,0,0,0],"sum_hessian":[1.5750112E3,7.398025E2,8.3520874E2,1.9502303E2,5.447794E2,8.1155426E2,2.3654491E1,7.515003E1,1.1987299E2,6.1074866E2,2.0080562E2,6.61417E1,9.008334E0,3.9834007E1,8.003899E1,1.7414966E0,6.0900714E2,1.533387E2,4.7466915E1,8.987419E0,5.7154278E1,4.6394205E0,4.368914E0,1.893581E1,2.0898197E1,6.803316E1,1.2005828E1,5.1132008E1,5.578751E2,4.453825E1,1.08800446E2,1.672246E1,3.0744457E1,6.968531E0,2.0188878E0,2.6929893E0,1.6759248E0,3.5549552E0,1.5380855E1,1.6310257E1,5.17229E1,1.0958513E1,1.0473154E0,3.8545113E1,1.2586894E1,1.7895014E1,5.399801E2,4.2133923E1,2.4043279E0,1.2956386E0,1.0750481E2,9.240203E0,7.482257E0,2.5546762E1,5.197695E0,1.192133E0,1.5008563E0,1.2680824E1,2.7000306E0,1.2086952E1,4.2233043E0,4.6738537E1,4.9843655E0,6.806373E0,3.1738739E1,1.475369E0,1.1111526E1,1.6710379E1,1.1846361E0,5.381904E2,1.7897028E0,4.003099E1,2.102929E0,4.606149E1,6.144332E1,5.7067485E0,3.5334542E0,6.4438596E0,1.0383972E0,2.033384E1,5.212923E0,2.0368812E0,3.1608136E0,1.1385932E1,1.2948922E0,1.04599E1,1.6270525E0,2.2933754E1,2.3804783E1,2.3376844E0,2.6466813E0,4.8977423E0,1.9086306E0,6.62774E0,4.483785E0,1.0465115E1,6.2452636E0,1.0909052E1,5.272814E2,3.8655823E1,1.3751693E0,4.420307E1,1.8584205E0,1.9795464E1,4.1647858E1,4.0264974E0,1.6802511E0,2.3506455E0,1.1828088E0,2.1778827E0,4.265977E0,3.829656E0,1.6504185E1,2.7621655E0,2.4507573E0],"tree_param":{"num_deleted":"0","num_feature":"33","num_nodes":"115","size_leaf_vector":"1"}},{"base_weights":[-1.2042381E-2,-8.6248916E-1,7.2089803E-1,-3.706464E-1,-2.6209787E-1,9.346336E-1,1.4400303E-1,-8.814433E-1,-5.9963927E-2,9.6757233E-1,-2.3453717E-1,3.0320814E-1,-6.8825495E-1,-9.73554E-1,-2.5763232E-1,3.9729872E-1,-3.67328E-1,5.7842255E-1,1.0059295E0,-5.342033E-1,4.551753E-1,-7.731727E-1,9.994692E-2,-5.1779604E-1,-2.6017383E-1,3.8941088E-1,-2.1549992E-1,-9.122622E-2,8.756947E-1,-6.863819E-1,2.8120664E-1,9.1625774E-1,8.8570245E-2,5.82591E-1,1.017011E0,-8.015942E-1,3.3992413E-1,1.3062298E-1,8.3653593E-1,-1.0290629E0,-2.6614094E-1,-2.295535E-1,1.475445E-1,1.9631223E-1,4.5670565E-2,2.7538404E-1,-7.4048E-1,2.4777853E-1,-1.4768955E-1,3.2530542E-2,-9.534072E-1,5.971411E-1,-6.9969165E-1,4.2809218E-1,2.528708E-1,9.307684E-1,-5.9828794E-1,8.3057874E-1,-1.2852922E-2,2.5569054E-1,6.4116496E-1,-2.5207382E-1,-3.6591455E-1,-1.680871E-1,7.642417E-1,3.7052986E-1,-5.9915745E-1,8.841811E-1,-1.3443612E-1,-2.782755E-1,-3.9401405E-2,5.4151374E-1,-8.401022E-1,-1.5999892E-1,1.6065341E-1,4.7194624E-1,-2.0049599E-1,-2.3142645E-1,3.2420825E-2,-3.414517E-1,2.0648317E-1,-1.0141213E0,9.4014496E-2,-1.3143925E-1,7.483706E-1,1.2511854E-1,-2.681404E-1,-1.68088E-1,2.118664E-1,3.869497E-2,2.5527838E-1,-4.77085E-1,2.3277302E-1,5.2378617E-2,8.7968016E-1,1.462039E-1,-2.7036422E-1,-1.623909E-1,2.3450631E-1,-7.754341E-1,1.9361031E-1,2.45576E-1,4.7075596E-2,-1.3000812E-1,6.645602E-1,1.5513592E-2,-1.2522955E0,5.2659357E-1,2.4975489E-1,1.8554595E-1,9.399964E-3,-2.3725013E-1,-4.4597305E-2,-2.1212226E-2,2.0489994E-1,-2.5753993E-1,5.826747E-2,-2.7342263E-1,-6.72976E-2,9.997409E-2,2.2686167E-1,1.8738236E-1,-1.8852061E-1,2.3569426E-1,6.258156E-2,-3.070068E-1,5.2109506E-2,-2.3911493E-1,1.3442804E-1,1.9381012E-1,-3.656634E-4,1.2184817E-1,-2.917863E-1,-4.1375163E-1,-7.0277534E-2,2.2701988E-1,3.8484647E-4],"categories":[],"categories_nodes":[],"categories_segments":[],"categories_sizes":[],"default_left":[0,0,0,0,0,0,0,0,0,0,0,0,0,0,0,0,0,0,0,0,0,0,0,0,0,0,0,0,0,0,0,0,0,0,0,0,0,0,0,0,0,0,0,0,0,0,0,0,0,0,0,0,0,0,0,0,0,0,0,0,0,0,0,0,0,0,0,0,0,0,0,0,0,0,0,0,0,0,0,0,0,0,0,0,0,0,0,0,0,0,0,0,0,0,0,0,0,0,0,0,0,0,0,0,0,0,0,0,0,0,0,0,0,0,0,0,0,0,0,0,0,0,0,0,0,0,0,0,0,0,0,0,0,0,0,0,0],"id":9,"left_children":[1,3,5,7,-1,9,11,13,15,17,-1,19,21,23,25,27,29,31,33,35,37,39,-1,41,-1,43,-1,45,47,49,51,53,55,57,59,61,63,65,67,69,71,-1,-1,-1,73,75,77,-1,-1,79,81,83,85,87,-1,89,91,93,95,-1,97,99,-1,-1,101,103,105,107,-1,-1,-1,109,111,-1,-1,113,-1,-1,-1,115,-1,117,-1,-1,119,-1,-1,-1,-1,-1,-1,-1,121,-1,123,-1,-1,-1,-1,125,-1,-1,-1,127,129,131,133,135,-1,-1,-1,-1,-1,-1,-1,-1,-1,-1,-1,-1,-1,-1,-1,-1,-1,-1,-1,-1,-1,-1,-1,-1,-1,-1,-1,-1,-1],"loss_changes":[7.959085E2,5.36539E1,8.442963E1,2.5920725E1,0E0,3.1766052E1,2.4931131E1,3.301712E0,1.4600076E1,6.763336E0,0E0,2.0263302E1,3.105586E0,1.0986061E0,3.9781117E0,9.853807E0,1.3026377E1,7.6148176E0,1.502533E0,6.027916E0,1.643825E1,3.4130077E0,0E0,4.473243E0,0E0,6.699411E-1,0E0,5.344528E0,4.177807E0,8.067015E0,6.9754353E0,8.414364E-1,1.2177515E1,2.0385075E0,2.8204346E-1,6.5995207E0,3.29293E0,1.3074868E1,4.4881096E0,1.1821175E0,5.4984713E0,0E0,0E0,0E0,1.9822065E0,3.4559224E0,1.4199648E0,0E0,0E0,3.9329653E0,2.847826E0,3.2030373E0,3.049792E0,3.4351413E0,0E0,5.02017E-1,1.3153454E1,1.11812115E-1,3.8401957E0,0E0,4.1416616E0,6.8725123E0,0E0,0E0,4.4638896E-1,8.308535E0,7.4644475E0,1.9216881E0,0E0,0E0,0E0,4.9062884E-1,3.1725836E-1,0E0,0E0,2.570348E0,0E0,0E0,0E0,3.8289347E0,0E0,1.4537296E0,0E0,0E0,4.6827984E-1,0E0,0E0,0E0,0E0,0E0,0E0,0E0,4.662122E0,0E0,1.0893154E-1,0E0,0E0,0E0,0E0,3.9216065E0,0E0,0E0,0E0,1.2384339E1,2.6074982E0,6.451724E0,3.0559816E0,3.3244252E0,0E0,0E0,0E0,0E0,0E0,0E0,0E0,0E0,0E0,0E0,0E0,0E0,0E0,0E0,0E0,0E0,0E0,0E0,0E0,0E0,0E0,0E0,0E0,0E0,0E0,0E0,0E0,0E0,0E0],"parents":[2147483647,0,0,1,1,2,2,3,3,5,5,6,6,7,7,8,8,9,9,11,11,12,12,13,13,14,14,15,15,16,16,17,17,18,18,19,19,20,20,21,21,23,23,25,25,27,27,28,28,29,29,30,30,31,31,32,32,33,33,34,34,35,35,36,36,37,37,38,38,39,39,40,40,44,44,45,45,46,46,49,49,50,50,51,51,52,52,53,53,55,55,56,56,57,57,58,58,60,60,61,61,64,64,65,65,66,66,67,67,71,71,72,72,75,75,79,79,81,81,84,84,92,92,94,94,99,99,103,103,104,104,105,105,106,106,107,107],"right_children":[2,4,6,8,-1,10,12,14,16,18,-1,20,22,24,26,28,30,32,34,36,38,40,-1,42,-1,44,-1,46,48,50,52,54,56,58,60,62,64,66,68,70,72,-1,-1,-1,74,76,78,-1,-1,80,82,84,86,88,-1,90,92,94,96,-1,98,100,-1,-1,102,104,106,108,-1,-1,-1,110,112,-1,-1,114,-1,-1,-1,116,-1,118,-1,-1,120,-1,-1,-1,-1,-1,-1,-1,122,-1,124,-1,-1,-1,-1,126,-1,-1,-1,128,130,132,134,136,-1,-1,-1,-1,-1,-1,-1,-1,-1,-1,-1,-1,-1,-1,-1,-1,-1,-1,-1,-1,-1,-1,-1,-1,-1,-1,-1,-1,-1],"split_conditions":[6.235875E-3,5.5081904E-1,8.0540687E-1,-2.544413E0,-2.6209787E-1,5.5081904E-1,1.3270329E0,-3.148681E-2,-1.1198828E-1,1.9621104E-2,-2.3453717E-1,-2.4644593E-2,1.1042511E0,-8.692962E-2,8.688655E-2,-1.2457854E-1,-1.2519311E-2,1.9294252E-1,-4.164856E-2,2.071642E0,-1.0350277E0,1.7750002E-1,9.994692E-2,-1.2086944E-1,-2.6017383E-1,-3.1131504E-2,-2.1549992E-1,-1.1046036E0,1.198856E0,-1.5726998E0,3.3316702E-1,-5.253042E-2,-1.1864331E0,-1.10353164E-1,7.580833E-1,1.2207116E-1,-4.52587E-2,-8.964165E-2,1.4787678E0,2.0237403E0,-4.0651083E-2,-2.295535E-1,1.475445E-1,1.9631223E-1,1.2184476E0,-6.3417233E-3,-3.7195534E-2,2.4777853E-1,-1.4768955E-1,-6.297501E-1,6.9673185E0,-6.327303E-2,-1.2651334E0,-1.3928606E-2,2.528708E-1,3.4468082E-1,-2.8943352E-2,-3.096385E-1,-3.3460674E-1,2.5569054E-1,-2.0296304E-2,-7.488913E-3,-3.6591455E-1,-1.680871E-1,-1.01080626E-1,3.9173127E-3,-4.5057967E-2,-7.006226E-1,-1.3443612E-1,-2.782755E-1,-3.9401405E-2,1.357095E0,-6.364E-2,-1.5999892E-1,1.6065341E-1,-1.03841536E-1,-2.0049599E-1,-2.3142645E-1,3.2420825E-2,-1.0685253E0,2.0648317E-1,2.6383469E-1,9.4014496E-2,-1.3143925E-1,-1.1049526E-2,1.2511854E-1,-2.681404E-1,-1.68088E-1,2.118664E-1,3.869497E-2,2.5527838E-1,-4.77085E-1,1.3233183E-2,5.2378617E-2,-4.165543E-2,1.462039E-1,-2.7036422E-1,-1.623909E-1,2.3450631E-1,1.1356552E0,1.9361031E-1,2.45576E-1,4.7075596E-2,1.1091597E0,1.1791133E0,1.2314625E0,-8.392874E-2,-9.771325E-1,2.4975489E-1,1.8554595E-1,9.399964E-3,-2.3725013E-1,-4.4597305E-2,-2.1212226E-2,2.0489994E-1,-2.5753993E-1,5.826747E-2,-2.7342263E-1,-6.72976E-2,9.997409E-2,2.2686167E-1,1.8738236E-1,-1.8852061E-1,2.3569426E-1,6.258156E-2,-3.070068E-1,5.2109506E-2,-2.3911493E-1,1.3442804E-1,1.9381012E-1,-3.656634E-4,1.2184817E-1,-2.917863E-1,-4.1375163E-1,-7.0277534E-2,2.2701988E-1,3.8484647E-4],"split_indices":[14,9,7,10,0,9,7,25,18,14,0,28,6,4,28,17,2,8,25,8,6,4,0,24,0,25,0,7,8,7,8,28,6,24,7,5,20,23,32,0,25,0,0,0,6,23,25,0,0,8,20,28,6,2,0,7,4,29,8,0,4,2,0,0,17,4,20,6,0,0,0,7,18,0,0,24,0,0,0,6,0,23,0,0,2,0,0,0,0,0,0,0,28,0,25,0,0,0,0,6,0,0,0,5,32,32,11,6,0,0,0,0,0,0,0,0,0,0,0,0,0,0,0,0,0,0,0,0,0,0,0,0,0,0,0,0,0],"split_type":[0,0,0,0,0,0,0,0,0,0,0,0,0,0,0,0,0,0,0,0,0,0,0,0,0,0,0,0,0,0,0,0,0,0,0,0,0,0,0,0,0,0,0,0,0,0,0,0,0,0,0,0,0,0,0,0,0,0,0,0,0,0,0,0,0,0,0,0,0,0,0,0,0,0,0,0,0,0,0,0,0,0,0,0,0,0,0,0,0,0,0,0,0,0,0,0,0,0,0,0,0,0,0,0,0,0,0,0,0,0,0,0,0,0,0,0,0,0,0,0,0,0,0,0,0,0,0,0,0,0,0,0,0,0,0,0,0],"sum_hessian":[1.2748744E3,5.9004987E2,6.848245E2,1.6266913E2,4.2738074E2,4.992396E2,1.8558493E2,6.082646E1,1.0184267E2,4.9108566E2,8.1539135E0,1.5631807E2,2.9266865E1,5.251199E1,8.314469E0,4.082102E1,6.1021645E1,4.5504333E1,4.4558133E2,2.3623896E1,1.3269417E2,2.7416498E1,1.8503667E0,7.861285E0,4.4650707E1,4.1872354E0,4.127234E0,2.0597115E1,2.0223904E1,4.0861176E1,2.0160473E1,2.6415764E1,1.9088572E1,1.2732858E1,4.3284848E2,1.8153742E1,5.470155E0,7.2411644E1,6.0282528E1,1.7536531E1,9.879966E0,5.9002304E0,1.9610552E0,1.3491645E0,2.8380709E0,1.3531953E1,7.065161E0,1.9048782E1,1.1751219E0,1.1304428E1,2.9556746E1,1.5544895E1,4.6155763E0,5.2088084E0,2.1206955E1,8.415146E0,1.0673426E1,8.71033E0,4.0225277E0,4.246296E2,8.218861E0,1.0674516E1,7.4792256E0,1.4430364E0,4.027118E0,5.4867016E1,1.7544626E1,5.8607285E1,1.6752431E0,1.5741235E1,1.7952974E0,4.127895E0,5.752071E0,1.2873087E0,1.5507622E0,1.1919268E1,1.6126853E0,5.7725644E0,1.2925968E0,8.0701E0,3.234329E0,2.8492733E1,1.0640124E0,1.5511154E0,1.399378E1,1.0129493E0,3.602627E0,1.2708478E0,3.9379604E0,1.160515E0,7.2546306E0,3.6396902E0,7.0337353E0,1.0240828E0,7.686247E0,2.8700452E0,1.1524825E0,1.3146664E0,6.9041944E0,7.2319574E0,3.4425583E0,2.4093287E0,1.6177894E0,2.050999E1,3.4357025E1,9.541411E0,8.003215E0,1.5604142E1,4.300314E1,2.6140728E0,1.5138221E0,4.566417E0,1.1856539E0,4.872117E0,7.0471497E0,3.3096185E0,4.760481E0,2.5320019E1,3.1727142E0,5.4872365E0,8.506543E0,4.7742414E0,2.2594936E0,6.5332384E0,1.1530085E0,4.783385E0,2.4485726E0,8.972326E0,1.1537664E1,2.932053E1,5.036496E0,7.2403903E0,2.301021E0,5.159621E0,2.843594E0,8.615168E0,6.9889746E0],"tree_param":{"num_deleted":"0","num_feature":"33","num_nodes":"137","size_leaf_vector":"1"}},{"base_weights":[-4.7865426E-3,-8.2838404E-1,6.9028425E-1,-3.321602E-1,-2.5900733E-1,9.255153E-1,1.620689E-1,-7.949017E-1,-6.63591E-2,9.567484E-1,-2.2394378E-1,4.2030925E-1,-2.5579104E-1,-8.846732E-1,-1.5095206E-1,-6.4376247E-1,1.9595183E-1,9.683161E-1,-4.5017853E-1,-1.8534581E-1,6.806896E-1,5.4640007E-1,-4.3275273E-1,-9.4197583E-1,-5.729012E-2,1.6018721E-1,-2.101014E-1,4.1948807E-1,-8.264662E-1,3.5079286E-1,-7.597826E-1,-1.509144E-1,9.745511E-1,-3.265136E-1,1.0525243E-1,6.122843E-1,-4.6922442E-1,8.5298914E-1,1.6692534E-1,7.7427447E-1,-2.1363424E-1,-5.728416E-1,4.0924054E-1,-4.5236278E-1,-2.5489706E-1,1.884855E-1,-1.6801475E-1,9.7052805E-2,1.9149259E-1,-3.515278E-1,-2.57614E-1,-1.0583602E-1,5.718197E-1,-2.3854195E-1,1.0404369E-1,7.0776176E-1,1.0108668E0,-8.524776E-2,1.9723712E-1,-1.0406284E0,6.565581E-2,-1.2441359E-1,8.9875174E-1,-3.0821043E-1,8.890142E-1,-2.6547465E-2,9.476263E-1,-7.414956E-1,3.3963302E-1,-1.9586276E-1,8.0278516E-1,-2.1857284E-1,1.3928044E-1,1.7198752E-1,-1.4808112E-1,-6.6738755E-1,2.1211515E-1,2.5522235E-1,-3.231873E-1,2.4630028E-1,3.174386E-1,9.373783E-1,-3.1545952E-1,2.5373694E-1,-2.3025475E-2,-1.3031522E0,1.0233663E-1,-9.8798597E-1,6.3102245E-1,9.315452E-1,-5.84825E-2,-9.835633E-1,5.675669E-1,2.3688182E-1,6.331263E-2,2.5708157E-1,8.522751E-2,-8.903752E-1,1.347945E-1,5.754873E-1,-1.5052566E-1,3.9837494E-2,2.2248271E-1,-2.6530755E-1,-8.74918E-3,8.729753E-2,-1.6680124E-1,2.7431747E-2,2.532093E-1,2.3975816E-1,4.8009247E-2,-3.3127865E-1,1.9057675E-1,-2.9289227E-2,-3.9051166E-1,9.024191E-2,-4.8368815E-1,2.4291195E-1,-5.6316823E-2,2.4235384E-1,1.0207629E-1,-4.8006546E-1,1.9124319E-1,1.6510611E-2,1.892754E-1,-2.5920576E-1,4.179932E-2,1.1430377E-1,-1.7512275E-1,-7.033885E-2,1.9539937E-1],"categories":[],"categories_nodes":[],"categories_segments":[],"categories_sizes":[],"default_left":[0,0,0,0,0,0,0,0,0,0,0,0,0,0,0,0,0,0,0,0,0,0,0,0,0,0,0,0,0,0,0,0,0,0,0,0,0,0,0,0,0,0,0,0,0,0,0,0,0,0,0,0,0,0,0,0,0,0,0,0,0,0,0,0,0,0,0,0,0,0,0,0,0,0,0,0,0,0,0,0,0,0,0,0,0,0,0,0,0,0,0,0,0,0,0,0,0,0,0,0,0,0,0,0,0,0,0,0,0,0,0,0,0,0,0,0,0,0,0,0,0,0,0,0,0,0,0,0,0,0,0],"id":10,"left_children":[1,3,5,7,-1,9,11,13,15,17,-1,19,21,23,25,27,29,31,33,35,37,39,41,43,45,-1,-1,47,49,51,53,-1,55,-1,-1,57,59,61,63,65,-1,67,69,71,-1,-1,-1,73,-1,75,-1,77,79,-1,-1,81,83,-1,-1,85,87,-1,89,91,93,-1,95,97,99,-1,101,-1,-1,-1,-1,103,-1,-1,105,-1,107,109,111,-1,-1,113,-1,115,117,119,-1,121,123,-1,-1,-1,-1,125,127,129,-1,-1,-1,-1,-1,-1,-1,-1,-1,-1,-1,-1,-1,-1,-1,-1,-1,-1,-1,-1,-1,-1,-1,-1,-1,-1,-1,-1,-1,-1,-1],"loss_changes":[5.981225E2,4.8928925E1,7.025552E1,1.7479721E1,0E0,2.3146118E1,1.9077938E1,2.867546E0,1.4004232E1,6.713257E0,0E0,1.7320484E1,9.856888E0,2.096466E0,4.6636915E0,5.9523697E0,9.704035E0,4.3410034E0,3.4041576E0,7.8879066E0,6.6263313E0,4.7127705E0,6.8492804E0,1.1482391E0,2.5028746E0,0E0,0E0,4.7249597E-1,2.0561295E0,5.668572E0,2.5017858E0,0E0,2.9831848E0,0E0,0E0,1.8259184E0,7.807687E0,3.971466E0,7.28907E0,1.8466053E0,0E0,7.7151947E0,4.6575184E0,3.721077E0,0E0,0E0,0E0,1.90673E0,0E0,3.9842348E0,0E0,4.97492E0,3.6409397E0,0E0,0E0,1.1825405E1,1.595459E0,0E0,0E0,5.216446E0,8.9749975E0,0E0,2.2796364E0,8.291384E0,7.1480274E-2,0E0,1.22323036E-1,5.5010242E0,2.1792243E0,0E0,2.4774408E-1,0E0,0E0,0E0,0E0,1.8802528E0,0E0,0E0,4.0865006E0,0E0,3.4639041E0,4.6677017E-1,1.1611355E1,0E0,0E0,3.0887794E0,0E0,7.4488263E0,3.0581222E0,6.77063E-1,0E0,1.4158954E1,5.513959E-1,0E0,0E0,0E0,0E0,5.654131E0,2.1673374E0,1.4755623E0,0E0,0E0,0E0,0E0,0E0,0E0,0E0,0E0,0E0,0E0,0E0,0E0,0E0,0E0,0E0,0E0,0E0,0E0,0E0,0E0,0E0,0E0,0E0,0E0,0E0,0E0,0E0,0E0,0E0,0E0,0E0],"parents":[2147483647,0,0,1,1,2,2,3,3,5,5,6,6,7,7,8,8,9,9,11,11,12,12,13,13,14,14,15,15,16,16,17,17,18,18,19,19,20,20,21,21,22,22,23,23,24,24,27,27,28,28,29,29,30,30,32,32,35,35,36,36,37,37,38,38,39,39,41,41,42,42,43,43,47,47,49,49,51,51,52,52,55,55,56,56,59,59,60,60,62,62,63,63,64,64,66,66,67,67,68,68,70,70,75,75,78,78,80,80,81,81,82,82,85,85,87,87,88,88,89,89,91,91,92,92,97,97,98,98,99,99],"right_children":[2,4,6,8,-1,10,12,14,16,18,-1,20,22,24,26,28,30,32,34,36,38,40,42,44,46,-1,-1,48,50,52,54,-1,56,-1,-1,58,60,62,64,66,-1,68,70,72,-1,-1,-1,74,-1,76,-1,78,80,-1,-1,82,84,-1,-1,86,88,-1,90,92,94,-1,96,98,100,-1,102,-1,-1,-1,-1,104,-1,-1,106,-1,108,110,112,-1,-1,114,-1,116,118,120,-1,122,124,-1,-1,-1,-1,126,128,130,-1,-1,-1,-1,-1,-1,-1,-1,-1,-1,-1,-1,-1,-1,-1,-1,-1,-1,-1,-1,-1,-1,-1,-1,-1,-1,-1,-1,-1,-1,-1],"split_conditions":[6.235875E-3,5.5081904E-1,7.580833E-1,-2.544413E0,-2.5900733E-1,5.5081904E-1,1.1601398E0,4.519257E-1,-9.764963E-2,3.3331792E0,-2.2394378E-1,-1.633334E-2,-9.752626E-2,8.1411414E-2,3.2985557E-2,-1.1218079E-1,9.4482595E-1,-2.544413E0,-4.3408398E-2,5.096872E-1,1.0903509E0,-3.7227616E-2,5.3897905E-1,-8.692962E-2,-3.7341565E-1,1.6018721E-1,-2.101014E-1,6.3090056E-1,-1.0642239E0,-1.2457854E-1,1.6169937E0,-1.509144E-1,-3.4869235E-2,-3.265136E-1,1.0525243E-1,-3.215662E-1,-4.4664074E-2,-9.785229E-3,4.1663095E-1,-1.2523617E-2,-2.1363424E-1,2.0237403E0,4.2925277E-3,-8.696153E-2,-2.5489706E-1,1.884855E-1,-1.6801475E-1,-1.5583476E0,1.9149259E-1,-1.0685253E0,-2.57614E-1,-1.7422323E0,-1.1198828E-1,-2.3854195E-1,1.0404369E-1,1.836149E-2,1.4932089E0,-8.524776E-2,1.9723712E-1,-8.127594E-3,1.5764886E0,-1.2441359E-1,2.9192832E0,-1.0413085E0,-1.0365757E-1,-2.6547465E-2,1.3270329E0,2.2253125E0,1.3529252E0,-1.9586276E-1,-1.3928481E-2,-2.1857284E-1,1.3928044E-1,1.7198752E-1,-1.4808112E-1,-5.7217594E-2,2.1211515E-1,2.5522235E-1,-1.097455E0,2.4630028E-1,3.9839628E-1,2.0237403E0,4.484366E-2,2.5373694E-1,-2.3025475E-2,-9.747021E-2,1.0233663E-1,-1.09965265E-1,-5.921121E-2,-1.4854653E-1,-5.84825E-2,2.0237403E0,-6.571673E-2,2.3688182E-1,6.331263E-2,2.5708157E-1,8.522751E-2,4.028709E0,-1.4853222E-2,4.5972118E-1,-1.5052566E-1,3.9837494E-2,2.2248271E-1,-2.6530755E-1,-8.74918E-3,8.729753E-2,-1.6680124E-1,2.7431747E-2,2.532093E-1,2.3975816E-1,4.8009247E-2,-3.3127865E-1,1.9057675E-1,-2.9289227E-2,-3.9051166E-1,9.024191E-2,-4.8368815E-1,2.4291195E-1,-5.6316823E-2,2.4235384E-1,1.0207629E-1,-4.8006546E-1,1.9124319E-1,1.6510611E-2,1.892754E-1,-2.5920576E-1,4.179932E-2,1.1430377E-1,-1.7512275E-1,-7.033885E-2,1.9539937E-1],"split_indices":[14,9,7,10,0,9,7,24,23,1,0,4,23,28,28,18,8,10,20,8,32,11,6,4,7,0,0,4,6,17,27,0,28,0,0,32,20,28,27,28,0,0,28,4,0,0,0,7,0,6,0,10,18,0,0,7,32,0,0,2,8,0,16,6,18,0,7,8,7,0,2,0,0,0,0,13,0,0,6,0,4,0,13,0,0,23,0,18,4,30,0,0,1,0,0,0,0,14,28,14,0,0,0,0,0,0,0,0,0,0,0,0,0,0,0,0,0,0,0,0,0,0,0,0,0,0,0,0,0,0,0],"split_type":[0,0,0,0,0,0,0,0,0,0,0,0,0,0,0,0,0,0,0,0,0,0,0,0,0,0,0,0,0,0,0,0,0,0,0,0,0,0,0,0,0,0,0,0,0,0,0,0,0,0,0,0,0,0,0,0,0,0,0,0,0,0,0,0,0,0,0,0,0,0,0,0,0,0,0,0,0,0,0,0,0,0,0,0,0,0,0,0,0,0,0,0,0,0,0,0,0,0,0,0,0,0,0,0,0,0,0,0,0,0,0,0,0,0,0,0,0,0,0,0,0,0,0,0,0,0,0,0,0,0,0],"sum_hessian":[1.0428322E3,4.7720026E2,5.6563196E2,1.4154366E2,3.3565662E2,3.9083057E2,1.7480138E2,5.091447E1,9.062919E1,3.8470795E2,6.1226306E0,1.0803137E2,6.677E1,4.4356953E1,6.5575175E0,2.785659E1,6.2772602E1,3.818799E2,2.8280385E0,3.2567123E1,7.546425E1,1.1689996E1,5.5079998E1,4.1354343E1,3.0026069E0,3.0853016E0,3.4722157E0,3.8947809E0,2.396181E1,5.4565296E1,8.207305E0,1.1301436E0,3.8074976E2,1.1747612E0,1.6532773E0,8.244689E0,2.4322433E1,5.6017544E1,1.9446709E1,1.0439276E1,1.2507205E0,4.7497192E1,7.582809E0,6.5927677E0,3.4761578E1,1.1968688E0,1.8057381E0,2.6804614E0,1.2143196E0,8.017757E0,1.5944051E1,1.7967218E1,3.659808E1,7.204936E0,1.0023686E0,4.8073296E1,3.3267645E2,1.1436136E0,7.1010756E0,1.1302557E1,1.30198765E1,1.5121795E0,5.4505363E1,1.2074702E1,7.3720074E0,1.7809838E0,8.658292E0,4.0245865E1,7.2513256E0,1.6354861E0,5.947323E0,4.7439065E0,1.848861E0,1.4444375E0,1.2360239E0,6.6984396E0,1.319318E0,2.3076508E0,1.5659568E1,1.2847443E1,2.3750635E1,3.9331078E1,8.742216E0,3.3152957E2,1.1468768E0,9.655625E0,1.6469313E0,4.2855763E0,8.7343E0,5.3144302E1,1.3610609E0,6.7479596E0,5.3267426E0,6.3016524E0,1.0703549E0,7.028516E0,1.629776E0,3.4387447E1,5.8584166E0,6.110005E0,1.1413208E0,1.0468099E0,4.9005127E0,3.7098699E0,2.9885697E0,5.2951803E0,1.03643875E1,1.917959E1,4.5710454E0,3.7942047E1,1.3890321E0,4.395241E0,4.346976E0,1.9903518E0,7.6652737E0,2.0225635E0,2.2630131E0,6.1522603E0,2.5820396E0,4.876235E1,4.3819556E0,4.3300962E0,2.4178631E0,1.8307838E0,3.4959586E0,3.0222055E1,4.165394E0,4.5534186E0,1.3049974E0,1.113962E0,4.9960427E0],"tree_param":{"num_deleted":"0","num_feature":"33","num_nodes":"131","size_leaf_vector":"1"}},{"base_weights":[2.4836245E-3,-7.809178E-1,6.499576E-1,-2.6130226E-1,-2.5657552E-1,8.9226305E-1,1.6203962E-1,-7.607611E-1,-5.063457E-3,9.2354107E-1,-2.1560824E-1,2.451065E-1,3.5556063E-2,-9.0803456E-1,-2.4647488E-1,1.7163175E-1,-5.777013E-1,5.1337874E-1,9.6778303E-1,-2.7884993E-1,2.9978168E-1,-4.1841426E-1,-2.4943031E-1,2.1980688E-1,-2.0851627E-1,-1.844686E-1,4.2854184E-1,-9.003086E-1,4.2848015E-1,4.8669636E-2,8.310709E-1,9.7739327E-1,-9.144043E-2,-1.196799E0,-1.1682807E-1,4.1215044E-1,-7.605201E-1,-2.184978E-1,1.9271411E-1,-1.4609286E-1,4.726873E-1,2.040987E-1,-3.791885E-1,5.228687E-1,-7.159845E-1,-2.1367027E-1,-1.0027317E0,1.9405444E-1,-1.3725974E-1,6.331058E-1,-8.169578E-1,9.229573E-1,-7.008886E-2,9.8387766E-1,4.2934918E-1,-3.2136172E-1,-6.577891E-2,1.7291962E-1,-5.489198E-1,-5.039006E-1,5.301555E-1,4.5269333E-2,-2.3287289E-1,1.8769717E-1,3.2879546E-2,-8.948931E-1,2.066296E-2,6.9747233E-1,-1.5391536E-1,-3.156256E-1,2.8451888E-2,-1.3682403E-1,5.124637E-2,-7.1499266E-2,-2.604607E-1,-1.2492341E-1,8.396181E-1,-3.1849334E-1,2.9562918E-2,2.499511E-1,2.4852967E-2,8.384629E-1,2.52154E-1,-1.2011079E-1,1.9408338E-1,3.235804E-1,-8.2209086E-1,-8.0680233E-1,2.4307343E-1,4.6452284E-1,-9.3713695E-1,7.2341216E-1,1.8013409E-1,-1.5178415E-1,1.7205645E-1,2.2068687E-1,-3.1272113E-1,1.7543034E-1,-1.5480617E-1,6.0872965E-2,2.0876913E-1,8.618179E-2,-2.607514E-1,2.2575238E-1,4.9686458E-2,2.4985006E-1,8.0025025E-2,1.18451E-1,-1.487248E-1,-2.8588343E-1,4.2186705E-3,1.0670661E-1,-2.8255993E-1,-2.0130359E-1,1.6943976E-1,1.4153054E-1,3.9999343E-2,-2.8677812E-1,1.5998619E-2,2.1361288E-1,1.0885127E-2,1.7940624E-1,-5.6359965E-2],"categories":[],"categories_nodes":[],"categories_segments":[],"categories_sizes":[],"default_left":[0,0,0,0,0,0,0,0,0,0,0,0,0,0,0,0,0,0,0,0,0,0,0,0,0,0,0,0,0,0,0,0,0,0,0,0,0,0,0,0,0,0,0,0,0,0,0,0,0,0,0,0,0,0,0,0,0,0,0,0,0,0,0,0,0,0,0,0,0,0,0,0,0,0,0,0,0,0,0,0,0,0,0,0,0,0,0,0,0,0,0,0,0,0,0,0,0,0,0,0,0,0,0,0,0,0,0,0,0,0,0,0,0,0,0,0,0,0,0,0,0,0,0],"id":11,"left_children":[1,3,5,7,-1,9,11,13,15,17,-1,-1,19,21,23,25,27,29,31,33,35,37,-1,39,-1,41,43,45,47,49,51,53,-1,55,57,59,61,-1,-1,-1,63,-1,65,67,69,71,73,-1,-1,75,77,79,-1,81,83,-1,-1,85,87,89,91,-1,-1,-1,93,95,97,99,101,-1,-1,-1,-1,-1,-1,-1,103,-1,-1,-1,-1,105,-1,-1,-1,107,109,111,113,115,117,119,121,-1,-1,-1,-1,-1,-1,-1,-1,-1,-1,-1,-1,-1,-1,-1,-1,-1,-1,-1,-1,-1,-1,-1,-1,-1,-1,-1,-1,-1,-1],"loss_changes":[4.3736215E2,4.9480972E1,5.5667084E1,1.618504E1,0E0,1.8096329E1,1.6306553E1,3.0243034E0,8.660206E0,5.1316833E0,0E0,0E0,1.1529031E1,1.0301247E0,3.1750445E0,6.0649433E0,6.936352E0,4.7324247E0,3.9310913E0,9.294126E0,9.290159E0,4.3720016E0,0E0,1.6752572E0,0E0,5.789899E0,4.510227E0,8.830967E-1,2.321908E0,7.695653E0,2.213397E0,5.623779E-1,0E0,4.4047165E-1,6.9836583E0,7.7012863E0,1.3875055E0,0E0,0E0,0E0,6.8307793E-1,0E0,5.013482E0,4.357934E0,1.6578836E0,5.725782E-1,7.506943E-2,0E0,0E0,2.532898E0,2.78154E0,1.0341501E0,0E0,1.3674927E-1,1.9560683E0,0E0,0E0,5.31751E0,4.755974E0,3.9431639E0,4.0237713E0,0E0,0E0,0E0,1.7966833E0,7.8132133E0,6.8066826E0,1.5941858E0,3.9931836E0,0E0,0E0,0E0,0E0,0E0,0E0,0E0,1.4610481E-1,0E0,0E0,0E0,0E0,3.4870834E0,0E0,0E0,0E0,4.4188843E0,1.290499E0,7.294754E0,3.3948116E0,1.0063052E-2,1.3573942E0,3.4581623E0,5.214164E0,0E0,0E0,0E0,0E0,0E0,0E0,0E0,0E0,0E0,0E0,0E0,0E0,0E0,0E0,0E0,0E0,0E0,0E0,0E0,0E0,0E0,0E0,0E0,0E0,0E0,0E0,0E0,0E0,0E0,0E0],"parents":[2147483647,0,0,1,1,2,2,3,3,5,5,6,6,7,7,8,8,9,9,12,12,13,13,14,14,15,15,16,16,17,17,18,18,19,19,20,20,21,21,23,23,25,25,26,26,27,27,28,28,29,29,30,30,31,31,33,33,34,34,35,35,36,36,40,40,42,42,43,43,44,44,45,45,46,46,49,49,50,50,51,51,53,53,54,54,57,57,58,58,59,59,60,60,64,64,65,65,66,66,67,67,68,68,76,76,81,81,85,85,86,86,87,87,88,88,89,89,90,90,91,91,92,92],"right_children":[2,4,6,8,-1,10,12,14,16,18,-1,-1,20,22,24,26,28,30,32,34,36,38,-1,40,-1,42,44,46,48,50,52,54,-1,56,58,60,62,-1,-1,-1,64,-1,66,68,70,72,74,-1,-1,76,78,80,-1,82,84,-1,-1,86,88,90,92,-1,-1,-1,94,96,98,100,102,-1,-1,-1,-1,-1,-1,-1,104,-1,-1,-1,-1,106,-1,-1,-1,108,110,112,114,116,118,120,122,-1,-1,-1,-1,-1,-1,-1,-1,-1,-1,-1,-1,-1,-1,-1,-1,-1,-1,-1,-1,-1,-1,-1,-1,-1,-1,-1,-1,-1,-1],"split_conditions":[6.235875E-3,5.5081904E-1,7.580833E-1,-2.544413E0,-2.5657552E-1,5.5081904E-1,-5.3692967E-1,1.5591851E-1,6.099062E-1,1.9621104E-2,-2.1560824E-1,2.451065E-1,3.9173127E-3,-1.305535E0,5.638292E-1,-6.287348E-1,2.6778027E-1,-4.1841567E-2,3.3331792E0,-4.5258913E-2,1.357095E0,-1.324639E0,-2.4943031E-1,6.9808257E-3,-2.0851627E-1,-8.721998E-2,1.9513387E-2,-1.14051744E-1,3.3316702E-1,1.836149E-2,6.0243917E-1,5.871838E0,-9.144043E-2,-4.2497683E-2,-1.0927042E-1,1.9621104E-2,9.71578E-2,-2.184978E-1,1.9271411E-1,-1.4609286E-1,3.4585327E-2,2.040987E-1,-8.516511E-2,1.1530799E0,6.1335508E-2,-5.6575615E-2,-8.710831E-2,1.9405444E-1,-1.3725974E-1,-3.096385E-1,4.484366E-2,1.2608292E0,-7.008886E-2,1.067692E-1,3.0334258E-1,-3.2136172E-1,-6.577891E-2,-4.2143524E-2,2.071642E0,1.0330069E-3,-1.1030984E-1,4.5269333E-2,-2.3287289E-1,1.8769717E-1,4.07967E-1,-1.7422323E0,-8.443123E-2,-8.393985E-2,-1.0971895E-1,-3.156256E-1,2.8451888E-2,-1.3682403E-1,5.124637E-2,-7.1499266E-2,-2.604607E-1,-1.2492341E-1,-5.921121E-2,-3.1849334E-1,2.9562918E-2,2.499511E-1,2.4852967E-2,2.858297E-1,2.52154E-1,-1.2011079E-1,1.9408338E-1,1.3090926E0,1.7374302E0,8.6607414E-1,-1.16742425E-1,8.244139E-1,2.0610259E0,3.8665608E-1,1.3032182E0,-1.5178415E-1,1.7205645E-1,2.2068687E-1,-3.1272113E-1,1.7543034E-1,-1.5480617E-1,6.0872965E-2,2.0876913E-1,8.618179E-2,-2.607514E-1,2.2575238E-1,4.9686458E-2,2.4985006E-1,8.0025025E-2,1.18451E-1,-1.487248E-1,-2.8588343E-1,4.2186705E-3,1.0670661E-1,-2.8255993E-1,-2.0130359E-1,1.6943976E-1,1.4153054E-1,3.9999343E-2,-2.8677812E-1,1.5998619E-2,2.1361288E-1,1.0885127E-2,1.7940624E-1,-5.6359965E-2],"split_indices":[14,9,7,10,0,9,8,22,7,14,0,0,4,7,8,8,22,4,1,20,7,7,0,4,0,4,18,18,8,7,7,29,0,23,18,14,5,0,0,0,4,0,4,32,22,4,4,0,0,29,13,32,0,14,17,0,0,11,8,22,18,0,0,0,8,10,4,4,18,0,0,0,0,0,0,0,4,0,0,0,0,8,0,0,0,7,14,8,11,7,8,22,3,0,0,0,0,0,0,0,0,0,0,0,0,0,0,0,0,0,0,0,0,0,0,0,0,0,0,0,0,0,0],"split_type":[0,0,0,0,0,0,0,0,0,0,0,0,0,0,0,0,0,0,0,0,0,0,0,0,0,0,0,0,0,0,0,0,0,0,0,0,0,0,0,0,0,0,0,0,0,0,0,0,0,0,0,0,0,0,0,0,0,0,0,0,0,0,0,0,0,0,0,0,0,0,0,0,0,0,0,0,0,0,0,0,0,0,0,0,0,0,0,0,0,0,0,0,0,0,0,0,0,0,0,0,0,0,0,0,0,0,0,0,0,0,0,0,0,0,0,0,0,0,0,0,0,0,0],"sum_hessian":[8.602519E2,3.8917242E2,4.7107947E2,1.2549477E2,2.6367764E2,3.1421042E2,1.5686908E2,4.188462E1,8.361015E1,3.0917297E2,5.037436E0,2.0095268E1,1.367738E2,3.1965271E1,9.919348E0,6.442975E1,1.9180399E1,3.1329E1,2.7784396E2,6.2430943E1,7.434286E1,5.8258595E0,2.6139412E1,5.879552E0,4.0397964E0,2.712041E1,3.730934E1,1.46034E1,4.5769987E0,1.3189318E1,1.8139683E1,2.7612115E2,1.7228054E0,8.408004E0,5.402294E1,6.777182E1,6.571039E0,4.403936E0,1.4219235E0,1.0929691E0,4.786583E0,3.8970172E0,2.3223392E1,3.497039E1,2.33895E0,2.29617E0,1.2307231E1,3.527924E0,1.0490748E0,8.033825E0,5.1554933E0,1.6911139E1,1.2285434E0,2.7210638E2,4.0147796E0,7.3348536E0,1.07315E0,3.269708E1,2.1325863E1,7.360841E0,6.041098E1,1.0007061E0,5.5703335E0,2.4991956E0,2.2873874E0,9.601668E0,1.3621724E1,2.777432E1,7.1960697E0,1.0957791E0,1.2431707E0,1.106852E0,1.189318E0,1.0669605E0,1.124027E1,1.0198537E0,7.013971E0,3.2198114E0,1.9356816E0,1.5272042E1,1.6390967E0,4.4634296E1,2.2747209E2,1.0022519E0,3.012528E0,2.8983326E1,3.713751E0,1.6073456E1,5.252408E0,2.2528272E0,5.1080136E0,3.8234093E1,2.2176886E1,1.1944461E0,1.0929414E0,1.3551334E0,8.246535E0,6.551773E0,7.069951E0,7.104576E0,2.0669744E1,5.0026336E0,2.1934361E0,6.0104218E0,1.003549E0,3.3351562E1,1.1282734E1,2.5325338E1,3.657988E0,2.4225445E0,1.2912066E0,3.2724159E0,1.280104E1,1.289718E0,3.96269E0,1.0451138E0,1.2077134E0,4.1018767E0,1.0061367E0,3.1840357E1,6.3937364E0,9.20649E0,1.2970397E1],"tree_param":{"num_deleted":"0","num_feature":"33","num_nodes":"123","size_leaf_vector":"1"}},{"base_weights":[-6.4737857E-3,4.4753397E-1,-2.5481805E-1,-1.2436477E-1,7.0251817E-1,-7.466181E-1,7.568357E-2,8.37128E-1,-2.0351675E-1,-8.390979E-1,-1.4402732E-1,2.2836965E-1,-4.8378393E-1,9.536808E-1,5.262804E-1,-2.5089847E-2,-2.407892E-1,-8.969684E-1,-1.9862452E-1,-1.8165036E-1,3.763086E-1,-2.3118737E-1,4.098225E-1,-7.633893E-1,4.1404122E-1,2.452307E-1,9.785588E-1,1.5004553E-1,7.028082E-1,4.0143627E-1,-3.8710684E-1,-3.657061E-1,-2.473568E-1,6.627226E-2,-1.523945E-1,1.6414382E-1,1.1266972E-2,-2.8625712E-1,3.039682E-2,1.9231707E-1,6.496349E-1,-1.5065369E-1,-9.1212785E-1,-1.2604584E-1,1.8385638E-1,5.3457004E-1,-1.7299128E-1,9.8476166E-1,2.785086E-1,6.612473E-1,-3.3533403E-1,-1.986621E-1,7.5191534E-1,6.3027763E-1,-4.0011427E-1,4.3489558E-1,-6.746163E-1,-2.0841391E-1,1.939174E-1,3.596871E-1,-6.4635885E-1,4.8973563E-1,-4.0588325E-1,7.218831E-1,-1.7882411E-1,-1.6316578E-1,1.5760136E-1,-1.0120169E0,6.120432E-2,-1.9161652E-1,1.4262813E-1,1.791312E-1,-4.0814508E-2,9.911702E-1,5.0300866E-1,-4.5121346E-2,1.4242908E-1,8.722342E-1,-2.4791216E-2,6.687782E-2,-4.78466E-1,-2.5725332E-1,1.6001645E-1,9.228473E-1,4.6192408E-1,2.5321862E-2,7.968455E-1,-2.1439733E-1,7.676232E-2,6.9467264E-1,-8.078114E-2,2.916272E-1,-1.0649071E0,1.3443011E-1,-1.7118905E-1,-2.1432646E-1,7.451255E-2,1.5097952E-1,-2.6057908E-1,9.492394E-3,-3.625731E-1,2.159179E-1,2.1205584E-2,-3.0087507E-1,-9.978468E-2,2.4882497E-1,1.0200319E-1,-3.7001666E-2,1.8735251E-1,2.3577009E-1,3.2334648E-2,-1.4815691E-1,1.6086546E-1,1.2897114E-1,-2.626958E-1,2.3764661E-1,1.8303173E-2,-3.021888E-1,1.5365975E-1,-1.4465351E-1,1.6478448E-1,2.3361422E-1,7.617067E-2,6.1347716E-2,2.0309736E-1,-1.1733964E-1,1.5402304E-1,1.2652734E-1,-3.1699568E-1],"categories":[],"categories_nodes":[],"categories_segments":[],"categories_sizes":[],"default_left":[0,0,0,0,0,0,0,0,0,0,0,0,0,0,0,0,0,0,0,0,0,0,0,0,0,0,0,0,0,0,0,0,0,0,0,0,0,0,0,0,0,0,0,0,0,0,0,0,0,0,0,0,0,0,0,0,0,0,0,0,0,0,0,0,0,0,0,0,0,0,0,0,0,0,0,0,0,0,0,0,0,0,0,0,0,0,0,0,0,0,0,0,0,0,0,0,0,0,0,0,0,0,0,0,0,0,0,0,0,0,0,0,0,0,0,0,0,0,0,0,0,0,0,0,0,0,0,0,0],"id":12,"left_children":[1,3,-1,5,7,9,11,13,15,17,19,21,23,25,27,29,-1,31,33,-1,35,37,39,41,43,45,47,49,51,53,55,57,-1,-1,-1,-1,-1,-1,59,61,63,65,67,69,-1,71,-1,73,75,77,79,81,83,85,87,89,91,-1,-1,93,95,97,99,101,-1,-1,-1,103,-1,-1,-1,-1,-1,105,107,-1,-1,109,111,113,-1,-1,-1,115,117,119,121,-1,-1,123,-1,125,127,-1,-1,-1,-1,-1,-1,-1,-1,-1,-1,-1,-1,-1,-1,-1,-1,-1,-1,-1,-1,-1,-1,-1,-1,-1,-1,-1,-1,-1,-1,-1,-1,-1,-1,-1,-1],"loss_changes":[3.2607852E2,7.1492165E1,0E0,1.895831E1,4.1492706E1,1.9428883E0,1.0003519E1,1.0192657E1,6.025127E0,1.0041332E0,2.1329894E0,7.738213E0,6.629881E0,3.5221252E0,5.389042E0,5.8945913E0,0E0,1.0611858E0,9.100874E-1,0E0,3.3238697E-1,6.3901606E0,3.3215828E0,1.6424952E0,1.2419343E0,2.6953926E0,6.19751E-1,7.0926895E0,2.6300755E0,3.472236E0,5.165102E0,3.7876337E0,0E0,0E0,0E0,0E0,0E0,0E0,5.055787E0,6.6161423E0,3.5739412E0,2.3768885E0,2.0410376E0,1.9199622E0,0E0,1.0206411E0,0E0,1.3023376E-1,5.308862E-1,2.02249E0,9.567679E0,3.2256494E0,2.218275E0,1.3950219E0,1.7225044E0,1.3960576E0,6.2177124E0,0E0,0E0,3.1949573E0,1.7380741E0,4.9231777E0,5.861152E0,2.6315746E0,0E0,0E0,0E0,1.2188158E0,0E0,0E0,0E0,0E0,0E0,7.550049E-2,8.6553764E-1,0E0,0E0,4.3589783E-1,1.9840596E0,6.9731517E0,0E0,0E0,0E0,6.978798E-1,6.301727E0,1.9373782E0,4.5889616E-1,0E0,0E0,5.179119E-2,0E0,1.5957701E0,4.2698975E0,0E0,0E0,0E0,0E0,0E0,0E0,0E0,0E0,0E0,0E0,0E0,0E0,0E0,0E0,0E0,0E0,0E0,0E0,0E0,0E0,0E0,0E0,0E0,0E0,0E0,0E0,0E0,0E0,0E0,0E0,0E0,0E0,0E0,0E0,0E0,0E0],"parents":[2147483647,0,0,1,1,3,3,4,4,5,5,6,6,7,7,8,8,9,9,10,10,11,11,12,12,13,13,14,14,15,15,17,17,18,18,20,20,21,21,22,22,23,23,24,24,25,25,26,26,27,27,28,28,29,29,30,30,31,31,38,38,39,39,40,40,41,41,42,42,43,43,45,45,47,47,48,48,49,49,50,50,51,51,52,52,53,53,54,54,55,55,56,56,59,59,60,60,61,61,62,62,63,63,67,67,73,73,74,74,77,77,78,78,79,79,83,83,84,84,85,85,86,86,89,89,91,91,92,92],"right_children":[2,4,-1,6,8,10,12,14,16,18,20,22,24,26,28,30,-1,32,34,-1,36,38,40,42,44,46,48,50,52,54,56,58,-1,-1,-1,-1,-1,-1,60,62,64,66,68,70,-1,72,-1,74,76,78,80,82,84,86,88,90,92,-1,-1,94,96,98,100,102,-1,-1,-1,104,-1,-1,-1,-1,-1,106,108,-1,-1,110,112,114,-1,-1,-1,116,118,120,122,-1,-1,124,-1,126,128,-1,-1,-1,-1,-1,-1,-1,-1,-1,-1,-1,-1,-1,-1,-1,-1,-1,-1,-1,-1,-1,-1,-1,-1,-1,-1,-1,-1,-1,-1,-1,-1,-1,-1,-1,-1],"split_conditions":[5.5081904E-1,1.9621104E-2,-2.5481805E-1,-2.544413E0,1.181668E0,2.3204921E-1,8.324628E-1,1.198856E0,1.3625256E0,2.9192832E0,7.943031E-1,-6.287561E-2,1.04907386E-1,-4.165051E-2,1.0486977E-2,3.5588384E-1,-2.407892E-1,-1.305535E0,-3.7341565E-1,-1.8165036E-1,9.6807194E-1,-1.16742425E-1,-3.7820138E-2,4.677667E-3,1.207123E0,-2.2902057E-1,3.3331792E0,-1.1238868E-1,-1.20908655E-1,-5.6891248E-2,-9.752626E-2,-6.4628416E-1,-2.473568E-1,6.627226E-2,-1.523945E-1,1.6414382E-1,1.1266972E-2,-2.8625712E-1,-9.1949904E-1,-4.585593E-1,2.2843628E-1,6.235875E-3,9.898926E-1,4.2878656E0,1.8385638E-1,-1.044891E-1,-1.7299128E-1,1.0933732E0,5.3518806E0,1.0017803E0,4.187102E-2,1.5646791E-2,3.732316E0,-1.16742425E-1,-8.561816E-2,-3.968557E-2,-1.1967968E-1,-2.0841391E-1,1.939174E-1,-9.673668E-2,-1.1399055E-2,1.4463921E-1,-3.31904E-2,6.0243917E-1,-1.7882411E-1,-1.6316578E-1,1.5760136E-1,-8.93081E-2,6.120432E-2,-1.9161652E-1,1.4262813E-1,1.791312E-1,-4.0814508E-2,1.1737182E0,-1.1208001E-1,-4.5121346E-2,1.4242908E-1,4.0727403E-2,-1.13888435E-1,9.961558E-1,-4.78466E-1,-2.5725332E-1,1.6001645E-1,1.2525761E0,-4.3557182E-2,7.3150165E-2,-9.522181E-2,-2.1439733E-1,7.676232E-2,5.012939E0,-8.078114E-2,7.6270217E-1,-8.698068E-2,1.3443011E-1,-1.7118905E-1,-2.1432646E-1,7.451255E-2,1.5097952E-1,-2.6057908E-1,9.492394E-3,-3.625731E-1,2.159179E-1,2.1205584E-2,-3.0087507E-1,-9.978468E-2,2.4882497E-1,1.0200319E-1,-3.7001666E-2,1.8735251E-1,2.3577009E-1,3.2334648E-2,-1.4815691E-1,1.6086546E-1,1.2897114E-1,-2.626958E-1,2.3764661E-1,1.8303173E-2,-3.021888E-1,1.5365975E-1,-1.4465351E-1,1.6478448E-1,2.3361422E-1,7.617067E-2,6.1347716E-2,2.0309736E-1,-1.1733964E-1,1.5402304E-1,1.2652734E-1,-3.1699568E-1],"split_indices":[9,14,0,10,7,23,7,8,7,16,6,28,23,25,28,1,0,7,7,0,6,11,4,8,6,7,1,18,11,11,23,6,0,0,0,0,0,0,6,7,18,14,4,19,0,18,0,7,1,7,19,24,29,11,18,11,11,0,0,23,2,23,24,7,0,0,0,11,0,0,0,0,0,8,11,0,0,24,18,7,0,0,0,21,4,4,23,0,0,13,0,1,4,0,0,0,0,0,0,0,0,0,0,0,0,0,0,0,0,0,0,0,0,0,0,0,0,0,0,0,0,0,0,0,0,0,0,0,0],"split_type":[0,0,0,0,0,0,0,0,0,0,0,0,0,0,0,0,0,0,0,0,0,0,0,0,0,0,0,0,0,0,0,0,0,0,0,0,0,0,0,0,0,0,0,0,0,0,0,0,0,0,0,0,0,0,0,0,0,0,0,0,0,0,0,0,0,0,0,0,0,0,0,0,0,0,0,0,0,0,0,0,0,0,0,0,0,0,0,0,0,0,0,0,0,0,0,0,0,0,0,0,0,0,0,0,0,0,0,0,0,0,0,0,0,0,0,0,0,0,0,0,0,0,0,0,0,0,0,0,0],"sum_hessian":[7.071544E2,4.8866043E2,2.1849397E2,1.508452E2,3.3781525E2,3.6032715E1,1.1481248E2,2.9418427E2,4.3630978E1,3.0898262E1,5.1344543E0,9.066155E1,2.4150927E1,2.1245567E2,8.172859E1,3.61686E1,7.4623785E0,2.7970488E1,2.9277732E0,2.2353368E0,2.8991172E0,2.5586287E1,6.5075264E1,1.8529964E1,5.6209626E0,7.575836E0,2.0487984E2,2.6691278E1,5.503731E1,1.6554869E1,1.961373E1,4.880838E0,2.3089651E1,1.5423504E0,1.3854228E0,1.0383703E0,1.860747E0,4.9424872E0,2.0643799E1,3.506967E1,3.0005594E1,4.0126276E0,1.4517337E1,2.3237307E0,3.2972317E0,6.116961E0,1.4588751E0,2.0267729E2,2.2025468E0,1.2823373E1,1.3867907E1,2.6859143E0,5.2351395E1,1.3044394E1,3.5104759E0,4.949696E0,1.4664034E1,3.6528287E0,1.2280091E0,1.4202013E1,6.441787E0,2.3544785E1,1.1524887E1,2.8944626E1,1.0609684E0,2.542729E0,1.4698987E0,1.3478859E1,1.0384778E0,1.1583629E0,1.1653678E0,4.830613E0,1.286348E0,1.98973E2,3.7042892E0,1.0025585E0,1.1999882E0,9.599651E0,3.2237206E0,1.1815047E1,2.0528593E0,1.235691E0,1.4502232E0,3.1564026E1,2.078737E1,3.064931E0,9.979463E0,2.002385E0,1.508091E0,3.7486022E0,1.201094E0,4.2917466E0,1.0372288E1,1.2548231E1,1.6537817E0,5.341025E0,1.100762E0,2.2475515E1,1.0692688E0,8.764006E0,2.760881E0,2.338434E1,5.5602865E0,9.535857E0,3.943002E0,1.9687212E2,2.1008878E0,1.1267192E0,2.57757E0,8.5178795E0,1.0817722E0,1.8039846E0,1.4197359E0,8.812969E0,3.0020788E0,3.045103E1,1.1129938E0,1.1618447E0,1.9625526E1,1.6140587E0,1.4508722E0,7.096554E0,2.8829088E0,1.4186648E0,2.3299375E0,1.1494097E0,3.1423368E0,1.0164776E0,9.35581E0],"tree_param":{"num_deleted":"0","num_feature":"33","num_nodes":"129","size_leaf_vector":"1"}},{"base_weights":[3.862215E-3,4.2074493E-1,-2.5316417E-1,-2.396024E-1,6.165222E-1,-6.881536E-1,-4.353768E-2,8.8633454E-1,2.3564394E-1,-8.5595393E-1,-2.0092024E-1,-1.3428937E-1,8.0901617E-1,4.805658E-1,9.5662826E-1,9.172488E-1,9.42563E-2,-3.1970668E-1,-2.409611E-1,1.9003424E-1,-1.9231759E-1,1.6739355E-1,-6.191891E-1,2.2850025E-1,3.208155E-2,-4.832548E-1,6.726879E-1,9.6863824E-1,-8.6526334E-2,9.6044314E-1,8.325432E-4,1.5067284E-1,-2.2250386E-1,-1.9488324E-1,1.5687776E-1,-1.4213066E-1,4.7443658E-1,-1.0983178E-2,7.9880124E-1,-1.0775326E0,2.2503671E-1,1.3024268E-1,-1.1940918E0,7.5556403E-1,-1.2949786E-1,9.7729594E-1,-3.2355998E-2,6.960666E-2,2.4526627E-1,3.378486E-2,5.92222E-1,2.5871646E-2,1.6381548E-1,2.0521183E-1,-1.7125277E-1,2.2756557E-1,6.906759E-2,-4.6448877E-1,-2.8859967E-1,5.756004E-1,-2.3921448E-1,-8.067127E-2,-3.9439717E-1,8.887758E-1,-1.8078242E-1,6.308339E-2,2.4610323E-1,-9.384242E-2,6.7154396E-1,6.4837956E-1,-7.5810604E-2,-1.00032136E-1,1.2631989E-1,-1.5249057E-1,-1.4344183E-2,-5.139797E-2,2.0144317E-1,2.3261255E-1,2.1697706E-2,-2.3738325E-1,1.1258689E-1,2.620415E-2,-1.8440634E-1,1.870996E-1,-3.8810983E-2,1.7820673E-1,-5.5331748E-2],"categories":[],"categories_nodes":[],"categories_segments":[],"categories_sizes":[],"default_left":[0,0,0,0,0,0,0,0,0,0,0,0,0,0,0,0,0,0,0,0,0,0,0,0,0,0,0,0,0,0,0,0,0,0,0,0,0,0,0,0,0,0,0,0,0,0,0,0,0,0,0,0,0,0,0,0,0,0,0,0,0,0,0,0,0,0,0,0,0,0,0,0,0,0,0,0,0,0,0,0,0,0,0,0,0,0,0],"id":13,"left_children":[1,3,-1,5,7,9,11,13,15,17,19,21,23,25,27,29,31,33,-1,35,-1,37,39,-1,-1,41,43,45,-1,47,-1,49,-1,-1,-1,-1,51,53,55,57,59,-1,61,63,-1,65,-1,-1,-1,67,69,-1,-1,-1,71,-1,-1,73,-1,75,-1,-1,-1,77,79,-1,-1,81,83,85,-1,-1,-1,-1,-1,-1,-1,-1,-1,-1,-1,-1,-1,-1,-1,-1,-1],"loss_changes":[2.510882E2,5.4469307E1,0E0,8.483719E0,3.31258E1,2.229823E0,5.4031053E0,4.945648E0,1.3007036E1,9.38344E-1,2.108704E0,9.276379E0,3.633442E-1,5.8786883E0,2.8466644E0,9.137058E-1,6.4444017E0,2.7126708E0,0E0,1.5716176E0,0E0,4.4510646E0,9.630592E0,0E0,0E0,4.595811E0,2.9002934E0,1.6410522E0,0E0,3.873062E-2,0E0,5.5713053E0,0E0,0E0,0E0,0E0,2.6316047E-1,4.372095E0,2.553258E-1,2.1292686E-1,4.4307547E0,0E0,6.817045E-1,3.176362E0,0E0,5.677643E-1,0E0,0E0,0E0,7.1215396E0,1.3338695E0,0E0,0E0,0E0,4.4510612E0,0E0,0E0,1.689986E-1,0E0,1.5765626E0,0E0,0E0,0E0,6.3231087E-1,2.2917914E0,0E0,0E0,9.430916E0,1.0428138E0,1.368413E0,0E0,0E0,0E0,0E0,0E0,0E0,0E0,0E0,0E0,0E0,0E0,0E0,0E0,0E0,0E0,0E0,0E0],"parents":[2147483647,0,0,1,1,3,3,4,4,5,5,6,6,7,7,8,8,9,9,10,10,11,11,12,12,13,13,14,14,15,15,16,16,17,17,19,19,21,21,22,22,25,25,26,26,27,27,29,29,31,31,36,36,37,37,38,38,39,39,40,40,42,42,43,43,45,45,49,49,50,50,54,54,57,57,59,59,63,63,64,64,67,67,68,68,69,69],"right_children":[2,4,-1,6,8,10,12,14,16,18,20,22,24,26,28,30,32,34,-1,36,-1,38,40,-1,-1,42,44,46,-1,48,-1,50,-1,-1,-1,-1,52,54,56,58,60,-1,62,64,-1,66,-1,-1,-1,68,70,-1,-1,-1,72,-1,-1,74,-1,76,-1,-1,-1,78,80,-1,-1,82,84,86,-1,-1,-1,-1,-1,-1,-1,-1,-1,-1,-1,-1,-1,-1,-1,-1,-1],"split_conditions":[5.5081904E-1,6.235875E-3,-2.5316417E-1,-2.544413E0,6.0243917E-1,1.5591851E-1,8.339737E-1,-6.783911E-2,2.3750766E-1,-1.305535E0,9.971578E-2,