{"learner":{"attributes":{"scikit_learn":"{\"_estimator_type\": \"classifier\"}"},"feature_names":[],"feature_types":[],"gradient_booster":{"model":{"cats":{"enc":[],"feature_segments":[],"sorted_idx":[]},"gbtree_model_param":{"num_parallel_tree":"1","num_trees":"550"},"iteration_indptr":[0,1,2,3,4,5,6,7,8,9,10,11,12,13,14,15,16,17,18,19,20,21,22,23,24,25,26,27,28,29,30,31,32,33,34,35,36,37,38,39,40,41,42,43,44,45,46,47,48,49,50,51,52,53,54,55,56,57,58,59,60,61,62,63,64,65,66,67,68,69,70,71,72,73,74,75,76,77,78,79,80,81,82,83,84,85,86,87,88,89,90,91,92,93,94,95,96,97,98,99,100,101,102,103,104,105,106,107,108,109,110,111,112,113,114,115,116,117,118,119,120,121,122,123,124,125,126,127,128,129,130,131,132,133,134,135,136,137,138,139,140,141,142,143,144,145,146,147,148,149,150,151,152,153,154,155,156,157,158,159,160,161,162,163,164,165,166,167,168,169,170,171,172,173,174,175,176,177,178,179,180,181,182,183,184,185,186,187,188,189,190,191,192,193,194,195,196,197,198,199,200,201,202,203,204,205,206,207,208,209,210,211,212,213,214,215,216,217,218,219,220,221,222,223,224,225,226,227,228,229,230,231,232,233,234,235,236,237,238,239,240,241,242,243,244,245,246,247,248,249,250,251,252,253,254,255,256,257,258,259,260,261,262,263,264,265,266,267,268,269,270,271,272,273,274,275,276,277,278,279,280,281,282,283,284,285,286,287,288,289,290,291,292,293,294,295,296,297,298,299,300,301,302,303,304,305,306,307,308,309,310,311,312,313,314,315,316,317,318,319,320,321,322,323,324,325,326,327,328,329,330,331,332,333,334,335,336,337,338,339,340,341,342,343,344,345,346,347,348,349,350,351,352,353,354,355,356,357,358,359,360,361,362,363,364,365,366,367,368,369,370,371,372,373,374,375,376,377,378,379,380,381,382,383,384,385,386,387,388,389,390,391,392,393,394,395,396,397,398,399,400,401,402,403,404,405,406,407,408,409,410,411,412,413,414,415,416,417,418,419,420,421,422,423,424,425,426,427,428,429,430,431,432,433,434,435,436,437,438,439,440,441,442,443,444,445,446,447,448,449,450,451,452,453,454,455,456,457,458,459,460,461,462,463,464,465,466,467,468,469,470,471,472,473,474,475,476,477,478,479,480,481,482,483,484,485,486,487,488,489,490,491,492,493,494,495,496,497,498,499,500,501,502,503,504,505,506,507,508,509,510,511,512,513,514,515,516,517,518,519,520,521,522,523,524,525,526,527,528,529,530,531,532,533,534,535,536,537,538,539,540,541,542,543,544,545,546,547,548,549,550],"tree_info":[0,0,0,0,0,0,0,0,0,0,0,0,0,0,0,0,0,0,0,0,0,0,0,0,0,0,0,0,0,0,0,0,0,0,0,0,0,0,0,0,0,0,0,0,0,0,0,0,0,0,0,0,0,0,0,0,0,0,0,0,0,0,0,0,0,0,0,0,0,0,0,0,0,0,0,0,0,0,0,0,0,0,0,0,0,0,0,0,0,0,0,0,0,0,0,0,0,0,0,0,0,0,0,0,0,0,0,0,0,0,0,0,0,0,0,0,0,0,0,0,0,0,0,0,0,0,0,0,0,0,0,0,0,0,0,0,0,0,0,0,0,0,0,0,0,0,0,0,0,0,0,0,0,0,0,0,0,0,0,0,0,0,0,0,0,0,0,0,0,0,0,0,0,0,0,0,0,0,0,0,0,0,0,0,0,0,0,0,0,0,0,0,0,0,0,0,0,0,0,0,0,0,0,0,0,0,0,0,0,0,0,0,0,0,0,0,0,0,0,0,0,0,0,0,0,0,0,0,0,0,0,0,0,0,0,0,0,0,0,0,0,0,0,0,0,0,0,0,0,0,0,0,0,0,0,0,0,0,0,0,0,0,0,0,0,0,0,0,0,0,0,0,0,0,0,0,0,0,0,0,0,0,0,0,0,0,0,0,0,0,0,0,0,0,0,0,0,0,0,0,0,0,0,0,0,0,0,0,0,0,0,0,0,0,0,0,0,0,0,0,0,0,0,0,0,0,0,0,0,0,0,0,0,0,0,0,0,0,0,0,0,0,0,0,0,0,0,0,0,0,0,0,0,0,0,0,0,0,0,0,0,0,0,0,0,0,0,0,0,0,0,0,0,0,0,0,0,0,0,0,0,0,0,0,0,0,0,0,0,0,0,0,0,0,0,0,0,0,0,0,0,0,0,0,0,0,0,0,0,0,0,0,0,0,0,0,0,0,0,0,0,0,0,0,0,0,0,0,0,0,0,0,0,0,0,0,0,0,0,0,0,0,0,0,0,0,0,0,0,0,0,0,0,0,0,0,0,0,0,0,0,0,0,0,0,0,0,0,0,0,0,0,0,0,0,0,0,0,0,0,0,0,0,0,0,0,0,0,0,0,0,0,0,0,0,0,0,0,0,0,0,0,0,0,0,0,0,0,0,0,0,0,0,0,0,0,0,0,0,0,0,0,0,0,0,0,0,0,0,0,0,0,0,0,0,0,0,0,0,0,0,0,0,0,0,0,0,0,0,0],"trees":[{"base_weights":[-4.5009223E-8,-1.8214973E0,1.7258221E0,-1.0891684E0,-3.999053E-1,1.8452973E0,-3.9769122E-1,3.5163105E-1,-1.4849508E0,1.8883249E0,-1.3704327E0,-7.690718E-1,1.5389295E0,-1.6030867E0,-2.5861117E-1,1.9439288E0,1.1626567E0,-1.0489346E-1,-3.917949E-1,-4.292863E-1,-1.7486022E0,1.6242584E0,6.328036E-1,-1.9429445E0,-1.3420053E0,1.095673E0,-1.520119E0,1.7263311E0,1.9709486E0,6.1225414E-1,1.8840573E0,-3.6734694E-1,1.6001334E0,-2.1879177E-1,1.6315825E-2,-3.8181818E-1,-2.2318204E-1,2.4891722E-1,3.5364002E-1,2.0995331E-1,-2.4000001E-1,2.293713E-1,-3.9193892E-1,-1.3956138E-1,-3.8824168E-1,-1.991064E-1,3.1735867E-1,-1.5877761E-1,-3.831579E-1,3.688477E-1,-1.396033E-1,3.9740738E-1,3.780428E-1,-3.140802E-1,1.9065933E-1,2.5280595E-1,3.916951E-1,1.7470084E-1,3.558773E-1],"categories":[],"categories_nodes":[],"categories_segments":[],"categories_sizes":[],"default_left":[0,0,0,0,0,0,0,0,0,0,0,0,0,0,0,0,0,0,0,0,0,0,0,0,0,0,0,0,0,0,0,0,0,0,0,0,0,0,0,0,0,0,0,0,0,0,0,0,0,0,0,0,0,0,0,0,0,0,0],"id":0,"left_children":[1,3,5,7,-1,9,-1,11,13,15,17,19,21,23,25,27,29,31,-1,33,35,37,39,41,43,45,47,49,51,53,55,-1,57,-1,-1,-1,-1,-1,-1,-1,-1,-1,-1,-1,-1,-1,-1,-1,-1,-1,-1,-1,-1,-1,-1,-1,-1,-1,-1],"loss_changes":[3.3939664E4,6.826406E2,2.46383E3,5.8753186E2,0E0,7.458301E2,0E0,2.97436E2,1.16609375E2,2.1163672E2,5.305243E1,3.7591743E1,7.356842E0,6.2750732E1,1.2496067E2,2.5541016E1,1.4963922E2,7.3081184E1,0E0,2.9582184E1,8.4923553E-1,3.1809082E0,9.644155E0,1.8694214E1,1.6069366E2,3.7921715E1,9.335899E0,1.5900769E2,1.9199219E0,1.6295154E2,5.0858154E0,0E0,7.437897E-2,0E0,0E0,0E0,0E0,0E0,0E0,0E0,0E0,0E0,0E0,0E0,0E0,0E0,0E0,0E0,0E0,0E0,0E0,0E0,0E0,0E0,0E0,0E0,0E0,0E0,0E0],"parents":[2147483647,0,0,1,1,2,2,3,3,5,5,7,7,8,8,9,9,10,10,11,11,12,12,13,13,14,14,15,15,16,16,17,17,19,19,20,20,21,21,22,22,23,23,24,24,25,25,26,26,27,27,28,28,29,29,30,30,32,32],"right_children":[2,4,6,8,-1,10,-1,12,14,16,18,20,22,24,26,28,30,32,-1,34,36,38,40,42,44,46,48,50,52,54,56,-1,58,-1,-1,-1,-1,-1,-1,-1,-1,-1,-1,-1,-1,-1,-1,-1,-1,-1,-1,-1,-1,-1,-1,-1,-1,-1,-1],"split_conditions":[-4.260534E-2,5.230442E-1,5.230442E-1,-1.2541771E0,-3.999053E-1,1.36142E0,-3.9769122E-1,-6.233677E-1,7.088801E-2,1.1347432E0,4.1055804E-1,-8.8700897E-1,-9.980551E-1,-6.1020855E-2,1.2122284E0,4.7588833E-2,-3.1080833E-1,2.9384196E-1,-3.917949E-1,-1.0755491E0,-6.596742E-1,-6.1020855E-2,-5.926052E-1,-5.8403973E-2,5.879354E-1,-2.863345E-3,9.966572E-1,1.4721171E0,1.2503643E0,1.2158998E-1,9.5826286E-1,-3.6734694E-1,3.0210504E-1,-2.1879177E-1,1.6315825E-2,-3.8181818E-1,-2.2318204E-1,2.4891722E-1,3.5364002E-1,2.0995331E-1,-2.4000001E-1,2.293713E-1,-3.9193892E-1,-1.3956138E-1,-3.8824168E-1,-1.991064E-1,3.1735867E-1,-1.5877761E-1,-3.831579E-1,3.688477E-1,-1.396033E-1,3.9740738E-1,3.780428E-1,-3.140802E-1,1.9065933E-1,2.5280595E-1,3.916951E-1,1.7470084E-1,3.558773E-1],"split_indices":[9,4,4,2,0,2,0,3,8,2,0,1,1,9,3,9,1,9,0,1,1,9,3,8,3,0,2,3,3,9,1,0,0,0,0,0,0,0,0,0,0,0,0,0,0,0,0,0,0,0,0,0,0,0,0,0,0,0,0],"split_type":[0,0,0,0,0,0,0,0,0,0,0,0,0,0,0,0,0,0,0,0,0,0,0,0,0,0,0,0,0,0,0,0,0,0,0,0,0,0,0,0,0,0,0,0,0,0,0,0,0,0,0,0,0,0,0,0,0,0,0],"sum_hessian":[1.07945E4,5.2516533E3,5.5428467E3,1.0284032E3,4.22325E3,5.3705967E3,1.7225E2,2.2164433E2,8.067589E2,5.3000923E3,7.050417E1,1.1420106E2,1.0744327E2,7.3559064E2,7.116824E1,4.92132E3,3.7877252E2,2.2754171E1,4.775E1,8.585679E1,2.834427E1,9.747192E1,9.971357E0,3.167828E2,4.1880783E2,3.438543E1,3.6782814E1,5.5076166E2,4.370558E3,2.158985E2,1.6287402E2,1.125E1,1.1504171E1,3.6815628E1,4.9041157E1,2.1E1,7.3442717E0,2.9446886E1,6.8025024E1,8.471357E0,1.5E0,1.3442714E0,3.1543854E2,2.028693E2,2.1593854E2,6.3442717E0,2.8041157E1,1.4032814E1,2.275E1,5.2544604E2,2.5315628E1,3.6246516E3,7.4590656E2,2.8688543E1,1.8720996E2,1.9381256E1,1.4349277E2,3.4385428E0,8.065628E0],"tree_param":{"num_deleted":"0","num_feature":"12","num_nodes":"59","size_leaf_vector":"1"}},{"base_weights":[-1.6948997E-4,-1.517342E0,1.436995E0,-8.9807516E-1,-3.3399445E-1,1.5364292E0,-3.3236703E-1,2.8599122E-1,-1.2266904E0,1.5891013E0,-3.0024794E-1,-1.7420641E0,9.2181236E-1,-1.4885924E0,-8.7528276E-1,-3.7587953E-1,1.6038991E0,4.573847E-1,-1.1419095E0,-3.6922294E-1,-4.6376348E-1,1.10306755E-1,1.4603812E0,-1.343206E0,-3.3427235E-1,-1.4898149E0,-2.613378E-1,1.1527703E0,-3.8719714E-1,1.6307186E0,1.125707E0,8.2782465E-1,-4.5357028E-1,-1.563807E0,1.2773553E-1,1.8913291E-1,-2.6311812E-1,9.783463E-2,-3.1587416E-1,7.027363E-2,3.0014452E-1,-1.3716559E-2,-3.0744886E-1,-3.351938E-1,1.03995085E-1,5.8739033E-2,-2.931461E-1,-2.8954402E-1,2.8669935E-1,3.3043566E-1,3.0168396E-1,1.2692055E-1,3.2564518E-1,-2.4092892E-1,1.8496637E-1,-4.0070495E-1,2.7807E-1,-3.294655E-1,6.606083E-2,-2.8955135E-1,1.8755238E-1],"categories":[],"categories_nodes":[],"categories_segments":[],"categories_sizes":[],"default_left":[0,0,0,0,0,0,0,0,0,0,0,0,0,0,0,0,0,0,0,0,0,0,0,0,0,0,0,0,0,0,0,0,0,0,0,0,0,0,0,0,0,0,0,0,0,0,0,0,0,0,0,0,0,0,0,0,0,0,0,0,0],"id":1,"left_children":[1,3,5,7,-1,9,-1,11,13,15,17,19,21,23,25,27,29,31,33,-1,35,37,39,41,-1,43,45,47,-1,49,51,53,55,57,59,-1,-1,-1,-1,-1,-1,-1,-1,-1,-1,-1,-1,-1,-1,-1,-1,-1,-1,-1,-1,-1,-1,-1,-1,-1,-1],"loss_changes":[2.2688496E4,4.7694238E2,1.6490918E3,3.9064636E2,0E0,5.014121E2,0E0,2.8363754E2,7.09762E1,1.4697461E2,9.311037E1,6.133423E0,7.289963E1,9.674072E0,1.270571E2,9.389474E1,6.224121E1,2.6402348E1,3.7197937E1,0E0,7.5963917E0,4.41549E1,3.9644928E0,6.294275E1,0E0,6.3951447E1,1.1419941E2,1.6705198E1,0E0,9.919922E0,6.5247406E1,1.1994457E1,6.835597E1,8.757484E0,2.4522682E1,0E0,0E0,0E0,0E0,0E0,0E0,0E0,0E0,0E0,0E0,0E0,0E0,0E0,0E0,0E0,0E0,0E0,0E0,0E0,0E0,0E0,0E0,0E0,0E0,0E0,0E0],"parents":[2147483647,0,0,1,1,2,2,3,3,5,5,7,7,8,8,9,9,10,10,11,11,12,12,13,13,14,14,15,15,16,16,17,17,18,18,20,20,21,21,22,22,23,23,25,25,26,26,27,27,29,29,30,30,31,31,32,32,33,33,34,34],"right_children":[2,4,6,8,-1,10,-1,12,14,16,18,20,22,24,26,28,30,32,34,-1,36,38,40,42,-1,44,46,48,-1,50,52,54,56,58,60,-1,-1,-1,-1,-1,-1,-1,-1,-1,-1,-1,-1,-1,-1,-1,-1,-1,-1,-1,-1,-1,-1,-1,-1,-1,-1],"split_conditions":[-4.260534E-2,5.230442E-1,5.230442E-1,-1.2541771E0,-3.3399445E-1,1.3197247E0,-3.3236703E-1,-2.1902761E0,-2.1902761E0,-2.1902761E0,1.36142E0,-6.596742E-1,-6.233677E-1,1.0089035E0,-6.1020855E-2,2.4238369E-1,1.1563132E0,9.143302E-1,-9.929079E-1,-3.6922294E-1,-1.0396416E-1,-8.8700897E-1,-1.04915544E-1,-6.2840974E-1,-3.3427235E-1,2.2005966E-1,1.1784061E0,-8.5772865E-2,-3.8719714E-1,1.2967417E0,-4.7370774E-1,-2.1902761E0,6.0840783E0,2.3732634E0,3.938005E-1,1.8913291E-1,-2.6311812E-1,9.783463E-2,-3.1587416E-1,7.027363E-2,3.0014452E-1,-1.3716559E-2,-3.0744886E-1,-3.351938E-1,1.03995085E-1,5.8739033E-2,-2.931461E-1,-2.8954402E-1,2.8669935E-1,3.3043566E-1,3.0168396E-1,1.2692055E-1,3.2564518E-1,-2.4092892E-1,1.8496637E-1,-4.0070495E-1,2.7807E-1,-3.294655E-1,6.606083E-2,-2.8955135E-1,1.8755238E-1],"split_indices":[9,4,4,2,0,2,0,5,5,5,2,1,3,3,9,2,2,0,1,0,6,1,6,1,0,0,3,6,0,3,1,5,0,3,9,0,0,0,0,0,0,0,0,0,0,0,0,0,0,0,0,0,0,0,0,0,0,0,0,0,0],"split_type":[0,0,0,0,0,0,0,0,0,0,0,0,0,0,0,0,0,0,0,0,0,0,0,0,0,0,0,0,0,0,0,0,0,0,0,0,0,0,0,0,0,0,0,0,0,0,0,0,0,0,0,0,0,0,0,0,0,0,0,0,0],"sum_hessian":[1.0403531E4,5.0608667E3,5.3426646E3,1.0020666E3,4.0588003E3,5.1770493E3,1.656149E2,2.1771732E2,7.8434924E2,5.032852E3,1.441974E2,5.1550076E1,1.6616725E2,4.47554E2,3.3679526E2,3.743544E1,4.9954165E3,7.6127144E1,6.807027E1,4.72591E1,4.2909727E0,6.676771E1,9.9399536E1,2.5391956E2,1.9363445E2,1.6760416E2,1.6919109E2,1.9040222E1,1.839522E1,4.7278447E3,2.6757208E2,5.4184334E1,2.1942808E1,5.0918564E1,1.7151705E1,1.5749348E0,2.7160378E0,5.5119156E1,1.164855E1,3.8296623E0,9.556988E1,3.372646E1,2.201931E2,1.5354808E2,1.4056083E1,1.1633524E2,5.285584E1,1.4501168E0,1.7590105E1,4.0114507E3,7.1639386E2,1.3646736E2,1.311047E2,1.948193E0,5.223614E1,1.1874681E1,1.0068126E1,4.889293E1,2.0256362E0,5.5566964E0,1.1595009E1],"tree_param":{"num_deleted":"0","num_feature":"12","num_nodes":"61","size_leaf_vector":"1"}},{"base_weights":[-6.509588E-4,-1.335584E0,1.2626143E0,-7.7032685E-1,-2.9592678E-1,1.3497789E0,-2.9442883E-1,2.6069012E-1,-1.0494788E0,1.3976476E0,-2.59458E-1,-1.4811096E0,7.984211E-1,-1.1478438E0,-7.274242E-2,-3.2387438E-1,1.4110821E0,1.8334207E-1,-1.3673497E0,-3.1626812E-1,4.7149014E-2,1.4417237E-1,1.2511121E0,-9.433119E-1,-1.4573075E0,9.23787E-1,-1.0813421E0,9.893899E-1,-3.252208E-1,1.4390992E0,9.67635E-1,5.4965574E-1,-6.715708E-1,-2.9427007E-1,1.9180533E-1,7.85304E-2,-2.6915768E-1,2.644491E-1,6.0961682E-2,-2.7017573E-1,-4.4015184E-2,-1.7580056E-1,-2.9845822E-1,2.693013E-1,-1.09134376E-1,-8.841576E-2,-2.9197684E-1,-2.4624829E-1,2.4267104E-1,2.5826916E-1,2.9136306E-1,-2.5631601E-2,2.3257756E-1,-7.04794E-2,1.7584045E-1,-3.194507E-1,1.9708411E-1],"categories":[],"categories_nodes":[],"categories_segments":[],"categories_sizes":[],"default_left":[0,0,0,0,0,0,0,0,0,0,0,0,0,0,0,0,0,0,0,0,0,0,0,0,0,0,0,0,0,0,0,0,0,0,0,0,0,0,0,0,0,0,0,0,0,0,0,0,0,0,0,0,0,0,0,0,0],"id":2,"left_children":[1,3,5,7,-1,9,-1,11,13,15,17,19,21,23,25,27,29,31,33,-1,-1,35,37,39,41,43,45,47,-1,49,51,53,55,-1,-1,-1,-1,-1,-1,-1,-1,-1,-1,-1,-1,-1,-1,-1,-1,-1,-1,-1,-1,-1,-1,-1,-1],"loss_changes":[1.6121289E4,3.7732617E2,1.1728125E3,2.7255078E2,0E0,3.6707617E2,0E0,1.907239E2,7.14613E1,1.0738086E2,6.8126724E1,8.647835E0,4.5809196E1,4.144214E1,7.0551445E1,6.4222664E1,5.5603516E1,3.1602232E1,1.0998596E1,0E0,0E0,2.4457163E1,5.7660522E0,1.2059143E2,4.097046E0,2.2691458E1,7.788456E0,1.0869263E1,0E0,9.408203E0,5.9130463E1,2.1227896E1,4.8150246E1,0E0,0E0,0E0,0E0,0E0,0E0,0E0,0E0,0E0,0E0,0E0,0E0,0E0,0E0,0E0,0E0,0E0,0E0,0E0,0E0,0E0,0E0,0E0,0E0],"parents":[2147483647,0,0,1,1,2,2,3,3,5,5,7,7,8,8,9,9,10,10,11,11,12,12,13,13,14,14,15,15,16,16,17,17,18,18,21,21,22,22,23,23,24,24,25,25,26,26,27,27,29,29,30,30,31,31,32,32],"right_children":[2,4,6,8,-1,10,-1,12,14,16,18,20,22,24,26,28,30,32,34,-1,-1,36,38,40,42,44,46,48,-1,50,52,54,56,-1,-1,-1,-1,-1,-1,-1,-1,-1,-1,-1,-1,-1,-1,-1,-1,-1,-1,-1,-1,-1,-1,-1,-1],"split_conditions":[-4.260534E-2,5.230442E-1,5.230442E-1,-1.2843684E0,-2.9592678E-1,1.3197247E0,-2.9442883E-1,-2.1902761E0,7.088801E-2,-2.1902761E0,1.3770198E0,-6.596742E-1,-6.233677E-1,5.879354E-1,1.2122284E0,2.4238369E-1,1.1347432E0,9.143302E-1,1.5125402E0,-3.1626812E-1,4.7149014E-2,-8.8700897E-1,-1.7403999E-1,-6.233677E-1,-6.0173094E-2,-7.1934366E-1,9.966572E-1,-1.080601E0,-3.252208E-1,4.7588833E-2,-1.2454067E0,1.2158998E-1,8.38824E0,-2.9427007E-1,1.9180533E-1,7.85304E-2,-2.6915768E-1,2.644491E-1,6.0961682E-2,-2.7017573E-1,-4.4015184E-2,-1.7580056E-1,-2.9845822E-1,2.693013E-1,-1.09134376E-1,-8.841576E-2,-2.9197684E-1,-2.4624829E-1,2.4267104E-1,2.5826916E-1,2.9136306E-1,-2.5631601E-2,2.3257756E-1,-7.04794E-2,1.7584045E-1,-3.194507E-1,1.9708411E-1],"split_indices":[9,4,4,2,0,2,0,5,8,5,2,1,3,3,3,2,2,0,1,0,0,1,3,3,2,1,2,1,0,9,1,9,0,0,0,0,0,0,0,0,0,0,0,0,0,0,0,0,0,0,0,0,0,0,0,0,0],"split_type":[0,0,0,0,0,0,0,0,0,0,0,0,0,0,0,0,0,0,0,0,0,0,0,0,0,0,0,0,0,0,0,0,0,0,0,0,0,0,0,0,0,0,0,0,0,0,0,0,0,0,0,0,0,0,0,0,0],"sum_hessian":[9.557732E3,4.6470195E3,4.910713E3,9.450301E2,3.7019895E3,4.7595195E3,1.511932E2,2.0136746E2,7.4366266E2,4.622159E3,1.3736029E2,4.7087826E1,1.5427965E2,6.7546295E2,6.819965E1,3.561259E1,4.5865464E3,9.873328E1,3.8627014E1,4.456503E1,2.5227976E0,6.3632973E1,9.064667E1,4.091164E2,2.663466E2,3.4347397E1,3.385226E1,1.785078E1,1.7761808E1,4.3118765E3,2.7466995E2,6.936764E1,2.9365635E1,3.7325897E1,1.301117E0,5.5168957E1,8.464018E0,8.393968E1,6.706984E0,2.6110663E2,1.4800977E2,1.6683464E1,2.4966312E2,2.6739042E1,7.6083536E0,1.3396595E1,2.0455664E1,1.2233833E0,1.6627398E1,4.695635E2,3.8423132E3,4.159201E1,2.3307794E2,1.8542566E1,5.0825073E1,1.8863525E1,1.050211E1],"tree_param":{"num_deleted":"0","num_feature":"12","num_nodes":"57","size_leaf_vector":"1"}},{"base_weights":[-1.1479072E-3,-1.2128359E0,1.1437488E0,-6.740925E-1,-2.7133095E-1,1.22242E0,-2.697817E-1,-1.183865E0,-1.9042812E-1,1.2875856E0,1.8327118E-1,-1.1996528E0,1.6653752E-1,6.655222E-1,-6.2014943E-1,-1.810544E-1,1.2986621E0,1.2783159E0,-2.2265492E-1,-1.03801E0,-1.3478085E0,6.201216E-2,1.1167712E0,-1.2192545E0,-8.091472E-2,8.6437845E-1,-2.8646913E-1,1.3357584E0,1.1008544E0,1.3422167E0,-2.2635822E-1,2.265871E-2,-2.674286E-1,-1.3274717E-1,-2.515609E-1,-2.7300435E-1,-8.417716E-2,-2.406565E-1,6.604724E-2,2.3629048E-1,8.006763E-2,-2.77894E-1,1.2100916E-1,-2.1782263E-1,7.442456E-2,-2.4134342E-1,2.2638133E-1,8.7598376E-2,2.672628E-1,-5.4194536E-2,2.4037893E-1,2.731466E-1,1.115041E-1,3.506333E-2,-3.7052962E-1],"categories":[],"categories_nodes":[],"categories_segments":[],"categories_sizes":[],"default_left":[0,0,0,0,0,0,0,0,0,0,0,0,0,0,0,0,0,0,0,0,0,0,0,0,0,0,0,0,0,0,0,0,0,0,0,0,0,0,0,0,0,0,0,0,0,0,0,0,0,0,0,0,0,0,0],"id":3,"left_children":[1,3,5,7,-1,9,-1,11,13,15,17,19,-1,21,23,25,27,29,31,33,35,37,39,41,43,45,-1,47,49,51,-1,53,-1,-1,-1,-1,-1,-1,-1,-1,-1,-1,-1,-1,-1,-1,-1,-1,-1,-1,-1,-1,-1,-1,-1],"loss_changes":[1.1856395E4,3.208037E2,8.633994E2,2.1597586E2,0E0,2.8827246E2,0E0,1.4584534E1,1.6635538E2,6.544971E1,1.1255792E2,8.750671E0,0E0,4.11279E1,9.710211E1,4.1641853E1,2.772754E1,1.2061951E1,5.06427E1,1.6196487E1,2.9002686E0,2.2721075E1,3.5352707E0,4.5076447E1,7.322146E1,1.1035102E1,0E0,1.0834961E0,8.821307E1,4.7761536E-1,0E0,4.404247E1,0E0,0E0,0E0,0E0,0E0,0E0,0E0,0E0,0E0,0E0,0E0,0E0,0E0,0E0,0E0,0E0,0E0,0E0,0E0,0E0,0E0,0E0,0E0],"parents":[2147483647,0,0,1,1,2,2,3,3,5,5,7,7,8,8,9,9,10,10,11,11,13,13,14,14,15,15,16,16,17,17,18,18,19,19,20,20,21,21,22,22,23,23,24,24,25,25,27,27,28,28,29,29,31,31],"right_children":[2,4,6,8,-1,10,-1,12,14,16,18,20,-1,22,24,26,28,30,32,34,36,38,40,42,44,46,-1,48,50,52,-1,54,-1,-1,-1,-1,-1,-1,-1,-1,-1,-1,-1,-1,-1,-1,-1,-1,-1,-1,-1,-1,-1,-1,-1],"split_conditions":[-4.260534E-2,5.230442E-1,5.230442E-1,-2.1902761E0,-2.7133095E-1,1.235756E0,-2.697817E-1,3.5203594E-1,-1.2541771E0,-2.1902761E0,4.742818E-1,-5.8403973E-2,1.6653752E-1,-6.233677E-1,-6.1020855E-2,2.4238369E-1,1.3307807E0,2.699044E-1,1.3770198E0,-1.1521496E-1,7.088801E-2,-1.01873204E-1,-1.7403999E-1,4.6378785E-1,-1.5317683E-1,-8.5772865E-2,-2.8646913E-1,-1.0625375E-1,4.7588833E-2,8.286253E-2,-2.2635822E-1,-3.423086E-2,-2.674286E-1,-1.3274717E-1,-2.515609E-1,-2.7300435E-1,-8.417716E-2,-2.406565E-1,6.604724E-2,2.3629048E-1,8.006763E-2,-2.77894E-1,1.2100916E-1,-2.1782263E-1,7.442456E-2,-2.4134342E-1,2.2638133E-1,8.7598376E-2,2.672628E-1,-5.4194536E-2,2.4037893E-1,2.731466E-1,1.115041E-1,3.506333E-2,-3.7052962E-1],"split_indices":[9,7,7,5,0,2,0,8,2,5,3,8,0,3,9,2,3,8,2,0,8,6,3,8,8,6,0,6,9,6,0,6,0,0,0,0,0,0,0,0,0,0,0,0,0,0,0,0,0,0,0,0,0,0,0],"split_type":[0,0,0,0,0,0,0,0,0,0,0,0,0,0,0,0,0,0,0,0,0,0,0,0,0,0,0,0,0,0,0,0,0,0,0,0,0,0,0,0,0,0,0,0,0,0,0,0,0,0,0,0,0,0,0],"sum_hessian":[8.544643E3,4.1512046E3,4.393438E3,8.758752E2,3.2753296E3,4.2595127E3,1.3392563E2,4.2572348E2,4.501517E2,4.0079333E3,2.5157925E2,4.228183E2,2.9051983E0,1.5027473E2,2.9987695E2,2.98864E1,3.9780469E3,6.7456474E1,1.8412277E2,2.0603423E2,2.1678406E2,6.477744E1,8.54973E1,1.4145517E2,1.584218E2,1.6451042E1,1.3435358E1,3.3449832E3,6.3306384E2,6.614579E1,1.3106815E0,1.5170923E2,3.2413548E1,7.7716125E1,1.283181E2,2.1236769E2,4.416369E0,1.0720318E1,5.4057125E1,7.7822266E1,7.6750355E0,1.2960115E2,1.1854009E1,4.8681355E1,1.0974045E2,1.4803268E0,1.4970715E1,2.5567603E0,3.3424263E3,4.331343E1,5.8975037E2,6.3502262E1,2.6435277E0,1.4112738E2,1.0581855E1],"tree_param":{"num_deleted":"0","num_feature":"12","num_nodes":"55","size_leaf_vector":"1"}},{"base_weights":[-1.6281399E-3,-1.1225318E0,1.0556161E0,-5.9556353E-1,-2.543538E-1,1.1278619E0,-2.5264797E-1,-1.0687815E0,-1.6629396E-1,1.2045105E0,2.8702307E-1,-1.1211126E0,-4.0095517E-1,5.716554E-1,-5.381101E-1,-1.2559325E-1,1.2146623E0,-9.6488535E-2,1.195043E0,-9.386951E-1,-2.5546202E-1,7.59557E-1,-2.5425088E-1,4.656638E-2,1.001064E0,-1.1226938E0,-6.834239E-2,7.669754E-1,-2.5968444E-1,1.2462218E0,1.0390035E0,-1.2521179E0,1.3049251E-1,1.223592E0,-1.4239012E-1,-2.4242066E-1,-6.873093E-2,-2.175231E-1,4.1205907E-1,5.8105756E-2,-2.50304E-1,1.2259489E-1,2.3069377E-1,-2.587244E-1,7.4819535E-2,1.05387606E-1,-1.805391E-1,-2.1455598E-1,2.0530866E-1,2.3231457E-1,2.5142035E-1,-1.5829122E-2,2.266002E-1,-2.9835495E-1,5.9489656E-2,6.613911E-2,-2.4699037E-1,2.5011715E-1,8.836109E-2],"categories":[],"categories_nodes":[],"categories_segments":[],"categories_sizes":[],"default_left":[0,0,0,0,0,0,0,0,0,0,0,0,0,0,0,0,0,0,0,0,0,0,0,0,0,0,0,0,0,0,0,0,0,0,0,0,0,0,0,0,0,0,0,0,0,0,0,0,0,0,0,0,0,0,0,0,0,0,0],"id":4,"left_children":[1,3,5,7,-1,9,-1,11,13,15,17,19,21,23,25,27,29,31,33,35,-1,37,-1,39,41,43,45,47,-1,49,51,53,55,57,-1,-1,-1,-1,-1,-1,-1,-1,-1,-1,-1,-1,-1,-1,-1,-1,-1,-1,-1,-1,-1,-1,-1,-1,-1],"loss_changes":[8.907104E3,2.861499E2,6.494009E2,1.6376175E2,0E0,2.4143848E2,0E0,1.2959442E1,1.1674183E2,4.657373E1,1.0971376E2,8.923065E0,3.069729E1,3.211999E1,7.755571E1,2.920424E1,1.7619629E1,5.844632E1,5.96315E0,2.6856812E1,0E0,3.405568E1,0E0,2.1020428E1,3.9319E0,3.2691833E1,7.8852295E1,8.708546E0,0E0,1.1992188E0,5.5336487E1,1.4025154E1,5.1424725E1,1.3999481E0,0E0,0E0,0E0,0E0,0E0,0E0,0E0,0E0,0E0,0E0,0E0,0E0,0E0,0E0,0E0,0E0,0E0,0E0,0E0,0E0,0E0,0E0,0E0,0E0,0E0],"parents":[2147483647,0,0,1,1,2,2,3,3,5,5,7,7,8,8,9,9,10,10,11,11,12,12,13,13,14,14,15,15,16,16,17,17,18,18,19,19,21,21,23,23,24,24,25,25,26,26,27,27,29,29,30,30,31,31,32,32,33,33],"right_children":[2,4,6,8,-1,10,-1,12,14,16,18,20,22,24,26,28,30,32,34,36,-1,38,-1,40,42,44,46,48,-1,50,52,54,56,58,-1,-1,-1,-1,-1,-1,-1,-1,-1,-1,-1,-1,-1,-1,-1,-1,-1,-1,-1,-1,-1,-1,-1,-1,-1],"split_conditions":[-4.260534E-2,5.230442E-1,5.230442E-1,-2.1902761E0,-2.543538E-1,1.1826016E0,-2.5264797E-1,1.5336057E0,-1.2541771E0,-2.1902761E0,5.398144E-1,3.2384592E-1,1.1190419E0,-6.233677E-1,-6.1020855E-2,2.4238369E-1,1.3307807E0,1.2158998E-1,3.5904968E-1,-4.7599488E-1,-2.5546202E-1,-6.1020855E-2,-2.5425088E-1,-8.8700897E-1,-6.1020855E-2,2.2005966E-1,4.5857286E-1,-8.5772865E-2,-2.5968444E-1,4.7588833E-2,4.7588833E-2,-6.2408175E-2,1.3770198E0,2.0272274E-1,-1.4239012E-1,-2.4242066E-1,-6.873093E-2,-2.175231E-1,4.1205907E-1,5.8105756E-2,-2.50304E-1,1.2259489E-1,2.3069377E-1,-2.587244E-1,7.4819535E-2,1.05387606E-1,-1.805391E-1,-2.1455598E-1,2.0530866E-1,2.3231457E-1,2.5142035E-1,-1.5829122E-2,2.266002E-1,-2.9835495E-1,5.9489656E-2,6.613911E-2,-2.4699037E-1,2.5011715E-1,8.836109E-2],"split_indices":[9,4,4,5,0,2,0,1,2,5,1,2,2,3,9,2,3,9,0,3,0,9,0,1,9,0,3,6,0,9,9,1,2,0,0,0,0,0,0,0,0,0,0,0,0,0,0,0,0,0,0,0,0,0,0,0,0,0,0],"split_type":[0,0,0,0,0,0,0,0,0,0,0,0,0,0,0,0,0,0,0,0,0,0,0,0,0,0,0,0,0,0,0,0,0,0,0,0,0,0,0,0,0,0,0,0,0,0,0,0,0,0,0,0,0,0,0,0,0,0,0],"sum_hessian":[7.514105E3,3.6472175E3,3.8668875E3,8.0603467E2,2.8411829E3,3.75055E3,1.1633748E2,3.82683E2,4.2335165E2,3.4368254E3,3.137245E2,3.5424548E2,2.8437534E1,1.4165977E2,2.816919E2,2.594647E1,3.4108792E3,2.2119446E2,9.253003E1,1.6664105E2,1.8760443E2,1.2241366E1,1.6196167E1,6.422845E1,7.743133E1,1.2488894E2,1.5680295E2,1.4930116E1,1.1016355E1,2.8862346E3,5.246445E2,3.557171E1,1.8562276E2,9.15183E1,1.0117247E0,1.13467964E2,5.317308E1,5.1259193E0,7.115447E0,5.472047E1,9.50798E0,2.3249634E1,5.4181698E1,1.12210625E2,1.2678309E1,9.172731E1,6.507564E1,1.4586445E0,1.3471471E1,3.4098846E2,2.545246E3,4.069647E1,4.8394803E2,3.0839367E1,4.7323427E0,1.6254764E2,2.3075111E1,8.7884155E1,3.634144E0],"tree_param":{"num_deleted":"0","num_feature":"12","num_nodes":"59","size_leaf_vector":"1"}},{"base_weights":[-2.2308587E-3,-1.0529902E0,9.8665994E-1,-5.319401E-1,-2.4211669E-1,1.0537866E0,-2.4017206E-1,-9.769411E-1,-1.4687945E-1,1.1227329E0,1.1509655E-1,-9.9405223E-1,1.5973233E-1,4.4735238E-1,-4.9711615E-1,-1.6871913E-1,1.133112E0,-2.2936389E-1,1.0719855E0,-1.0470376E0,-3.617893E-1,7.368824E-1,-1.9360307E-1,-1.0359721E0,-1.1186943E-1,6.855796E-1,-2.4211095E-1,1.1585515E0,7.929109E-1,-1.1800884E0,-3.1420566E-2,1.1539418E0,-5.103634E-1,-1.7452727E-1,-2.4041319E-1,1.1702402E-1,-2.3762928E-1,2.417557E-2,1.8326367E-1,-2.2856176E-1,8.69787E-2,-2.4548161E-1,9.8630905E-2,-2.5156003E-1,6.501915E-2,-1.935974E-1,1.876281E-1,1.9635996E-1,2.3620509E-1,1.16556466E-1,2.3739222E-1,-2.683734E-1,-2.3690632E-2,3.3922236E-2,-2.3302388E-1,1.1684784E-3,2.4868904E-1,-2.3364198E-1,9.107392E-2],"categories":[],"categories_nodes":[],"categories_segments":[],"categories_sizes":[],"default_left":[0,0,0,0,0,0,0,0,0,0,0,0,0,0,0,0,0,0,0,0,0,0,0,0,0,0,0,0,0,0,0,0,0,0,0,0,0,0,0,0,0,0,0,0,0,0,0,0,0,0,0,0,0,0,0,0,0,0,0],"id":5,"left_children":[1,3,5,7,-1,9,-1,11,13,15,17,19,-1,21,23,25,27,29,31,33,35,37,39,41,43,45,-1,47,49,51,53,55,57,-1,-1,-1,-1,-1,-1,-1,-1,-1,-1,-1,-1,-1,-1,-1,-1,-1,-1,-1,-1,-1,-1,-1,-1,-1,-1],"loss_changes":[6.7912524E3,2.5955713E2,4.9568286E2,1.2625119E2,0E0,2.1132812E2,0E0,1.11848755E1,8.276866E1,4.0988037E1,7.430137E1,1.0984192E1,0E0,2.7534859E1,5.178604E1,2.3202013E1,2.5213623E1,3.1207857E1,8.324127E0,7.3982544E0,2.2412937E1,1.1150963E1,2.8369581E1,3.1080933E1,7.397136E1,6.9426036E0,0E0,9.991699E0,1.6965683E1,4.750263E0,3.1750671E1,5.8516464E0,2.83848E0,0E0,0E0,0E0,0E0,0E0,0E0,0E0,0E0,0E0,0E0,0E0,0E0,0E0,0E0,0E0,0E0,0E0,0E0,0E0,0E0,0E0,0E0,0E0,0E0,0E0,0E0],"parents":[2147483647,0,0,1,1,2,2,3,3,5,5,7,7,8,8,9,9,10,10,11,11,13,13,14,14,15,15,16,16,17,17,18,18,19,19,20,20,21,21,22,22,23,23,24,24,25,25,27,27,28,28,29,29,30,30,31,31,32,32],"right_children":[2,4,6,8,-1,10,-1,12,14,16,18,20,-1,22,24,26,28,30,32,34,36,38,40,42,44,46,-1,48,50,52,54,56,58,-1,-1,-1,-1,-1,-1,-1,-1,-1,-1,-1,-1,-1,-1,-1,-1,-1,-1,-1,-1,-1,-1,-1,-1,-1,-1],"split_conditions":[-4.260534E-2,5.230442E-1,5.230442E-1,-2.1902761E0,-2.4211669E-1,1.235756E0,-2.4017206E-1,3.5203594E-1,-1.0873823E0,-2.1902761E0,5.398144E-1,1.5336057E0,1.5973233E-1,-1.0238864E0,-6.1020855E-2,2.4238369E-1,1.0493301E0,3.5203594E-1,1.441446E-1,3.2384592E-1,1.1190419E0,-1.8010783E0,-9.350939E-2,4.6378785E-1,-1.5317683E-1,-8.5772865E-2,-2.4211095E-1,4.7588833E-2,-3.1080833E-1,1.4433777E-1,1.3770198E0,-1.5317683E-1,1.1794019E0,-1.7452727E-1,-2.4041319E-1,1.1702402E-1,-2.3762928E-1,2.417557E-2,1.8326367E-1,-2.2856176E-1,8.69787E-2,-2.4548161E-1,9.8630905E-2,-2.5156003E-1,6.501915E-2,-1.935974E-1,1.876281E-1,1.9635996E-1,2.3620509E-1,1.16556466E-1,2.3739222E-1,-2.683734E-1,-2.3690632E-2,3.3922236E-2,-2.3302388E-1,1.1684784E-3,2.4868904E-1,-2.3364198E-1,9.107392E-2],"split_indices":[9,4,4,5,0,2,0,8,2,5,1,1,0,1,9,2,2,8,0,2,2,2,6,8,8,6,0,9,1,1,2,8,1,0,0,0,0,0,0,0,0,0,0,0,0,0,0,0,0,0,0,0,0,0,0,0,0,0,0],"split_type":[0,0,0,0,0,0,0,0,0,0,0,0,0,0,0,0,0,0,0,0,0,0,0,0,0,0,0,0,0,0,0,0,0,0,0,0,0,0,0,0,0,0,0,0,0,0,0,0,0,0,0,0,0,0,0,0,0,0,0],"sum_hessian":[6.5337935E3,3.167771E3,3.3660227E3,7.3663E2,2.4311409E3,3.2663103E3,9.971245E1,3.4100516E2,3.9562482E2,3.0426345E3,2.2367584E2,3.381863E2,2.81887E0,1.4660649E2,2.4901833E2,2.4136072E1,3.0184983E3,1.6502905E2,5.8646782E1,3.114315E2,2.675481E1,1.0088529E2,4.5721195E1,1.0310842E2,1.4590991E2,1.3449509E1,1.06865635E1,2.8062478E3,2.1225061E2,2.7583477E1,1.3744559E2,5.6016216E1,2.6305642E0,1.496781E2,1.6175339E2,1.2604008E1,1.4150803E1,2.3135311E1,7.7749985E1,1.7887594E1,2.78336E1,9.181157E1,1.1296851E1,3.976049E1,1.0614942E2,1.4067236E0,1.2042786E1,3.2160428E2,2.4846436E3,1.4004832E2,7.220228E1,2.370691E1,3.8765674E0,1.1746639E2,1.997919E1,4.1281347E0,5.188808E1,1.4399946E0,1.1905696E0],"tree_param":{"num_deleted":"0","num_feature":"12","num_nodes":"59","size_leaf_vector":"1"}},{"base_weights":[-2.9093681E-3,7.082912E-1,-2.3304348E-1,-8.577706E-1,8.7162393E-1,-6.432338E-1,-1.078176E0,-4.8442563E-1,9.336382E-1,-7.3039985E-1,2.5145203E-1,-1.1337038E0,-1.1392374E-1,1.423026E-1,-8.7688416E-1,1.0271724E0,8.7650225E-2,-4.2790225E-1,-2.3279583E-1,-7.449617E-1,-2.392553E-1,2.4312623E-1,-2.299762E-1,3.106267E-1,-3.708348E-1,-1.0727595E0,5.918326E-1,1.0902966E0,7.117987E-1,1.0039902E0,-1.7728369E-1,-2.927632E-2,-2.6010796E-1,-2.3331538E-1,2.039516E-1,-1.6625799E-1,1.1842825E-1,3.3033356E-1,-2.2757328E-1,2.1072383E-1,-2.0465325E-1,1.4456384E-1,2.248919E-1,-2.0952049E-1,1.7499208E-1,-1.6846418E-1,2.131619E-1,4.149842E-3,-1.8260007E-1],"categories":[],"categories_nodes":[],"categories_segments":[],"categories_sizes":[],"default_left":[0,0,0,0,0,0,0,0,0,0,0,0,0,0,0,0,0,0,0,0,0,0,0,0,0,0,0,0,0,0,0,0,0,0,0,0,0,0,0,0,0,0,0,0,0,0,0,0,0],"id":6,"left_children":[1,3,-1,5,7,9,11,13,15,17,-1,19,21,23,25,27,29,31,-1,33,-1,-1,-1,35,-1,37,39,41,43,45,47,-1,-1,-1,-1,-1,-1,-1,-1,-1,-1,-1,-1,-1,-1,-1,-1,-1,-1],"loss_changes":[4.67207E3,8.9764795E2,0E0,1.498938E1,2.675144E2,2.9171318E1,8.551025E0,3.4446373E1,2.4023975E2,2.097268E1,0E0,2.8348083E0,1.5087551E1,1.8922056E1,2.5360313E1,5.366626E1,7.384928E1,2.3887074E1,0E0,1.8963085E1,0E0,0E0,0E0,1.6952663E1,0E0,1.5393547E1,9.1016865E0,2.7769775E1,1.326711E2,8.683075E0,3.4439922E1,0E0,0E0,0E0,0E0,0E0,0E0,0E0,0E0,0E0,0E0,0E0,0E0,0E0,0E0,0E0,0E0,0E0,0E0],"parents":[2147483647,0,0,1,1,3,3,4,4,5,5,6,6,7,7,8,8,9,9,11,11,12,12,13,13,14,14,15,15,16,16,17,17,19,19,23,23,25,25,26,26,27,27,28,28,29,29,30,30],"right_children":[2,4,-1,6,8,10,12,14,16,18,-1,20,22,24,26,28,30,32,-1,34,-1,-1,-1,36,-1,38,40,42,44,46,48,-1,-1,-1,-1,-1,-1,-1,-1,-1,-1,-1,-1,-1,-1,-1,-1,-1,-1],"split_conditions":[5.230442E-1,-2.1902761E0,-2.3304348E-1,-5.8403973E-2,-6.233677E-1,-1.5317683E-1,7.088801E-2,-1.5323207E0,1.1826016E0,1.0089035E0,2.5145203E-1,-1.0453917E-1,6.1061468E-2,-5.5140395E-2,-1.1521496E-1,1.3173324E0,3.8240984E-1,-7.395898E-2,-2.3279583E-1,-1.04854286E-1,-2.392553E-1,2.4312623E-1,-2.299762E-1,-1.0082773E-1,-3.708348E-1,-3.3090368E-1,-1.5317683E-1,-8.532156E-2,-2.863345E-3,-9.881766E-2,1.36142E0,-2.927632E-2,-2.6010796E-1,-2.3331538E-1,2.039516E-1,-1.6625799E-1,1.1842825E-1,3.3033356E-1,-2.2757328E-1,2.1072383E-1,-2.0465325E-1,1.4456384E-1,2.248919E-1,-2.0952049E-1,1.7499208E-1,-1.6846418E-1,2.131619E-1,4.149842E-3,-1.8260007E-1],"split_indices":[4,5,0,8,3,8,8,2,2,3,0,6,2,6,0,3,3,6,0,6,0,0,0,6,0,5,8,0,0,0,2,0,0,0,0,0,0,0,0,0,0,0,0,0,0,0,0,0,0],"split_type":[0,0,0,0,0,0,0,0,0,0,0,0,0,0,0,0,0,0,0,0,0,0,0,0,0,0,0,0,0,0,0,0,0,0,0,0,0,0,0,0,0,0,0,0,0,0,0,0,0],"sum_hessian":[5.649922E3,3.5054036E3,2.1445186E3,3.3066653E2,3.174737E3,1.695497E2,1.6111682E2,1.3853859E2,3.0361985E3,1.6270302E2,6.8466864E0,1.5217773E2,8.939086E0,5.359254E1,8.494605E1,2.7337366E3,3.0246185E2,9.700909E1,6.569393E1,2.288801E1,1.2928972E2,3.838846E0,5.1002398E0,5.020421E1,3.3883328E0,7.518818E1,9.7578745E0,2.2757688E3,4.5796793E2,6.7209946E1,2.352519E2,7.4229675E1,2.2779408E1,1.8747845E1,4.1401668E0,9.542747E0,4.066146E1,1.1861128E0,7.400207E1,7.8586E0,1.8992743E0,1.9545781E2,2.080311E3,3.8406227E1,4.195617E2,1.7684181E0,6.544153E1,1.8612454E2,4.9127365E1],"tree_param":{"num_deleted":"0","num_feature":"12","num_nodes":"49","size_leaf_vector":"1"}},{"base_weights":[-3.9110472E-3,-9.5307666E-1,8.795322E-1,-4.5698777E-1,-2.2611897E-1,9.3783104E-1,-2.233917E-1,-2.6466998E-1,-1.1081969E0,1.035696E0,2.4368379E-1,-6.684153E-1,1.3064311E-1,-2.329715E-1,-8.4153813E-1,7.514571E-1,1.076633E0,3.9218217E-3,1.0867792E0,-3.196647E-1,-9.662034E-1,7.479397E-1,-5.2671885E-1,-2.2117932E-1,-2.5192496E-1,1.0554317E0,-1.1156812E-1,1.1056155E0,9.332406E-1,-7.083725E-1,2.600099E-1,1.1147594E0,-3.9262477E-2,-1.0205503E-1,2.9195064E-1,-7.860979E-2,-2.2055064E-1,3.3966273E-1,1.0940384E-1,-2.0602094E-1,1.11505225E-1,-1.82375E-1,3.3099365E-1,2.213146E-2,2.1427198E-1,-5.274397E-1,5.4628152E-2,8.351194E-2,2.2140904E-1,1.3606572E-1,1.9586562E-1,-1.8361394E-1,4.5778856E-2,-6.2255707E-2,1.16409816E-1,1.0241021E-1,2.2771986E-1],"categories":[],"categories_nodes":[],"categories_segments":[],"categories_sizes":[],"default_left":[0,0,0,0,0,0,0,0,0,0,0,0,0,0,0,0,0,0,0,0,0,0,0,0,0,0,0,0,0,0,0,0,0,0,0,0,0,0,0,0,0,0,0,0,0,0,0,0,0,0,0,0,0,0,0,0,0],"id":7,"left_children":[1,3,5,7,-1,9,-1,11,13,15,17,19,21,-1,23,25,27,29,31,33,35,37,39,41,-1,43,45,47,49,51,53,55,-1,-1,-1,-1,-1,-1,-1,-1,-1,-1,-1,-1,-1,-1,-1,-1,-1,-1,-1,-1,-1,-1,-1,-1,-1],"loss_changes":[4.09602E3,2.068562E2,2.955171E2,7.76357E1,0E0,1.6677563E2,0E0,7.696771E1,1.1584625E0,2.4261475E1,6.1673355E1,2.4456772E1,9.949641E1,0E0,7.089777E0,7.2144684E1,6.7856445E0,4.3700867E1,2.6441422E0,3.850506E1,9.595131E0,2.319992E1,6.544725E1,1.790271E1,0E0,2.9384003E0,7.108594E1,1.0718994E0,3.0950012E0,1.2662447E1,3.259948E1,3.690796E-1,0E0,0E0,0E0,0E0,0E0,0E0,0E0,0E0,0E0,0E0,0E0,0E0,0E0,0E0,0E0,0E0,0E0,0E0,0E0,0E0,0E0,0E0,0E0,0E0,0E0],"parents":[2147483647,0,0,1,1,2,2,3,3,5,5,7,7,8,8,9,9,10,10,11,11,12,12,14,14,15,15,16,16,17,17,18,18,19,19,20,20,21,21,22,22,23,23,25,25,26,26,27,27,28,28,29,29,30,30,31,31],"right_children":[2,4,6,8,-1,10,-1,12,14,16,18,20,22,-1,24,26,28,30,32,34,36,38,40,42,-1,44,46,48,50,52,54,56,-1,-1,-1,-1,-1,-1,-1,-1,-1,-1,-1,-1,-1,-1,-1,-1,-1,-1,-1,-1,-1,-1,-1,-1,-1],"split_conditions":[-4.260534E-2,5.230442E-1,5.230442E-1,1.2122284E0,-2.2611897E-1,1.1347432E0,-2.233917E-1,-6.233677E-1,7.088801E-2,4.7588833E-2,1.0348036E0,-5.8403973E-2,-1.8981484E-1,-2.329715E-1,9.966572E-1,4.4303963E-1,8.0589813E-1,2.2688009E-1,2.1667036E-1,-1.5317683E-1,-1.0488598E0,-1.1521496E-1,-2.863345E-3,9.9087954E-1,-2.5192496E-1,-2.1902761E0,-1.5317683E-1,-2.1902761E0,-1.2326341E0,-6.2408175E-2,-1.2512287E0,-8.532156E-2,-3.9262477E-2,-1.0205503E-1,2.9195064E-1,-7.860979E-2,-2.2055064E-1,3.3966273E-1,1.0940384E-1,-2.0602094E-1,1.11505225E-1,-1.82375E-1,3.3099365E-1,2.213146E-2,2.1427198E-1,-5.274397E-1,5.4628152E-2,8.351194E-2,2.2140904E-1,1.3606572E-1,1.9586562E-1,-1.8361394E-1,4.5778856E-2,-6.2255707E-2,1.16409816E-1,1.0241021E-1,2.2771986E-1],"split_indices":[9,4,4,3,0,2,0,3,8,9,1,8,3,0,2,3,2,9,8,8,1,0,0,2,0,5,8,5,1,1,1,0,0,0,0,0,0,0,0,0,0,0,0,0,0,0,0,0,0,0,0,0,0,0,0,0,0],"split_type":[0,0,0,0,0,0,0,0,0,0,0,0,0,0,0,0,0,0,0,0,0,0,0,0,0,0,0,0,0,0,0,0,0,0,0,0,0,0,0,0,0,0,0,0,0,0,0,0,0,0,0,0,0,0,0,0,0],"sum_hessian":[4.8827397E3,2.3537776E3,2.528962E3,6.212418E2,1.7325359E3,2.457725E3,7.1236855E1,4.8068915E2,1.405527E2,2.1536052E3,3.0411993E2,2.3746649E2,2.4322264E2,1.1314325E2,2.7409452E1,2.7355807E2,1.8800471E3,2.3756512E2,6.655482E1,1.1032927E2,1.2713723E2,1.2536278E2,1.1785987E2,1.16508665E1,1.5758585E1,2.021381E2,7.141999E1,1.5583604E3,3.216868E2,6.2356888E1,1.7520824E2,6.526283E1,1.2919848E0,1.0029856E2,1.0030703E1,2.5207914E1,1.0192931E2,2.0577328E1,1.04785446E2,8.052446E1,3.733541E1,8.891473E0,2.7593935E0,3.4831564E0,1.9865494E2,8.66683E0,6.275316E1,3.8390443E0,1.5545212E3,5.2013954E1,2.6967285E2,5.0973034E1,1.1383854E1,6.3173546E1,1.1203469E2,3.3385222E0,6.192431E1],"tree_param":{"num_deleted":"0","num_feature":"12","num_nodes":"57","size_leaf_vector":"1"}},{"base_weights":[-4.0747398E-3,-9.069707E-1,8.318413E-1,-4.0568826E-1,-2.2078486E-1,8.863789E-1,-2.17575E-1,-2.2961752E-1,-1.0571743E0,1.0070801E0,2.8492612E-1,-5.901293E-1,1.1014786E-1,-2.3255466E-1,-4.450448E-1,7.2291523E-1,1.04966E0,8.667672E-2,1.0465336E0,-1.4959562E-1,-7.868914E-1,7.655188E-1,-3.4236312E-1,7.7790636E-1,-2.1525307E-1,1.0015275E0,-3.3393864E-2,-6.830683E-2,1.0523859E0,-9.303712E-1,2.703603E-1,1.0698164E0,3.537949E-1,-2.2254823E-1,3.0555323E-2,-1.927372E-1,-2.1077555E-2,-2.9050454E-1,1.729035E-1,4.517627E-2,-2.4825402E-1,-1.4110641E-1,2.6890963E-1,-1.1999168E-2,2.0503771E-1,2.3633102E-1,-9.0308696E-2,1.5969458E-1,-2.8801987E-1,2.1588515E-1,1.8780401E-1,-1.5629841E-2,-2.8801605E-1,7.3260024E-2,-2.1684964E-1,9.1948986E-2,2.1823029E-1,-6.4357504E-2,1.4741175E-1],"categories":[],"categories_nodes":[],"categories_segments":[],"categories_sizes":[],"default_left":[0,0,0,0,0,0,0,0,0,0,0,0,0,0,0,0,0,0,0,0,0,0,0,0,0,0,0,0,0,0,0,0,0,0,0,0,0,0,0,0,0,0,0,0,0,0,0,0,0,0,0,0,0,0,0,0,0,0,0],"id":8,"left_children":[1,3,5,7,-1,9,-1,11,13,15,17,19,21,-1,23,25,27,29,31,33,35,37,39,41,-1,43,45,47,49,51,53,55,57,-1,-1,-1,-1,-1,-1,-1,-1,-1,-1,-1,-1,-1,-1,-1,-1,-1,-1,-1,-1,-1,-1,-1,-1,-1,-1],"loss_changes":[3.1724995E3,1.990586E2,2.2948218E2,6.53216E1,0E0,1.5382849E2,0E0,5.5337936E1,7.325409E0,2.062976E1,5.369438E1,1.8873627E1,6.940574E1,0E0,1.5868258E1,4.9250824E1,4.7506104E0,5.3257816E1,8.067093E-1,2.0229725E1,1.8117958E1,2.223439E1,7.1083115E1,7.008495E0,0E0,4.349518E0,3.2972775E1,6.706439E0,3.6807861E0,1.8839767E1,3.173158E1,4.1727448E-1,1.2427361E0,0E0,0E0,0E0,0E0,0E0,0E0,0E0,0E0,0E0,0E0,0E0,0E0,0E0,0E0,0E0,0E0,0E0,0E0,0E0,0E0,0E0,0E0,0E0,0E0,0E0,0E0],"parents":[2147483647,0,0,1,1,2,2,3,3,5,5,7,7,8,8,9,9,10,10,11,11,12,12,14,14,15,15,16,16,17,17,18,18,19,19,20,20,21,21,22,22,23,23,25,25,26,26,27,27,28,28,29,29,30,30,31,31,32,32],"right_children":[2,4,6,8,-1,10,-1,12,14,16,18,20,22,-1,24,26,28,30,32,34,36,38,40,42,-1,44,46,48,50,52,54,56,58,-1,-1,-1,-1,-1,-1,-1,-1,-1,-1,-1,-1,-1,-1,-1,-1,-1,-1,-1,-1,-1,-1,-1,-1,-1,-1],"split_conditions":[-4.260534E-2,5.230442E-1,5.230442E-1,1.2122284E0,-2.2078486E-1,1.0493301E0,-2.17575E-1,-6.233677E-1,-7.0484653E-3,4.7588833E-2,1.0348036E0,-8.8700897E-1,-3.7746647E-1,-2.3255466E-1,7.5882087E-3,5.255913E-1,-1.0617012E-1,1.2158998E-1,2.373149E-1,-2.1902761E0,9.185625E-1,-1.04915544E-1,-6.2840974E-1,5.5523023E-2,-2.1525307E-1,-2.1902761E0,2.67025E-2,2.787962E-1,1.1672772E0,2.976834E-2,1.3770198E0,-8.532156E-2,1.7290087E0,-2.2254823E-1,3.0555323E-2,-1.927372E-1,-2.1077555E-2,-2.9050454E-1,1.729035E-1,4.517627E-2,-2.4825402E-1,-1.4110641E-1,2.6890963E-1,-1.1999168E-2,2.0503771E-1,2.3633102E-1,-9.0308696E-2,1.5969458E-1,-2.8801987E-1,2.1588515E-1,1.8780401E-1,-1.5629841E-2,-2.8801605E-1,7.3260024E-2,-2.1684964E-1,9.1948986E-2,2.1823029E-1,-6.4357504E-2,1.4741175E-1],"split_indices":[9,4,4,3,0,2,0,3,6,9,1,1,3,0,6,3,6,9,0,5,2,6,1,0,0,5,9,2,3,0,2,0,1,0,0,0,0,0,0,0,0,0,0,0,0,0,0,0,0,0,0,0,0,0,0,0,0,0,0],"split_type":[0,0,0,0,0,0,0,0,0,0,0,0,0,0,0,0,0,0,0,0,0,0,0,0,0,0,0,0,0,0,0,0,0,0,0,0,0,0,0,0,0,0,0,0,0,0,0,0,0,0,0,0,0,0,0,0,0,0,0],"sum_hessian":[4.2014053E3,2.0197416E3,2.1816636E3,5.705779E2,1.4491638E3,2.1219197E3,5.9743805E1,4.502466E2,1.2033125E2,1.7666993E3,3.5522043E2,2.1809628E2,2.3215031E2,1.018598E2,1.8471453E1,2.3257095E2,1.5341284E3,2.8273676E2,7.248368E1,6.7879684E1,1.502166E2,9.453856E1,1.3761176E2,6.2091737E0,1.2262279E1,1.6972333E2,6.2847622E1,3.6731396E0,1.5304552E3,4.2630188E1,2.4010657E2,6.9600105E1,2.8835757E0,1.5578259E1,5.2301426E1,1.1894579E2,3.1270805E1,3.4551272E0,9.1083435E1,8.477189E1,5.283987E1,1.6484656E0,4.560708E0,3.6671076E0,1.6605623E2,1.5623454E1,4.7224167E1,2.5070019E0,1.1661377E0,1.2288357E3,3.0161957E2,1.6386179E1,2.6244009E1,2.2490717E2,1.5199404E1,3.1136866E0,6.648641E1,1.1018093E0,1.7817664E0],"tree_param":{"num_deleted":"0","num_feature":"12","num_nodes":"59","size_leaf_vector":"1"}},{"base_weights":[-4.8639686E-3,-8.6603415E-1,7.86123E-1,-3.643275E-1,-2.1660984E-1,8.3703446E-1,-2.1280502E-1,-2.0363425E-1,-1.017429E0,9.6835256E-1,2.4532703E-1,-6.160072E-1,9.4315395E-2,-2.2555125E-1,-4.1328874E-1,6.6406953E-1,1.0166048E0,6.940185E-2,1.0109122E0,-9.1512784E-2,-2.2555561E-1,-2.9704323E-1,5.173151E-1,6.474822E-1,-2.0702803E-1,9.9041754E-1,4.1254938E-2,1.0511292E0,8.655632E-1,-7.895939E-1,2.237777E-1,1.0551968E0,-1.24191456E-1,2.742003E-1,-5.9180427E-2,-1.4673549E-2,-2.1346073E-1,2.2359402E-1,8.496502E-3,-1.4781705E-1,2.6136807E-1,2.1853557E-1,1.540673E-1,-2.765426E-1,1.1763958E-1,2.145633E-1,1.9942977E-1,-2.1439402E-1,1.770424E-1,-2.2449403E-1,5.2478712E-2,6.529776E-2,-1.986157E-1,8.2325906E-2,2.160801E-1],"categories":[],"categories_nodes":[],"categories_segments":[],"categories_sizes":[],"default_left":[0,0,0,0,0,0,0,0,0,0,0,0,0,0,0,0,0,0,0,0,0,0,0,0,0,0,0,0,0,0,0,0,0,0,0,0,0,0,0,0,0,0,0,0,0,0,0,0,0,0,0,0,0,0,0],"id":9,"left_children":[1,3,5,7,-1,9,-1,11,13,15,17,19,21,-1,23,25,27,29,31,33,-1,35,37,39,-1,41,43,45,47,49,51,53,-1,-1,-1,-1,-1,-1,-1,-1,-1,-1,-1,-1,-1,-1,-1,-1,-1,-1,-1,-1,-1,-1,-1],"loss_changes":[2.4631313E3,1.880946E2,1.7842786E2,5.4810738E1,0E0,1.4233716E2,0E0,5.1903862E1,6.4169235E0,2.1367432E1,4.4995457E1,4.7442314E1,4.0850864E1,0E0,1.223024E1,4.2311043E1,5.8374023E0,3.639875E1,5.168087E0,2.6880066E1,0E0,2.2031513E1,3.375225E1,7.4495363E0,0E0,2.2343903E0,5.7423637E1,1.5783691E-1,1.032933E1,1.49434395E1,2.9360485E1,5.474396E-1,0E0,0E0,0E0,0E0,0E0,0E0,0E0,0E0,0E0,0E0,0E0,0E0,0E0,0E0,0E0,0E0,0E0,0E0,0E0,0E0,0E0,0E0,0E0],"parents":[2147483647,0,0,1,1,2,2,3,3,5,5,7,7,8,8,9,9,10,10,11,11,12,12,14,14,15,15,16,16,17,17,18,18,19,19,21,21,22,22,23,23,25,25,26,26,27,27,28,28,29,29,30,30,31,31],"right_children":[2,4,6,8,-1,10,-1,12,14,16,18,20,22,-1,24,26,28,30,32,34,-1,36,38,40,-1,42,44,46,48,50,52,54,-1,-1,-1,-1,-1,-1,-1,-1,-1,-1,-1,-1,-1,-1,-1,-1,-1,-1,-1,-1,-1,-1,-1],"split_conditions":[-4.260534E-2,5.230442E-1,5.230442E-1,1.2122284E0,-2.1660984E-1,1.0493301E0,-2.1280502E-1,-6.1020855E-2,-7.0484653E-3,4.7588833E-2,1.0348036E0,-6.701593E-1,-1.5317683E-1,-2.2555125E-1,7.5882087E-3,2.0152271E-1,1.2122284E0,1.2158998E-1,2.1667036E-1,-5.8403973E-2,-2.2555561E-1,-7.395898E-2,-5.181593E-1,7.088801E-2,-2.0702803E-1,-5.602432E-1,-3.583287E-2,3.1224668E-1,-1.059192E-1,-2.794485E-1,-2.7958E-2,-8.532156E-2,-1.24191456E-1,2.742003E-1,-5.9180427E-2,-1.4673549E-2,-2.1346073E-1,2.2359402E-1,8.496502E-3,-1.4781705E-1,2.6136807E-1,2.1853557E-1,1.540673E-1,-2.765426E-1,1.1763958E-1,2.145633E-1,1.9942977E-1,-2.1439402E-1,1.770424E-1,-2.2449403E-1,5.2478712E-2,6.529776E-2,-1.986157E-1,8.2325906E-2,2.160801E-1],"split_indices":[9,4,4,3,0,2,0,9,6,9,1,1,8,0,6,3,3,9,8,8,0,6,3,8,0,3,8,3,6,1,6,0,0,0,0,0,0,0,0,0,0,0,0,0,0,0,0,0,0,0,0,0,0,0,0],"split_type":[0,0,0,0,0,0,0,0,0,0,0,0,0,0,0,0,0,0,0,0,0,0,0,0,0,0,0,0,0,0,0,0,0,0,0,0,0,0,0,0,0,0,0,0,0,0,0,0,0,0,0,0,0,0,0],"sum_hessian":[3.6140076E3,1.7301973E3,1.8838103E3,5.232348E2,1.2069625E3,1.8338937E3,4.9916595E1,4.2096875E2,1.0226604E2,1.5002953E3,3.3359836E2,1.7613045E2,2.448383E2,8.574136E1,1.6524666E1,2.0736913E2,1.2929261E3,2.7215097E2,6.1447403E1,8.75661E1,8.856434E1,1.273303E2,1.1750801E2,6.0918345E0,1.0432833E1,1.3568268E2,7.1686455E1,1.0475278E3,2.4539836E2,4.0832325E1,2.3131863E2,6.0167988E1,1.2794157E0,1.0037153E1,7.7528946E1,9.952464E1,2.7805656E1,5.128232E1,6.622569E1,1.9242992E0,4.1675353E0,8.993134E1,4.5751328E1,1.946949E1,5.2216965E1,7.3382947E2,3.1369836E2,1.9259558E0,2.4347241E2,3.0966667E1,9.86566E0,2.1398825E2,1.7330393E1,2.920717E0,5.7247272E1],"tree_param":{"num_deleted":"0","num_feature":"12","num_nodes":"55","size_leaf_vector":"1"}},{"base_weights":[-5.2089705E-3,-8.243669E-1,7.407084E-1,-3.221411E-1,-2.1330659E-1,8.961476E-1,1.5078998E-1,-1.7597365E-1,-9.850461E-1,9.328965E-1,-2.051492E-1,9.3899846E-1,9.637195E-3,-2.9123044E-1,8.172733E-1,-2.1983841E-1,-3.8830313E-1,6.174646E-1,9.854283E-1,9.892729E-1,-1.1951747E-1,-7.40934E-1,1.7222658E-1,-6.69539E-1,-2.8178241E-2,9.740192E-1,-1.8392105E-1,5.631597E-1,-1.9961305E-1,9.207296E-1,-2.1208446E-2,1.0270274E0,8.084427E-1,1.0254713E0,-6.0366638E-2,-4.8258644E-1,-3.1471416E-1,3.2412672E-1,-6.1945105E-1,2.503202E-1,-1.6082154E-1,-2.1779306E-1,1.5882863E-2,2.043684E-1,-5.580706E-2,1.6831511E-1,-1.5661974E-1,-1.3966084E-1,2.2651131E-1,-3.1101247E-2,1.9067825E-1,-3.824546E-1,5.677374E-2,2.6425457E-2,2.0596288E-1,2.4007903E-2,1.7556886E-1,7.351128E-2,2.1128045E-1,-1.61046E-1,4.449528E-2,3.2488313E-2,2.1733642E-1,-2.197843E-1,1.2536971E-1],"categories":[],"categories_nodes":[],"categories_segments":[],"categories_sizes":[],"default_left":[0,0,0,0,0,0,0,0,0,0,0,0,0,0,0,0,0,0,0,0,0,0,0,0,0,0,0,0,0,0,0,0,0,0,0,0,0,0,0,0,0,0,0,0,0,0,0,0,0,0,0,0,0,0,0,0,0,0,0,0,0,0,0,0,0],"id":10,"left_children":[1,3,5,7,-1,9,11,13,15,17,-1,19,21,23,25,-1,27,29,31,33,-1,35,37,39,41,43,45,47,-1,49,51,53,55,57,-1,59,-1,61,63,-1,-1,-1,-1,-1,-1,-1,-1,-1,-1,-1,-1,-1,-1,-1,-1,-1,-1,-1,-1,-1,-1,-1,-1,-1,-1],"loss_changes":[1.9065531E3,1.8052264E2,1.4961823E2,4.6842354E1,0E0,9.223291E1,3.8016964E1,4.588968E1,5.529434E0,2.0413086E1,0E0,4.6005096E0,3.5625454E1,3.5612804E1,6.72731E0,0E0,9.60498E0,3.561782E1,7.1640625E0,2.6758766E0,0E0,1.0422153E1,2.905043E1,3.896071E1,2.4310354E1,2.456581E0,4.6464996E0,5.6226606E0,0E0,4.5296173E0,3.5245255E1,2.0474854E0,9.991959E0,6.1860657E-1,0E0,9.531883E0,0E0,2.4721249E1,2.3972164E1,0E0,0E0,0E0,0E0,0E0,0E0,0E0,0E0,0E0,0E0,0E0,0E0,0E0,0E0,0E0,0E0,0E0,0E0,0E0,0E0,0E0,0E0,0E0,0E0,0E0,0E0],"parents":[2147483647,0,0,1,1,2,2,3,3,5,5,6,6,7,7,8,8,9,9,11,11,12,12,13,13,14,14,16,16,17,17,18,18,19,19,21,21,22,22,23,23,24,24,25,25,26,26,27,27,29,29,30,30,31,31,32,32,33,33,35,35,37,37,38,38],"right_children":[2,4,6,8,-1,10,12,14,16,18,-1,20,22,24,26,-1,28,30,32,34,-1,36,38,40,42,44,46,48,-1,50,52,54,56,58,-1,60,-1,62,64,-1,-1,-1,-1,-1,-1,-1,-1,-1,-1,-1,-1,-1,-1,-1,-1,-1,-1,-1,-1,-1,-1,-1,-1,-1,-1],"split_conditions":[-4.260534E-2,5.230442E-1,1.0410353E0,1.2122284E0,-2.1330659E-1,5.230442E-1,6.2302798E-2,7.088801E-2,-7.0484653E-3,4.7588833E-2,-2.051492E-1,5.230442E-1,1.2158998E-1,-6.1020855E-2,5.515848E-1,-2.1983841E-1,7.5882087E-3,5.255913E-1,1.2122284E0,9.49612E-2,-1.1951747E-1,3.5203594E-1,1.3569906E0,-5.8403973E-2,-1.04854286E-1,9.4020724E-1,-5.869147E-1,7.088801E-2,-1.9961305E-1,-2.1902761E0,-1.5317683E-1,-2.1902761E0,1.2158998E-1,-8.532156E-2,-6.0366638E-2,7.088801E-2,-3.1471416E-1,4.822275E0,2.1636386E0,2.503202E-1,-1.6082154E-1,-2.1779306E-1,1.5882863E-2,2.043684E-1,-5.580706E-2,1.6831511E-1,-1.5661974E-1,-1.3966084E-1,2.2651131E-1,-3.1101247E-2,1.9067825E-1,-3.824546E-1,5.677374E-2,2.6425457E-2,2.0596288E-1,2.4007903E-2,1.7556886E-1,7.351128E-2,2.1128045E-1,-1.61046E-1,4.449528E-2,3.2488313E-2,2.1733642E-1,-2.197843E-1,1.2536971E-1],"split_indices":[9,4,2,3,0,4,3,8,6,9,0,4,9,9,2,0,6,3,3,8,0,8,2,8,6,8,3,8,0,5,8,5,9,0,0,8,0,0,3,0,0,0,0,0,0,0,0,0,0,0,0,0,0,0,0,0,0,0,0,0,0,0,0,0,0],"split_type":[0,0,0,0,0,0,0,0,0,0,0,0,0,0,0,0,0,0,0,0,0,0,0,0,0,0,0,0,0,0,0,0,0,0,0,0,0,0,0,0,0,0,0,0,0,0,0,0,0,0,0,0,0,0,0,0,0,0,0,0,0,0,0,0,0],"sum_hessian":[3.1182588E3,1.486117E3,1.6321418E3,4.8422256E2,1.0018944E3,1.291359E3,3.407828E2,3.9777948E2,8.644306E1,1.267635E3,2.3724092E1,5.0900112E1,2.898827E2,3.5705362E2,4.072586E1,7.185629E1,1.4586766E1,1.8279274E2,1.0848422E3,4.9632416E1,1.2676996E0,5.0980633E1,2.3890207E2,1.458107E2,2.1124292E2,3.5236427E1,5.4894342E0,5.7269516E0,8.859815E0,1.2364162E2,5.915112E1,8.7449585E2,2.103464E2,4.8478962E1,1.1534507E0,4.011384E1,1.0866794E1,2.0093835E2,3.7963707E1,9.001532E0,1.3680917E2,1.861278E1,1.9263014E2,3.4118805E1,1.1176251E0,1.875298E0,3.614136E0,1.7106715E0,4.01628E0,3.5309868E0,1.20110634E2,7.4851537E0,5.1665966E1,2.8652995E0,8.7163055E2,1.9514011E1,1.9083238E2,2.755312E0,4.572365E1,2.7422823E1,1.2691015E1,1.6678734E2,3.415102E1,2.7501652E1,1.0462053E1],"tree_param":{"num_deleted":"0","num_feature":"12","num_nodes":"65","size_leaf_vector":"1"}},{"base_weights":[-5.537352E-3,-7.8019667E-1,6.9617546E-1,-2.7986917E-1,-2.1066852E-1,8.6176485E-1,1.2943241E-1,-1.482064E-1,-9.5713466E-1,8.9700353E-1,-2.0107944E-1,-5.8831805E-3,8.982263E-1,1.5389594E-1,-4.3439537E-1,-2.1508288E-1,-3.669238E-1,9.788305E-1,6.4490414E-1,-9.051861E-1,1.0063124E-1,9.5475614E-1,-1.2191963E-1,-1.281095E-2,9.279316E-1,-2.1674049E-1,-1.1429847E-1,-1.9051294E-1,5.1226085E-1,7.920727E-1,1.01103E0,-1.4288168E-1,7.832873E-1,-1.047017E0,3.694082E-1,1.9357452E-1,-9.34111E-1,2.0151825E-1,-9.968095E-2,-2.8703311E-2,2.0078896E-1,6.214095E-2,2.0765193E-1,3.1662047E-2,-2.3020585E-1,1.9955352E-1,-1.3638666E-1,1.9571309E-1,9.849023E-2,2.0382749E-1,1.6814494E-1,1.9904076E-1,-1.4514968E-1,-2.6519755E-1,1.6129975E-1,-2.5539145E-1,-3.9018936E-2,2.549573E-1,-1.3870487E-1,6.532124E-2,-1.0894614E-1,-3.6322188E-1,2.7362678E-2],"categories":[],"categories_nodes":[],"categories_segments":[],"categories_sizes":[],"default_left":[0,0,0,0,0,0,0,0,0,0,0,0,0,0,0,0,0,0,0,0,0,0,0,0,0,0,0,0,0,0,0,0,0,0,0,0,0,0,0,0,0,0,0,0,0,0,0,0,0,0,0,0,0,0,0,0,0,0,0,0,0,0,0],"id":11,"left_children":[1,3,5,7,-1,9,11,13,15,17,-1,19,21,23,25,-1,27,29,31,33,35,37,-1,39,41,-1,43,-1,45,47,49,51,53,55,57,59,61,-1,-1,-1,-1,-1,-1,-1,-1,-1,-1,-1,-1,-1,-1,-1,-1,-1,-1,-1,-1,-1,-1,-1,-1,-1,-1],"loss_changes":[1.4690089E3,1.7524109E2,1.3296124E2,4.0426746E1,0E0,7.309235E1,3.3482056E1,3.3101593E1,4.762001E0,2.1593567E1,0E0,2.6397587E1,4.6878357E0,2.4092125E1,4.071143E1,0E0,7.6189075E0,4.0789185E0,2.9212646E1,5.662382E0,2.388225E1,4.096813E0,0E0,2.0680664E1,1.9302902E0,0E0,3.769065E1,0E0,4.267785E0,6.443947E0,9.3811035E-2,2.7740833E1,1.219342E1,4.946213E0,4.40764E0,2.2469828E1,1.9596455E1,0E0,0E0,0E0,0E0,0E0,0E0,0E0,0E0,0E0,0E0,0E0,0E0,0E0,0E0,0E0,0E0,0E0,0E0,0E0,0E0,0E0,0E0,0E0,0E0,0E0,0E0],"parents":[2147483647,0,0,1,1,2,2,3,3,5,5,6,6,7,7,8,8,9,9,11,11,12,12,13,13,14,14,16,16,17,17,18,18,19,19,20,20,21,21,23,23,24,24,26,26,28,28,29,29,30,30,31,31,32,32,33,33,34,34,35,35,36,36],"right_children":[2,4,6,8,-1,10,12,14,16,18,-1,20,22,24,26,-1,28,30,32,34,36,38,-1,40,42,-1,44,-1,46,48,50,52,54,56,58,60,62,-1,-1,-1,-1,-1,-1,-1,-1,-1,-1,-1,-1,-1,-1,-1,-1,-1,-1,-1,-1,-1,-1,-1,-1,-1,-1],"split_conditions":[-4.260534E-2,5.230442E-1,1.0410353E0,1.2122284E0,-2.1066852E-1,5.230442E-1,1.0485295E0,-6.2840974E-1,-7.0484653E-3,5.667993E-1,-2.0107944E-1,4.7588833E-2,5.230442E-1,7.088801E-2,-6.1020855E-2,-2.1508288E-1,7.088801E-2,4.7588833E-2,4.7588833E-2,2.4225688E0,-2.7958E-2,2.1667036E-1,-1.2191963E-1,-7.1229005E-1,-1.0250049E-1,-2.1674049E-1,-3.9199755E-1,-1.9051294E-1,7.5882087E-3,-5.07668E-2,2.906799E0,-5.9048283E-1,-1.059192E-1,1.3569906E0,2.4561193E0,1.3569906E0,9.916594E-1,2.0151825E-1,-9.968095E-2,-2.8703311E-2,2.0078896E-1,6.214095E-2,2.0765193E-1,3.1662047E-2,-2.3020585E-1,1.9955352E-1,-1.3638666E-1,1.9571309E-1,9.849023E-2,2.0382749E-1,1.6814494E-1,1.9904076E-1,-1.4514968E-1,-2.6519755E-1,1.6129975E-1,-2.5539145E-1,-3.9018936E-2,2.549573E-1,-1.3870487E-1,6.532124E-2,-1.0894614E-1,-3.6322188E-1,2.7362678E-2],"split_indices":[9,7,2,3,0,7,1,1,6,2,0,9,7,8,9,0,8,9,9,3,6,8,0,1,6,0,3,0,6,3,8,3,6,2,3,2,9,0,0,0,0,0,0,0,0,0,0,0,0,0,0,0,0,0,0,0,0,0,0,0,0,0,0],"split_type":[0,0,0,0,0,0,0,0,0,0,0,0,0,0,0,0,0,0,0,0,0,0,0,0,0,0,0,0,0,0,0,0,0,0,0,0,0,0,0,0,0,0,0,0,0,0,0,0,0,0,0,0,0,0,0,0,0,0,0,0,0,0,0],"sum_hessian":[2.7004297E3,1.2834485E3,1.4169812E3,4.5395453E2,8.29494E2,1.0961814E3,3.2079984E2,3.8108844E2,7.28661E1,1.0763865E3,1.9794893E1,2.7363043E2,4.716941E1,1.8561484E2,1.9547359E2,6.001655E1,1.2849549E1,8.1044714E2,2.659394E2,2.8182962E1,2.4544746E2,4.581843E1,1.350979E0,1.5353163E2,3.2083218E1,6.375761E1,1.3171597E2,7.662173E0,5.1873765E0,1.2294731E2,6.874998E2,3.9730354E1,2.2620903E2,2.552159E1,2.6613739E0,2.2596373E2,1.9483736E1,4.4506836E1,1.3115934E0,1.368041E2,1.6727541E1,5.4438663E0,2.6639353E1,1.0496317E2,2.6752804E1,3.8049402E0,1.3824363E0,7.438316E1,4.8564148E1,6.515005E2,3.5999344E1,1.3216615E1,2.6513739E1,1.851297E0,2.2435773E2,1.9704332E1,5.817257E0,1.3295699E0,1.3318039E0,1.9193713E2,3.4026604E1,1.0302723E1,9.181013E0],"tree_param":{"num_deleted":"0","num_feature":"12","num_nodes":"63","size_leaf_vector":"1"}},{"base_weights":[-6.2439875E-3,-7.368916E-1,6.502092E-1,-2.4462983E-1,-2.085434E-1,8.8978857E-1,2.4258223E-1,-1.2703773E-1,-9.324371E-1,9.202823E-1,-1.9321842E-1,2.0151643E-1,1.308671E-1,-4.8859915E-1,8.953151E-2,-2.1103628E-1,-3.485415E-1,6.235286E-1,9.7218037E-1,-5.1736605E-1,2.9565662E-1,-1.8874046E-1,-8.471357E-1,-3.9714027E-2,7.9348236E-1,4.5278287E-1,-1.8674847E-1,7.3684275E-1,-9.89648E-1,-6.2009007E-2,9.765677E-1,-2.1478517E-1,-1.2171357E0,5.6382406E-1,-1.0213512E-1,7.130645E-3,-2.1820317E-1,-2.0628308E-1,8.808815E-2,2.1797007E-2,-2.2458966E-1,-6.353211E-2,1.9329564E-1,-1.21683255E-1,1.7742412E-1,1.8967675E-1,8.5284054E-2,-3.5674992E-1,1.1944278E-1,1.235361E-1,-1.3651484E-1,2.04433E-1,1.7975879E-1,-1.4996366E-1,1.4024995E-1,-4.0346757E-1,-5.1360995E-2,-5.279225E-1,1.1978822E-1,-8.4250055E-2,1.590324E-1],"categories":[],"categories_nodes":[],"categories_segments":[],"categories_sizes":[],"default_left":[0,0,0,0,0,0,0,0,0,0,0,0,0,0,0,0,0,0,0,0,0,0,0,0,0,0,0,0,0,0,0,0,0,0,0,0,0,0,0,0,0,0,0,0,0,0,0,0,0,0,0,0,0,0,0,0,0,0,0,0,0],"id":12,"left_children":[1,3,5,7,-1,9,11,13,15,17,-1,-1,19,21,23,-1,25,27,29,31,33,35,37,39,41,43,-1,45,47,49,51,53,55,57,59,-1,-1,-1,-1,-1,-1,-1,-1,-1,-1,-1,-1,-1,-1,-1,-1,-1,-1,-1,-1,-1,-1,-1,-1,-1,-1],"loss_changes":[1.1282528E3,1.6733893E2,1.2079065E2,3.4490227E1,0E0,4.5032776E1,3.918477E1,2.8748135E1,4.0984993E0,1.1220581E1,0E0,0E0,4.3156902E1,1.4620293E1,2.0966919E1,0E0,6.1990585E0,2.2134045E1,3.0181274E0,1.7092674E1,3.436578E1,1.5456855E1,1.5242538E1,3.1590544E1,7.177334E0,3.246412E0,0E0,6.8179626E0,1.1287668E1,1.979645E0,1.3833008E0,2.9164532E1,1.833015E1,2.3209393E1,3.766067E1,0E0,0E0,0E0,0E0,0E0,0E0,0E0,0E0,0E0,0E0,0E0,0E0,0E0,0E0,0E0,0E0,0E0,0E0,0E0,0E0,0E0,0E0,0E0,0E0,0E0,0E0],"parents":[2147483647,0,0,1,1,2,2,3,3,5,5,6,6,7,7,8,8,9,9,12,12,13,13,14,14,16,16,17,17,18,18,19,19,20,20,21,21,22,22,23,23,24,24,25,25,27,27,28,28,29,29,30,30,31,31,32,32,33,33,34,34],"right_children":[2,4,6,8,-1,10,12,14,16,18,-1,-1,20,22,24,-1,26,28,30,32,34,36,38,40,42,44,-1,46,48,50,52,54,56,58,60,-1,-1,-1,-1,-1,-1,-1,-1,-1,-1,-1,-1,-1,-1,-1,-1,-1,-1,-1,-1,-1,-1,-1,-1,-1,-1],"split_conditions":[-4.260534E-2,5.230442E-1,8.0589813E-1,1.2122284E0,-2.085434E-1,5.230442E-1,-5.441085E-1,-2.1902761E0,-7.0484653E-3,4.7588833E-2,-1.9321842E-1,2.0151643E-1,1.2158998E-1,-5.8403973E-2,-2.863345E-3,-2.1103628E-1,7.5882087E-3,5.8124346E-1,-2.1902761E0,1.441446E-1,1.235756E0,-7.395898E-2,-3.583287E-2,3.9957535E-2,-1.0396416E-1,7.088801E-2,-1.8674847E-1,-5.07668E-2,2.0272274E-1,1.08403765E-1,3.1224668E-1,7.088801E-2,1.8529909E0,-1.059192E-1,2.1009629E0,7.130645E-3,-2.1820317E-1,-2.0628308E-1,8.808815E-2,2.1797007E-2,-2.2458966E-1,-6.353211E-2,1.9329564E-1,-1.21683255E-1,1.7742412E-1,1.8967675E-1,8.5284054E-2,-3.5674992E-1,1.1944278E-1,1.235361E-1,-1.3651484E-1,2.04433E-1,1.7975879E-1,-1.4996366E-1,1.4024995E-1,-4.0346757E-1,-5.1360995E-2,-5.279225E-1,1.1978822E-1,-8.4250055E-2,1.590324E-1],"split_indices":[9,4,2,3,0,4,3,5,6,9,0,0,9,8,0,0,6,2,5,0,2,6,8,3,6,8,0,3,0,9,3,8,3,6,3,0,0,0,0,0,0,0,0,0,0,0,0,0,0,0,0,0,0,0,0,0,0,0,0,0,0],"split_type":[0,0,0,0,0,0,0,0,0,0,0,0,0,0,0,0,0,0,0,0,0,0,0,0,0,0,0,0,0,0,0,0,0,0,0,0,0,0,0,0,0,0,0,0,0,0,0,0,0,0,0,0,0,0,0,0,0,0,0,0,0],"sum_hessian":[2.3503118E3,1.1122401E3,1.2380717E3,4.2689792E2,6.853422E2,7.790239E2,4.5904767E2,3.6558054E2,6.131737E1,7.6692676E2,1.2097158E1,5.7472153E1,4.0157553E2,1.3647688E2,2.2910365E2,4.999953E1,1.1317841E1,1.1609701E2,6.508298E2,8.096068E1,3.2061484E2,7.515125E1,6.132563E1,1.9436227E2,3.4741375E1,4.872344E0,6.4454966E0,1.0898483E2,7.1121716E0,2.6938434E0,6.481359E2,5.7433376E1,2.35273E1,1.9126085E2,1.29354E2,6.09529E1,1.4198353E1,5.3821568E1,7.5040646E0,1.7169284E2,2.2669443E1,4.567614E0,3.0173761E1,1.2986401E0,3.573704E0,6.3593304E1,4.5391533E1,4.6574197E0,2.454752E0,1.287894E0,1.4059495E0,4.009335E2,2.4720242E2,3.6371277E1,2.1062101E1,1.2233217E1,1.1294083E1,1.2697088E0,1.8999113E2,9.581046E1,3.354354E1],"tree_param":{"num_deleted":"0","num_feature":"12","num_nodes":"61","size_leaf_vector":"1"}},{"base_weights":[-6.999561E-3,4.1048855E-1,-2.0694983E-1,-2.1483138E-1,6.4737576E-1,-1.1022923E-1,-9.096422E-1,8.7047833E-1,2.2346026E-1,-3.842275E-1,1.343516E-1,-2.0750593E-1,-3.316243E-1,9.741983E-1,6.811183E-1,-3.2842395E-1,3.5066795E-1,-1.9218674E-1,-9.329683E-1,5.342264E-1,-3.541568E-1,-1.7869656E-1,4.0803686E-1,9.8962665E-1,2.58879E-1,-9.5958614E-1,7.7425516E-1,-1.4898773E0,-6.324826E-2,7.0170254E-1,3.4089815E-2,-1.518099E-1,3.006888E-2,-1.24716304E-1,-2.349834E-1,2.7832872E-1,6.94512E-2,-2.1705149E-1,3.6430053E-2,1.5850054E-1,-1.1753646E-1,1.0896917E-1,2.0103641E-1,-4.3906894E-1,1.5753165E-1,-5.0872266E-1,1.8531576E-2,1.8318506E-1,5.5558868E-2,-6.454923E-2,-3.830566E-1,3.0471584E-2,-3.2209188E-1,-1.4888065E-1,1.4479943E-1,-8.498614E-2,6.465991E-2],"categories":[],"categories_nodes":[],"categories_segments":[],"categories_sizes":[],"default_left":[0,0,0,0,0,0,0,0,0,0,0,0,0,0,0,0,0,0,0,0,0,0,0,0,0,0,0,0,0,0,0,0,0,0,0,0,0,0,0,0,0,0,0,0,0,0,0,0,0,0,0,0,0,0,0,0,0],"id":13,"left_children":[1,3,-1,5,7,9,11,13,15,17,19,-1,21,23,25,27,29,31,33,35,37,-1,39,41,43,45,47,49,51,53,55,-1,-1,-1,-1,-1,-1,-1,-1,-1,-1,-1,-1,-1,-1,-1,-1,-1,-1,-1,-1,-1,-1,-1,-1,-1,-1],"loss_changes":[8.82973E2,2.1691519E2,0E0,2.9175951E1,1.00207825E2,2.3590332E1,3.5419807E0,1.2990356E1,2.5908234E1,1.7305435E1,3.6586716E1,0E0,4.9334383E0,4.675293E0,3.8846375E1,2.12612E1,3.3211002E1,2.4223228E1,2.4677086E0,1.6005917E1,3.3317875E1,0E0,2.5453935E0,2.4762268E0,1.5729973E1,2.3305603E1,1.6380203E1,5.7589283E0,1.9424784E1,5.109436E0,2.1152283E1,0E0,0E0,0E0,0E0,0E0,0E0,0E0,0E0,0E0,0E0,0E0,0E0,0E0,0E0,0E0,0E0,0E0,0E0,0E0,0E0,0E0,0E0,0E0,0E0,0E0,0E0],"parents":[2147483647,0,0,1,1,3,3,4,4,5,5,6,6,7,7,8,8,9,9,10,10,12,12,13,13,14,14,15,15,16,16,17,17,18,18,19,19,20,20,22,22,23,23,24,24,25,25,26,26,27,27,28,28,29,29,30,30],"right_children":[2,4,-1,6,8,10,12,14,16,18,20,-1,22,24,26,28,30,32,34,36,38,-1,40,42,44,46,48,50,52,54,56,-1,-1,-1,-1,-1,-1,-1,-1,-1,-1,-1,-1,-1,-1,-1,-1,-1,-1,-1,-1,-1,-1,-1,-1,-1,-1],"split_conditions":[5.230442E-1,-4.260534E-2,-2.0694983E-1,1.2122284E0,1.2967417E0,-6.233677E-1,-7.0484653E-3,2.3551664E-1,1.2158998E-1,-8.232279E-2,-1.8981484E-1,-2.0750593E-1,7.088801E-2,1.48776E0,-1.5317683E-1,-2.863345E-3,1.1347432E0,-1.01873204E-1,-5.5140395E-2,-1.1521496E-1,-8.532156E-2,-1.7869656E-1,7.5882087E-3,-9.881766E-2,6.005073E-1,-2.5346132E-2,6.1976117E-1,-1.0333687E-1,7.1780497E-1,-1.059192E-1,1.8455223E0,-1.518099E-1,3.006888E-2,-1.24716304E-1,-2.349834E-1,2.7832872E-1,6.94512E-2,-2.1705149E-1,3.6430053E-2,1.5850054E-1,-1.1753646E-1,1.0896917E-1,2.0103641E-1,-4.3906894E-1,1.5753165E-1,-5.0872266E-1,1.8531576E-2,1.8318506E-1,5.5558868E-2,-6.454923E-2,-3.830566E-1,3.0471584E-2,-3.2209188E-1,-1.4888065E-1,1.4479943E-1,-8.498614E-2,6.465991E-2],"split_indices":[7,9,0,3,3,3,6,3,9,6,3,0,8,8,8,0,2,6,6,0,0,0,6,0,9,0,2,6,8,6,3,0,0,0,0,0,0,0,0,0,0,0,0,0,0,0,0,0,0,0,0,0,0,0,0,0,0],"split_type":[0,0,0,0,0,0,0,0,0,0,0,0,0,0,0,0,0,0,0,0,0,0,0,0,0,0,0,0,0,0,0,0,0,0,0,0,0,0,0,0,0,0,0,0,0,0,0,0,0,0,0,0,0,0,0,0,0],"sum_hessian":[2.0558708E3,1.4624153E3,5.9345557E2,4.0181705E2,1.0605983E3,3.5024686E2,5.1570198E1,6.9419617E2,3.664021E2,1.649199E2,1.8532693E2,4.157638E1,9.993817E0,4.4584473E2,2.4835144E2,6.833824E1,2.9806384E2,1.23166145E2,4.175376E1,1.01856995E2,8.346994E1,5.561358E0,4.432459E0,4.3605615E2,9.788573E0,1.28409815E1,2.3551045E2,1.1843961E1,5.649428E1,1.407633E2,1.5730054E2,4.5933586E1,7.723256E1,1.9893148E1,2.1860613E1,1.7081373E1,8.477563E1,3.4887405E1,4.8582535E1,3.3449872E0,1.0874718E0,1.5952296E1,4.2010385E2,1.1764752E0,8.612099E0,4.559651E0,8.28133E0,1.8256795E2,5.2942516E1,3.6335986E0,8.210362E0,5.037586E1,6.118424E0,1.645429E0,1.3911787E2,6.061921E1,9.6681335E1],"tree_param":{"num_deleted":"0","num_feature":"12","num_nodes":"57","size_leaf_vector":"1"}},{"base_weights":[-8.124758E-3,3.7094295E-1,-2.0551486E-1,-4.9752674E-1,4.897135E-1,-2.5762403E-1,-8.317099E-1,6.071945E-1,-1.31035745E-2,-4.09684E-1,7.532322E-1,-8.398616E-2,-1.0060437E0,-6.307147E-2,7.286736E-1,-1.3358055E-1,7.080498E-1,-1.1985233E-1,-9.083533E-1,1.683076E0,-1.9621408E-1,-6.497786E-1,2.1593158E-1,-2.1127959E-1,-3.0494943E-1,7.228493E-2,-3.0192772E-1,9.504604E-1,5.097599E-1,-1.0777068E0,5.711301E-2,-2.6137227E-1,9.6151835E-1,-1.1472082E-1,1.7340273E-1,-2.1350293E-1,-3.7034016E-2,3.901253E-1,1.2402681E-1,-1.9972822E-1,1.4672406E-1,1.9235818E-1,-2.0278764E-1,3.8248774E-2,-2.0560491E-1,1.9373076E-1,4.7185313E-2,-1.551286E-1,1.2887895E-1,-3.4283546E-1,5.795285E-2,-4.503387E-2,7.1856394E-2,2.2477679E-1,-1.5308827E-1],"categories":[],"categories_nodes":[],"categories_segments":[],"categories_sizes":[],"default_left":[0,0,0,0,0,0,0,0,0,0,0,0,0,0,0,0,0,0,0,0,0,0,0,0,0,0,0,0,0,0,0,0,0,0,0,0,0,0,0,0,0,0,0,0,0,0,0,0,0,0,0,0,0,0,0],"id":14,"left_children":[1,3,-1,5,7,9,11,13,15,17,19,21,23,25,27,29,31,33,35,37,-1,39,-1,-1,41,43,-1,45,47,49,51,-1,53,-1,-1,-1,-1,-1,-1,-1,-1,-1,-1,-1,-1,-1,-1,-1,-1,-1,-1,-1,-1,-1,-1],"loss_changes":[6.9850195E2,1.3615373E2,0E0,1.2533985E1,6.850729E1,1.4759251E1,8.518887E0,7.658389E1,1.9260921E1,1.1795644E1,2.2043037E1,9.63564E0,1.5641136E0,2.8529121E1,3.8155914E1,3.4244415E1,1.7465244E1,2.4339165E1,3.2696705E0,1.2360878E0,0E0,5.440381E0,0E0,0E0,5.4533005E0,1.7694391E1,0E0,4.895691E0,7.018727E1,2.830872E1,1.363536E1,0E0,8.926487E0,0E0,0E0,0E0,0E0,0E0,0E0,0E0,0E0,0E0,0E0,0E0,0E0,0E0,0E0,0E0,0E0,0E0,0E0,0E0,0E0,0E0,0E0],"parents":[2147483647,0,0,1,1,3,3,4,4,5,5,6,6,7,7,8,8,9,9,10,10,11,11,12,12,13,13,14,14,15,15,16,16,17,17,18,18,19,19,21,21,24,24,25,25,27,27,28,28,29,29,30,30,32,32],"right_children":[2,4,-1,6,8,10,12,14,16,18,20,22,24,26,28,30,32,34,36,38,-1,40,-1,-1,42,44,-1,46,48,50,52,-1,54,-1,-1,-1,-1,-1,-1,-1,-1,-1,-1,-1,-1,-1,-1,-1,-1,-1,-1,-1,-1,-1,-1],"split_conditions":[5.230442E-1,-2.1902761E0,-2.0551486E-1,-5.8403973E-2,1.1563132E0,1.5336057E0,-1.0453917E-1,-9.881766E-2,4.822275E0,3.2384592E-1,1.1190419E0,-1.04854286E-1,7.088801E-2,-3.2134634E-1,2.5319573E-1,-1.2656143E0,-9.978225E-2,-1.6118585E-1,1.2937841E0,-9.878722E-2,-1.9621408E-1,2.1667036E-1,2.1593158E-1,-2.1127959E-1,1.8051893E-1,-5.5140395E-2,-3.0192772E-1,1.48776E0,-2.863345E-3,2.112343E0,1.8455223E0,-2.6137227E-1,1.36142E0,-1.1472082E-1,1.7340273E-1,-2.1350293E-1,-3.7034016E-2,3.901253E-1,1.2402681E-1,-1.9972822E-1,1.4672406E-1,1.9235818E-1,-2.0278764E-1,3.8248774E-2,-2.0560491E-1,1.9373076E-1,4.7185313E-2,-1.551286E-1,1.2887895E-1,-3.4283546E-1,5.795285E-2,-4.503387E-2,7.1856394E-2,2.2477679E-1,-1.5308827E-1],"split_indices":[7,5,0,8,2,1,6,0,0,2,2,6,8,3,3,1,6,2,1,6,0,8,0,0,8,6,0,8,0,3,3,0,2,0,0,0,0,0,0,0,0,0,0,0,0,0,0,0,0,0,0,0,0,0,0],"split_type":[0,0,0,0,0,0,0,0,0,0,0,0,0,0,0,0,0,0,0,0,0,0,0,0,0,0,0,0,0,0,0,0,0,0,0,0,0,0,0,0,0,0,0,0,0,0,0,0,0,0,0,0,0,0,0],"sum_hessian":[1.8055419E3,1.316614E3,4.889279E2,1.580124E2,1.1586016E3,9.301203E1,6.5000374E1,9.390006E2,2.1960098E2,8.136697E1,1.1645066E1,1.2569804E1,5.2430573E1,1.4414655E2,7.9485406E2,1.8886386E2,3.0737118E1,5.2243095E1,2.912387E1,7.5999184E0,4.045148E0,8.754668E0,3.8151355E0,4.84444E1,3.986172E0,1.3268147E2,1.1465077E1,3.93176E2,4.0167804E2,3.0954792E1,1.5790907E2,2.970182E0,2.7766937E1,3.6074936E1,1.6168158E1,2.348013E1,5.643743E0,5.4044557E0,2.1954625E0,7.213667E0,1.5410016E0,1.3024807E0,2.6836913E0,1.2048187E2,1.2199595E1,3.830667E2,1.01092825E1,3.7631985E1,3.6404605E2,2.095025E1,1.0004542E1,8.17728E1,7.613628E1,2.569989E1,2.0670455E0],"tree_param":{"num_deleted":"0","num_feature":"12","num_nodes":"55","size_leaf_vector":"1"}},{"base_weights":[-9.524031E-3,3.3105472E-1,-2.0432554E-1,-8.0428086E-2,6.113547E-1,2.86082E-2,-7.6358753E-1,8.225476E-1,9.222488E-2,-4.0004843E-1,1.9230068E-1,-1.1884695E0,-1.4672609E-1,9.2313015E-1,5.343318E-1,4.569989E-1,-2.168278E-1,-7.2244806E-3,-2.1133697E-1,-1.403869E-1,4.6752685E-1,-1.9993405E-1,-2.929906E-1,-8.81273E-1,5.139147E-1,9.828128E-1,7.9614687E-1,1.4818028E-2,7.0887434E-1,-1.176952E0,5.401847E-1,-5.4050535E-1,6.9184417E-1,-2.421366E-1,3.7244048E-2,-6.4633996E-3,-1.90582E-1,1.8786769E-1,3.3817854E-2,-2.5981542E-1,-1.7548047E-2,1.6767499E-1,-1.6711178E-1,2.0276816E-1,5.6741256E-2,-3.997055E-1,1.6835588E-1,4.8250075E-2,-7.0555633E-1,-1.5100537E-1,1.4665942E-1,-3.857247E-1,1.486164E-1,-2.8414577E-1,1.19671956E-1,1.1221458E-1,-1.9845083E-1,1.8054341E-1,-1.7323948E-1],"categories":[],"categories_nodes":[],"categories_segments":[],"categories_sizes":[],"default_left":[0,0,0,0,0,0,0,0,0,0,0,0,0,0,0,0,0,0,0,0,0,0,0,0,0,0,0,0,0,0,0,0,0,0,0,0,0,0,0,0,0,0,0,0,0,0,0,0,0,0,0,0,0,0,0,0,0,0,0],"id":15,"left_children":[1,3,-1,5,7,9,11,13,15,17,19,21,23,25,27,29,31,33,-1,35,37,-1,-1,39,41,43,45,47,49,51,53,55,57,-1,-1,-1,-1,-1,-1,-1,-1,-1,-1,-1,-1,-1,-1,-1,-1,-1,-1,-1,-1,-1,-1,-1,-1,-1,-1],"loss_changes":[5.522728E2,1.383175E2,0E0,3.626983E1,7.811502E1,2.9590042E1,1.7389458E1,1.4199158E1,2.3475996E1,3.0057417E1,2.7997334E1,5.995598E-1,1.4269949E1,2.0545044E0,1.2093922E1,1.3606651E1,3.3589535E1,1.7437836E1,0E0,1.2163901E1,2.338018E1,0E0,0E0,4.478072E0,7.5406957E0,5.1436157E0,1.761692E1,2.8598919E1,4.125248E0,8.559247E0,1.12871475E1,4.2274967E1,1.0671457E1,0E0,0E0,0E0,0E0,0E0,0E0,0E0,0E0,0E0,0E0,0E0,0E0,0E0,0E0,0E0,0E0,0E0,0E0,0E0,0E0,0E0,0E0,0E0,0E0,0E0,0E0],"parents":[2147483647,0,0,1,1,3,3,4,4,5,5,6,6,7,7,8,8,9,9,10,10,11,11,12,12,13,13,14,14,15,15,16,16,17,17,19,19,20,20,23,23,24,24,25,25,26,26,27,27,28,28,29,29,30,30,31,31,32,32],"right_children":[2,4,-1,6,8,10,12,14,16,18,20,22,24,26,28,30,32,34,-1,36,38,-1,-1,40,42,44,46,48,50,52,54,56,58,-1,-1,-1,-1,-1,-1,-1,-1,-1,-1,-1,-1,-1,-1,-1,-1,-1,-1,-1,-1,-1,-1,-1,-1,-1,-1],"split_conditions":[5.230442E-1,4.7588833E-2,-2.0432554E-1,1.3986723E0,1.0956792E0,-6.1020855E-2,7.088801E-2,1.2122284E0,7.742392E-1,-6.701593E-1,-1.5317683E-1,-4.260534E-2,-8.232279E-2,3.1224668E-1,2.2688009E-1,-1.2850592E0,4.822275E0,-1.2090904E0,-2.1133697E-1,-5.5140395E-2,-5.181593E-1,-1.9993405E-1,-2.929906E-1,1.986522E0,1.1469727E0,1.2270926E0,-2.5346132E-2,7.742392E-1,-1.05835564E-1,2.3325953E0,-1.05710104E-1,-1.04309164E-1,1.36142E0,-2.421366E-1,3.7244048E-2,-6.4633996E-3,-1.90582E-1,1.8786769E-1,3.3817854E-2,-2.5981542E-1,-1.7548047E-2,1.6767499E-1,-1.6711178E-1,2.0276816E-1,5.6741256E-2,-3.997055E-1,1.6835588E-1,4.8250075E-2,-7.0555633E-1,-1.5100537E-1,1.4665942E-1,-3.857247E-1,1.486164E-1,-2.8414577E-1,1.19671956E-1,1.1221458E-1,-1.9845083E-1,1.8054341E-1,-1.7323948E-1],"split_indices":[7,9,0,3,2,9,8,3,8,1,8,9,6,3,9,1,0,1,0,6,3,0,0,3,2,8,0,8,6,3,6,6,2,0,0,0,0,0,0,0,0,0,0,0,0,0,0,0,0,0,0,0,0,0,0,0,0,0,0],"split_type":[0,0,0,0,0,0,0,0,0,0,0,0,0,0,0,0,0,0,0,0,0,0,0,0,0,0,0,0,0,0,0,0,0,0,0,0,0,0,0,0,0,0,0,0,0,0,0,0,0,0,0,0,0,0,0,0,0,0,0],"sum_hessian":[1.6001984E3,1.1978035E3,4.0239493E2,4.8562088E2,7.1218256E2,4.196072E2,6.6013664E1,5.058199E2,2.0636266E2,1.15557175E2,3.0405005E2,3.8540848E1,2.7472815E1,3.7333078E2,1.3248914E2,9.44293E1,1.1193336E2,7.293549E1,4.262168E1,1.3787708E2,1.6617297E2,2.5644745E1,1.2896103E1,1.2850623E1,1.4622192E1,2.49381E2,1.23949776E2,3.3591434E1,9.88977E1,3.9376037E0,9.04917E1,8.2832726E1,2.910063E1,9.371979E0,6.356352E1,1.2260918E2,1.5267899E1,6.3552624E1,1.02620346E2,8.00095E0,4.8496723E0,1.20932865E1,2.5289059E0,2.3835217E2,1.10288105E1,1.3038192E0,1.2264596E2,3.2449276E1,1.1421603E0,1.1319742E0,9.7765724E1,2.826563E0,1.1110408E0,1.9324617E0,8.8559235E1,2.4019579E1,5.881315E1,2.6002E1,3.0986285E0],"tree_param":{"num_deleted":"0","num_feature":"12","num_nodes":"59","size_leaf_vector":"1"}},{"base_weights":[-1.0655557E-2,2.947008E-1,-2.0332614E-1,-1.8017879E-1,5.06458E-1,-8.560775E-1,-1.09930634E-1,6.222248E-1,2.412315E-1,7.646033E-1,-1.0524281E0,-1.8401487E-1,4.813046E-1,2.5971478E-1,7.2403365E-1,-2.638467E-1,4.6535152E-1,3.447256E-1,-4.5465272E-2,-2.4227762E-1,1.3628301E-1,-2.887431E-3,-5.608741E-1,8.307187E-1,-8.178257E-1,2.0647049E-1,1.1832818E-2,-6.521976E-1,7.408738E-1,7.685914E-2,-1.8408922E0,3.4154725E-1,8.09997E-1,1.349374E-1,-1.21081464E-1,-6.607189E-2,2.6503643E-2,-1.8567012E-1,-4.97188E-2,-1.5907781E-1,2.1320608E-1,-1.9509721E-1,-1.151475E-2,-3.3355203E-2,1.24566786E-1,-1.6283E-2,-2.5781235E-1,-9.631037E-2,1.513131E-1,1.6941106E-1,-3.617833E-2,-5.639978E-1,-1.1936217E-1,4.9458966E-2,1.5166354E-1,-1.4774005E-2,2.0083728E-1],"categories":[],"categories_nodes":[],"categories_segments":[],"categories_sizes":[],"default_left":[0,0,0,0,0,0,0,0,0,0,0,0,0,0,0,0,0,0,0,0,0,0,0,0,0,0,0,0,0,0,0,0,0,0,0,0,0,0,0,0,0,0,0,0,0,0,0,0,0,0,0,0,0,0,0,0,0],"id":16,"left_children":[1,3,-1,5,7,9,11,13,15,17,19,21,23,25,27,29,31,-1,-1,-1,33,35,37,39,41,-1,43,45,47,49,51,53,55,-1,-1,-1,-1,-1,-1,-1,-1,-1,-1,-1,-1,-1,-1,-1,-1,-1,-1,-1,-1,-1,-1,-1,-1],"loss_changes":[4.3784796E2,1.1005166E2,0E0,1.5952791E1,2.3078491E1,1.0883274E1,1.354849E1,1.9225494E1,2.6328878E1,4.1985564E0,5.5824795E0,1.8687935E1,1.633757E1,2.2376081E1,9.988068E0,3.8715935E1,6.5808105E0,0E0,0E0,0E0,2.1178029E0,8.288122E0,9.967907E0,1.1439167E1,8.80569E-1,0E0,9.872547E0,1.8905623E0,8.145081E0,1.2063832E1,1.3901768E1,4.525055E0,7.2392483E0,0E0,0E0,0E0,0E0,0E0,0E0,0E0,0E0,0E0,0E0,0E0,0E0,0E0,0E0,0E0,0E0,0E0,0E0,0E0,0E0,0E0,0E0,0E0,0E0],"parents":[2147483647,0,0,1,1,3,3,4,4,5,5,6,6,7,7,8,8,9,9,10,10,11,11,12,12,13,13,14,14,15,15,16,16,20,20,21,21,22,22,23,23,24,24,26,26,27,27,28,28,29,29,30,30,31,31,32,32],"right_children":[2,4,-1,6,8,10,12,14,16,18,20,22,24,26,28,30,32,-1,-1,-1,34,36,38,40,42,-1,44,46,48,50,52,54,56,-1,-1,-1,-1,-1,-1,-1,-1,-1,-1,-1,-1,-1,-1,-1,-1,-1,-1,-1,-1,-1,-1,-1,-1],"split_conditions":[5.230442E-1,-4.260534E-2,-2.0332614E-1,-1.04854286E-1,7.742392E-1,-1.2629453E0,1.477463E0,4.7588833E-2,4.8781484E-1,-1.0625375E-1,2.1667036E-1,-4.4482622E-1,1.7801948E0,2.67025E-2,-2.1902761E0,1.8104337E0,-1.158124E0,3.447256E-1,-4.5465272E-2,-2.4227762E-1,-1.0594011E-1,-2.1902761E0,5.398144E-1,-6.1020855E-2,-8.532156E-2,2.0647049E-1,6.094923E-1,1.2158998E-1,-1.0594011E-1,-1.04309164E-1,-8.995477E-2,4.3198524E0,1.0642966E0,1.349374E-1,-1.21081464E-1,-6.607189E-2,2.6503643E-2,-1.8567012E-1,-4.97188E-2,-1.5907781E-1,2.1320608E-1,-1.9509721E-1,-1.151475E-2,-3.3355203E-2,1.24566786E-1,-1.6283E-2,-2.5781235E-1,-9.631037E-2,1.513131E-1,1.6941106E-1,-3.617833E-2,-5.639978E-1,-1.1936217E-1,4.9458966E-2,1.5166354E-1,-1.4774005E-2,2.0083728E-1],"split_indices":[4,9,0,6,8,1,1,9,9,6,8,1,1,9,5,8,1,0,0,0,6,5,1,9,0,0,1,9,6,6,6,9,0,0,0,0,0,0,0,0,0,0,0,0,0,0,0,0,0,0,0,0,0,0,0,0,0],"split_type":[0,0,0,0,0,0,0,0,0,0,0,0,0,0,0,0,0,0,0,0,0,0,0,0,0,0,0,0,0,0,0,0,0,0,0,0,0,0,0,0,0,0,0,0,0,0,0,0,0,0,0,0,0,0,0,0,0],"sum_hessian":[1.4233998E3,1.0924896E3,3.3091016E2,3.3696725E2,7.5552234E2,3.0671576E1,3.0629565E2,5.2501587E2,2.3050647E2,3.0016718E0,2.7669903E1,2.728013E2,3.349438E1,1.1589617E2,4.091197E2,7.0791985E1,1.597145E2,1.1511028E0,1.850569E0,2.4389368E1,3.2805362E0,1.8492812E2,8.787317E1,2.667928E1,6.815101E0,2.7382225E1,8.851395E1,4.489549E0,4.0463016E2,5.899741E1,1.1794572E1,1.18969154E2,4.0745335E1,1.9530946E0,1.3274417E0,5.367587E1,1.3125226E2,3.9462612E1,4.8410557E1,3.0717795E0,2.36075E1,5.4100585E0,1.4050424E0,6.905479E1,1.9459162E1,2.962383E0,1.5271661E0,4.751947E0,3.998782E2,1.4219921E1,4.477749E1,5.8913403E0,5.903231E0,9.832612E1,2.064304E1,7.4510293E0,3.3294304E1],"tree_param":{"num_deleted":"0","num_feature":"12","num_nodes":"57","size_leaf_vector":"1"}},{"base_weights":[-1.1446212E-2,2.571045E-1,-2.0247138E-1,-1.5424682E-1,4.4921666E-1,-7.2911374E-2,-8.6742246E-1,8.249435E-1,1.1003704E-1,-7.573686E-1,-1.0311565E-2,-2.0142901E-1,-2.8428924E-1,3.9906237E-1,8.832339E-1,-4.5716204E-2,7.166413E-1,9.1059613E-1,-9.9756944E-1,6.818773E-2,-6.0208976E-1,3.6190823E-1,-1.6523E-1,8.060733E-1,-1.348153E0,7.084407E-1,1.8700883E-1,-3.982889E-1,2.3168163E-1,7.670372E-1,-1.4713646E-1,2.8869736E-1,-3.2388762E-4,-2.3684564E-1,-1.7941603E-2,-2.6194451E-2,5.0593473E-2,-1.8997587E-1,1.6321018E-1,1.1268141E-1,2.3166626E-3,1.9166626E-1,-1.4856714E-2,6.346382E-2,-6.403975E-1,1.5083946E-1,-9.912956E-2,-3.7718776E-1,-4.6195507E-2,7.948186E-2,-7.548492E-2,-1.5602818E-1,1.6005878E-1],"categories":[],"categories_nodes":[],"categories_segments":[],"categories_sizes":[],"default_left":[0,0,0,0,0,0,0,0,0,0,0,0,0,0,0,0,0,0,0,0,0,0,0,0,0,0,0,0,0,0,0,0,0,0,0,0,0,0,0,0,0,0,0,0,0,0,0,0,0,0,0,0,0],"id":17,"left_children":[1,3,-1,5,7,9,11,13,15,17,19,-1,21,23,25,27,29,31,33,35,37,39,-1,41,43,45,-1,47,49,51,-1,-1,-1,-1,-1,-1,-1,-1,-1,-1,-1,-1,-1,-1,-1,-1,-1,-1,-1,-1,-1,-1,-1],"loss_changes":[3.4682626E2,8.046789E1,0E0,1.8767092E1,8.831987E1,1.2524229E1,2.4138718E0,7.8146057E0,3.459012E1,1.0722208E1,1.2536725E1,0E0,3.029844E0,3.0550316E1,1.9507751E0,2.8648249E1,6.0380287E0,1.7553661E0,3.6030369E0,8.805865E0,1.636285E1,2.9365617E-1,0E0,4.6593723E0,2.6340221E1,4.236046E0,0E0,3.1656244E1,1.670917E1,4.368553E0,0E0,0E0,0E0,0E0,0E0,0E0,0E0,0E0,0E0,0E0,0E0,0E0,0E0,0E0,0E0,0E0,0E0,0E0,0E0,0E0,0E0,0E0,0E0],"parents":[2147483647,0,0,1,1,3,3,4,4,5,5,6,6,7,7,8,8,9,9,10,10,12,12,13,13,14,14,15,15,16,16,17,17,18,18,19,19,20,20,21,21,23,23,24,24,25,25,27,27,28,28,29,29],"right_children":[2,4,-1,6,8,10,12,14,16,18,20,-1,22,24,26,28,30,32,34,36,38,40,-1,42,44,46,-1,48,50,52,-1,-1,-1,-1,-1,-1,-1,-1,-1,-1,-1,-1,-1,-1,-1,-1,-1,-1,-1,-1,-1,-1,-1],"split_conditions":[5.230442E-1,-4.260534E-2,-2.0247138E-1,1.2122284E0,5.667993E-1,-1.04854286E-1,-7.0484653E-3,-5.9752185E-2,-2.4427597E-1,-1.2629453E0,-4.468563E-2,-2.0142901E-1,7.5882087E-3,-8.7095E-2,1.2158998E-1,3.938005E-1,1.3707607E0,-1.0625375E-1,-2.863345E-3,-6.233677E-1,5.750435E0,-1.1076714E0,-1.6523E-1,-5.602432E-1,-2.1902761E0,1.3854477E0,1.8700883E-1,1.3594806E0,1.3292577E0,-2.1902761E0,-1.4713646E-1,2.8869736E-1,-3.2388762E-4,-2.3684564E-1,-1.7941603E-2,-2.6194451E-2,5.0593473E-2,-1.8997587E-1,1.6321018E-1,1.1268141E-1,2.3166626E-3,1.9166626E-1,-1.4856714E-2,6.346382E-2,-6.403975E-1,1.5083946E-1,-9.912956E-2,-3.7718776E-1,-4.6195507E-2,7.948186E-2,-7.548492E-2,-1.5602818E-1,1.6005878E-1],"split_indices":[7,9,0,3,2,6,6,0,1,1,6,0,6,3,9,9,2,6,0,3,11,1,0,3,5,3,0,3,2,5,0,0,0,0,0,0,0,0,0,0,0,0,0,0,0,0,0,0,0,0,0,0,0],"split_type":[0,0,0,0,0,0,0,0,0,0,0,0,0,0,0,0,0,0,0,0,0,0,0,0,0,0,0,0,0,0,0,0,0,0,0,0,0,0,0,0,0,0,0,0,0,0,0,0,0,0,0,0,0],"sum_hessian":[1.2883307E3,1.0163742E3,2.719565E2,3.236248E2,6.9274945E2,2.9148416E2,3.214062E1,3.2798798E2,3.6476144E2,2.3494972E1,2.679892E2,2.5341505E1,6.7991166E0,4.0431755E1,2.875562E2,2.9097467E2,7.378676E1,2.6062288E0,2.0888742E1,2.373849E2,3.0604298E1,3.2524726E0,3.5466437E0,3.322962E1,7.202134E0,6.9101326E1,2.184549E2,1.27934326E2,1.6304036E2,7.176824E1,2.0185173E0,1.2775333E0,1.3286957E0,1.707389E1,3.814853E0,1.14387E2,1.229979E2,2.4842125E1,5.7621727E0,1.6786884E0,1.5737842E0,2.8254438E1,4.975185E0,4.2304015E0,2.9717321E0,6.6931496E1,2.1698275E0,1.18952875E1,1.1603904E2,1.284412E2,3.459916E1,1.037619E0,7.073063E1],"tree_param":{"num_deleted":"0","num_feature":"12","num_nodes":"53","size_leaf_vector":"1"}},{"base_weights":[-1.0971862E-2,2.2591014E-1,-2.017237E-1,-5.9591938E-2,4.5429453E-1,1.2219078E-2,-8.019977E-1,8.274889E-1,9.730568E-2,-8.426694E-2,4.9509856E-1,-2.170858E-1,-3.3489543E-1,9.3936E-1,6.805087E-1,-4.7473606E-2,7.3799425E-1,8.7243214E-2,-6.195582E-1,6.113861E-1,-5.201068E-1,1.7057775E-1,-6.2144524E-1,1.986736E-1,3.732926E-2,-1.5725338E0,7.847903E-1,-5.884003E-1,1.3981432E-1,8.240263E-1,-5.061543E-1,-4.3745667E-2,9.363379E-2,-4.1192662E-2,-2.6578322E-1,3.192473E-2,1.573122E-1,-2.5597188E-1,9.662248E-2,5.3894725E-2,-2.3254089E-1,-4.1044042E-1,1.2795374E-1,-5.778083E-1,-5.842445E-2,8.019685E-2,1.7690928E-1,-3.5663125E-1,-2.2675348E-2,-6.324887E-2,7.6681525E-2,1.7802973E-1,2.068789E-2,-2.2734578E-1,6.5480985E-2],"categories":[],"categories_nodes":[],"categories_segments":[],"categories_sizes":[],"default_left":[0,0,0,0,0,0,0,0,0,0,0,0,0,0,0,0,0,0,0,0,0,0,0,0,0,0,0,0,0,0,0,0,0,0,0,0,0,0,0,0,0,0,0,0,0,0,0,0,0,0,0,0,0,0,0],"id":18,"left_children":[1,3,-1,5,7,9,11,13,15,17,19,-1,21,23,25,27,29,31,33,35,37,-1,39,-1,41,43,45,47,49,51,53,-1,-1,-1,-1,-1,-1,-1,-1,-1,-1,-1,-1,-1,-1,-1,-1,-1,-1,-1,-1,-1,-1,-1,-1],"loss_changes":[2.7638303E2,6.1654095E1,0E0,2.24507E1,6.989134E1,1.7969454E1,4.553425E0,3.5806885E0,2.503963E1,2.9575935E1,7.9003706E0,0E0,5.7958946E0,6.9341965E0,2.8146805E1,2.2453247E1,5.741905E0,2.8588871E1,2.2655207E1,4.471218E0,6.061318E0,0E0,6.6028757E0,0E0,1.2796921E1,8.25888E0,3.862465E0,3.2138374E1,1.8433262E1,2.1430721E0,2.3889852E0,0E0,0E0,0E0,0E0,0E0,0E0,0E0,0E0,0E0,0E0,0E0,0E0,0E0,0E0,0E0,0E0,0E0,0E0,0E0,0E0,0E0,0E0,0E0,0E0],"parents":[2147483647,0,0,1,1,3,3,4,4,5,5,6,6,7,7,8,8,9,9,10,10,12,12,13,13,14,14,15,15,16,16,17,17,18,18,19,19,20,20,22,22,24,24,25,25,26,26,27,27,28,28,29,29,30,30],"right_children":[2,4,-1,6,8,10,12,14,16,18,20,-1,22,24,26,28,30,32,34,36,38,-1,40,-1,42,44,46,48,50,52,54,-1,-1,-1,-1,-1,-1,-1,-1,-1,-1,-1,-1,-1,-1,-1,-1,-1,-1,-1,-1,-1,-1,-1,-1],"split_conditions":[5.230442E-1,4.7588833E-2,-2.017237E-1,1.5913644E0,8.0589813E-1,7.088801E-2,7.088801E-2,3.1224668E-1,-4.7370774E-1,-1.7403999E-1,1.0187086E0,-2.170858E-1,6.904412E-1,1.2270926E0,-2.863345E-3,1.6694499E0,1.3526573E0,-6.233677E-1,2.787962E-1,-9.978225E-2,4.9015346E-1,1.7057775E-1,2.1667036E-1,1.986736E-1,-1.2541771E0,8.421782E-1,2.2005966E-1,3.938005E-1,-1.2512287E0,-3.213991E-2,8.4149766E-1,-4.3745667E-2,9.363379E-2,-4.1192662E-2,-2.6578322E-1,3.192473E-2,1.573122E-1,-2.5597188E-1,9.662248E-2,5.3894725E-2,-2.3254089E-1,-4.1044042E-1,1.2795374E-1,-5.778083E-1,-5.842445E-2,8.019685E-2,1.7690928E-1,-3.5663125E-1,-2.2675348E-2,-6.324887E-2,7.6681525E-2,1.7802973E-1,2.068789E-2,-2.2734578E-1,6.5480985E-2],"split_indices":[4,9,0,3,2,8,8,3,1,3,2,0,2,8,0,3,2,3,2,6,1,0,8,0,2,3,0,9,1,6,1,0,0,0,0,0,0,0,0,0,0,0,0,0,0,0,0,0,0,0,0,0,0,0,0],"split_type":[0,0,0,0,0,0,0,0,0,0,0,0,0,0,0,0,0,0,0,0,0,0,0,0,0,0,0,0,0,0,0,0,0,0,0,0,0,0,0,0,0,0,0,0,0,0,0,0,0,0,0,0,0,0,0],"sum_hessian":[1.1675422E3,9.4413873E2,2.2340349E2,4.1992804E2,5.242107E2,3.8378867E2,3.613936E1,2.5564388E2,2.6856683E2,3.2056152E2,6.3227146E1,2.166785E1,1.4471508E1,1.4209785E2,1.1354602E2,2.1981918E2,4.874763E1,2.4340901E2,7.715251E1,5.7085957E1,6.1411877E0,2.428533E0,1.2042975E1,1.33975E2,8.1228485E0,4.4001207E0,1.091459E2,5.5983997E1,1.6383519E2,4.5910618E1,2.837011E0,1.3522102E2,1.0818798E2,4.955156E1,2.7600952E1,1.6484615E1,4.060134E1,3.3377264E0,2.8034616E0,4.74114E0,7.301835E0,1.2792715E0,6.8435774E0,1.5500426E0,2.8500783E0,2.35517E1,8.55942E1,1.5143069E1,4.084093E1,5.69376E1,1.0689759E2,4.183633E1,4.0742884E0,1.4081001E0,1.4289109E0],"tree_param":{"num_deleted":"0","num_feature":"12","num_nodes":"55","size_leaf_vector":"1"}},{"base_weights":[-1.0381373E-2,1.9800729E-1,-2.0105107E-1,-1.20815106E-1,3.6149776E-1,-6.136569E-2,-1.9638652E-1,7.578217E-1,7.522875E-2,-1.3951387E-1,7.265184E-1,5.137024E-1,8.887002E-1,1.8998139E-1,-7.5251106E-3,-1.7752965E-3,-7.331499E-1,-1.5099953E-1,9.2680234E-1,8.3458215E-1,1.7187636E-1,9.2563546E-1,4.1772598E-1,5.004191E-2,-9.750388E-1,-2.6614193E-2,8.402972E-2,-1.6866194E-1,1.3846114E-1,2.1273306E-1,-1.7598534E-1,-6.133932E-3,1.7195329E-1,-2.6860842E-1,8.438987E-2,7.291812E-2,1.8626286E-1,-5.8684355E-1,1.8707564E-1,-5.068479E-2,3.9428774E-2,-3.3163178E-1,1.31662E-1],"categories":[],"categories_nodes":[],"categories_segments":[],"categories_sizes":[],"default_left":[0,0,0,0,0,0,0,0,0,0,0,0,0,0,0,0,0,0,0,0,0,0,0,0,0,0,0,0,0,0,0,0,0,0,0,0,0,0,0,0,0,0,0],"id":19,"left_children":[1,3,-1,5,7,9,-1,11,13,15,17,19,21,-1,23,25,27,-1,29,31,33,35,37,39,41,-1,-1,-1,-1,-1,-1,-1,-1,-1,-1,-1,-1,-1,-1,-1,-1,-1,-1],"loss_changes":[2.2081824E2,4.5948925E1,0E0,1.526062E1,6.6020294E1,1.7404043E1,0E0,7.3438263E0,2.4564203E1,2.0971626E1,8.271894E0,9.462616E0,2.3542557E0,0E0,1.736684E1,1.1644595E1,8.1688E0,0E0,6.6057186E0,1.0050755E0,1.7108599E1,1.2334442E-1,2.578826E1,1.319315E1,2.0629225E1,0E0,0E0,0E0,0E0,0E0,0E0,0E0,0E0,0E0,0E0,0E0,0E0,0E0,0E0,0E0,0E0,0E0,0E0],"parents":[2147483647,0,0,1,1,3,3,4,4,5,5,7,7,8,8,9,9,10,10,11,11,12,12,14,14,15,15,16,16,18,18,19,19,20,20,21,21,22,22,23,23,24,24],"right_children":[2,4,-1,6,8,10,-1,12,14,16,18,20,22,-1,24,26,28,-1,30,32,34,36,38,40,42,-1,-1,-1,-1,-1,-1,-1,-1,-1,-1,-1,-1,-1,-1,-1,-1,-1,-1],"split_conditions":[5.230442E-1,-4.260534E-2,-2.0105107E-1,1.1563132E0,5.667993E-1,1.477463E0,-1.9638652E-1,1.2158998E-1,-5.3693277E-1,3.2384592E-1,-6.1020855E-2,-5.07668E-2,2.906799E0,1.8998139E-1,-7.756051E-4,-8.532156E-2,7.1780497E-1,-1.5099953E-1,-5.7231348E-2,-2.1902761E0,-1.5317683E-1,-5.9752185E-2,5.5304265E-1,2.2688009E-1,1.8688929E0,-2.6614193E-2,8.402972E-2,-1.6866194E-1,1.3846114E-1,2.1273306E-1,-1.7598534E-1,-6.133932E-3,1.7195329E-1,-2.6860842E-1,8.438987E-2,7.291812E-2,1.8626286E-1,-5.8684355E-1,1.8707564E-1,-5.068479E-2,3.9428774E-2,-3.3163178E-1,1.31662E-1],"split_indices":[7,9,0,2,2,1,0,9,3,2,9,3,8,0,6,0,8,0,6,5,8,0,9,9,9,0,0,0,0,0,0,0,0,0,0,0,0,0,0,0,0,0,0],"split_type":[0,0,0,0,0,0,0,0,0,0,0,0,0,0,0,0,0,0,0,0,0,0,0,0,0,0,0,0,0,0,0,0,0,0,0,0,0,0,0,0,0,0,0],"sum_hessian":[1.0631458E3,8.796857E2,1.8346007E2,2.982772E2,5.814085E2,2.8001678E2,1.82604E1,2.4314302E2,3.382655E2,2.5549757E2,2.4519217E1,8.6578575E1,1.5656444E2,2.8331646E1,3.0993387E2,2.0819423E2,4.7303337E1,2.5901368E0,2.192908E1,4.3913986E1,4.266459E1,1.4428387E2,1.2280565E1,2.9342346E2,1.6510405E1,1.593056E2,4.8888634E1,4.4289055E1,3.0142841E0,2.0767202E1,1.1618769E0,1.2358627E0,4.2678123E1,5.425688E0,3.7238903E1,2.0991333E0,1.4218474E2,1.0183225E0,1.1262242E1,9.5561295E1,1.9786217E2,1.1630824E1,4.8795815E0],"tree_param":{"num_deleted":"0","num_feature":"12","num_nodes":"43","size_leaf_vector":"1"}},{"base_weights":[-9.692372E-3,1.7190194E-1,-2.0042546E-1,-4.9141508E-2,3.613498E-1,3.8743417E-3,-7.6559E-1,6.3762397E-1,-6.867392E-2,-7.012528E-1,5.553183E-2,-2.1024096E-1,-3.8313466E-1,9.1171634E-1,4.522422E-1,7.1743816E-1,-1.5554003E-1,7.2585636E-1,-9.6224415E-1,1.50747765E-2,9.223136E-1,-8.2137287E-1,6.920866E-1,1.9632651E-1,-6.576583E-2,-6.385986E-2,6.5798235E-1,-1.6894804E-1,8.875627E-1,-2.7730882E-1,5.116236E-1,2.5506723E-1,-7.652112E-2,-2.2269273E-1,-8.865026E-3,-1.4990496E-2,8.795561E-2,2.5506717E-1,4.379949E-2,-1.9430415E-1,-6.4479783E-3,2.2654625E-2,1.672325E-1,-2.643308E-1,1.07640855E-1,1.9360602E-1,-7.5928874E-2,1.7067109E-1,9.490995E-2,-9.970046E-2,2.040218E-1,-1.6439351E-1,2.0575598E-2,-1.6503029E-1,1.4886726E-1],"categories":[],"categories_nodes":[],"categories_segments":[],"categories_sizes":[],"default_left":[0,0,0,0,0,0,0,0,0,0,0,0,0,0,0,0,0,0,0,0,0,0,0,0,0,0,0,0,0,0,0,0,0,0,0,0,0,0,0,0,0,0,0,0,0,0,0,0,0,0,0,0,0,0,0],"id":20,"left_children":[1,3,-1,5,7,9,11,13,15,17,19,-1,21,23,25,27,29,31,33,35,37,39,41,-1,43,45,47,-1,49,51,53,-1,-1,-1,-1,-1,-1,-1,-1,-1,-1,-1,-1,-1,-1,-1,-1,-1,-1,-1,-1,-1,-1,-1,-1],"loss_changes":[1.7667148E2,3.472151E1,0E0,1.4563726E1,5.3075058E1,1.3076594E1,2.4829702E0,1.3401794E1,1.2096265E1,9.825813E0,1.1713526E1,0E0,6.6317143E0,7.493675E0,1.747337E1,5.4383717E0,1.3047929E1,3.1427443E0,2.8859615E0,1.2288327E1,3.4193258E0,1.1060243E0,2.6126218E-1,0E0,6.926266E0,1.5911289E1,3.8046112E0,0E0,3.5209532E0,2.803769E1,8.351339E0,0E0,0E0,0E0,0E0,0E0,0E0,0E0,0E0,0E0,0E0,0E0,0E0,0E0,0E0,0E0,0E0,0E0,0E0,0E0,0E0,0E0,0E0,0E0,0E0],"parents":[2147483647,0,0,1,1,3,3,4,4,5,5,6,6,7,7,8,8,9,9,10,10,12,12,13,13,14,14,15,15,16,16,17,17,18,18,19,19,20,20,21,21,22,22,24,24,25,25,26,26,28,28,29,29,30,30],"right_children":[2,4,-1,6,8,10,12,14,16,18,20,-1,22,24,26,28,30,32,34,36,38,40,42,-1,44,46,48,-1,50,52,54,-1,-1,-1,-1,-1,-1,-1,-1,-1,-1,-1,-1,-1,-1,-1,-1,-1,-1,-1,-1,-1,-1,-1,-1],"split_conditions":[5.230442E-1,4.7588833E-2,-2.0042546E-1,1.1563132E0,1.0956792E0,-1.04915544E-1,5.751776E-1,3.1224668E-1,7.3122844E-2,-1.2512287E0,1.6225379E0,-2.1024096E-1,-2.5346132E-2,1.2270926E0,2.2688009E-1,-9.0025824E-1,4.822275E0,-1.0617012E-1,2.1667036E-1,7.088801E-2,-9.9364065E-2,-4.260534E-2,1.5024939E-1,1.9632651E-1,-1.2541771E0,1.1442585E-1,7.344477E-1,-1.6894804E-1,-1.0312778E-1,1.8455223E0,-9.978225E-2,2.5506723E-1,-7.652112E-2,-2.2269273E-1,-8.865026E-3,-1.4990496E-2,8.795561E-2,2.5506717E-1,4.379949E-2,-1.9430415E-1,-6.4479783E-3,2.2654625E-2,1.672325E-1,-2.643308E-1,1.07640855E-1,1.9360602E-1,-7.5928874E-2,1.7067109E-1,9.490995E-2,-9.970046E-2,2.040218E-1,-1.6439351E-1,2.0575598E-2,-1.6503029E-1,1.4886726E-1],"split_indices":[7,9,0,2,2,6,1,3,0,1,1,0,0,8,9,1,0,6,8,8,6,9,8,0,2,9,2,0,6,3,6,0,0,0,0,0,0,0,0,0,0,0,0,0,0,0,0,0,0,0,0,0,0,0,0],"split_type":[0,0,0,0,0,0,0,0,0,0,0,0,0,0,0,0,0,0,0,0,0,0,0,0,0,0,0,0,0,0,0,0,0,0,0,0,0,0,0,0,0,0,0,0,0,0,0,0,0,0,0,0,0,0,0],"sum_hessian":[9.7835126E2,8.2772253E2,1.506287E2,3.8234808E2,4.4537445E2,3.5693048E2,2.5417597E1,2.7086868E2,1.7450577E2,2.3505413E1,3.3342508E2,1.3549995E1,1.18676E1,1.07705246E2,1.6316344E2,1.6641958E1,1.5786382E2,3.3587124E0,2.0146702E1,3.1952847E2,1.3896605E1,8.598938E0,3.2686622E0,1.0051172E2,7.193528E0,4.670155E1,1.1646189E2,1.2449261E0,1.5397032E1,1.3399228E2,2.3871536E1,2.144907E0,1.2138056E0,1.7114243E1,3.0324588E0,2.6432187E2,5.52066E1,8.710928E0,5.185677E0,7.030185E0,1.5687532E0,1.0074635E0,2.2611988E0,1.9501443E0,5.243384E0,1.045904E1,3.624251E1,5.462691E1,6.183498E1,1.1028914E0,1.429414E1,5.4604053E1,7.938822E1,3.1620321E0,2.0709505E1],"tree_param":{"num_deleted":"0","num_feature":"12","num_nodes":"55","size_leaf_vector":"1"}},{"base_weights":[-7.7197244E-3,1.4919679E-1,-1.9982131E-1,-4.0926054E-2,3.210128E-1,1.1259433E-1,-2.982905E-1,7.3908025E-1,7.176291E-2,-1.5110084E-1,4.2337E-1,-6.0868853E-1,1.85263E-1,8.8061917E-1,5.644453E-1,-3.7414026E-1,2.3585045E-1,2.2955877E-3,-6.970504E-1,2.4852657E-1,2.8509617E-1,-1.760495E-1,-1.1679815E0,-6.460617E-1,3.8658476E-1,1.9395448E-1,-6.0867153E-2,-7.389435E-1,7.7095664E-1,-9.3661547E-1,1.5275526E-1,3.2890332E-1,-4.3691316E-1,-6.014439E-2,1.2116797E-1,-4.852525E-2,-2.0715697E-1,-4.989497E-2,1.2766884E-1,-1.7612319E-1,6.103272E-2,-4.646114E-2,-2.4237461E-1,9.277533E-2,-2.4460964E-1,1.0536168E-1,-5.4327477E-2,-1.8460071E-1,1.2514421E-1,-4.6627903E-1,-2.4543518E-2,7.6916866E-2,1.7120932E-1,-3.192695E-1,9.93573E-2,1.5859331E-1,-5.3185344E-2,4.002836E-2,1.5297587E-1,-1.610502E-1,5.9987575E-2],"categories":[],"categories_nodes":[],"categories_segments":[],"categories_sizes":[],"default_left":[0,0,0,0,0,0,0,0,0,0,0,0,0,0,0,0,0,0,0,0,0,0,0,0,0,0,0,0,0,0,0,0,0,0,0,0,0,0,0,0,0,0,0,0,0,0,0,0,0,0,0,0,0,0,0,0,0,0,0,0,0],"id":21,"left_children":[1,3,-1,5,7,9,11,13,15,17,19,21,23,25,27,29,31,33,35,-1,37,39,41,43,45,-1,47,49,51,53,55,57,59,-1,-1,-1,-1,-1,-1,-1,-1,-1,-1,-1,-1,-1,-1,-1,-1,-1,-1,-1,-1,-1,-1,-1,-1,-1,-1,-1,-1],"loss_changes":[1.4191853E2,2.5742874E1,0E0,1.4842028E1,4.3072693E1,1.936202E1,2.1172518E1,3.321167E0,1.9140059E1,1.0732007E1,1.1920607E1,2.0528688E1,9.558777E0,7.070816E0,1.9932678E1,2.101638E1,1.2098082E1,1.8657507E1,4.0752544E0,0E0,1.7911116E1,1.704899E1,1.246067E0,7.7516747E0,4.3337483E0,0E0,5.411916E0,9.870045E0,1.7284431E0,3.3139885E1,1.01889515E1,9.296135E0,6.655558E0,0E0,0E0,0E0,0E0,0E0,0E0,0E0,0E0,0E0,0E0,0E0,0E0,0E0,0E0,0E0,0E0,0E0,0E0,0E0,0E0,0E0,0E0,0E0,0E0,0E0,0E0,0E0,0E0],"parents":[2147483647,0,0,1,1,3,3,4,4,5,5,6,6,7,7,8,8,9,9,10,10,11,11,12,12,13,13,14,14,15,15,16,16,17,17,18,18,20,20,21,21,22,22,23,23,24,24,26,26,27,27,28,28,29,29,30,30,31,31,32,32],"right_children":[2,4,-1,6,8,10,12,14,16,18,20,22,24,26,28,30,32,34,36,-1,38,40,42,44,46,-1,48,50,52,54,56,58,60,-1,-1,-1,-1,-1,-1,-1,-1,-1,-1,-1,-1,-1,-1,-1,-1,-1,-1,-1,-1,-1,-1,-1,-1,-1,-1,-1,-1],"split_conditions":[5.230442E-1,4.7588833E-2,-1.9982131E-1,-1.7403999E-1,7.482788E-1,-6.233677E-1,7.088801E-2,3.1224668E-1,-1.2512287E0,-8.232279E-2,-1.1521496E-1,2.787962E-1,-1.0250049E-1,1.2270926E0,5.5523023E-2,2.0517945E0,1.3483241E0,-9.5600344E-2,-8.8700897E-1,2.4852657E-1,-9.881766E-2,-8.532156E-2,-1.2715241E0,2.976834E-2,1.0493301E0,1.9395448E-1,6.553958E-1,-9.9991344E-2,2.0272274E-1,2.1445959E0,1.1967568E0,-4.7370774E-1,2.1636386E0,-6.014439E-2,1.2116797E-1,-4.852525E-2,-2.0715697E-1,-4.989497E-2,1.2766884E-1,-1.7612319E-1,6.103272E-2,-4.646114E-2,-2.4237461E-1,9.277533E-2,-2.4460964E-1,1.0536168E-1,-5.4327477E-2,-1.8460071E-1,1.2514421E-1,-4.6627903E-1,-2.4543518E-2,7.6916866E-2,1.7120932E-1,-3.192695E-1,9.93573E-2,1.5859331E-1,-5.3185344E-2,4.002836E-2,1.5297587E-1,-1.610502E-1,5.9987575E-2],"split_indices":[4,9,0,3,2,3,8,3,1,6,0,2,6,8,0,0,2,6,1,0,0,0,1,0,2,0,9,6,0,3,2,1,3,0,0,0,0,0,0,0,0,0,0,0,0,0,0,0,0,0,0,0,0,0,0,0,0,0,0,0,0],"split_type":[0,0,0,0,0,0,0,0,0,0,0,0,0,0,0,0,0,0,0,0,0,0,0,0,0,0,0,0,0,0,0,0,0,0,0,0,0,0,0,0,0,0,0,0,0,0,0,0,0,0,0,0,0,0,0,0,0,0,0,0,0],"sum_hessian":[9.1032E2,7.8665753E2,1.2366249E2,3.737959E2,4.1286166E2,2.3448552E2,1.3931038E2,1.5347404E2,2.593876E2,1.2712929E2,1.07356224E2,8.46889E1,5.462147E1,8.253669E1,7.0937355E1,6.943093E1,1.8995668E2,1.0002178E2,2.7107506E1,1.4349527E1,9.30067E1,4.849249E1,3.6196415E1,1.02181635E1,4.4403305E1,7.536958E1,7.1670995E0,9.349582E0,6.1587776E1,3.3205524E1,3.6225407E1,1.6732443E2,2.2632252E1,6.6923615E1,3.3098164E1,1.2309779E1,1.4797727E1,3.712266E1,5.5884037E1,1.9342398E1,2.9150093E1,1.9038165E0,3.42926E1,3.5620155E0,6.656148E0,3.6769753E1,7.633554E0,3.024702E0,4.1423974E0,1.8319944E0,7.517587E0,1.2111629E1,4.9476147E1,2.266167E1,1.0543851E1,1.3969906E1,2.2255499E1,1.3030045E2,3.702397E1,1.5027475E1,7.604777E0],"tree_param":{"num_deleted":"0","num_feature":"12","num_nodes":"61","size_leaf_vector":"1"}},{"base_weights":[-7.1272105E-3,1.2989743E-1,-1.9921474E-1,-8.668283E-2,2.538817E-1,-4.577452E-2,-1.8151942E-1,6.6905075E-1,4.730574E-2,-1.0777822E-1,5.705882E-1,2.1385022E-1,7.536281E-1,-2.2495754E-2,7.5337386E-1,-3.0935327E-2,-9.001881E-1,-1.430873E-1,7.331766E-1,8.283021E-1,-3.788977E-1,7.901514E-1,3.992034E-1,2.7715228E-2,-9.192554E-1,8.2213193E-1,3.1202427E-1,-6.5325916E-2,1.7826473E-2,-2.1844828E-1,-2.6899472E-2,1.8482137E-1,-3.1764068E-2,1.8425402E-1,7.029926E-2,1.6488041E-1,-1.7292705E-1,1.19098656E-1,1.7030905E-1,-5.8270365E-2,1.4613678E-1,-3.0959767E-1,1.0302907E-2,-3.2406527E-1,7.301976E-2,9.6038565E-2,1.9018309E-1,-3.2419132E-3,1.291558E-1],"categories":[],"categories_nodes":[],"categories_segments":[],"categories_sizes":[],"default_left":[0,0,0,0,0,0,0,0,0,0,0,0,0,0,0,0,0,0,0,0,0,0,0,0,0,0,0,0,0,0,0,0,0,0,0,0,0,0,0,0,0,0,0,0,0,0,0,0,0],"id":22,"left_children":[1,3,-1,5,7,9,-1,11,13,15,17,19,21,23,25,27,29,-1,31,33,35,37,39,41,43,45,47,-1,-1,-1,-1,-1,-1,-1,-1,-1,-1,-1,-1,-1,-1,-1,-1,-1,-1,-1,-1,-1,-1],"loss_changes":[1.1416682E2,1.9893314E1,0E0,9.030757E0,4.0351482E1,9.936012E0,0E0,5.8589935E0,1.5565969E1,1.43184805E1,5.4957957E0,9.746116E0,1.3864441E0,1.2996991E1,6.056919E-1,7.6912327E0,2.9106712E0,0E0,3.8255749E0,2.5376034E-1,8.818314E0,9.051132E-1,3.4870486E0,1.0346585E1,1.4371803E1,5.9897614E-1,6.065771E-1,0E0,0E0,0E0,0E0,0E0,0E0,0E0,0E0,0E0,0E0,0E0,0E0,0E0,0E0,0E0,0E0,0E0,0E0,0E0,0E0,0E0,0E0],"parents":[2147483647,0,0,1,1,3,3,4,4,5,5,7,7,8,8,9,9,10,10,11,11,12,12,13,13,14,14,15,15,16,16,18,18,19,19,20,20,21,21,22,22,23,23,24,24,25,25,26,26],"right_children":[2,4,-1,6,8,10,-1,12,14,16,18,20,22,24,26,28,30,-1,32,34,36,38,40,42,44,46,48,-1,-1,-1,-1,-1,-1,-1,-1,-1,-1,-1,-1,-1,-1,-1,-1,-1,-1,-1,-1,-1,-1],"split_conditions":[5.230442E-1,-4.260534E-2,-1.9921474E-1,1.1563132E0,4.3285388E-1,1.477463E0,-1.8151942E-1,-5.9752185E-2,9.5826286E-1,6.8251854E-1,-6.1020855E-2,-1.0593891E0,-2.168514E-2,-7.756051E-4,1.2735996E0,-1.01873204E-1,8.54222E-2,-1.430873E-1,-8.890929E-2,-1.2541771E0,2.67025E-2,-1.0250049E-1,1.3861069E-2,-1.06149204E-1,1.2548294E0,4.7588833E-2,1.8749415E0,-6.5325916E-2,1.7826473E-2,-2.1844828E-1,-2.6899472E-2,1.8482137E-1,-3.1764068E-2,1.8425402E-1,7.029926E-2,1.6488041E-1,-1.7292705E-1,1.19098656E-1,1.7030905E-1,-5.8270365E-2,1.4613678E-1,-3.0959767E-1,1.0302907E-2,-3.2406527E-1,7.301976E-2,9.6038565E-2,1.9018309E-1,-3.2419132E-3,1.291558E-1],"split_indices":[4,9,0,2,2,1,0,0,1,2,9,2,6,6,2,6,0,0,6,2,9,6,6,6,9,9,1,0,0,0,0,0,0,0,0,0,0,0,0,0,0,0,0,0,0,0,0,0,0],"split_type":[0,0,0,0,0,0,0,0,0,0,0,0,0,0,0,0,0,0,0,0,0,0,0,0,0,0,0,0,0,0,0,0,0,0,0,0,0,0,0,0,0,0,0,0,0,0,0,0,0],"sum_hessian":[8.405423E2,7.3901575E2,1.0152656E2,2.69152E2,4.6986374E2,2.5738177E2,1.1770247E1,1.553693E2,3.1449448E2,2.346064E2,2.2775358E1,2.4897541E1,1.3047176E2,2.8708185E2,2.741261E1,2.1481413E2,1.9792274E1,2.1746058E0,2.0600754E1,1.2029833E1,1.2867708E1,1.171682E2,1.3303552E1,2.7277768E2,1.4304159E1,2.2971153E1,4.441457E0,6.1539238E1,1.5327489E2,1.5482436E1,4.3098392E0,1.6938995E1,3.6617575E0,9.286895E0,2.7429378E0,3.50002E0,9.367688E0,3.0658937E1,8.650926E1,4.354052E0,8.9495E0,3.1057966E0,2.696719E2,9.084016E0,5.220143E0,7.578309E0,1.5392843E1,2.7189329E0,1.7225239E0],"tree_param":{"num_deleted":"0","num_feature":"12","num_nodes":"49","size_leaf_vector":"1"}},{"base_weights":[-6.6217934E-3,1.1041497E-1,-1.9858228E-1,-2.666048E-1,1.7287463E-1,-7.786892E-1,-3.293449E-2,2.616295E-1,-1.6878347E-1,-2.3725334E-1,-1.4848983E-1,9.390299E-1,-4.106703E-1,-1.14411674E-1,3.2522374E-1,5.393779E-1,-2.7858198E-1,3.933029E-1,-8.4177136E-1,1.4782994E0,3.021165E-1,-2.1474242E-1,3.6697287E-2,3.4928498E-1,-3.7872878E-1,-2.4694424E-2,3.915593E-1,-3.829723E-1,2.1964422E-1,-1.6636235E-1,-9.7187614E-1,-1.9600305E-1,-1.7260991E-2,2.679335E-2,3.5018748E-1,-1.7296018E-1,1.5797463E-1,7.55614E-2,-1.9306116E-1,-3.0164966E-2,1.7256403E-1,-1.9827013E-1,-5.097318E-3,6.816494E-2,-1.3870169E-1,1.7231338E-1,5.362304E-2,-2.0702863E-1,1.2679753E-1,-1.07366644E-1,3.4065468E-3,5.0013926E-2,-2.1600692E-1],"categories":[],"categories_nodes":[],"categories_segments":[],"categories_sizes":[],"default_left":[0,0,0,0,0,0,0,0,0,0,0,0,0,0,0,0,0,0,0,0,0,0,0,0,0,0,0,0,0,0,0,0,0,0,0,0,0,0,0,0,0,0,0,0,0,0,0,0,0,0,0,0,0],"id":23,"left_children":[1,3,-1,5,7,9,11,13,15,-1,17,19,21,23,25,27,29,-1,31,33,35,-1,37,39,41,43,45,47,-1,49,51,-1,-1,-1,-1,-1,-1,-1,-1,-1,-1,-1,-1,-1,-1,-1,-1,-1,-1,-1,-1,-1,-1],"loss_changes":[9.180587E1,1.6789312E1,0E0,1.2112961E1,1.8558844E1,7.9768124E0,2.6343527E1,1.1636822E1,9.987193E0,0E0,2.1610538E1,6.454117E0,1.5348291E1,8.822477E0,9.646149E0,9.34963E0,8.411151E0,0E0,1.0590024E0,3.6588516E0,6.641496E0,0E0,1.1228367E1,6.875111E0,9.8516E0,1.6640009E1,2.0020744E1,5.4827504E0,0E0,6.534656E0,2.2716227E0,0E0,0E0,0E0,0E0,0E0,0E0,0E0,0E0,0E0,0E0,0E0,0E0,0E0,0E0,0E0,0E0,0E0,0E0,0E0,0E0,0E0,0E0],"parents":[2147483647,0,0,1,1,3,3,4,4,5,5,6,6,7,7,8,8,10,10,11,11,12,12,13,13,14,14,15,15,16,16,18,18,19,19,20,20,22,22,23,23,24,24,25,25,26,26,27,27,29,29,30,30],"right_children":[2,4,-1,6,8,10,12,14,16,-1,18,20,22,24,26,28,30,-1,32,34,36,-1,38,40,42,44,46,48,-1,50,52,-1,-1,-1,-1,-1,-1,-1,-1,-1,-1,-1,-1,-1,-1,-1,-1,-1,-1,-1,-1,-1,-1],"split_conditions":[5.230442E-1,-2.1902761E0,-1.9858228E-1,-7.9597974E-1,1.2169785E0,9.4451356E-1,-6.2840974E-1,-1.03755064E-1,-1.0552192E-1,-2.3725334E-1,1.0089035E0,-1.03755064E-1,5.398144E-1,-5.097496E-1,-6.233677E-1,2.1009629E0,1.3707607E0,3.933029E-1,-9.605949E-1,-1.0502009E-1,1.18116766E-1,-2.1474242E-1,-1.5317683E-1,-6.217072E-1,7.088801E-2,-8.8700897E-1,-5.181593E-1,3.2622256E0,2.1964422E-1,-9.810949E-2,-1.05312824E-1,-1.9600305E-1,-1.7260991E-2,2.679335E-2,3.5018748E-1,-1.7296018E-1,1.5797463E-1,7.55614E-2,-1.9306116E-1,-3.0164966E-2,1.7256403E-1,-1.9827013E-1,-5.097318E-3,6.816494E-2,-1.3870169E-1,1.7231338E-1,5.362304E-2,-2.0702863E-1,1.2679753E-1,-1.07366644E-1,3.4065468E-3,5.0013926E-2,-2.1600692E-1],"split_indices":[4,5,0,1,2,3,1,6,6,0,3,6,1,3,3,3,2,0,1,6,3,0,8,3,8,1,3,8,0,6,6,0,0,0,0,0,0,0,0,0,0,0,0,0,0,0,0,0,0,0,0,0,0],"split_type":[0,0,0,0,0,0,0,0,0,0,0,0,0,0,0,0,0,0,0,0,0,0,0,0,0,0,0,0,0,0,0,0,0,0,0,0,0,0,0,0,0,0,0,0,0,0,0,0,0,0,0,0,0],"sum_hessian":[7.9337354E2,7.100093E2,8.336427E1,1.00443375E2,6.095659E2,3.0741497E1,6.970188E1,4.840541E2,1.25511795E2,1.8132227E1,1.2609269E1,1.9091352E1,5.0610527E1,6.990392E1,4.1415018E2,1.632284E1,1.0918896E2,2.6594658E0,9.949803E0,9.622783E0,9.46857E0,1.982617E1,3.0784355E1,2.5263033E1,4.4640896E1,6.610037E1,3.480498E2,6.2772202E0,1.0045619E1,9.5044586E1,1.4144373E1,8.15946E0,1.790343E0,1.8739616E0,7.748821E0,2.5632317E0,6.9053383E0,2.3430805E1,7.3535495E0,1.3156645E1,1.2106388E1,1.5665702E1,2.8975191E1,4.3058514E1,2.304186E1,7.115418E1,2.7689563E2,3.8136609E0,2.4635594E0,3.0832859E1,6.421173E1,1.0434685E0,1.3100904E1],"tree_param":{"num_deleted":"0","num_feature":"12","num_nodes":"53","size_leaf_vector":"1"}},{"base_weights":[-7.800837E-3,9.2760146E-2,-1.9790028E-1,-4.6168976E-2,2.617092E-1,1.839351E-1,-1.6738103E-1,5.555358E-1,-5.0958116E-2,-3.1513718E-1,2.86578E-1,-7.0899343E-1,-8.547683E-2,7.6811403E-1,3.4329265E-1,2.5564281E-2,-1.067017E0,8.020971E-1,-2.134568E-1,-2.0485505E-2,5.366591E-1,-8.8642174E-1,1.7326835E-1,-2.8092405E-1,2.8714305E-1,8.3918804E-1,6.658312E-2,-8.109951E-1,3.9042503E-1,-3.0956113E-1,1.9095774E-1,-1.2774525E0,7.3325895E-2,-1.5505895E-1,2.7507672E-1,4.980719E-2,-3.0540827E-1,2.8826252E-2,1.3056521E-1,3.219701E-2,-2.039392E-1,-9.7844444E-2,1.0270263E-1,-1.8985258E-1,-3.1888273E-2,3.7313154E-1,4.7454987E-2,5.8923806E-3,1.701959E-1,-4.1180822E-1,1.7205043E-1,-3.4386867E-1,1.09570816E-1,1.8739079E-1,6.1285675E-2,-1.2663022E-1,5.8932822E-2,1.1927849E-1,9.701594E-3,-2.8800413E-1,-5.0619473E-3],"categories":[],"categories_nodes":[],"categories_segments":[],"categories_sizes":[],"default_left":[0,0,0,0,0,0,0,0,0,0,0,0,0,0,0,0,0,0,0,0,0,0,0,0,0,0,0,0,0,0,0,0,0,0,0,0,0,0,0,0,0,0,0,0,0,0,0,0,0,0,0,0,0,0,0,0,0,0,0,0,0],"id":24,"left_children":[1,3,-1,5,7,9,11,13,15,17,19,21,23,25,27,29,31,33,-1,35,37,39,41,43,45,47,49,51,53,55,57,59,-1,-1,-1,-1,-1,-1,-1,-1,-1,-1,-1,-1,-1,-1,-1,-1,-1,-1,-1,-1,-1,-1,-1,-1,-1,-1,-1,-1,-1],"loss_changes":[7.380752E1,1.5931725E1,0E0,1.0435307E1,2.8159298E1,6.7078524E0,1.0801213E1,6.8623924E0,1.1632588E1,1.9774073E1,8.279051E0,5.166979E0,1.5653204E1,3.838276E0,4.71476E0,7.8070307E0,3.6292925E0,9.77376E0,0E0,2.0395336E1,2.6134586E0,3.9091072E0,1.648496E0,1.1277531E1,5.3874125E0,6.51207E-1,1.5724618E1,5.257617E0,3.3094482E0,9.292479E0,5.412204E0,1.8687315E0,0E0,0E0,0E0,0E0,0E0,0E0,0E0,0E0,0E0,0E0,0E0,0E0,0E0,0E0,0E0,0E0,0E0,0E0,0E0,0E0,0E0,0E0,0E0,0E0,0E0,0E0,0E0,0E0,0E0],"parents":[2147483647,0,0,1,1,3,3,4,4,5,5,6,6,7,7,8,8,9,9,10,10,11,11,12,12,13,13,14,14,15,15,16,16,17,17,19,19,20,20,21,21,22,22,23,23,24,24,25,25,26,26,27,27,28,28,29,29,30,30,31,31],"right_children":[2,4,-1,6,8,10,12,14,16,18,20,22,24,26,28,30,32,34,-1,36,38,40,42,44,46,48,50,52,54,56,58,60,-1,-1,-1,-1,-1,-1,-1,-1,-1,-1,-1,-1,-1,-1,-1,-1,-1,-1,-1,-1,-1,-1,-1,-1,-1,-1,-1,-1,-1],"split_conditions":[5.230442E-1,1.2158998E-1,-1.9790028E-1,-1.0053983E0,1.0956792E0,-2.1902761E0,-6.1020855E-2,4.9448225E-1,-2.7958E-2,-1.03755064E-1,-6.1020855E-2,3.5203594E-1,5.398144E-1,2.906799E0,-1.05438285E-1,-1.2512287E0,3.044209E0,-7.1934366E-1,-2.134568E-1,-1.5323207E0,-1.7006656E0,-9.2325914E-1,-1.045905E0,-1.03755064E-1,-8.21282E-2,-1.3080311E0,4.8781484E-1,-1.0625857E0,2.0214921E-1,2.3075097E0,-1.2199566E0,1.7754728E-2,7.3325895E-2,-1.5505895E-1,2.7507672E-1,4.980719E-2,-3.0540827E-1,2.8826252E-2,1.3056521E-1,3.219701E-2,-2.039392E-1,-9.7844444E-2,1.0270263E-1,-1.8985258E-1,-3.1888273E-2,3.7313154E-1,4.7454987E-2,5.8923806E-3,1.701959E-1,-4.1180822E-1,1.7205043E-1,-3.4386867E-1,1.09570816E-1,1.8739079E-1,6.1285675E-2,-1.2663022E-1,5.8932822E-2,1.1927849E-1,9.701594E-3,-2.8800413E-1,-5.0619473E-3],"split_indices":[4,9,0,2,2,5,9,2,6,6,9,8,1,8,6,1,9,1,0,2,2,2,1,6,2,1,9,1,9,9,1,1,0,0,0,0,0,0,0,0,0,0,0,0,0,0,0,0,0,0,0,0,0,0,0,0,0,0,0,0,0],"split_type":[0,0,0,0,0,0,0,0,0,0,0,0,0,0,0,0,0,0,0,0,0,0,0,0,0,0,0,0,0,0,0,0,0,0,0,0,0,0,0,0,0,0,0,0,0,0,0,0,0,0,0,0,0,0,0,0,0,0,0,0,0],"sum_hessian":[7.4570935E2,6.7724133E2,6.846803E1,3.72037E2,3.0520435E2,1.2818268E2,2.438543E2,1.569423E2,1.4826204E2,2.1512749E1,1.0666993E2,3.1026606E1,2.1282768E2,7.710078E1,7.984154E1,1.3878459E2,9.477439E0,8.628949E0,1.28838E1,4.8292183E1,5.837775E1,2.5827766E1,5.19884E0,1.3976434E2,7.306335E1,6.9829895E1,7.27088E0,2.496426E0,7.7345116E1,4.5572502E1,9.32121E1,8.35937E0,1.1180685E0,2.2062113E0,6.422738E0,4.167183E1,6.6203537E0,1.3843003E1,4.4534748E1,2.8919442E0,2.2935822E1,1.615482E0,3.5833583E0,2.0449133E1,1.1931521E2,1.1224279E0,7.194092E1,1.0525005E0,6.877739E1,1.5432847E0,5.727596E0,1.3372335E0,1.1591926E0,8.950904E0,6.839421E1,2.964721E1,1.5925293E1,2.3406574E1,6.980552E1,7.2659707E0,1.0933999E0],"tree_param":{"num_deleted":"0","num_feature":"12","num_nodes":"61","size_leaf_vector":"1"}},{"base_weights":[-7.943007E-3,7.8392506E-2,-1.9714421E-1,-2.605413E-2,2.5983325E-1,1.00275606E-1,-2.1229663E-1,6.706167E-1,2.7837023E-2,-9.7702324E-2,4.0589452E-1,2.7227005E-1,-3.9316463E-1,7.4886304E-1,3.825191E-1,4.613953E-1,-9.896387E-2,2.6325881E-3,-9.969074E-1,-9.998601E-1,5.011563E-1,5.989665E-3,8.246578E-1,-7.848888E-1,-8.539118E-2,8.4282315E-1,4.590859E-1,-2.9296038E-1,6.3980997E-1,-3.3980113E-2,9.279503E-1,-4.579771E-1,1.5302998E-1,-1.9108495E-2,1.2258907E-1,-2.4512695E-1,6.0786307E-2,-2.9052395E-1,1.4854363E-2,1.3164225E-1,3.9246794E-2,4.7803078E-2,-2.0337188E-1,1.7891473E-1,-1.3750853E-2,-3.5244206E-1,-5.2443545E-2,8.263607E-3,-2.5250772E-1,1.7455573E-1,7.7607E-2,-1.9927111E-1,1.4605772E-1,-1.8449664E-1,1.5706436E-1,-1.8810588E-1,1.4184684E-1,-1.138312E-1,2.1887426E-1,-3.565945E-2,-2.5161752E-1,1.04393415E-1,-1.13814846E-1],"categories":[],"categories_nodes":[],"categories_segments":[],"categories_sizes":[],"default_left":[0,0,0,0,0,0,0,0,0,0,0,0,0,0,0,0,0,0,0,0,0,0,0,0,0,0,0,0,0,0,0,0,0,0,0,0,0,0,0,0,0,0,0,0,0,0,0,0,0,0,0,0,0,0,0,0,0,0,0,0,0,0,0],"id":25,"left_children":[1,3,-1,5,7,9,11,13,15,17,19,21,23,25,27,29,31,33,35,37,39,41,43,45,47,49,51,-1,53,55,57,59,61,-1,-1,-1,-1,-1,-1,-1,-1,-1,-1,-1,-1,-1,-1,-1,-1,-1,-1,-1,-1,-1,-1,-1,-1,-1,-1,-1,-1,-1,-1],"loss_changes":[5.9571747E1,1.2296695E1,0E0,9.726436E0,2.2569466E1,1.4951853E1,1.4746443E1,1.6410179E0,8.430372E0,1.3569715E1,1.350204E1,6.759981E0,1.4646814E1,1.4154549E0,1.0588926E1,8.048833E0,1.0820358E1,8.223976E0,4.864564E0,3.2667003E0,4.2569733E0,7.8797197E0,9.9545956E-1,2.6905521E1,1.0413599E1,3.2604218E-1,7.9924726E0,0E0,4.93467E0,1.2652905E1,5.082513E0,1.0798383E1,1.909769E1,0E0,0E0,0E0,0E0,0E0,0E0,0E0,0E0,0E0,0E0,0E0,0E0,0E0,0E0,0E0,0E0,0E0,0E0,0E0,0E0,0E0,0E0,0E0,0E0,0E0,0E0,0E0,0E0,0E0,0E0],"parents":[2147483647,0,0,1,1,3,3,4,4,5,5,6,6,7,7,8,8,9,9,10,10,11,11,12,12,13,13,14,14,15,15,16,16,17,17,18,18,19,19,20,20,21,21,22,22,23,23,24,24,25,25,26,26,28,28,29,29,30,30,31,31,32,32],"right_children":[2,4,-1,6,8,10,12,14,16,18,20,22,24,26,28,30,32,34,36,38,40,42,44,46,48,50,52,-1,54,56,58,60,62,-1,-1,-1,-1,-1,-1,-1,-1,-1,-1,-1,-1,-1,-1,-1,-1,-1,-1,-1,-1,-1,-1,-1,-1,-1,-1,-1,-1,-1,-1],"split_conditions":[5.230442E-1,2.2688009E-1,-1.9714421E-1,4.0733588E-1,9.369547E-1,-8.532156E-2,-5.540945E-1,1.48776E0,4.3339506E-1,